-1.007168594456165215e-11 -3.520358665635895614e-12 -1.425437023773169672e-11 2.784641484792932404e-11
-4.471817231978281275e-12 1.554495413371069569e-13 -4.587594938514247292e-12 8.903962629155408307e-12
-3.372844920833517518e-12 6.080508446741084709e-12 -6.896920562805976836e-12 4.189257036898380565e-12
-6.216574450582817989e-12 7.231068779561740634e-12 -5.617020796013701808e-12 4.602526467034754122e-12
-2.677856373434150321e-12 -9.488459463751207444e-12 -2.953454113469175023e-12 1.511976995065450330e-11
1.062375638557126068e-11 -1.550055825634300081e-12 1.344954286933885475e-11 -2.252324342927580404e-11
-6.552896042201681487e-13 -7.127084504117518825e-13 -7.597033466175164039e-13 2.127701401249437647e-12
3.650953479815503824e-13 -5.375275777995629012e-12 -3.887234552913170566e-12 8.897414982927268633e-12
-4.105640263935720600e-14 -4.002897502087798877e-14 -3.493361242556495184e-14 1.160189900858001340e-13
7.607226830595642053e-12 1.959707382172469951e-13 3.934762834957159262e-12 -1.173796040377004531e-11
-6.152988938030235506e-13 -6.668867142986348922e-13 -7.410252512191996079e-13 2.023210859320857647e-12
-1.797831569704387421e-13 -2.003568730642175618e-13 -1.645227028891083347e-13 5.446627329237642095e-13
-9.877749219545319513e-14 -1.766655396517635898e-13 -1.846252529834719449e-13 4.600682848306894745e-13
-2.070933615402732378e-13 -2.283851304662368940e-13 -1.655935584634994605e-13 6.010720504700094913e-13
-1.550737566313269929e-13 -2.780156096231929585e-13 -2.266262642504067977e-13 6.597156305049269006e-13
-3.999071041714428258e-14 -4.582173611311724902e-14 -1.867809539831641106e-14 1.044905419285779427e-13
-3.280071870464738691e-13 -1.582191316849134409e-13 -1.409982919913161278e-13 6.272246107227033620e-13
-7.693576285603218812e-14 -1.050811903913338698e-13 -4.601071776256601419e-14 2.280276710099319080e-13
-1.463753762939247546e-13 1.803752854981097919e-13 -1.705104981105001986e-13 1.365105889063150856e-13
-1.038708339548081954e-14 -8.912879335652616647e-15 -1.054253553621764027e-14 2.984249826735107646e-14
-1.408767952814609759e-12 -7.708265821151092505e-13 -2.890793625692642989e-14 2.208502471186643199e-12
1.067260291308804832e-12 -4.977213088998568662e-12 -2.985477764491466646e-12 6.895430562181249661e-12
0.000000000000000000e+00 0.000000000000000000e+00 0.000000000000000000e+00 0.000000000000000000e+00
-1.358777668657949761e-12 3.757389705978179524e-12 -1.352135499849590211e-12 -1.046476537470638946e-12
-8.401106567494265436e-14 -6.810277889554289450e-14 -6.898410709174654161e-14 2.210979516622322041e-13
-2.698242749850758113e-13 4.237049737389676962e-13 -2.410148936030850166e-13 8.713419484919328312e-14
-4.802294324484104879e-15 -4.199378404883817654e-15 3.490009089467243824e-15 5.511663639900678709e-15
-2.456699228940993461e-13 -3.469918844777704218e-13 -1.167256526928772314e-13 7.093874600647470751e-13
1.139166117960872950e-11 -4.524210022755520310e-12 -1.816034172528074616e-12 -5.051416984325107714e-12
-5.745120556789841754e-14 -3.884459674819536624e-14 -5.655640880189580052e-14 1.528522111179895969e-13
-5.867113269703202010e-14 -5.294784679010444094e-14 -4.596932716827455134e-14 1.575883066554108357e-13
-2.257494953827360440e-13 -1.764212765739189944e-13 -2.083455902712149630e-13 6.105163622278691179e-13
-8.520327873052943956e-12 1.144642791893188072e-11 1.397416984884766100e-12 -4.323517030763693977e-12
-2.364429870880723128e-12 6.289142117590194442e-12 -5.857469275833000025e-12 1.932757029123521036e-12
-1.083208500770672149e-13 -8.733770056864131557e-14 -6.749270522954270544e-14 2.631512558752515515e-13
1.485820168540788858e-12 -6.398018765955797352e-12 -1.023389588687739583e-12 5.935588186102760193e-12
4.625896631747029332e-14 -3.021388876800652408e-13 -2.266156902896966882e-13 4.824956116522909352e-13
-7.251142832597732034e-13 -8.109965755558783161e-13 5.725450661861278417e-13 9.635657926295233749e-13
-2.075005821012527464e-12 1.399310089083824966e-12 -3.908247141000269688e-12 4.583942872928978043e-12
-3.622606528835288809e-13 3.611944926033411392e-14 -3.954741798515515337e-13 7.216153834747476638e-13
-1.505815708215014685e-12 1.837021633237619000e-12 -1.043192727716965274e-12 7.119868026943602521e-13
-7.661041466919558979e-15 -8.282149911453182669e-15 -7.805082915401375267e-15 2.374827429377412165e-14
-2.525734533410061478e-13 3.763010575246093165e-13 -2.118253786701202781e-13 8.809777448651733660e-14
-3.379666140408870662e-13 -3.043771312652560110e-13 -2.531692962381164361e-13 8.955130415442590084e-13
-8.111951871012949214e-14 -6.092885142262462914e-14 -3.630584371154382999e-14 1.783542138442978188e-13
3.845646648660801113e-13 -6.426515698375191808e-12 9.857028061175611287e-12 -3.815077027666499338e-12
-2.393684164462552075e-13 -2.241728761652679956e-12 7.636916084936649273e-14 2.404728017249566526e-12
-6.334521702623123740e-13 1.597563447730178971e-13 -2.451931316477645483e-13 7.188889571370582932e-13
-4.513022115942456812e-13 -3.483583209063007527e-13 -4.242894755385301241e-13 1.223950008039075801e-12
-2.472029440847158578e-13 -4.338352877407892805e-13 -3.078269070660047313e-13 9.888651388915088599e-13
-4.512788628907781018e-15 -2.383796766802717555e-16 -4.272494527073658255e-15 9.023662832661712015e-15
0.000000000000000000e+00 0.000000000000000000e+00 0.000000000000000000e+00 0.000000000000000000e+00
-3.582434442031699848e-13 -1.718933112638582244e-13 -2.176084502514564263e-13 7.477452057184853423e-13
-1.550541382038901814e-13 -1.528496164255470833e-13 -1.133814887151017439e-13 4.212852433445386679e-13
-4.163676541974931505e-12 -3.090440697795404438e-12 -1.930064524781434229e-12 9.184181764551770575e-12
-2.170083484236948151e-13 3.077483824953899843e-13 -1.914033361102220463e-13 1.006633020385263722e-13
-2.820544435032110734e-13 -7.452432809316526589e-14 -8.918564100803832107e-14 4.457644126044147235e-13
-3.948996730800829534e-14 -1.212984630179025517e-13 -1.718384116433027320e-13 3.326268419692138945e-13
-4.639487281287315317e-13 -3.472212905869916937e-13 -2.078085868514772908e-13 1.018978605567202965e-12
-2.743887317008185631e-13 2.392595369272928574e-13 -2.557095540413728590e-13 2.908387488148982112e-13
-2.330920784849063829e-12 5.879596315611355056e-12 -3.900179408926959126e-12 3.515038781646528533e-13
-4.300567204265904281e-14 -4.257564659318678637e-14 -6.127124783534465079e-14 1.468525664711905115e-13
-2.966637836190824208e-15 -1.995841978853335694e-16 -2.290472946264001871e-15 5.456694980340159797e-15
-8.734513821009859811e-08 1.041329934942398845e-07 6.269675570948210908e-09 -2.305753085508865027e-08
-1.490484287370213426e-09 -3.766802930621024336e-09 9.154674342698517604e-09 -3.897387124707248202e-09
-1.304981149561250576e-12 3.652906948883081898e-12 -1.306040251913583089e-12 -1.041885547408247829e-12
0.000000000000000000e+00 0.000000000000000000e+00 0.000000000000000000e+00 0.000000000000000000e+00
-1.947821928800877724e-13 -1.756591530409037789e-12 -1.184541790546002831e-13 2.069827902343715570e-12
-1.550737566313269929e-13 -2.780156096231929585e-13 -2.266262642504067977e-13 6.597156305049269006e-13
-9.877749219545319513e-14 -1.766655396517635898e-13 -1.846252529834719449e-13 4.600682848306894745e-13
7.796099159853201312e-14 4.120239174038967235e-13 1.909698070115077552e-12 -2.399682979117507816e-12
-7.366135508545199522e-15 -6.143409062816829359e-15 -7.415740085957136831e-15 2.092528465731916256e-14
3.925500557451700774e-14 -4.483726627442777178e-14 3.427656146356459492e-14 -2.869430076365383088e-14
-5.276797153917501040e-14 5.351241858100581086e-14 -7.014245393571878380e-14 6.939800689388802121e-14
1.214887046503234112e-12 -1.501219540336464798e-12 1.761189754929052088e-12 -1.474857261095830288e-12
1.680085123276215760e-12 -3.317574314429174853e-13 -5.869182290716446723e-13 -7.614094627616547131e-13
1.558429239850068607e-12 -4.311384988211818102e-13 -3.846786031008629607e-13 -7.426121379280233814e-13
-3.602591480558036657e-14 -4.065047531711602420e-14 4.386687470252160922e-15 7.228970265244421486e-14
4.779601588403456781e-13 -1.127988722812186236e-12 -8.416235654621811699e-13 1.491652129434019506e-12
8.800280951333437736e-15 -7.232151666409427293e-15 -3.544234942737396945e-15 1.976105657813386503e-15
-4.219971326306160167e-16 -1.786357551700171550e-14 6.721368620161217975e-15 1.156420402947111660e-14
-2.344208079785011606e-13 -6.037302609429902876e-14 -1.226337282044793744e-13 4.174275622772794753e-13
-4.150292855112400488e-14 -5.084952995799563240e-14 -4.719742467944009178e-14 1.395498831885597417e-13
-2.820544435032110734e-13 -7.452432809316526589e-14 -8.918564100803832107e-14 4.457644126044147235e-13
-3.999071041714428258e-14 -4.582173611311724902e-14 -1.867809539831641106e-14 1.044905419285779427e-13
-6.157128962416811495e-14 -5.623918653151626806e-14 -4.894874429031193405e-14 1.667592204459961845e-13
-7.920945108841424473e-14 2.046968625919861179e-14 -1.097492533180468700e-13 1.684890181472622411e-13
0.000000000000000000e+00 0.000000000000000000e+00 0.000000000000000000e+00 0.000000000000000000e+00
-4.512788628907781018e-15 -2.383796766802717555e-16 -4.272494527073658255e-15 9.023662832661712015e-15
3.183790772446562466e-13 -8.288780453008859790e-13 7.354845119285209805e-13 -2.249855438722914500e-13
-7.693576285603218812e-14 -1.050811903913338698e-13 -4.601071776256601419e-14 2.280276710099319080e-13
-5.261007953449401360e-14 -4.004877047225457006e-14 -5.373509953408328004e-14 1.463939495408316870e-13
-1.947264443350084291e-13 -2.666025344910888656e-13 1.096483561875662310e-13 3.516806226385316569e-13
-1.298708388241342655e-13 -1.335069494825458536e-13 -8.875639570432461826e-14 3.521341840110047121e-13
-1.166648081050898510e-13 -1.058851195837464754e-12 -6.681827493249572674e-13 1.843698753267512049e-12
1.487694391865990833e-14 -2.571717218000282821e-14 -1.511343759027653928e-14 2.595366585161946863e-14
0.000000000000000000e+00 0.000000000000000000e+00 0.000000000000000000e+00 0.000000000000000000e+00
-1.801244642539165771e-14 -3.881812032943710170e-14 -1.135078724927433681e-14 6.818135400410316406e-14
-6.980989500291056498e-15 -5.533595831369321117e-15 -7.126072689545212770e-15 1.964065802120559433e-14
1.592920518182379516e-14 -2.692237855281381609e-14 -3.432589492726917460e-14 4.531906829825921446e-14
0.000000000000000000e+00 0.000000000000000000e+00 0.000000000000000000e+00 0.000000000000000000e+00
-1.725281777649298105e-13 -2.689973474077828705e-13 -2.773551154876197085e-13 7.188806406603314049e-13
-7.467476631978566868e-14 -1.648379403330060819e-13 -3.047179157838519955e-14 2.699844982311771521e-13
-8.724582403453177287e-13 -3.258627030077455652e-13 1.985767202595229420e-12 -7.874462592421624914e-13
6.010930477572033283e-13 -8.008868700464153174e-13 -5.627981525539938801e-13 7.625919748432041526e-13
-2.518745598299512783e-13 9.795795220905294503e-14 -1.898004544860766680e-13 3.437170621069752538e-13
-3.125010654083733837e-13 -3.632272353289050228e-13 3.591444686898192048e-13 3.165838320474592017e-13
-1.872952827982237864e-13 5.058958095014347504e-14 1.931291009129220093e-13 -5.642339906484143296e-14
-5.807509252513776366e-13 9.791287320321717321e-14 -4.241936492739196189e-13 9.070317013220798804e-13
-2.153471888783147406e-13 3.094135600567041363e-13 -1.896326889975096836e-13 9.556631781911979569e-14
-1.661159545380056658e-15 -1.665177561314136578e-15 -1.770647112712388981e-15 5.096984219406582020e-15
-3.117664196516371756e-14 -8.230818920791731352e-14 -9.592447204742754128e-14 2.094093032205086292e-13
-3.289707549521516430e-14 -1.686713190842282044e-13 -2.047257974621729629e-14 2.220409743256606586e-13
-4.639487281287315317e-13 -3.472212905869916937e-13 -2.078085868514772908e-13 1.018978605567202965e-12
-3.375380493232148267e-13 -1.217868954082084563e-12 2.774533083876315362e-13 1.277953695017667551e-12
-2.915337841642616372e-13 -4.723782143206045663e-13 -1.577836586088930262e-13 9.216956570937582705e-13
-2.194225006579664570e-14 -1.743173111372079534e-14 -2.357232617251345923e-14 6.294630735203087187e-14
-1.463753762939247546e-13 1.803752854981097919e-13 -1.705104981105001986e-13 1.365105889063150856e-13
1.497790755700764245e-12 -4.604685734664178892e-13 -2.063505473245097932e-13 -8.309716349098378758e-13
-3.366067971970424912e-14 -1.178364098958537334e-13 -1.662829566974768823e-13 3.177800463130351930e-13
-5.829287588304059638e-15 -3.462053122048747650e-15 -5.555454945825881235e-15 1.484679565617868892e-14
0.000000000000000000e+00 0.000000000000000000e+00 0.000000000000000000e+00 0.000000000000000000e+00
3.716356058952215288e-14 -3.296284501452639206e-14 1.256802395189698440e-14 -1.676873952689275153e-14
-4.516233292413075006e-13 1.863152729060641492e-12 -1.371093351452436948e-12 -4.043604836689648779e-14
-3.035856186394402400e-13 -5.462497215948458424e-13 -4.081202335457619027e-13 1.257955573780048843e-12
-5.360309118641442948e-13 -7.592066514919711286e-13 1.221441827679457559e-13 1.173093380588168809e-12
4.426728267782506423e-13 -7.749142834671927555e-14 -1.865706622080762139e-13 -1.786107362234550897e-13
0.000000000000000000e+00 0.000000000000000000e+00 0.000000000000000000e+00 0.000000000000000000e+00
1.101132274890071488e-12 -2.215049992152371060e-13 2.095432795761870146e-13 -1.089170555251020084e-12
4.240153819720406799e-13 4.494130769162119108e-13 -3.175629604325085632e-13 -5.558654984557421090e-13
5.275021804343027496e-13 -7.194106728957199190e-13 -3.116298210756257161e-13 5.035383135370440972e-13
-2.520153217500331195e-13 -2.247127780049689159e-13 -8.272719111560197320e-14 5.594552908706043115e-13
1.521015231447067594e-15 -2.078600452025155593e-13 -1.726977917512731965e-13 3.790368217223416587e-13
4.178480796921214212e-12 -9.090441660228125968e-13 -1.536669763873087726e-12 -1.732766867025315404e-12
1.298662640192277306e-13 -5.381092571602438450e-14 -3.205425330681807507e-14 -4.400108499638522690e-14
0.000000000000000000e+00 0.000000000000000000e+00 0.000000000000000000e+00 0.000000000000000000e+00
2.156380860941496408e-14 -1.635435991135440064e-12 9.095077907744249127e-13 7.043643917516036867e-13
-5.745120556789841754e-14 -3.884459674819536624e-14 -5.655640880189580052e-14 1.528522111179895969e-13
4.658044371950146421e-13 -2.801979418897733740e-13 1.000768333893409362e-12 -1.186374829198655376e-12
-4.802294324484104879e-15 -4.199378404883817654e-15 3.490009089467243824e-15 5.511663639900678709e-15
-1.628671392611812011e-13 -2.862098235970925926e-13 -1.411014920571140430e-13 5.901784549153879377e-13
3.004631777164618932e-14 -6.429097015857092353e-13 7.610053916642364914e-13 -1.481420078501736600e-13
1.435968935556337790e-12 -2.590019007185298870e-12 1.225563452494950860e-12 -7.151338086599087784e-14
1.003056784373092830e-12 -5.302497117238891297e-13 -3.800177605468984892e-13 -9.278931210230465621e-14
-4.973145729698251179e-15 -2.124550294687566651e-12 1.204576281164475640e-12 9.249471592527944525e-13
-3.406093895189759094e-15 -3.379283504283296319e-15 -3.416462846672425927e-15 1.020184024614548055e-14
-3.229047273733525999e-13 -2.890164264318810641e-13 -2.307212076495268309e-13 8.426423614547609492e-13
-4.030909653470437282e-14 -3.784936752432192081e-14 -2.245365158415157658e-14 1.006121156431778134e-13
-7.661041466919558979e-15 -8.282149911453182669e-15 -7.805082915401375267e-15 2.374827429377412165e-14
-4.105640263935720600e-14 -4.002897502087798877e-14 -3.493361242556495184e-14 1.160189900858001340e-13
-5.520482124760516809e-13 -5.477124356417898360e-13 -5.414412173271969003e-13 1.641201865445041244e-12
8.491613482380924316e-13 -7.401380317370326650e-13 1.279592213030535256e-13 -2.369825378041134436e-13
-3.421068592821689670e-13 -6.125634196538512500e-13 -2.763258686285177764e-13 1.230996147564539457e-12
2.580533142984626509e-13 -3.765883993542610298e-13 7.553460514192773930e-13 -6.368109663634790646e-13
-4.966073255615475805e-14 -3.259533590507335980e-13 -2.122859267616648294e-13 5.879000183685541826e-13
-1.549431813986931245e-13 -6.610838227363171924e-13 -5.378513015351759478e-13 1.353878305670183867e-12
2.570939796791259507e-13 1.048249828449197349e-12 8.877920040132553010e-13 -2.193135812141578045e-12
7.219494102327638090e-13 1.106572145925731615e-12 1.442247673014396469e-12 -3.270769229172884017e-12
1.430080398132655044e-12 2.304171616376110177e-13 -3.367580084596782751e-14 -1.626821758924293836e-12
1.550600746207989709e-13 -6.039346340263915940e-14 -4.441472033701983098e-14 -5.025189088113999948e-14
1.653697130674126209e-13 3.954679172408148191e-13 -3.823886678708094353e-13 -1.784489624374176765e-13
-3.419183860980492222e-13 6.321345590936232460e-13 -8.740947303887145897e-14 -2.028066999567018453e-13
1.506652691531927140e-13 9.034722711522890174e-14 2.514551591811472179e-13 -4.924676554495684424e-13
1.045342407420292790e-12 -4.479889624314971864e-13 -5.094316211348499642e-13 -8.792182385394499617e-14
-2.366038899002791821e-12 3.379146774939652925e-12 -4.619610299517359615e-13 -5.511468459851069665e-13
-2.734933420558473086e-13 -2.515767193402618260e-13 7.297527859221019786e-13 -2.046827245259941314e-13
8.522164051550273616e-13 -1.484582185642998328e-13 2.312201300608905830e-13 -9.349783166516135932e-13
2.280506170320014807e-13 -8.246649371240997914e-13 -6.097645991841904942e-14 6.575907800105173853e-13
8.151319771402712362e-15 7.864574889956247676e-13 -6.225904796743397301e-13 -1.720183290926898940e-13
4.211784192770318110e-14 -1.682663038382821340e-13 -9.415696418931468057e-14 2.203054260998936714e-13
-1.165944456953619222e-12 4.452843504146131586e-14 1.184177242972336056e-12 -6.276122106017868021e-14
-4.863300371050540036e-13 -4.318349955497746630e-13 -4.002477313307041702e-13 1.318412763985530565e-12
-1.829151219743826237e-12 1.907717073123093062e-12 -9.523067270278632974e-13 8.737408736485969772e-13
-1.848568100017205694e-14 -2.051192087470148555e-13 -3.470547981344325409e-14 2.583103695606303337e-13
7.664667724251964976e-13 8.716843661591822217e-14 -5.300961527113684294e-13 -3.235390563297455962e-13
-8.401106567494265436e-14 -6.810277889554289450e-14 -6.898410709174654161e-14 2.210979516622322041e-13
1.245387300011063807e-12 2.610847693931676720e-13 -8.538726554293182829e-13 -6.525994139749099147e-13
-7.900411418843152703e-14 8.399802402176344085e-13 -4.786038544485055430e-13 -2.823722715806967073e-13
-1.160524375164555110e-12 -1.342986898251316904e-12 3.450388423020472887e-12 -9.468771496045990550e-13
1.306334783665699929e-13 -1.090904037862072802e-13 -1.198812826272194677e-13 9.833820804685675503e-14
-3.066492494935531489e-14 -1.368798945753203947e-14 2.640510315280093987e-14 1.794781125408640660e-14
-2.702810908845017234e-13 -3.560321239283290659e-13 1.100749400955890185e-12 -4.744361861430595475e-13
0.000000000000000000e+00 0.000000000000000000e+00 0.000000000000000000e+00 0.000000000000000000e+00
-1.995740737384944910e-12 3.923469194553418336e-12 -7.497494612472884320e-14 -1.852753511043744659e-12
-3.792696126149797581e-12 5.672393343825846502e-12 -1.535041748047235076e-12 -3.446554696288168242e-13
1.721272073561874151e-14 -1.179228280001389023e-13 9.898884578716817629e-14 1.721261477351969086e-15
-2.471883412729716917e-13 -3.635934737909898635e-13 1.049310451359445645e-12 -4.385286362954854025e-13
-2.643808350604504619e-13 -2.627106640383984849e-14 -7.197703784807653760e-14 3.626289393123670941e-13
-2.743887317008185631e-13 2.392595369272928574e-13 -2.557095540413728590e-13 2.908387488148982112e-13
-1.178808079205669242e-14 -1.069502052889690098e-13 -9.813283117311283304e-14 2.168711172541384280e-13
-5.867113269703202010e-14 -5.294784679010444094e-14 -4.596932716827455134e-14 1.575883066554108357e-13
1.389848786855304737e-13 -3.406521567017597137e-14 3.316949683553072305e-13 -4.366146313706618338e-13
-1.707956303719031155e-13 -2.266196050853895071e-12 1.089694673087947222e-12 1.347297008137840438e-12
-3.537982957317993292e-13 1.929493229514022330e-13 -1.971295102228060144e-13 3.579784830032036912e-13
-3.853098508785149499e-13 -3.987321056714535142e-13 -4.904376539108704147e-14 8.330857219410575124e-13
0.000000000000000000e+00 0.000000000000000000e+00 0.000000000000000000e+00 0.000000000000000000e+00
-1.797831569704387421e-13 -2.003568730642175618e-13 -1.645227028891083347e-13 5.446627329237642095e-13
-1.731394158482418789e-13 -1.363725061016646011e-13 -1.546104907371318849e-13 4.641224126870378601e-13
-2.525734533410061478e-13 3.763010575246093165e-13 -2.118253786701202781e-13 8.809777448651733660e-14
-9.724808696522900499e-14 -3.714671965453820351e-13 -2.307538305402895777e-13 6.994691140509007819e-13
-1.856173900136667298e-13 -1.962779646831178856e-13 -3.813075522698976686e-13 7.632029069666829151e-13
-6.929968707046792696e-14 -2.997398406385681067e-13 2.158327132017515939e-15 3.668812005770187425e-13
-1.163493669413299009e-13 -2.637273614870489503e-13 -1.399486339536858177e-13 5.200253623820640631e-13
-8.111951871012949214e-14 -6.092885142262462914e-14 -3.630584371154382999e-14 1.783542138442978188e-13
5.009693575941754292e-13 -5.582869255026182239e-13 6.534468930941962578e-13 -5.961293251857538670e-13
0.000000000000000000e+00 0.000000000000000000e+00 0.000000000000000000e+00 0.000000000000000000e+00
1.151669018000797435e-13 -8.290470736454032070e-13 3.755517076244251362e-13 3.383284642208986302e-13
-4.914692361797939198e-15 -3.161643113055255198e-15 -4.209332244553896493e-15 1.228566771940709010e-14
6.093571888235324572e-14 1.064229136276814779e-13 -8.563062361706404432e-13 6.889476036606070575e-13
-1.093313562389289746e-13 -9.907275509211919152e-14 -4.305118273611305065e-14 2.514552940671610401e-13
-1.742139597766640021e-13 -3.090897203362281169e-13 -1.303053901198626173e-13 6.136090702327543829e-13
2.277716402409880909e-12 -1.344171251666422120e-13 -1.671518746598641415e-12 -4.717805306445966261e-13
2.435704439025018592e-14 -7.940001316272910100e-15 -2.095233677298352773e-14 4.535293699006248751e-15
1.116167625408180837e-12 -6.157332713658621674e-13 -6.533363137664606857e-13 1.529019597241433540e-13
3.439098825432428442e-13 -3.304647389677823640e-13 -2.416343922773714896e-13 2.281892487019106561e-13
-1.992523019811776134e-13 -2.929807114067195011e-13 -6.531889576888328338e-14 5.575519091567808018e-13
-4.513022115942456812e-13 -3.483583209063007527e-13 -4.242894755385301241e-13 1.223950008039075801e-12
0.000000000000000000e+00 0.000000000000000000e+00 0.000000000000000000e+00 0.000000000000000000e+00
1.499049976643999601e-13 -5.027967094529503192e-13 -1.136609338115133753e-13 4.665526456000629266e-13
-1.209097265282304331e-14 -2.938969679957144586e-14 -3.116919946737548048e-14 7.264986891976997123e-14
-2.966637836190824208e-15 -1.995841978853335694e-16 -2.290472946264001871e-15 5.456694980340159797e-15
-6.337195515652998563e-13 1.133002658070069183e-13 -2.897576816035944745e-14 5.493950539186522656e-13
-1.512873312281116255e-13 1.447214321379888198e-13 -1.303590025066550443e-13 1.369249015967777491e-13
-2.307330770043768401e-13 -3.150087546436717219e-13 -1.441214435381327072e-13 6.898632751861821022e-13
-3.032818616124705548e-13 -3.486965851348552251e-13 2.564517802324216876e-13 3.955266665149033855e-13
1.607613816962442790e-13 -3.888136090480853878e-13 4.473082857376434497e-13 -2.192560583858024420e-13
-7.210094801963488850e-13 1.540874909315404205e-12 -4.184976220006717010e-13 -4.013678071183853860e-13
-3.874438607635165333e-13 -4.906994534195674845e-13 -3.603627271826293384e-13 1.238506041365714164e-12
-3.199225869128786650e-13 -8.559810545532038215e-13 -4.847529351737893010e-13 1.660656576639873201e-12
-2.518329937975577391e-14 -1.934266694300114140e-14 -2.462509301077711616e-14 6.915105933353403147e-14
-1.344511529632314187e-13 -2.179500339441928511e-13 -1.270356959920807698e-13 4.794368828995051153e-13
0.000000000000000000e+00 0.000000000000000000e+00 0.000000000000000000e+00 0.000000000000000000e+00
-6.566900005748583168e-13 2.505615330287909391e-13 -1.054434116537509901e-12 1.460562584083579753e-12
0.000000000000000000e+00 0.000000000000000000e+00 0.000000000000000000e+00 0.000000000000000000e+00
4.772069276025187923e-14 -8.602947455583484638e-14 8.070907720846300677e-14 -4.240029541287993234e-14
-1.023852928750146593e-13 -8.303000036445878755e-14 -6.247292513611861319e-14 2.478882183755923251e-13
-5.935557202052550862e-15 -4.307700204182554846e-15 -5.019780093424052806e-15 1.526303749965916009e-14
-1.797303853614156596e-13 -1.213965108950587310e-12 -2.159123233837709884e-13 1.609607817695769212e-12
-1.748049328849202002e-13 -1.987165790566908027e-13 -8.327022339128726382e-14 4.567917353328981784e-13
-3.640824166906036789e-14 -6.142038577848179783e-14 -8.345444390425089864e-14 1.812830713517930076e-13
-9.333164941845214250e-14 -1.825094119465585250e-13 9.882780778103328202e-15 2.659582805869077337e-13
-1.307971349341989032e-12 5.301732140450958243e-13 -1.117494178487128207e-12 1.895292313784021617e-12
-1.483071406297422798e-12 3.649442381022519080e-12 -2.812510581774799076e-12 6.461396070496975430e-13
-9.197405034306023563e-14 -1.829584535340021909e-13 -1.047505594677229660e-13 3.796830633447861751e-13
-4.901262873737906666e-13 6.706873036518858794e-13 -8.170578484386763232e-13 6.364968321605812114e-13
-5.379651909669887637e-14 1.044827570950975000e-13 -4.609524793600713410e-14 -4.590990062391507633e-15
-3.280071870464738691e-13 -1.582191316849134409e-13 -1.409982919913161278e-13 6.272246107227033620e-13
0.000000000000000000e+00 0.000000000000000000e+00 0.000000000000000000e+00 0.000000000000000000e+00
-1.710674467346928081e-13 -1.877346551491209897e-13 -1.699802459337516301e-13 5.287823478175654784e-13
-2.303879324751368398e-13 4.832575296089752991e-14 -2.997846693898570003e-13 4.818468489040952563e-13
-7.074266029266343027e-14 -8.774895836636572550e-14 -7.221729393016175453e-14 2.307089125891907715e-13
-4.473081465451310648e-13 -2.076705593868879015e-13 -4.380541267487473542e-13 1.093032832680765639e-12
-6.753964252629382561e-14 2.133166628580569581e-13 -1.198966020796254917e-13 -2.588041825213752720e-14
-2.022846324587822381e-13 2.103883108809106876e-13 -1.211182915234593987e-13 1.130146131013308987e-13
-5.445668505571136547e-16 -5.632097725274604222e-16 -5.012579964513378627e-16 1.609034619535911940e-15
-1.086140023776102545e-12 2.184991171111597853e-12 -1.870732168157664654e-12 7.718810208221622777e-13
2.626699004281883410e-12 -8.865191151266391677e-13 -9.955493224688616043e-13 -7.446305666863781956e-13
-1.005308924526652630e-12 -6.378225460157771030e-13 3.805075007275435493e-13 1.262623969814887597e-12
-1.536292281461995137e-13 -1.360634223638541132e-12 7.051998001437088482e-13 8.090636516410358367e-13
0.000000000000000000e+00 0.000000000000000000e+00 0.000000000000000000e+00 0.000000000000000000e+00
-3.288349828605270454e-12 7.992846438388317842e-12 -2.879160931949578264e-12 -1.825335677833445698e-12
0.000000000000000000e+00 0.000000000000000000e+00 0.000000000000000000e+00 0.000000000000000000e+00
1.402940158358955100e-13 6.027695224443740197e-14 4.513852098620640480e-13 -6.519561779423965434e-13
-4.293855110849769375e-13 7.551257331044764242e-13 4.433493654489622043e-13 -7.690895874684606813e-13
-4.300567204265904281e-14 -4.257564659318678637e-14 -6.127124783534465079e-14 1.468525664711905115e-13
1.579553729091886138e-13 6.223382001666051237e-13 1.199006084850115316e-12 -1.979299657925906151e-12
-9.067105185303510108e-13 1.937207867611960393e-12 -6.658253827447394601e-13 -3.646719663368703769e-13
6.899417438345452332e-12 -5.509540038186234761e-12 -9.321709044197543812e-12 7.931831644038339166e-12
-8.292682846404225471e-12 -5.835352162524984456e-12 -1.219690336019011044e-11 2.632493836911939307e-11
-3.013177651252397741e-13 2.826073158752089680e-13 -2.323329212005065090e-13 2.510433704505373151e-13
-9.060093006164186816e-13 -1.948594699113588093e-12 2.943987970329972019e-13 2.560205202697018458e-12
9.617052598706229329e-12 -1.597286576793864543e-12 6.077694902409132562e-12 -1.409746092432145878e-11
-1.980840001988075963e-12 3.625082296473458290e-12 -2.380033908183932056e-12 7.357916136985481144e-13
-9.005591709540370567e-13 2.444147253679356182e-12 -7.946333981905423712e-13 -7.489546845347753400e-13
-6.724650032392964329e-13 6.982169210933088360e-13 -8.349554350972393661e-14 5.774362565571307336e-14
-4.326364160599610032e-13 8.249535620669217451e-13 -2.823786625200890583e-13 -1.099384834868716456e-13
-1.749367747646113740e-12 6.928410178134529098e-13 -7.796139154330755042e-13 1.836140645265743099e-12
-1.707434731827196353e-13 -1.277129326188623245e-12 3.753298565168584368e-13 1.072542942854485176e-12
-9.654334418723723330e-13 5.775393766705211592e-13 5.884758656048169436e-13 -2.005818004029654668e-13
1.178243890125291791e-11 -1.961850193014291585e-12 -4.162043932674522500e-12 -5.658544775564154716e-12
-6.275245337148143377e-12 -2.331605524804288016e-12 9.168292832387684062e-12 -5.614419704352426726e-13
6.281689765783316463e-12 -3.991349301345888239e-12 2.227099790582837065e-12 -4.517440255020255192e-12
1.399443714596349984e-12 -2.939678040274182757e-12 -3.771585125451544285e-13 1.917392838222994421e-12
9.125414183892015057e-13 -9.089511020837312821e-13 1.438443935701647632e-13 -1.474347098756348101e-13
-5.682335238328261719e-12 -3.102866648125917077e-12 -2.219734152446163959e-12 1.100493603890031246e-11
-3.947316846288087773e-13 -3.203746919597585169e-13 3.075623573778506690e-13 4.075440192107169786e-13
-7.770791666742010384e-13 -5.120593034472392974e-13 -9.091402561128764846e-13 2.198278726234314094e-12
-6.479534516590799038e-13 -7.101700707902153652e-13 -4.148387445978683161e-13 1.772962267047165352e-12
-2.648452350911540345e-13 -4.558649218792962017e-13 -1.849798829638059888e-13 9.056900399342553920e-13
4.120338716290592471e-13 -4.558336347242763727e-13 -6.451138379149039135e-14 1.083111468867071887e-13
-9.834306252624895038e-14 -4.921732540670403475e-13 -1.451952792284926653e-13 7.357115958217817992e-13
-5.083954300109441508e-13 -2.707857046531676068e-13 -3.209228621360497658e-13 1.100103996800161271e-12
-1.766766171508051356e-12 8.925184919698470973e-13 -8.782548979011861299e-13 1.752502577439390086e-12
-2.830148557013708421e-13 -3.368287596307469186e-13 2.077496597994792662e-13 4.120939555326387974e-13
-4.512840275464279293e-13 2.036074673919296355e-13 -4.067352350289382427e-13 6.544117951834369152e-13
-7.859916109497643633e-13 -6.447794014836209908e-13 -4.159734386721502274e-13 1.846744451105534572e-12
-1.408242611059405347e-12 2.743195828849271124e-12 -1.263592858492653151e-12 -7.136035929721352233e-14
-2.018110454876243472e-12 8.447366177284771398e-13 -1.732921912127207656e-12 2.906295749274972776e-12
-8.809944819292924191e-13 2.156746524838922012e-13 -6.965021427245937491e-13 1.361821972169992251e-12
5.518653901417430673e-13 7.775770999497722510e-13 -1.671457096377854222e-12 3.420146062863381464e-13
-5.776259029120277416e-13 -4.500230498253302201e-13 -1.407913913411645772e-13 1.168440344078522589e-12
-7.514311776134631420e-13 -5.061895948100271634e-13 -9.786280732617246902e-14 1.355483579749664453e-12
-1.266817752301949751e-13 -2.637166457427950665e-13 2.267397637996755442e-13 1.636586571733148761e-13
-1.240861415112594261e-12 3.349805966208155299e-13 -7.982230524465433223e-13 1.704103870938323265e-12
-3.324443949206305639e-13 -4.415850769396650009e-13 -3.462152823536153616e-13 1.120244754213912290e-12
-4.530022111496448189e-13 -3.350917289286445139e-13 -3.379441293469749075e-13 1.126038069425263332e-12
-5.789793713714212770e-14 -1.549553023897930645e-13 -2.534687799756920496e-13 4.663220195026264466e-13
-1.428985288280314105e-12 -7.566581394075352039e-13 -1.215959518248021452e-12 3.401602945935875911e-12
-6.176697800104093760e-13 -4.932685610800287173e-13 -5.145001150514482356e-13 1.625438456141885622e-12
2.688467540522513865e-12 -3.031463187286086077e-12 -1.451436318001894722e-12 1.794431964765459058e-12
1.662656448991490458e-13 -2.919054062550989333e-13 -2.131503623763146504e-13 3.387901237322650680e-13
-1.324863535704267725e-12 9.426640214793630505e-13 -1.362364580686952821e-12 1.744564094911853658e-12
-1.271430389707067303e-12 4.830330012689091231e-13 -1.187744851702238058e-12 1.976142240140396238e-12
1.326739720562679170e-13 4.876985929418656936e-12 -3.704051864799168727e-12 -1.305608036675754309e-12
-4.810912962595196290e-13 -4.975564511180366048e-13 -3.984354977235303362e-13 1.377083245101086116e-12
-6.075359189700518746e-13 -3.663692266162199795e-13 -4.755839816089447428e-13 1.449489127195219020e-12
-2.541796230037768899e-14 -1.290092396696742607e-13 -8.567568563543703410e-14 2.401028876054890627e-13
-2.892136266098334313e-12 1.380044104532675903e-12 -1.213702300504858543e-12 2.725794462070513116e-12
-4.559571825802356279e-12 -4.604272259186229873e-12 -6.053929623990257657e-12 1.521777370897881715e-11
2.196282726864862897e-07 -2.681272845115140389e-07 -2.881007607905862975e-07 3.365997726156123261e-07
1.814871866326881255e-11 -1.286229275722843742e-11 -6.109436341646975825e-11 5.580793751042955276e-11
-2.481438400865644533e-11 2.645101244964273895e-12 3.770635101375033818e-11 -1.553706825005828832e-11
-1.250657554455578727e-12 3.244592201305936907e-13 1.154124917687380264e-11 -1.061505084254880609e-11
7.495650816841987215e-11 -2.648523545687158457e-11 -1.651236572858564867e-10 1.166523845743082541e-10
9.222369583340460671e-12 -9.813869611101714428e-12 -1.360912963997592200e-11 1.420062966773714991e-11
-7.422963135298673977e-12 5.993052458611003890e-12 4.427927866046196869e-12 -2.998017189358505780e-12
-8.429418779489065202e-14 9.715334300623408901e-14 -2.489360021193263232e-14 1.203444500058925056e-14
-2.243372195344719205e-14 -2.230490793732012986e-13 -1.460083116538193872e-13 3.914911129804675023e-13
-2.240773339751883967e-12 -9.545802671159563092e-13 -6.012964661288902695e-13 3.796650072996722064e-12
-1.926748646034694662e-15 -1.524474013741880458e-14 -1.879779197143081792e-14 3.596928075488429429e-14
3.617005359555955049e-13 -2.166730087814318684e-13 -1.368694490945397790e-14 -1.313405822647099457e-13
-7.693077300960745470e-15 -7.372469731781703606e-15 3.964419925864348436e-15 1.110112710687810064e-14
-5.578495544592860857e-13 -6.519202893416697492e-13 -1.063302087191685912e-12 2.273071930992641242e-12
-2.010348328314728526e-14 9.578355495621103211e-14 -1.518027240552774236e-13 7.612265238221391021e-14
3.007983609082078059e-15 -1.313975756184032650e-14 -3.797253275669267350e-15 1.392902722842752289e-14
-1.158893709970888012e-11 1.289535512837232620e-12 -2.932275048707384559e-13 1.059262909174239141e-11
-1.863462872700817017e-12 -3.008184330230611409e-14 -4.264306155762092720e-12 6.157850871765217076e-12
-5.257145401228272879e-14 -4.518736453698265661e-14 -4.940396719865094225e-14 1.471627857479161446e-13
-1.861826543862167668e-13 -5.662145127893436887e-14 -2.021568615692551027e-13 4.449609672344063078e-13
-1.538765489727912213e-13 7.442686689576617462e-14 -1.969911665140595113e-13 2.764408485910844444e-13
7.503906235374496136e-13 -7.821656653777391454e-13 -7.240547618127640211e-13 7.558298036530505238e-13
2.140798453873191469e-12 -1.808485535206479284e-13 -1.403190389726708032e-12 -5.567595106258355844e-13
4.929088285941477826e-14 -5.378143218533421112e-14 1.627028453346299264e-14 -1.177973520754361342e-14
5.259158724248715026e-14 -8.065212807421967937e-14 -4.856200824342555742e-14 7.662254907515809284e-14
1.183291554377676117e-13 -8.135973719218139436e-14 -6.932784991410635258e-14 3.235843166852045075e-14
-5.140871762146862483e-14 -3.194774827841983756e-13 -1.509844508492884815e-13 5.218706512549546110e-13
8.039680124170128628e-13 -2.251938114131294999e-12 -5.500188580103072077e-12 6.948158681817347347e-12
-5.637138059135605154e-15 -3.266511452265807981e-14 2.667482443465729499e-14 1.162742814713639944e-14
1.122746593618022834e-14 -1.492693260016223138e-13 7.778416337560703158e-14 6.025769668983513119e-14
3.648334940437002041e-14 -1.230199616447909130e-13 -6.362651829942861370e-14 1.501631305398494432e-13
1.321175882039926462e-12 -4.605191881493887585e-13 -3.712943745532690310e-13 -4.893623193372681169e-13
-1.025733900090515483e-13 -8.016215133918825911e-14 4.419399332139406186e-14 1.385415480268459159e-13
-1.062776796100456867e-13 1.692324349077323788e-13 -4.016737104844611989e-14 -2.278738424924043970e-14
-3.574264670703977037e-14 1.765182765999447950e-13 -7.594682064623323696e-14 -6.482880924667191391e-14
-1.274676373318377812e-15 -1.395992539231141813e-15 -1.235184305444096840e-15 3.905853217993616268e-15
1.372588199826095824e-15 -8.586822363450460775e-15 -1.603980658361535942e-14 2.325404074723971747e-14
1.867805775632877865e-14 -9.135698464288857046e-14 1.503166647829911157e-14 5.764726040826069917e-14
-5.182157042894643366e-15 -5.128761195581067174e-16 7.645059382817684678e-16 4.930527224170978756e-15
-5.225426386153669460e-13 8.005484169631134273e-14 -4.793541695288889516e-13 9.218419664479454131e-13
-3.457511911616417115e-14 5.999294356542116447e-14 1.528386283322509620e-15 -2.694621073257949979e-14
1.388071274847714949e-13 -9.779154658916165531e-14 -1.464129655397708931e-14 -2.637428434163267139e-14
2.552632294072964158e-14 -1.642363553252588078e-13 -9.414307382190897287e-15 1.481243397667202797e-13
7.658944004020159651e-15 -2.453411067263852090e-15 -2.117952154428161867e-15 -3.087580782328145300e-15
6.944303590007433900e-13 -4.859169796707820424e-13 6.313190766454485368e-15 -2.148265700964165776e-13
-2.432293894835149039e-13 -6.213353297941570600e-13 -2.946374802404975568e-13 1.159202199518168511e-12
-2.299780778209409525e-15 -1.691567742061074050e-15 2.132939460813818495e-15 1.858409059456664883e-15
-8.018969742046092113e-13 -7.837742489197447627e-13 8.364722221827162764e-13 7.491990009416392123e-13
2.062952505639171034e-13 1.521130119309159877e-13 -8.390405827126134835e-14 -2.745042042235715281e-13
1.637318794853213110e-13 -7.937808937121814652e-14 -1.848915726519177848e-13 1.005377825378144309e-13
5.873613965259523563e-14 -3.071550898126152567e-14 -1.755600489103903829e-14 -1.046462578029467167e-14
-8.248329212930166057e-15 -5.305619668563848113e-14 -6.136398262795895412e-15 6.744092416136451341e-14
-7.769938080332367359e-15 -2.648878567617582976e-13 -4.841992859404171834e-14 3.210777234361318295e-13
-4.149519079578614978e-13 2.107556189085589761e-14 -9.231773757852870342e-13 1.317053721852290858e-12
4.827191291627708314e-14 -8.078381612642758659e-14 -4.955634426748907720e-14 8.206824747763965638e-14
1.421832380422507955e-12 -1.273551935903941345e-12 -8.481746183538265816e-13 6.998941738352623945e-13
8.544211062696675932e-13 -6.661586002392977981e-13 -5.581390103742596420e-13 3.698765043438924723e-13
-1.252114830504159255e-14 -2.602916341393423110e-13 9.711304240917225334e-14 1.756997400352118679e-13
4.453924406818867201e-14 -3.403885346268901292e-14 1.205105606291429412e-14 -2.255144666841397213e-14
-2.829160948136376293e-13 1.724042068629254426e-13 -2.295504095610013859e-13 3.400622975117131182e-13
-4.460887236163873528e-14 -1.277619643656221891e-13 1.497942870754332807e-13 2.257654965182772886e-14
2.124911853791642586e-13 -1.099321887936506971e-14 -1.967488243494614222e-13 -4.749142150337932337e-15
-7.331057847353124161e-14 1.660447397630457702e-13 -3.245891570743423298e-13 2.318549957848282303e-13
1.237730910939026365e-13 -8.281829738410387654e-14 -4.108594297976767717e-14 1.311492699688688414e-16
-2.820229988918600754e-15 -3.336399641646226734e-14 -7.296389675086352147e-15 4.348061608046723049e-14
-1.331888389583393839e-13 -3.772899272061454676e-14 -1.210260754192162314e-13 2.919439070981699159e-13
-6.664442547821891352e-15 -4.337893734487221249e-14 -3.628719829179058839e-14 8.633057818448464570e-14
1.178933142016803680e-13 -1.772284885659486677e-13 -3.563538806195922182e-14 9.497056242622736374e-14
-1.891279713697523878e-14 -3.385147682134270887e-14 4.771252341506093819e-14 5.051750543257014983e-15
-3.207434736161403063e-14 6.517943062446464788e-14 -8.188210929457789647e-14 4.877702603172748117e-14
-8.196768422747956100e-16 -3.461188702292118663e-16 -8.603749290379856207e-16 2.026170641541993344e-15
-3.077830775431854585e-14 5.675134803687495735e-14 -9.633734882848540799e-15 -1.633930539970785807e-14
6.652461127703337164e-14 -2.599406763509860328e-14 -2.483196825761419333e-14 -1.569857538432060975e-14
5.295211054761931364e-15 -5.231416226579427017e-14 -1.595796053299075015e-14 6.297691174402305582e-14
-2.797768922243114683e-14 -4.215481988760153838e-14 3.283126964135265268e-14 3.730123946868007986e-14
-6.340091967695629541e-14 -4.277687978262777640e-14 5.603200501522766055e-14 5.014579444435636708e-14
5.145005157237176831e-15 -5.247414159734467058e-14 3.625225263520107676e-14 1.107688380490640989e-14
1.988345004871775874e-14 -5.898204055427169930e-14 2.209700779113082512e-14 1.700158271442309021e-14
5.294433943312807575e-15 1.093054229525812055e-13 -1.871259992844282306e-13 7.252614238853394613e-14
-4.707484087367933817e-14 4.075832949034340445e-14 -4.140022075227327025e-15 1.045653345856319685e-14
-2.370391966900724269e-14 8.091221292531023775e-14 -4.833383769529715929e-14 -8.874455561005834193e-15
2.366178425779654200e-14 1.400177101081339115e-13 -9.225975967470403774e-14 -7.141973469122641578e-14
9.575208972644087091e-14 -6.580006501023968162e-14 -1.348273346358693019e-13 1.048753099196682262e-13
-4.945640702025445957e-13 -2.526868169905643582e-13 6.033848614572980238e-13 1.438660257358118641e-13
-1.716781151527631277e-13 -3.763116299750233368e-13 -7.398013693203287848e-14 6.219698820598199741e-13
-2.112013723876568805e-13 2.236600968658691898e-13 -1.415627959353023552e-13 1.291040714570902227e-13
7.468402462149772955e-15 -1.441663001433576504e-13 -3.110230807636432787e-13 4.477209784448506024e-13
-7.449109626815564295e-14 6.697084788993116200e-14 -4.878066244374911210e-13 4.953268728157161826e-13
5.793056389467756697e-16 -9.616845982261972343e-14 1.721533592250213283e-14 7.837381826117078505e-14
-6.451525125026003444e-15 -1.918698702922378645e-15 -2.590258716721793216e-14 3.427281099516628388e-14
3.561118128258897318e-14 -1.704342519060451048e-13 2.180879639392672985e-14 1.130142742295296100e-13
-4.454249520520505838e-13 -3.846295864205682888e-13 2.153669315860662978e-13 6.146876068865523476e-13
-1.143906476992571856e-14 -1.389099299329320412e-13 6.940258094022606110e-14 8.094641376263167819e-14
-3.349880684436027038e-13 -4.310946590663553032e-13 4.054279616334791393e-13 3.606547658764783124e-13
1.394611500222557992e-13 -2.913324207162441259e-13 9.555675407666331023e-14 5.631451661732448009e-14
-1.923798193828004191e-13 -2.662508303035267828e-13 -1.893729404720887531e-13 6.480035901584156269e-13
1.238214635943039931e-13 -2.004317217719621385e-13 2.610613154631244384e-14 5.050412663134574259e-14
-5.922413736553281683e-14 1.426747770325540847e-13 -4.662764695698413430e-14 -3.682299271003707679e-14
-9.809862430656539719e-14 2.980745185934724214e-14 -1.569677497404270107e-14 8.398794742126095079e-14
4.825556309584904682e-14 -2.336870541542491152e-13 -5.749859826155947493e-14 2.429300893199592152e-13
2.570932174366414285e-15 -1.127002490357932459e-14 1.106080622781514939e-14 -2.361713498602235144e-15
-1.069592493216100987e-14 -1.092769392173192278e-14 1.665230116074203670e-14 4.971317693150896736e-15
4.263581667028328869e-14 -7.255309879635908640e-14 3.325982049153737085e-14 -3.342538365461563675e-15
-2.696914779128354260e-15 -1.764926276908919190e-16 6.130252377744306017e-15 -3.256844970925060676e-15
0.000000000000000000e+00 0.000000000000000000e+00 0.000000000000000000e+00 0.000000000000000000e+00
-1.725620870857141693e-14 -6.980372306584920803e-16 1.662329631020814965e-14 1.330949629021754624e-15
1.535427932494722916e-13 -9.922244470267903224e-14 1.329371511438936514e-14 -6.761406366118252673e-14
0.000000000000000000e+00 0.000000000000000000e+00 0.000000000000000000e+00 0.000000000000000000e+00
1.329964561862107158e-12 -5.811868512010752054e-13 -5.596536660805853117e-13 -1.891240445804492914e-13
-7.966388036290363943e-14 1.883796995522341739e-13 -5.379393434348873937e-14 -5.492188484584172570e-14
6.382102323532578935e-14 -4.097230836458872388e-14 -3.138152155857857214e-14 8.532806687841511404e-15
-8.001710215435785276e-14 -2.408459771748722264e-13 6.861317410437424345e-13 -3.652686617145102727e-13
-6.611462322231188871e-15 -3.631873835737023757e-15 7.511899262834168758e-15 2.731436895134043476e-15
2.251196910737023180e-13 -3.188736917904627917e-13 3.815027909639131842e-14 5.560372162036915527e-14
-5.424720805146690632e-16 -1.424817897009769935e-14 -1.378696363472429039e-14 2.857761468533665357e-14
-3.210970775044432324e-14 -7.753623957361775118e-14 2.389646667235538224e-14 8.574948065170663853e-14
4.107348517465675720e-15 -1.707040773019242137e-15 -1.431620036063011145e-15 -9.686877083834230300e-16
8.462004881921989616e-14 -2.728617696696697352e-14 -3.898220733852524517e-14 -1.835166451372764908e-14
-2.751844008813878121e-14 -3.763540934598940516e-14 1.079811931491959164e-13 -4.282734371506772369e-14
-4.237032517347900600e-15 -2.264789726985111983e-16 -4.213355986470576581e-15 8.676867476516987985e-15
8.851628755398049010e-15 -9.873503583563590935e-16 -4.487767994846480881e-15 -3.376510402195207853e-15
1.431262670044070328e-14 -3.873985171989554285e-15 -7.294746679699808710e-15 -3.143894848751338311e-15
1.014166417845385160e-14 -4.819874983733016667e-15 -1.321689917190957273e-14 7.895109977188736214e-15
-2.586828432599115005e-15 -2.168595565786483698e-14 7.163906337956075550e-15 1.710887775250787170e-14
-1.069843395074586863e-14 2.068655802564245325e-14 -4.740727619086400127e-15 -5.247396455810173440e-15
0.000000000000000000e+00 0.000000000000000000e+00 0.000000000000000000e+00 0.000000000000000000e+00
-3.210928051596223015e-16 -1.841951916554938101e-14 1.677401825571016481e-14 1.966593714998833664e-15
0.000000000000000000e+00 0.000000000000000000e+00 0.000000000000000000e+00 0.000000000000000000e+00
3.163203029783596888e-14 -2.065848284356336898e-14 -7.191049833523034660e-15 -3.782497620749550256e-15
-5.834753358043323597e-16 -7.113003771342208497e-16 -5.389357234454895516e-16 1.833711436384042761e-15
1.713490409326773173e-15 -4.828775900868974752e-15 -1.747009818873774786e-16 3.289986473429578195e-15
0.000000000000000000e+00 0.000000000000000000e+00 0.000000000000000000e+00 0.000000000000000000e+00
2.715233227338265880e-14 -2.203376683395547210e-14 -1.033268294235208657e-15 -4.085297145191978829e-15
-4.232271707349525462e-14 7.404202307313788310e-14 -2.747502670371414891e-14 -4.244279295928547406e-15
-1.074535711161694806e-13 -1.961959498487754621e-13 -3.449456917081559392e-15 3.070989778820263881e-13
0.000000000000000000e+00 0.000000000000000000e+00 0.000000000000000000e+00 0.000000000000000000e+00
-1.013038144739842911e-14 -1.717967936821621988e-14 2.766967562293984675e-14 -3.596148073251905555e-16
1.813587711998594456e-15 -1.798677673898700534e-14 7.304557777516191883e-15 8.868631249472226494e-15
-5.518164568159443780e-14 -3.198430764114962957e-14 -2.574624476769579091e-13 3.446284009997012886e-13
0.000000000000000000e+00 0.000000000000000000e+00 0.000000000000000000e+00 0.000000000000000000e+00
0.000000000000000000e+00 0.000000000000000000e+00 0.000000000000000000e+00 0.000000000000000000e+00
4.819455007152286023e-15 -4.506566067482146203e-15 2.627563169939377878e-15 -2.940452109609517697e-15
-3.546852567328892647e-14 1.199585236730701298e-13 -4.313204003445594261e-14 -4.135795796532524815e-14
0.000000000000000000e+00 0.000000000000000000e+00 0.000000000000000000e+00 0.000000000000000000e+00
-1.067779330513983200e-15 -6.553693584963958669e-16 -5.541386464493699158e-16 2.277287335459748983e-15
-9.689491414767246727e-15 -1.791571113190067040e-14 1.229400747352150193e-14 1.531119507314641677e-14
1.425788624697077188e-14 -2.466439412846667062e-14 1.439434416551320959e-14 -3.987836284017317163e-15
1.244538646545908225e-13 1.460275624363756455e-13 -3.764738494536336863e-13 1.059924223626671426e-13
1.280868130404073029e-12 -6.645856111153001495e-13 -1.564926319060173365e-13 -4.597898873827556688e-13
-1.756722567947552693e-13 1.514072113711989587e-14 -2.003847923121379178e-13 3.609163279697732691e-13
-5.510167750456848056e-14 -1.284854682400401487e-13 5.920987842881103427e-14 1.243772673157976454e-13
-4.440504686873554363e-13 7.891786416641689681e-13 -3.625467444895850367e-13 1.741857151277009442e-14
-1.959864276922393086e-14 -6.166980673824216304e-14 3.282792320504058037e-14 4.844052630242551037e-14
1.102024381351267956e-14 -1.019684779065448281e-14 -1.380147815006375645e-14 1.297808212720555813e-14
2.604772262228219657e-14 -4.353306373707826661e-14 -2.518380348791779975e-14 4.266914460271388872e-14
-9.692957533674308286e-16 -4.977195405915572415e-16 -8.254288749336999777e-16 2.292444168892687653e-15
-5.762658651786971004e-15 -6.367826672661687479e-15 3.854049176569314654e-15 8.276436147879343039e-15
-8.365214762235175561e-14 -2.224966901523130377e-14 8.073953202386052192e-15 9.782786343519695197e-14
3.511149461228480829e-14 -6.720028057739729243e-14 4.697866950945045455e-14 -1.488988354433794201e-14
-2.345200080388838919e-15 -4.860498871387557424e-16 -1.444093832251561336e-15 4.275343799779155899e-15
0.000000000000000000e+00 0.000000000000000000e+00 0.000000000000000000e+00 0.000000000000000000e+00
1.379000858832395503e-14 -4.770910610640759470e-14 4.156605165009943032e-14 -7.646954132015825366e-15
2.318798589021345145e-14 -6.911180030833811082e-14 3.110347908671709979e-14 1.482033533140752802e-14
7.064875771152630568e-14 -2.377088747461515072e-14 -3.286691756679744014e-14 -1.401095267011369589e-14
-4.057884587520256315e-15 -4.556689394700357896e-14 3.231541585696114054e-14 1.730936267756270262e-14
-4.450861757203934180e-15 -7.776389315260232844e-14 2.777225561168848476e-14 5.444249929811774709e-14
-3.472766400108268795e-14 6.315280590227756521e-14 1.137920718754448138e-14 -3.980434908873934602e-14
-6.752884883784769971e-14 1.815466844400396236e-13 -7.519981127767791541e-14 -3.881802432451407789e-14
-4.384674149497779943e-15 -2.443904907232054200e-14 1.524492754199057636e-14 1.357879567982774874e-14
0.000000000000000000e+00 0.000000000000000000e+00 0.000000000000000000e+00 0.000000000000000000e+00
6.019516355399457694e-14 -1.469054082599920156e-13 5.755731398960081956e-14 2.915293071639672641e-14
-7.697906635816237831e-15 -7.330009221488688115e-14 -9.003934602082780062e-15 9.000193345278584540e-14
-1.428313446544593342e-14 -2.917438723501461606e-14 7.001325048153536767e-14 -2.655572878107483396e-14
-3.183646040726350533e-13 -1.717745447341184456e-12 -1.345899537281187793e-12 3.382009588695000335e-12
1.112009909594623979e-14 -2.776299802324917574e-14 1.765873202306595063e-14 -1.015833095763002653e-15
9.307739022543972522e-15 -1.228346680066383886e-14 1.054463042175469432e-14 -7.568902643634834299e-15
-5.951154376326761766e-16 -1.012259004173359152e-15 2.015262705948503711e-15 -4.078882641424685797e-16
0.000000000000000000e+00 0.000000000000000000e+00 0.000000000000000000e+00 0.000000000000000000e+00
-1.824777155618565401e-14 3.549568144929275138e-14 -6.876868484455445705e-15 -1.037104140865164851e-14
-2.296172020217528737e-14 3.272205559946267910e-14 -1.940849980972889509e-15 -7.819485416314526671e-15
1.565697632400692246e-14 -1.857954093426875394e-14 -2.179819967878129031e-14 2.472076428904311548e-14
7.099061464682678848e-14 -4.038995197771935061e-14 -1.795172045869639598e-14 -1.264894221041104977e-14
0.000000000000000000e+00 0.000000000000000000e+00 0.000000000000000000e+00 0.000000000000000000e+00
-2.284969412047342445e-13 -7.914191278399599181e-13 -1.219572875370369782e-12 2.239488944415067933e-12
8.218848697263610873e-14 -7.190059187615496806e-14 -1.445898802651153387e-14 4.171092930030406610e-15
-1.647472946790512903e-13 1.222355641196624830e-13 -1.236674061681342713e-13 1.661791367275231543e-13
5.294767962690011961e-15 -5.606362623498659342e-14 -1.181382912214705413e-13 1.689071494937672119e-13
-2.454574476985245758e-13 2.317020579588794530e-13 -2.112282910084035629e-13 2.249836807480488371e-13
6.447466363924279617e-14 -2.092242522601957181e-13 -3.558229670707159096e-13 5.005725556916688567e-13
-1.015456608208436793e-12 1.901636961021094846e-13 -7.784510089385371775e-13 1.603743921044858554e-12
4.477578598848897256e-15 -5.591054682137445236e-14 6.224049419778806026e-14 -1.080752597526253592e-14
-3.712018785053885238e-13 1.069703645644374702e-13 6.938990612969853937e-14 1.948416078112536755e-13
2.879509275737392087e-14 -4.165982768692073546e-14 -1.538780985936896600e-14 2.825254478891576797e-14
-9.940764123497725756e-14 2.265846130592606459e-13 -1.562813197790546069e-13 2.910434795477133217e-14
-9.196517030552807234e-14 2.337458426576049191e-13 -5.539923259055984220e-14 -8.638143976151708657e-14
1.117011610323697799e-14 -8.447868196952593165e-14 6.085855785115816595e-14 1.245000801513084451e-14
5.520036687762880821e-14 4.163705046722070805e-15 -1.709891082655153227e-14 -4.226516109779932071e-14
2.440219626058341419e-14 -2.902179760743780700e-14 7.126899527804862583e-16 3.906911394073908024e-15
0.000000000000000000e+00 0.000000000000000000e+00 0.000000000000000000e+00 0.000000000000000000e+00
1.121762143074760228e-15 2.019343763739083294e-14 1.182718623374564006e-15 -2.249791840384015086e-14
8.126110774830336215e-15 -2.101482658305227853e-14 -2.916816411071257598e-14 4.205687991893450724e-14
-9.774072189416728359e-15 -1.016899271378251458e-14 1.897377463263744029e-14 9.692902705617994909e-16
-2.382378461233797696e-14 9.675514901480375606e-14 -3.549796820418479348e-14 -3.743339619828096984e-14
-7.441017725593425332e-14 3.171244504823007321e-13 -2.461308952164076482e-13 3.416621990041231320e-15
4.058394164689817627e-15 -2.564765022603356803e-14 1.409491094679755992e-14 7.494345114546183388e-15
2.096727314503789656e-13 1.082541948721056306e-13 -2.102782385057182188e-13 -1.076486878167663017e-13
2.085627693678014147e-14 -2.301395549313456146e-14 -9.799766524242384417e-15 1.195744508059680441e-14
-5.390524580559573593e-14 1.293625673470297972e-13 -4.689841849116434609e-14 -2.855890305026968366e-14
-1.294075505412021003e-15 -7.658285511213716210e-15 9.646785809776510853e-15 -6.944247931507734427e-16
-3.736667431562364762e-14 4.041712736363099360e-14 -4.795164087596213791e-14 4.490118782795478563e-14
1.017407930552652755e-14 -1.900316040517539776e-14 8.127958952467750020e-15 7.011221471811126914e-16
0.000000000000000000e+00 0.000000000000000000e+00 0.000000000000000000e+00 0.000000000000000000e+00
7.035562994515515291e-14 -1.094615129366705435e-13 -8.655977059110341238e-15 4.776186005062576965e-14
9.478302230874963144e-14 -6.207044106199485914e-14 -3.762573127565560879e-14 4.913150028900748132e-15
-4.491277271451484247e-14 9.654424735493566777e-14 -1.520787322389720022e-14 -3.642360141652359353e-14
-9.359651587783044571e-14 2.886306465681472168e-13 -4.139216983668289058e-13 2.188875676765111123e-13
-1.926621847735607090e-13 1.235742191411037915e-13 -2.087532514823509020e-13 2.778412171148076176e-13
-2.363998760849336164e-13 -8.439192784395630848e-14 -4.078017575965340110e-13 7.285935615254239863e-13
1.519058535302930650e-13 -2.360372386631696670e-13 1.247703630664951957e-14 7.165434882622702727e-14
1.233587225926847607e-13 -2.804104595380859747e-13 -3.525860439785739779e-13 5.096377809239756967e-13
-8.541353874235959157e-16 -4.729925664574181085e-16 -5.027537014768811876e-16 1.829881655357895310e-15
-5.966251843575494630e-15 -1.083587867236680509e-14 -1.826268964867726586e-14 3.506482016461955769e-14
-1.274609142713467511e-14 -7.070726600235963522e-15 1.707313242111916758e-16 1.964608670315944267e-14
6.997770620797017529e-16 -1.456114798425269385e-14 5.606147771167639568e-16 1.330075614505623110e-14
-2.688163221072502878e-14 3.959219564646345995e-14 -1.306960735222242891e-14 3.590439164839777198e-16
-2.186292475658468175e-14 -4.503915391409322163e-14 -2.827215341971357356e-14 9.517423209039141383e-14
7.416139169355286856e-15 -4.845191013269404799e-15 1.300742901647848568e-15 -3.871691057733731414e-15
-1.929894584585027226e-13 5.060965702002635700e-13 -1.406009888715072248e-13 -1.725061228702534711e-13
-2.212652308407159818e-15 -2.049518005218445234e-15 3.271872611889647251e-15 9.902977017359581956e-16
3.517131585684310143e-15 -2.511458605013499229e-15 -3.046474418909198218e-15 2.040801438238387304e-15
0.000000000000000000e+00 0.000000000000000000e+00 0.000000000000000000e+00 0.000000000000000000e+00
-4.102240546095982675e-15 -3.674090941751938920e-15 -1.308338847058574822e-15 9.084670334906496417e-15
-1.905595438243114146e-15 -1.461087735664656882e-16 -1.653120084134669398e-15 3.704824295944248493e-15
-2.499229827511753848e-15 -1.404421327753002887e-15 2.261256286421177753e-15 1.642394868843579573e-15
0.000000000000000000e+00 0.000000000000000000e+00 0.000000000000000000e+00 0.000000000000000000e+00
2.052745047528845272e-15 -3.361832790081848590e-15 -5.838539554953389058e-15 7.147627297506392771e-15
0.000000000000000000e+00 0.000000000000000000e+00 0.000000000000000000e+00 0.000000000000000000e+00
-8.509608817375359640e-15 -1.865180550420617053e-15 1.279219944852410907e-14 -2.417410080728132771e-15
0.000000000000000000e+00 0.000000000000000000e+00 0.000000000000000000e+00 0.000000000000000000e+00
0.000000000000000000e+00 0.000000000000000000e+00 0.000000000000000000e+00 0.000000000000000000e+00
0.000000000000000000e+00 0.000000000000000000e+00 0.000000000000000000e+00 0.000000000000000000e+00
-4.509186947967674974e-15 -1.141929497271157310e-16 9.253914520815988749e-15 -4.630534623121198266e-15
0.000000000000000000e+00 0.000000000000000000e+00 0.000000000000000000e+00 0.000000000000000000e+00
1.089179315237764457e-14 -6.502290630911476002e-15 -2.614449033810755000e-15 -1.775053487655413767e-15
1.267060712313317480e-14 -4.890094390125946127e-15 -3.911162691393983231e-15 -3.869350041613244656e-15
0.000000000000000000e+00 0.000000000000000000e+00 0.000000000000000000e+00 0.000000000000000000e+00
0.000000000000000000e+00 0.000000000000000000e+00 0.000000000000000000e+00 0.000000000000000000e+00
0.000000000000000000e+00 0.000000000000000000e+00 0.000000000000000000e+00 0.000000000000000000e+00
-4.809328898509521073e-16 -6.223833321553855807e-16 -6.539153695064886465e-16 1.757231591512826236e-15
-4.311405557963123269e-16 -6.802328067458953190e-16 -4.673025303301689150e-16 1.578675892872376462e-15
-1.193284049428269979e-14 -5.621131470938928699e-15 2.915458277970092727e-16 1.726242613742461749e-14
-1.857307299321373624e-15 -2.196190472519679526e-15 2.352043573899057045e-15 1.701454197941996301e-15
3.291947406643043764e-14 -1.648044137308630527e-14 -9.315454765518221925e-15 -7.123577927825924646e-15
0.000000000000000000e+00 0.000000000000000000e+00 0.000000000000000000e+00 0.000000000000000000e+00
0.000000000000000000e+00 0.000000000000000000e+00 0.000000000000000000e+00 0.000000000000000000e+00
0.000000000000000000e+00 0.000000000000000000e+00 0.000000000000000000e+00 0.000000000000000000e+00
-1.506460009198607198e-13 -4.656743784114607411e-14 7.198883339677574849e-14 1.252246053642313105e-13
2.931293850509892520e-15 -3.546566637633432761e-14 2.081136654107745957e-14 1.172300598474696999e-14
-7.258545954801019777e-14 1.735440021381915271e-13 -6.140094997357186115e-14 -3.955759261660945556e-14
-4.847232353926621469e-15 -4.456776159281026368e-14 2.029903809109524556e-14 2.911595585564165616e-14
-7.147643718031534519e-15 -5.253823589858935093e-15 1.497944331111904070e-14 -2.577976003228567146e-15
-1.405922806762232337e-14 -3.317100359807401322e-14 6.204955501148223903e-14 -1.481932334578589298e-14
-1.330431660565765029e-14 -2.161257433585199825e-14 2.740787187087593206e-14 7.509019070633724365e-15
-2.275152902636072128e-14 -7.195083116217145708e-14 3.983183289231421073e-14 5.487052729621794870e-14
-1.001985056245460145e-15 -2.120737709757316647e-15 -1.649108529784824341e-15 4.771831295787602514e-15
7.063568814163146309e-15 -1.446109277140866849e-14 1.182307026870550154e-16 7.279293254558462132e-15
2.021551740389916824e-12 1.508456762450063379e-12 -1.548045129536411016e-12 -1.981963373303574235e-12
8.405828185159802602e-14 -5.366811275268542448e-13 1.344936917051293797e-13 3.181291539701272051e-13
3.627812569502218315e-13 -3.828441776343942522e-13 -7.310483568172200061e-14 9.316775636589546893e-14
5.277809144272836046e-14 -9.029976711996421269e-14 8.023807204844555183e-14 -4.271639637120979426e-14
-1.890846117343428956e-14 2.065446498324419033e-14 -1.930448798356000325e-14 1.755848417375010249e-14
-9.461304163518977716e-15 -7.736846491765527627e-15 6.241390857799258802e-15 1.095675979748524496e-14
9.812150064072894269e-15 -8.061229043393205131e-14 5.435537486538202351e-14 1.644476550447709882e-14
1.293004521371831285e-14 -3.266134844417997198e-14 1.973203243284293799e-14 -7.292023812660894705e-19
-3.805688964298957682e-14 5.948728529011241779e-14 -3.057527053921554907e-15 -1.837286859320124899e-14
-1.175488167437425927e-14 -8.687463123549015392e-15 -6.952726900678626114e-16 2.113761748799113747e-14
-2.269168050526128914e-15 -3.008384086091055217e-15 -3.555721142593168726e-15 8.833273279210352858e-15
-8.704781629215608227e-14 8.732130966832146788e-14 -8.047196758881723008e-14 8.019847421265198331e-14
-3.918343079350935111e-14 -4.923486318322635326e-14 5.245101142625492628e-14 3.596728255048074022e-14
9.586198210949767799e-15 -3.518526549608536604e-14 3.056709159961994179e-14 -4.968024314484323034e-15
1.531594936017214697e-12 -8.284354399360914777e-13 -1.270091332284839352e-12 5.669318362037177487e-13
1.897048990262677022e-13 -2.776413078158750767e-13 -4.778255573155781183e-13 5.657619661051848365e-13
4.967039968387816202e-14 -2.308229547295517039e-14 -1.934501020205280532e-14 -7.243094008870202080e-15
-4.213036715473486741e-14 -9.638486945013062348e-14 -3.652431406356186607e-14 1.750395506684272875e-13
1.707436817308881862e-13 1.735568178157976459e-13 -2.343345467557429331e-13 -1.099659527909430252e-13
3.841017985500528587e-14 -1.582515833884290638e-14 -1.475110361366959354e-14 -7.833917902492784373e-15
0.000000000000000000e+00 0.000000000000000000e+00 0.000000000000000000e+00 0.000000000000000000e+00
0.000000000000000000e+00 0.000000000000000000e+00 0.000000000000000000e+00 0.000000000000000000e+00
-3.252576840612833169e-14 1.734601245731880532e-13 -8.448520906133835246e-14 -5.644914710572136276e-14
-5.080193412432811137e-15 -2.316298200622767147e-15 5.172462765535627024e-16 6.879245336502017949e-15
0.000000000000000000e+00 0.000000000000000000e+00 0.000000000000000000e+00 0.000000000000000000e+00
-1.445699268406949834e-13 3.076469438775479380e-13 -1.503301034595842691e-13 -1.274691357726859715e-14
3.920955134049556839e-14 -1.912536736793506354e-13 3.047710581893146138e-15 1.489964117569619626e-13
-5.451636998870271627e-15 -2.293033529951595440e-14 9.681645917238380786e-15 1.870032638114783971e-14
0.000000000000000000e+00 0.000000000000000000e+00 0.000000000000000000e+00 0.000000000000000000e+00
0.000000000000000000e+00 0.000000000000000000e+00 0.000000000000000000e+00 0.000000000000000000e+00
-3.288595756325988248e-13 -3.108521532197613689e-13 -9.703782379628826204e-13 1.610089966815240744e-12
9.239894322105350204e-14 -8.091566158762871329e-14 -2.139348550075910319e-14 9.910203867334308131e-15
-1.603057333365373656e-15 -2.080355345117044632e-18 2.667010772420131168e-15 -1.061873083709640765e-15
1.657859353233791513e-14 -5.698467042857649795e-14 -2.398767987243194472e-14 6.439375676867054331e-14
1.962480165283652078e-14 -4.346090791727570278e-14 1.848876687808854885e-14 5.347339386350667078e-15
-4.161687837963061174e-13 -7.023330180269278456e-13 -3.497315997337315301e-13 1.468233401556966604e-12
5.665727677798911911e-15 -3.487793599132846487e-16 -5.876097616791508447e-15 5.591492989058818259e-16
-4.386816327005280110e-14 -1.009905072132492826e-13 -6.046747739049437741e-14 2.053261478737965242e-13
-5.564423804262605236e-14 1.436036033243307356e-13 -6.196572618632308887e-14 -2.599363909538172372e-14
1.531650265031882900e-15 -6.526582142856329705e-15 -1.007070668339114985e-15 6.002002546163564748e-15
-1.466862645924284828e-14 -4.362873296618328772e-14 2.590094863818055069e-14 3.239641078724559792e-14
0.000000000000000000e+00 0.000000000000000000e+00 0.000000000000000000e+00 0.000000000000000000e+00
-2.762788538559259172e-14 5.619493264984091370e-14 -1.240381069542890581e-14 -1.616323656881940354e-14
0.000000000000000000e+00 0.000000000000000000e+00 0.000000000000000000e+00 0.000000000000000000e+00
0.000000000000000000e+00 0.000000000000000000e+00 0.000000000000000000e+00 0.000000000000000000e+00
-1.383379443082737418e-14 -1.120314715579810906e-14 2.030971991546556187e-14 4.727221671159921375e-15
-7.515111476982073298e-14 1.075433101235530474e-13 -1.227951640879335845e-13 9.040296873420138369e-14
5.459466733741735439e-15 -4.138848182984019379e-14 1.189481188506554425e-14 2.403420321103295197e-14
1.829353299488306787e-14 1.621266412640053953e-13 -6.167404587232332428e-14 -1.187461283865652083e-13
5.344404913644511875e-14 -7.831743673916672803e-14 1.522876299473809624e-14 9.644624607983543019e-15
1.565813623746823686e-13 -1.222995478967052399e-13 -6.865912052734928853e-14 3.437730604937209040e-14
-2.315432453974117345e-15 -1.277128757688398655e-15 -1.106977494007190695e-15 4.699538705669706695e-15
4.066909016515847970e-14 -3.705607992143022459e-14 8.941718070993667369e-15 -1.255472831472195088e-14
-1.582493791495137847e-14 -4.762228707586841510e-14 -6.289649865947421928e-15 6.973687485676731016e-14
3.708877461763556864e-14 -5.771842285431536963e-14 2.603603195895091598e-14 -5.406383722271123667e-15
8.837232512030865376e-15 -6.525810037809432884e-15 -8.790515160601320258e-15 6.479092686379890132e-15
-2.661250764553866129e-14 8.102577261878450135e-14 -3.570227631155346027e-14 -1.871098866169239241e-14
5.983775149497218381e-14 1.169212839034740877e-13 -9.393561712750332491e-14 -8.282341827094297184e-14
1.375647331013131247e-14 -1.808435074701300142e-14 7.257068452664685254e-16 3.602170591615224070e-15
0.000000000000000000e+00 0.000000000000000000e+00 0.000000000000000000e+00 0.000000000000000000e+00
0.000000000000000000e+00 0.000000000000000000e+00 0.000000000000000000e+00 0.000000000000000000e+00
1.728129942240286983e-14 -9.564077002753841184e-14 -4.484502575977860036e-14 1.232044963649141234e-13
3.132746676834927149e-14 -1.809404996708032466e-14 -2.306495251238835030e-14 9.831535711119409788e-15
-3.182334473988684822e-15 -2.839286648841630184e-15 2.356698634617008094e-15 3.664922488213306517e-15
-3.722055912009903523e-14 -7.995569675848102559e-14 5.385314234253065123e-14 6.332311353604954212e-14
1.261208716972457426e-15 -8.139906546786185405e-15 -9.342439864191014891e-15 1.622113769400474504e-14
-1.656574054205156054e-15 -9.639608719775892404e-15 6.200533137622568106e-15 5.095649636358479958e-15
3.238589590776512578e-15 -1.158987581117429486e-14 1.224726295135697684e-14 -3.895976730959200084e-15
-1.166698320268865996e-15 -1.221628255064038556e-14 1.592052587647546407e-14 -2.537545005566214872e-15
8.186949388267893922e-16 -5.741719763902774735e-15 -1.986877213559118895e-15 6.909902038635105914e-15
-6.217468945738995259e-15 -2.361299145457623504e-14 1.836884877240322581e-14 1.146161162791202500e-14
-6.245635957642325293e-15 -7.830186861256809360e-15 -1.363849048127662345e-15 1.543967186702679818e-14
6.072625443221984299e-15 -9.697598767783105879e-15 -9.229394279501770336e-15 1.285436760406289192e-14
-4.323418440754644692e-15 -7.152904353425914775e-15 6.648008865841515726e-15 4.828313928339041375e-15
7.508222938045706579e-15 -7.754764699927387794e-14 7.174085303455257154e-15 6.286533875777290159e-14
1.151774094431386289e-14 -1.504627144864317539e-13 8.362884020534869770e-14 5.531613333676935269e-14
1.162100341436030508e-14 -2.226168622108329588e-14 -3.603153075375105356e-15 1.424383588209810011e-14
-4.539254229603663915e-14 -3.332386960458452983e-13 -8.942117672872732783e-14 4.680524150706088424e-13
2.004810705668785115e-14 -3.171699689407178980e-14 -8.074189233207958584e-15 1.974307907059192563e-14
-3.816741185021787742e-14 -7.080006476357643628e-14 5.615031587255327218e-14 5.281716074124105413e-14
-7.234878252980060962e-15 -3.555379317691287099e-14 2.971405816250437012e-14 1.307461326738856341e-14
1.455262486178048047e-14 -9.779230513145797488e-15 -4.883380301702719217e-15 1.099859530680389942e-16
-7.321069922750021649e-15 -7.061626178876191345e-15 7.022853368290449576e-15 7.359842733335762629e-15
-3.969761544168675894e-14 -5.338632301615068967e-14 4.156063828864974023e-14 5.152330016918765789e-14
-5.595732252218928668e-13 5.259566974680876148e-13 -2.677606772195687778e-13 3.013772049733739288e-13
-8.047896957617701040e-16 -2.840425306111270592e-14 2.240165390917175753e-15 2.696887736595731447e-14
-4.405341051482953306e-15 -3.458087041411518019e-14 1.012417440251527963e-15 3.797379402534664340e-14
-7.492613561650806059e-15 -4.846288795791756347e-15 -6.538403186230140351e-15 1.887730554367269645e-14
-2.589015491805625733e-15 -2.449072165548249041e-15 -1.597731742484294285e-15 6.635819399838169847e-15
-5.636335982064022383e-14 8.356712288839733406e-14 -2.899188689007259809e-14 1.788123822315518227e-15
-7.076473562862975550e-14 2.122084020075902141e-13 -1.066684330486426144e-13 -3.477523333031784414e-14
3.439261510893699734e-14 -6.389316103447376280e-14 3.833333769604294849e-14 -8.832791770506164097e-15
3.676657751061278401e-14 1.447523395988876526e-13 -1.072017914769427154e-13 -7.431712563255779700e-14
3.248306091848973719e-14 -1.278575742942473915e-14 -1.375845785188463240e-14 -5.938845637180356965e-15
-1.066834185477126798e-14 1.726926186471495750e-14 -1.236497400594388184e-14 5.764053996000176552e-15
1.717660616252706342e-14 -8.897396864026371020e-14 -1.562793132920926838e-14 8.742529380694583312e-14
-9.351411520328048553e-15 -5.665393402899105364e-15 -5.724634997681793375e-15 2.074143992090894571e-14
1.407653210110173064e-14 -3.348773481676112513e-14 1.281940119733476696e-15 1.812926259592593831e-14
-4.663338598651755478e-15 -7.728912070673265191e-15 4.123658443022918067e-15 8.268592226302099447e-15
0.000000000000000000e+00 0.000000000000000000e+00 0.000000000000000000e+00 0.000000000000000000e+00
-2.839331589754750284e-15 -8.959718439708574920e-15 -2.266032938729192933e-15 1.406508296819251498e-14
-1.363318177727230381e-13 3.526312533509469282e-13 -2.035760167716356791e-13 -1.272341880658878065e-14
-7.123764937074743933e-15 -2.263334914339239793e-15 4.096329974456331312e-15 5.290769876957651231e-15
-1.323798025474070196e-15 -3.773128899647863575e-15 3.219638082131198792e-15 1.877288842990736163e-15
0.000000000000000000e+00 0.000000000000000000e+00 0.000000000000000000e+00 0.000000000000000000e+00
-1.429638745851765656e-13 2.835966202642276611e-13 -1.909483110721747059e-13 5.031556539312383761e-14
-2.142017388415306121e-14 -1.597493645165128768e-14 4.239133337176638528e-15 3.315597699862773481e-14
-1.336079973447335778e-14 -1.711542144160476586e-13 -1.069355862081640124e-14 1.952085727713372252e-13
0.000000000000000000e+00 0.000000000000000000e+00 0.000000000000000000e+00 0.000000000000000000e+00
5.087178567465594447e-15 -7.114807731148761094e-15 -8.678058782733787873e-15 1.070568794641695215e-14
-6.752634064097436919e-14 -5.599686718099547345e-14 -6.715391529664354997e-14 1.906771231186132727e-13
-1.110379355211279263e-15 -8.687619072473874030e-15 5.573673135770480380e-15 4.224325291914670941e-15
-9.015535592818314532e-14 -3.171510917840941314e-14 1.086235961657452595e-13 1.324686894084724374e-14
-1.723958528342895414e-13 1.597511799945272394e-13 -1.019250265794905948e-13 1.145696994192529598e-13
-1.204543712049590470e-13 3.614577897555986870e-13 -1.763506687117807955e-13 -6.465274983885880668e-14
-1.565921187569979847e-15 -3.311998126717949819e-17 -1.202043645295244840e-15 2.801084814132404141e-15
0.000000000000000000e+00 0.000000000000000000e+00 0.000000000000000000e+00 0.000000000000000000e+00
0.000000000000000000e+00 0.000000000000000000e+00 0.000000000000000000e+00 0.000000000000000000e+00
-6.883594369838464461e-15 -7.733729702236641152e-15 1.967576812937688920e-15 1.264974725913742300e-14
2.131434405088614482e-14 -3.820520001828601199e-14 2.150850160658926328e-14 -4.617645639189390593e-15
-1.210289121112956361e-13 5.706346058887404506e-14 -5.521414067248624323e-14 1.191795921949078405e-13
-1.019830870447037796e-13 1.406006069630152975e-13 3.188902246239380748e-15 -4.180642216455094589e-14
-5.527618821497904600e-14 2.551483318970527123e-14 -2.736070332671743938e-15 3.249742535794542444e-14
-6.891154051809271447e-15 -1.542502073272331094e-14 -8.594348771909448016e-15 3.091052355644203356e-14
-6.588043269364243450e-15 -7.576084323085754710e-15 1.192371358482607430e-14 2.240414007623923463e-15
0.000000000000000000e+00 0.000000000000000000e+00 0.000000000000000000e+00 0.000000000000000000e+00
-3.324884248223240424e-15 -7.784624703219372722e-15 1.134295640795583882e-14 -2.334474565132268026e-16
9.161721106575029014e-14 -5.877974097933780720e-14 -7.908203188222505097e-14 4.624456179581237238e-14
-2.394890933763202160e-15 -6.834789835183756160e-14 -4.855961623798247549e-15 7.559875090939887563e-14
-2.200959661918711113e-15 -9.332112165845982817e-15 -6.472912777788682261e-16 1.218036310554356620e-14
-2.230360847935333347e-14 -5.646247779977409113e-14 3.327615271731391251e-14 4.548993356181350578e-14
-9.398214174878185049e-16 -1.282579033083036883e-14 1.210825834952343291e-14 1.657353398794758765e-15
-2.035307142562827603e-13 9.128912814203229890e-14 -2.829284651479468157e-13 3.951700512621970373e-13
-8.975116103533627187e-17 -5.162047660328292316e-15 -2.241630763352570458e-15 7.493429584716202596e-15
6.507503225727281976e-15 -5.962375915032241939e-14 3.228316706128559408e-14 2.083308886330957805e-14
5.935489140874980397e-13 -2.734480521097194027e-13 -2.159538414489472162e-13 -1.041470205288308402e-13
2.165100648577728260e-14 -6.517291704118729889e-14 4.324943128578517273e-16 4.308941624255224296e-14
1.729785337584001363e-15 -4.058088635451896966e-14 1.660760304530647222e-14 2.224349797162851323e-14
-7.138946419349048177e-15 6.118476097169356810e-14 -3.767767621800089591e-14 -1.636813833434361928e-14
0.000000000000000000e+00 0.000000000000000000e+00 0.000000000000000000e+00 0.000000000000000000e+00
-8.360892488816756377e-14 5.836106657169070460e-14 -3.324415345915301484e-14 5.849201177562992449e-14
3.050492764349472845e-14 -6.106074647671596446e-14 2.176104325052998525e-14 8.794775582691233399e-15
-7.175095326737355142e-15 -1.344192535048109899e-14 -1.862978895282014651e-14 3.924680963003858329e-14
-1.771551387153744011e-14 7.612579935965234456e-14 -5.242798854705816220e-14 -5.982296941056735941e-15
5.844639571973636117e-14 -6.166851909370438100e-14 1.574726155425568206e-14 -1.252513818028756600e-14
3.777096728976432555e-13 7.916373505452379712e-13 -7.293516788220704908e-13 -4.399953446208083630e-13
-2.231344636214291500e-14 2.388605033066189455e-13 -1.144922782197180894e-13 -1.020547787247581967e-13
1.200464865107345685e-13 -1.831030392400257981e-13 3.688673184503107975e-14 2.616982088426021606e-14
2.086285700863948365e-14 -1.250395154954527203e-13 5.290368460381670448e-14 5.127297388299644702e-14
1.138036212473232195e-14 -1.194109492510344968e-14 -3.604730625103709561e-15 4.165463425474840445e-15
-1.941298458362705871e-15 -4.449365901013345383e-14 -6.964216114265461732e-15 5.339917358276160527e-14
-6.521597220587263217e-14 1.619595796195637111e-13 -5.628405935589406956e-14 -4.045954805779696516e-14
3.255659643143293545e-14 -3.558024712990915122e-14 -5.405778006411947047e-15 8.429428704888165975e-15
-2.001243236706599006e-14 -7.409372321990489327e-14 5.040440995020150165e-14 4.370174563676924915e-14
-4.371981882154151618e-14 2.774713547364201135e-14 1.385961336782203924e-14 2.113069980077439164e-15
-5.170134004223750149e-14 1.795569377124058787e-13 -8.528849948052167751e-14 -4.256709818964661765e-14
-2.440847016237165088e-13 4.141387439770809924e-13 -2.519909649187800336e-13 8.193692256541527232e-14
-1.481666470183905998e-14 -1.980333513814832311e-14 -1.693292796648897416e-14 5.155292780647636040e-14
0.000000000000000000e+00 0.000000000000000000e+00 0.000000000000000000e+00 0.000000000000000000e+00
-7.344809920346182555e-12 5.949629597355304597e-12 4.372247671292979124e-12 -2.977067348302060777e-12
-2.886811681593180248e-14 -2.826244056963378087e-14 4.372525446662798356e-14 1.340530291893761241e-14
1.009703510130314593e-14 -4.816164827431459098e-15 -8.292104092082018536e-15 3.011233818210330913e-15
1.631901295345777767e-15 -6.544051552472780773e-15 -6.685661097965564462e-15 1.159781135509256451e-14
-1.750905109029279184e-14 -2.262860979327560917e-14 4.488862660708963149e-14 -4.750965723521225751e-15
-3.938027182738145679e-14 -4.033253828550938636e-14 8.648598824151809234e-14 -6.773178128627209745e-15
-1.868435486414909414e-13 1.168672380854433455e-13 6.439851446077823462e-14 5.577796095269557665e-15
5.918003452566230485e-15 -6.657486021985891025e-15 8.122699987534690981e-16 -7.278742933380767032e-17
-9.260026876431274997e-15 -4.513980834488927513e-14 4.023277836459427627e-14 1.416705685672632277e-14
-2.184916933108603992e-15 -1.947053551440833644e-15 6.710658737523306006e-15 -2.578688252973868764e-15
0.000000000000000000e+00 0.000000000000000000e+00 0.000000000000000000e+00 0.000000000000000000e+00
-3.892688522964905336e-15 -2.649677399931993968e-14 2.637205268625523957e-14 4.017409836029599132e-15
-5.358296727016102343e-14 1.923026352047084304e-14 1.405089981086410368e-14 2.030180393882606409e-14
0.000000000000000000e+00 0.000000000000000000e+00 0.000000000000000000e+00 0.000000000000000000e+00
0.000000000000000000e+00 0.000000000000000000e+00 0.000000000000000000e+00 0.000000000000000000e+00
0.000000000000000000e+00 0.000000000000000000e+00 0.000000000000000000e+00 0.000000000000000000e+00
0.000000000000000000e+00 0.000000000000000000e+00 0.000000000000000000e+00 0.000000000000000000e+00
0.000000000000000000e+00 0.000000000000000000e+00 0.000000000000000000e+00 0.000000000000000000e+00
0.000000000000000000e+00 0.000000000000000000e+00 0.000000000000000000e+00 0.000000000000000000e+00
0.000000000000000000e+00 0.000000000000000000e+00 0.000000000000000000e+00 0.000000000000000000e+00
0.000000000000000000e+00 0.000000000000000000e+00 0.000000000000000000e+00 0.000000000000000000e+00
1.007645753982768763e-14 -2.304829168822082850e-14 1.948575094789207903e-14 -6.513916799498932646e-15
-1.428793740389899157e-13 4.210105906099631909e-14 2.143173523615403163e-13 -1.135390373835463727e-13
2.382310310487368320e-14 3.488303595875876332e-14 -6.192772428435366066e-14 3.221585220721185343e-15
-7.922093495074614206e-14 -8.862370645702451805e-15 8.753978036617108241e-14 5.435252302777779910e-16
-1.555033277422606644e-13 1.551770804541526978e-13 7.130688658515060850e-14 -7.098063929704357587e-14
4.389114172840553303e-15 -2.848507206330569346e-16 -3.296272195900142965e-15 -8.079912563073533544e-16
-1.189690452234592892e-12 8.229523522291627781e-13 4.560374788397084868e-13 -8.929937883427829736e-14
-1.287557530856212205e-14 7.779766231083431830e-14 -2.193385989467453672e-15 -6.272870101280467829e-14
3.212146062745560509e-14 -1.720564787662836974e-13 9.015681061429455488e-14 4.977820752453356271e-14
-4.099651294797348732e-13 3.641894414355419496e-13 3.331247058076726787e-13 -2.873490177634794522e-13
-5.256216778205031568e-14 4.693744668752382607e-13 -3.793233064766230354e-13 -3.748899261656589414e-14
-5.202487060331572984e-14 1.282985058508972084e-13 -7.305193580024861773e-15 -6.896844166755665783e-14
-1.008141053106106199e-12 3.513984370209706942e-13 -4.450633117623535276e-14 7.012489472613638904e-13
-1.612537257629187906e-12 1.212811193378081584e-12 2.082383666565642443e-13 1.914876975945466214e-13
-1.210613578796736062e-12 7.337348605540732848e-13 1.070670447098436308e-13 3.698116735328167865e-13
0.000000000000000000e+00 0.000000000000000000e+00 0.000000000000000000e+00 0.000000000000000000e+00
-7.774381707273982970e-13 2.605540389144308784e-13 2.468861647213740745e-13 2.699979670915941519e-13
2.671375511785543087e-14 -1.027517285986811401e-13 5.430383718881745154e-14 2.173413629200823561e-14
1.756882989828732276e-13 1.353669150177688221e-13 -2.884454494570250412e-14 -2.822106690549398990e-13
-5.596146275999495511e-13 -2.241803841477966287e-13 2.094269610516341222e-13 5.743680506961124615e-13
4.514206888270894570e-14 -4.122560164081692038e-14 7.164200472829359142e-15 -1.108066771472136395e-14
-2.378337219285749748e-13 2.016669569681084607e-13 -2.038882898237132358e-13 2.400550547841793208e-13
2.013975025797671129e-13 -2.637630262702887644e-13 1.986087216343419948e-14 4.250465152708747096e-14
-4.502679540950575926e-15 -7.391679332883239475e-14 6.369656756610008034e-14 1.472290530368292662e-14
-1.152193302606057357e-13 -8.341313396539076490e-14 2.781500534298581737e-13 -7.951758920386196339e-14
1.187735497596231137e-13 -6.442765597205695847e-14 -5.097489099138868008e-14 -3.371002796177503919e-15
2.842072382489348974e-14 -1.011786359891448799e-13 2.920679893051193583e-14 4.355111323373942591e-14
2.729869144091134828e-13 -3.080851650965587546e-13 -3.776389105426005442e-13 4.127371612300467753e-13
6.629564013815320541e-13 -5.089305206840209028e-13 3.415212902121568328e-13 -4.955471709096685394e-13
-4.087076363366103095e-14 -2.132594747158325028e-13 -1.480725730757051298e-13 4.022028114251984995e-13
-1.112927892863766982e-13 2.152428906375999663e-13 -1.960044452843965733e-13 9.205434393317339350e-14
2.119290126771722494e-13 -6.122464223077050202e-13 -2.520317230167919446e-13 6.523491326473259019e-13
-7.589622190950772295e-15 -1.169840702893883501e-14 7.223425597610690122e-15 1.206460362227892507e-14
5.062737116635367615e-14 -6.852978724599685092e-14 -3.835449567025414764e-14 5.625691174989732242e-14
2.418946813827137948e-15 -6.345854323372251365e-15 -4.331366191930388300e-15 8.258273701475500533e-15
9.865398524896151983e-15 -1.489718453914821425e-13 7.229409738972163577e-14 6.681234947686456936e-14
-1.163030719170993738e-13 1.225705865920951502e-13 -3.257342801038683216e-14 2.630591333539095484e-14
1.649687392927189774e-13 -2.653386587441243232e-13 -2.359410057503718812e-13 3.363109252017765201e-13
1.144595381626190120e-13 -6.979920070804179811e-14 -1.854185416986017734e-14 -2.611848328471699867e-14
6.258672273011390184e-14 -7.523686392023455010e-14 -5.621714825796562073e-14 6.886728944808621220e-14
4.200136277104070642e-14 2.005538953732848661e-14 -4.663781098231303193e-14 -1.541894132605612954e-14
-3.587368709428193373e-15 -5.787905533264873447e-15 6.746035179084290599e-15 2.629239063608777010e-15
4.220455586642449226e-14 -6.293157525757698552e-14 -1.285332440591240951e-14 3.358034379706493432e-14
-4.687000771692979611e-15 -3.765305056922248670e-14 4.711435070310094591e-14 -4.774299362185501678e-15
2.923350558027406489e-14 1.527851879978410518e-13 -1.003864790449690711e-13 -8.163221453314612128e-14
-5.945054905804197211e-14 7.435470109127400805e-14 -1.229720987022349625e-14 -2.606942163008504591e-15
-1.070762364845847347e-15 -1.008004836950142144e-14 -3.812950263536362972e-15 1.496376099788363275e-14
6.209438913994813297e-16 7.966638032776183414e-14 -5.843468449260050595e-14 -2.185263972656080872e-14
3.598765398052019955e-15 -5.066429266266655402e-14 4.737564632768061846e-14 -3.101190630660883305e-16
-7.516459964418243356e-15 3.657331541332986717e-14 -2.763469198992427628e-14 -1.422163458987373559e-15
6.083743460188046510e-14 -4.994035876650686381e-14 -4.364777721686702466e-14 3.275070138149337288e-14
2.590016606288572309e-14 -9.762486041056290790e-15 -9.592386820456256083e-15 -6.545293201373178579e-15
-3.493736815077412765e-14 2.008206285758794325e-14 -4.822448792851480209e-14 6.307979322170092654e-14
-4.853513036078872226e-14 7.995861984229630787e-14 -2.683166868416891556e-14 -4.591820797338671624e-15
1.551825426430400910e-13 -1.266487255078047762e-13 -3.651690375038653152e-14 7.983086615151054178e-15
2.262680274342806949e-14 -9.570572226833080053e-14 2.300871411768291590e-14 5.007020540721983407e-14
-2.189943805721142431e-14 -2.029515064578297357e-14 5.947053941072788068e-15 3.624753476192159483e-14
-2.349132655242520029e-14 1.557148760557729764e-13 -7.220180207592665197e-14 -6.002174742742114626e-14
6.420592618484746498e-14 -1.216437303835666360e-13 1.890319959041049803e-14 3.853460460830859091e-14
-3.435604090295708719e-14 -8.583170112529533471e-14 2.331029099787052855e-14 9.687745103038194699e-14
0.000000000000000000e+00 0.000000000000000000e+00 0.000000000000000000e+00 0.000000000000000000e+00
-1.839039553378581056e-14 -3.066721290127380554e-14 -2.815562662097909959e-15 5.187317109715754894e-14
-6.901469915572133876e-14 2.250022185028139129e-14 -3.292541386987232326e-14 7.943989117531229598e-14
-1.201150594387135634e-14 -1.774134968455736177e-14 -3.282096979710077975e-14 6.257382542552948681e-14
2.778888254818488941e-14 -1.748581818934754654e-13 -1.749661457433498326e-14 1.645659139196253636e-13
-4.757310178536083322e-14 -8.134446804130104679e-14 -5.797069359721829288e-14 1.868882634238802486e-13
3.784241829982383562e-13 -2.924395010635957161e-13 1.684630598051685036e-14 -1.028309879151591591e-13
-3.479951308348672730e-14 8.708540347533318604e-14 -6.183449836488796317e-14 9.548607973041556496e-15
1.015878981640284435e-15 -4.259154498129067835e-15 1.028510603121486978e-14 -7.041830514726087958e-15
-4.064347976409982856e-12 3.174412656049497680e-12 3.015151347483445666e-12 -2.125216027122976645e-12
-7.804364085380482174e-14 2.228080007135033513e-13 -1.222740049977954533e-13 -2.249035486190311413e-14
-2.218538108833777427e-13 8.188969544296023196e-14 -7.460756591464259306e-14 2.145716813550600154e-13
-1.257948203164406118e-13 3.920540758984931943e-13 -1.837714151069471098e-13 -8.248784047510501832e-14
5.997588027945565185e-14 -2.773769399607357319e-14 -7.505469359589712197e-14 4.281650731251497705e-14
9.104972532242318481e-14 2.449832558839682308e-14 8.890103153440696891e-14 -2.044490824452267622e-13
1.140690767430102671e-13 -2.533513507079686570e-13 3.640950593495108214e-15 1.356413233714635042e-13
4.550051929244842996e-13 6.208486637458937037e-14 -4.007101345855189481e-14 -4.770190458405214597e-13
7.719332410351924248e-14 -9.360565709020988978e-14 -1.578473178051716468e-14 3.219706476720791295e-14
-2.371777886913435352e-13 -1.045867805241268804e-12 -9.320459325198851376e-13 2.215091526452498941e-12
-9.489609346941501182e-15 -1.731583306814954356e-14 2.866022578409974943e-14 -1.854783369008695221e-15
1.612009304563355020e-12 6.049222049320048973e-14 3.952337609144266624e-13 -2.067735285970980001e-12
4.200010692519060121e-14 -6.911036444823838279e-14 -7.806568966146207352e-15 3.491682648919396053e-14
-2.413041408098917007e-15 -5.148313913967228349e-15 7.170939579578494856e-15 3.904157424876502041e-16
-1.212720240241592995e-13 -9.264922595201236256e-15 -1.275088100410792348e-13 2.580457566604397295e-13
-3.837513305115232159e-13 -4.314770333224866339e-13 2.342139240220157008e-13 5.810144398119932402e-13
-5.316048961928939384e-13 -9.735338877598718507e-13 4.105615898869596386e-13 1.094577194065808473e-12
5.273739988630182859e-15 -1.618601721285036664e-14 6.661992481831004098e-15 4.250284742389171004e-15
-2.825303126425360709e-13 1.655614289391911100e-13 -2.506890078803199224e-13 3.676578915836656406e-13
7.051921092914631421e-14 -1.431207841706554133e-13 -8.635190689552777711e-14 1.589534801370369520e-13
-7.468073099326280401e-14 2.226908705194602771e-13 -2.785497728762373355e-13 1.305396333500388905e-13
-8.714807379598670428e-14 -1.914726043928460430e-13 -9.504588219992189582e-14 3.736665603887546178e-13
4.650467977011141143e-14 -1.121910568773264165e-13 -2.768371303567765656e-14 9.337009014289278150e-14
-1.324209372923043753e-13 -7.303407258673871596e-14 -6.245577527343715357e-14 2.679107851524798157e-13
5.834045824545152121e-14 -1.062898295669036498e-13 -1.237393913730373281e-14 6.032331045875581091e-14
-7.993345273594795595e-14 1.586263102117201161e-13 -1.558618559420212651e-14 -6.310667188157003045e-14
-1.026614172134492818e-13 4.251432008513506180e-15 -1.500446503009849869e-13 2.484546355059206529e-13
8.025079356260153816e-14 -1.368963290081364319e-14 -4.537549249764622721e-14 -2.118566816414166777e-14
-2.208974863601082340e-14 6.211328360611776341e-14 -2.804232844065159608e-14 -1.198120652945531080e-14
-4.999650196636300277e-14 -1.051785568954424452e-13 -5.476600268764556100e-14 2.099410615494508512e-13
3.674717660029931109e-14 -2.733034714999655838e-14 7.185646801312197644e-15 -1.660247625161494088e-14
-4.056161336594001475e-14 5.577071318334544512e-14 -1.661536109938342165e-14 1.406261281977992263e-15
-1.680290559593087726e-13 4.301674975504398653e-13 -1.434168327412956457e-13 -1.187216088498354722e-13
-1.035896872649318571e-13 3.630286079482820945e-13 -1.181196263984921747e-13 -1.413192942848582646e-13
-1.736547006521837828e-13 2.014886687332430511e-13 -2.485377540689884051e-13 2.207037859879296417e-13
-4.699804109809747103e-13 -1.105881419402095740e-13 -2.591831784676894361e-13 8.397517313888722562e-13
3.154012891913081227e-13 -5.811135001395824225e-13 -8.621115022870592826e-13 1.127823713235337167e-12
3.807474819945262441e-14 1.023121526730853175e-13 -1.745569156205020308e-13 3.417001474796422767e-14
5.383594386132399476e-14 -4.963537880635902669e-13 -2.805457081840901372e-13 7.230635523863558667e-13
-5.659287131464951214e-15 1.870213098145046264e-14 -5.107775578666784394e-15 -7.935068271318719936e-15
-6.651123723206316010e-14 8.917444562390874082e-15 -1.654529464434373108e-14 7.413908731401608651e-14
8.777416725446730695e-14 -4.848050037595370871e-15 -6.173147052985061296e-14 -2.119464668702128053e-14
0.000000000000000000e+00 0.000000000000000000e+00 0.000000000000000000e+00 0.000000000000000000e+00
1.716395881749791934e-14 -1.795776069577135137e-14 -1.355295378702029366e-14 1.434675566529372411e-14
2.798463695452894595e-14 2.356451203098268302e-13 -3.071542261621730837e-13 4.352446889781707713e-14
-2.488424786507822187e-14 -1.724289943201745606e-14 -7.176826996395651191e-15 4.930397429349133859e-14
-3.409307366595272720e-14 -1.540724872531098778e-14 -1.307490531079192814e-14 6.257522770205558948e-14
6.455706985999618711e-14 -1.033864983198593819e-13 2.454337199603925632e-14 1.428605646382389428e-14
-9.349590235471420766e-14 1.415696650983903672e-13 -2.969569065357080121e-14 -1.837807209010532682e-14
-1.054155588496247137e-13 -1.379065843123942187e-13 -2.157591861914007299e-14 2.648980617811587971e-13
-7.113105572340042100e-14 -1.280585422118244850e-13 3.346954763271635352e-14 1.657200503025081423e-13
2.795991698169654705e-14 -2.972970739303600430e-14 -1.740789508759065828e-14 1.917768549893012500e-14
-2.535899642894284862e-14 -8.999284419368874912e-14 8.190736996585714547e-15 1.071611036260457870e-13
6.456363378779726882e-15 -4.269983261846006680e-14 -2.682432525500670003e-14 6.306779449468704626e-14
-5.377094286089644725e-14 2.645421595179431787e-14 -4.833117183905537186e-14 7.564789874815758644e-14
4.216946116986491713e-16 -6.340618373903671456e-15 -1.816725590215522168e-15 7.735649352420545045e-15
-6.045703395874192409e-14 5.006689504257261623e-15 9.134417809232535598e-15 4.631592664525214738e-14
5.642669063159085806e-15 -1.223178042759000475e-14 -2.280849316218851729e-15 8.869960680649773828e-15
-2.815642529181452989e-14 -7.868124859844039811e-14 1.458284441312329292e-13 -3.899077024097790341e-14
3.429451672506453669e-14 -1.619680210012811223e-14 6.811300420814940632e-15 -2.490901504575137219e-14
-1.597931466867005354e-14 1.016531405873960069e-13 -8.280025495460796797e-14 -2.873570964117905690e-15
2.126750415395477133e-14 -7.836414262012184638e-14 6.544224105246484520e-14 -8.345602586297725980e-15
-1.534200291086370634e-15 -8.416253410938793798e-16 -1.232467495653220952e-15 3.608293127833471162e-15
-3.011163657707050129e-14 -4.412097614768108501e-14 4.607037440060510840e-14 2.816223832414644004e-14
8.367468634262095913e-14 -6.069369413346291676e-14 -4.480724634047411880e-14 2.182625413131603541e-14
-2.117743133567568186e-14 -5.396905731405020465e-14 4.282453672762603009e-14 3.232195192209986274e-14
-1.089828117941940605e-12 1.794151221829425683e-12 -4.662419542727439547e-13 -2.380811496147401135e-13
-6.264312135793745367e-15 -1.198642138083595765e-14 1.310345085707147005e-14 5.147282659558231392e-15
-1.551370022170195990e-15 -7.147366933427738466e-14 5.189641627912657318e-14 2.112862307732100233e-14
-4.151999640244191583e-15 -6.529393621358387873e-14 5.102531507989489444e-14 1.842062077393314904e-14
3.360425033866212193e-14 -3.242065852689481826e-14 -3.960338417366513559e-15 2.776746605599220151e-15
-2.319623275312614508e-14 -1.976969193134882360e-14 1.067540739228080132e-15 4.189838394524689130e-14
3.324117000023136317e-15 -1.311884184512065436e-14 7.380794639500120662e-15 2.413930205597392652e-15
1.760786482856794415e-14 -2.635202110787625075e-14 -1.017457644541372718e-14 1.891873272472204640e-14
-1.572860449625363488e-14 -1.938303464567332797e-14 1.272817603933647174e-14 2.238346310259048322e-14
-5.266408513068654909e-16 -6.820856773142542544e-14 3.679851003981437951e-14 3.193669854291788795e-14
-1.995508051701601996e-14 -3.534875740217715375e-14 3.207096919125372709e-14 2.323286872793944978e-14
4.863074367589852478e-14 -6.433663973030388596e-14 1.203815217760745566e-14 3.667743876797904730e-15
7.828106203595233581e-15 -5.127120684206479226e-14 2.690617084475124670e-14 1.653692979371832776e-14
1.911149928681338990e-12 -9.608011470701718733e-13 -3.647333145216772744e-13 -5.856154670894925687e-13
4.927572046003478231e-14 -4.103709932332263116e-14 -4.067457072047996275e-15 -4.171164064664151717e-15
-3.201304614072135148e-14 -1.865200427230427708e-13 -3.946847848751525821e-13 6.132178737389167801e-13
1.444103417311609131e-13 -8.580552129676902549e-14 -8.615378576705604797e-13 8.029330372361703087e-13
4.303744067942641503e-14 -7.116509426464415441e-14 -4.328074100342874794e-14 7.140839458864651257e-14
-6.040959162522921305e-14 -2.681813058633242355e-13 -4.986800678654373583e-14 3.784589042750965028e-13
7.311382186609215204e-15 -1.370553623208380422e-14 -1.202631071714178166e-15 7.596785117188766589e-15
-3.478274648321780433e-15 -1.187712431274600906e-15 -3.355921761844938175e-15 8.021908841441320303e-15
2.867588017591569241e-14 -6.634414135369487801e-14 1.050152428608623969e-14 2.716673689169293171e-14
-2.135263537203327621e-15 -2.539808663328229789e-15 2.205337121237168766e-15 2.469735079294388249e-15
0.000000000000000000e+00 0.000000000000000000e+00 0.000000000000000000e+00 0.000000000000000000e+00
2.070207413895117946e-14 -3.771276868136575597e-14 1.159278390234527548e-14 5.417910640069304189e-15
-3.821985345719347596e-13 8.988072153102659102e-15 3.308675355595169555e-13 4.234292685931570982e-14
-4.447878372643711273e-14 -4.246566422015946576e-14 3.474204261065404332e-14 5.220240533594252255e-14
1.756530984057516152e-14 -8.025600384905298059e-15 -5.697016304704777782e-15 -3.842693150965087258e-15
7.948931342489331175e-15 -9.733383158781290197e-15 1.107976055637251533e-14 -9.295308740080554728e-15
9.090840551603623981e-15 -3.986359132836759625e-14 6.488184773659374651e-15 2.428456600310457790e-14
-2.321979315592707999e-14 1.052750299660316927e-13 -7.611330220733130296e-14 -5.941934602773263249e-15
1.776917039084537086e-13 -1.560728728930782896e-13 1.747876433229605072e-14 -3.909759534767133721e-14
-6.264198353504410252e-14 1.251419950435739859e-13 -9.360862727033534242e-14 3.110861576180547798e-14
2.593993888636250657e-15 -3.931188320091376632e-14 3.121529571852348568e-14 5.502593593754033136e-15
-6.965929519399962281e-16 -1.120100571727341798e-15 -1.529356298076949932e-15 3.346049821744288254e-15
7.309576028092744829e-16 -1.430387082106157337e-15 4.117605009288613497e-15 -3.418175529991731826e-15
5.313485022416394150e-15 7.347115442460200500e-14 -3.609257191094576212e-14 -4.269206753607259207e-14
-1.068883614907771852e-14 -3.175075822169486091e-14 2.448972362107003699e-14 1.794987074970253770e-14
9.457569975311856804e-15 -2.267259290690489926e-14 1.968638301440911288e-14 -6.471360082816066479e-15
1.203394506486433716e-14 2.975706817609645603e-14 -1.418672847011209197e-14 -2.760428477084865073e-14
2.948295875148934223e-13 -8.627218332583072909e-14 -6.097486303528884655e-14 -1.475825411537739855e-13
-1.101083845876217700e-14 -5.645288300657865211e-15 -5.921406662033772478e-15 2.257753342145380995e-14
3.748764445348875104e-15 -5.416495960034671517e-15 3.842011566570321506e-15 -2.174280051884523515e-15
-3.557351592607489615e-15 -6.255866674737834142e-15 9.109451577638612184e-15 7.037666897067114745e-16
1.274008917223246301e-13 -7.378498280467061313e-14 -3.334011296505761917e-14 -2.027579595259640095e-14
4.557600575897947233e-14 -3.728626669504152774e-13 -4.278067019038706695e-13 7.550933630953064872e-13
-1.174909815335150929e-13 3.951246193922990961e-14 -8.583341637639410320e-14 1.638119359706787500e-13
1.073061504161533640e-14 -4.687410893550009298e-14 -5.895131408251844544e-15 4.203862530213658378e-14
-2.876352014409379037e-13 1.947060889376976857e-13 -4.005175011160832507e-13 4.934466136193216259e-13
1.763962619927850677e-14 4.049075700052720108e-14 -8.641462313223655342e-14 2.828423993243089290e-14
-5.570052908374152119e-14 -3.610563386444634822e-13 -9.273825519470819761e-14 5.094951229229135481e-13
1.356319096190237739e-13 -1.654482908087148396e-13 -1.905478269486932436e-13 2.203642081383841326e-13
-4.674357228052488412e-13 -2.568235464285130459e-13 5.770234958649191701e-13 1.472357733688436006e-13
-2.594209951432618338e-13 -6.321892380707812993e-13 -9.652168621776122957e-14 9.881319194318077074e-13
-2.895817404689295715e-14 -2.450938214296942579e-13 6.894670021140035139e-13 -4.154150066374158823e-13
-4.191572394557256030e-13 6.466609013586490106e-13 -3.519173808942535512e-13 1.244137189913296135e-13
-3.444807115719900842e-15 -2.634619174702596632e-15 -2.706759850411164022e-15 8.786186140833661890e-15
6.844156605623847955e-15 -6.702618638178393762e-14 -2.589308651134875522e-14 8.607511628750883226e-14
6.523431585664855216e-15 -8.130981340432908717e-15 -8.079579163407836894e-15 9.687128918175888817e-15
-1.106615388038944353e-14 -2.947213634893177028e-14 3.735682493050345119e-14 3.181465298817753945e-15
3.176570276809905558e-14 -1.382952286449884051e-13 -1.431697158055851837e-14 1.208464974574476691e-13
-1.809842662980477185e-15 2.373017218747931473e-13 -2.493150975662898818e-13 1.382321835447793828e-14
-7.552783768331536688e-14 -9.832560425404802726e-14 2.771680899702055856e-14 1.461366329403427693e-13
-1.958412626386668518e-13 -9.415946334842746261e-15 1.626985978068546557e-13 4.255861116665483821e-14
-3.949765636756536661e-14 -5.072279262040759764e-14 5.234038036809683860e-14 3.788006861987614459e-14
4.200402439279970573e-14 3.869473064582266974e-15 -9.635712456154843230e-14 5.048362710416639412e-14
-6.415748305953696708e-14 1.411255354689657193e-13 -2.054655235315370391e-13 1.284974711221082616e-13
-8.671972431612949714e-16 -5.623839316449888296e-16 -5.838846681916128755e-16 2.013465842997896972e-15
4.080272467240329675e-14 -9.714308616533284139e-14 5.348103699428299481e-15 5.099225779350120887e-14
1.188675926502840266e-13 -2.257510837809241926e-13 3.802677991617967505e-14 6.885671121446040889e-14
8.651643695016595691e-15 -3.694177710835169275e-14 -3.385410777739408102e-14 6.214424119072913706e-14
-1.352683206834371428e-13 2.164036918487797150e-15 -4.925659949065259132e-14 1.823608832556019307e-13
-2.368485372183619998e-14 -1.828660414185369634e-14 -1.009775045402587942e-14 5.206920831771577101e-14
9.661233569193289101e-15 -2.757520257343157493e-14 -7.891820395313799050e-15 2.580578939955208488e-14
-2.124999803940495170e-15 -3.383543981320227973e-14 4.107516714929575641e-14 -5.114727532152985844e-15
-7.574636773620061224e-14 -1.529926962069877934e-13 -7.620751733362107503e-14 3.049465812768097836e-13
-3.058908444974549262e-14 -5.513820896218431133e-14 -1.933953760073050485e-14 1.050668310126603309e-13
6.991743528882364398e-15 -2.805121261420076016e-13 -1.635419925763350476e-14 2.898745818707591900e-13
-7.111719744639756775e-15 -1.859372208415301656e-14 8.572035204243908799e-15 1.713340662454886296e-14
