-3.985323241433484638e-14 -3.462650556996101777e-13 -1.903638874006607845e-14 3.295554839177141628e-14
-9.312673008142248513e-15 -3.809982834414679485e-14 -6.266297807026329339e-15 7.745376298823194185e-15
-5.366971006198689465e-15 -3.082266669844695157e-14 -5.642545422138453005e-15 5.813043804216196081e-15
-7.477354802977413326e-15 -2.137668428560557628e-14 -4.449564470317079142e-15 5.679464830152583954e-15
-1.470954131308457566e-14 -7.040477831420542505e-14 -8.772899047046705536e-15 1.183364312465906356e-14
1.186491511234370222e-14 6.638490567916487612e-16 1.694604291925876323e-14 -1.382777071715261143e-14
-1.846964345313629744e-15 -3.074758768928359949e-14 -1.064081008391785701e-15 1.966839924683439428e-15
-6.319595590648578939e-15 -9.429914842383974401e-14 -5.923737260685490142e-15 7.767880479970040078e-15
-9.472407447947743590e-17 -1.310790174154121327e-15 -5.541279962969903209e-17 9.524601546989820886e-17
9.254256636492289395e-15 3.228369085397978951e-15 6.954359389778723505e-15 -7.313431025543118912e-15
-1.755270574646366789e-15 -2.973310959492680885e-14 -1.030474886726567899e-15 1.891775501127353002e-15
-4.553801312615056272e-16 -6.081902513013962230e-15 -2.746481375551873047e-16 4.575127898000453593e-16
-3.502538885263837308e-16 -5.144559080110148143e-15 -2.762470270242408921e-16 3.992684763263587830e-16
-4.922546135353931708e-16 -6.086371703666245280e-15 -2.754234263127251123e-16 4.712633220366918172e-16
-5.154289931961756255e-16 -6.882253359963476872e-15 -3.515781371939244593e-16 5.407778774547740826e-16
-9.169377066726291829e-17 -1.014478094356797348e-15 -3.360612166521781980e-17 7.506442355608663552e-17
-6.542494091221596660e-16 -6.544275067937498722e-15 -2.954678662994193122e-16 5.511048216555789714e-16
-2.047718736161907067e-16 -2.208346522517100844e-15 -9.521396060940171754e-17 1.777016521072908484e-16
-2.061100790318775004e-16 -1.599550214257664030e-15 -1.296405950160272758e-16 1.836526998390777676e-16
-2.607441564800510759e-17 -2.129626864490525552e-16 -1.791594072152239257e-17 2.433163685880137641e-17
-2.591524343468980293e-15 -1.784494716119054445e-14 -6.911947809533815184e-16 1.727454343262747345e-15
-4.663753192536332488e-15 -7.700006628444148329e-14 -4.729496373365441450e-15 6.104309865768006589e-15
0.000000000000000000e+00 0.000000000000000000e+00 0.000000000000000000e+00 0.000000000000000000e+00
-2.559590663578220927e-16 3.212539040129617055e-15 -1.697724360656025316e-16 1.138625221136001807e-16
-2.012044275666797865e-16 -1.346080468833791512e-15 -1.263088358835054421e-16 1.742057022469445489e-16
-2.706946141161314228e-16 -1.527063304420169687e-15 -1.310765851308840056e-16 2.059395876227995119e-16
-9.541663765374126572e-18 -4.931817842044800197e-17 -1.329819788434033453e-18 5.299123614669468169e-18
-7.397381718755707407e-16 -4.340837307437709018e-15 -3.350047864918198836e-16 5.535377816686294736e-16
1.026575632844856980e-14 -3.701264831808994168e-15 -4.803933475930437684e-16 -3.321910377089377296e-15
-1.069560561268592679e-16 -4.784787429039568024e-16 -7.935316227061875598e-17 9.405997967189154656e-17
-1.317788392326547882e-16 -6.365353820774873106e-16 -9.477384728429616148e-17 1.152768030486996036e-16
-5.123000979262522577e-16 -2.136095628402394298e-15 -3.574820291360183086e-16 4.342058366363729479e-16
-5.058191371990600573e-15 1.390894849071355389e-14 4.162306142289113704e-15 -8.552369669041818612e-16
-3.461991058070140820e-15 -2.103851538885776272e-14 -4.167744306578102208e-15 4.074153544439970584e-15
-2.523533985517892587e-16 -9.437796163764141657e-16 -1.468492356040382642e-16 1.948995006417529778e-16
-5.912172668694670574e-15 -5.446880281764835968e-14 -3.757639556278521205e-15 5.486777692740652678e-15
-2.458860826496397679e-16 -2.144069485107469128e-15 -3.612993903409284616e-16 3.410971531749183102e-16
-1.588149953289870834e-15 -5.770556629736053700e-15 -1.843394248012871422e-17 7.116331470940492339e-16
-4.395778085145511861e-15 -1.692004577714469908e-14 -4.244652014432624109e-15 4.357691391910696608e-15
-6.333136413559098672e-16 -1.751410664404303987e-15 -5.157001994811878187e-16 5.580179767777832599e-16
-1.700411765094756623e-15 -3.874655871983919393e-15 -7.992942824748395136e-16 1.148999635392589646e-15
-1.607791396860749201e-17 -4.169501374999558368e-17 -1.287494662170813093e-17 1.398043304510104614e-17
-2.384432098367816703e-16 7.101845593816737657e-17 -1.484725199367402476e-16 1.675727182708160159e-16
-7.603620596276218756e-16 -1.941598742438442486e-15 -5.249046973381910718e-16 6.130870836099966165e-16
-1.699813416894326087e-16 -3.854751747211906077e-16 -9.965296522476991413e-17 1.259619472661353305e-16
-1.049961580411637203e-15 -8.908392066841458530e-15 7.315350941648714427e-15 -3.547359640139579654e-15
-1.546944900194955094e-15 -3.863811620671747867e-15 -1.005580206864274573e-15 1.210167292523695010e-15
-1.073945334477960330e-15 -2.252797115719075479e-15 -4.925109431944008445e-16 7.142857868050241781e-16
-9.282856838414435050e-16 -1.759614766774848428e-15 -7.689446713749438078e-16 8.067762431997017284e-16
-7.330029245320679699e-16 -1.839629464442087172e-15 -6.110168955996328796e-16 6.495372236604469388e-16
-6.559698686169299896e-18 -1.120764984749389135e-17 -5.630085847203672833e-18 5.783741731072429204e-18
0.000000000000000000e+00 0.000000000000000000e+00 0.000000000000000000e+00 0.000000000000000000e+00
-6.857879008303384528e-16 -1.230693004324897706e-15 -4.500303525041967140e-16 5.278281647154776670e-16
-3.252683124541142944e-16 -5.215501318247628136e-16 -2.525392651598255779e-16 2.709802215362457003e-16
-8.797368644389999752e-15 -1.593597549655773432e-14 -5.015259490768183542e-15 6.346865431918430600e-15
-1.549313967658941816e-16 -3.662969219387158942e-17 -1.026910508373881463e-16 1.142888340325455879e-16
-4.796139017873956209e-16 -5.007122373477564486e-16 -2.256515579454884335e-16 3.106269790751662785e-16
-1.858757645434163783e-16 -4.431036407474189625e-16 -2.613891003520102046e-16 2.242370274651169296e-16
-8.047176327636975846e-16 -1.084796954403512443e-15 -5.267842887203951050e-16 6.104004848373376999e-16
-2.951359861893995400e-16 1.235176068175737288e-17 -2.564122568526038911e-16 2.501332868519274788e-16
-1.600684856936950650e-15 3.460924370949248399e-15 -2.002831347280287250e-15 1.624237255928442390e-15
-8.082496810148163335e-17 -1.071899452865032564e-16 -8.350560172891915978e-17 7.853131305258274277e-17
-4.054175700301583724e-18 -4.753532001235520219e-18 -3.797409588523915717e-18 3.704094106802258673e-18
-7.890725928555762969e-08 -6.304230606837309631e-07 -1.188263807762172458e-09 4.338912247280948796e-08
-1.733045754220534526e-11 -1.425007126464393704e-10 7.188747989338086287e-12 5.418669538651815589e-12
-2.201743775574774526e-16 3.312743947424685818e-15 -1.501685095241671924e-16 8.768405551477777709e-17
0.000000000000000000e+00 0.000000000000000000e+00 0.000000000000000000e+00 0.000000000000000000e+00
-1.857506869998280535e-15 -4.649845810098764181e-14 -5.744977296558830777e-16 2.055380033753807907e-15
-5.154289931961756255e-16 -6.882253359963476872e-15 -3.515781371939244593e-16 5.407778774547740826e-16
-3.502538885263837308e-16 -5.144559080110148143e-15 -2.762470270242408921e-16 3.992684763263587830e-16
6.279469018002960985e-16 8.425371961400168075e-16 2.239338425557923557e-15 -1.507829740573928392e-15
-2.141919261811051251e-17 -1.579040178997731151e-16 -1.490619578648732388e-17 1.970365461615075113e-17
3.935965604780957624e-17 -5.956750072262620213e-17 1.063762512224663565e-17 -1.873798371645858015e-17
-1.005807404525037688e-16 -2.276636332790951744e-16 -6.895768168928000662e-17 8.016158785548821332e-17
9.142423632511332481e-16 -1.742960313554197987e-15 1.574922035744863361e-15 -1.176239900460847785e-15
1.725972968598263766e-15 -1.929061741163074002e-16 -2.365598793110108715e-16 -4.804457533646121836e-16
1.397094430602969165e-15 6.404554777067532289e-17 -1.151757606423105212e-16 -4.370023961817015210e-16
-6.514832050463481690e-17 -8.398316991621269409e-16 -9.512775202538004232e-18 4.795663479747834301e-17
-7.322716724073687572e-16 -1.670525913927595562e-14 -1.216607616135046102e-15 1.331702458021210336e-15
3.071781426198266961e-18 -5.875128018071926506e-18 -5.710437219897315125e-18 2.256287343698245304e-18
-2.333638897903604309e-18 -2.937386986437153568e-17 -6.084483998008786009e-18 4.942481304480204750e-18
-3.948057412305148177e-16 -6.249856463401809221e-16 -2.390428186783759366e-16 2.906480355828924865e-16
-1.133659937168399485e-16 -6.419367187779519387e-16 -7.923410863537115920e-17 1.000356972064014329e-16
-4.796139017873956209e-16 -5.007122373477564486e-16 -2.256515579454884335e-16 3.106269790751662785e-16
-9.169377066726291829e-17 -1.014478094356797348e-15 -3.360612166521781980e-17 7.506442355608663552e-17
-1.533097589883559638e-16 -3.266357799381313048e-16 -1.101439138939372113e-16 1.245601235625347977e-16
-1.143613045036643825e-16 -3.850692924969080032e-16 -1.351312694357621414e-16 1.260449239126369620e-16
0.000000000000000000e+00 0.000000000000000000e+00 0.000000000000000000e+00 0.000000000000000000e+00
-6.559698686169299896e-18 -1.120764984749389135e-17 -5.630085847203672833e-18 5.783741731072429204e-18
4.601937516841807020e-17 -1.110530793045747757e-15 5.267994838930876293e-16 -2.882809587839544937e-16
-2.047718736161907067e-16 -2.208346522517100844e-15 -9.521396060940171754e-17 1.777016521072908484e-16
-1.255002608690250200e-16 -5.098264546288546413e-16 -9.431600190145248055e-17 1.098649214579025791e-16
-4.382399210194664564e-16 -1.699649195710279231e-16 -4.346128199663599620e-17 1.854224069064281189e-16
-2.864696728673138111e-16 -4.610024594696240112e-16 -2.186458303090501628e-16 2.365680450412432982e-16
-1.378478347638470499e-15 -7.269401569998440288e-15 -1.279725818384201800e-15 1.382556096208049599e-15
-1.386422600885752455e-17 -1.730821013302878081e-16 -2.873110764239966532e-17 2.514562872750285554e-17
0.000000000000000000e+00 0.000000000000000000e+00 0.000000000000000000e+00 0.000000000000000000e+00
-5.351985964615565137e-17 -7.243500264363966366e-17 -4.234477339543067498e-17 4.472733735096799741e-17
-1.659323826480034084e-17 -1.354499139943206529e-16 -1.140214307952607182e-17 1.548289176853534858e-17
-3.054932002299924347e-18 -1.828698067236740814e-16 -4.348453960597356947e-17 2.982207972942958875e-17
0.000000000000000000e+00 0.000000000000000000e+00 0.000000000000000000e+00 0.000000000000000000e+00
-5.137248825051115248e-16 -1.229012714371374426e-15 -4.872296771325672172e-16 4.871361963787857415e-16
-2.192780420269562971e-16 -6.106167500707131402e-16 -1.237872184670656871e-16 1.624010272816612219e-16
-7.995479656716977228e-16 -5.020182365035976225e-16 1.670991266085603291e-15 -6.449076767167643489e-16
-2.581972030498593180e-16 -1.098290337456982274e-14 -7.068765530191237139e-16 7.430871290133966483e-16
-3.575013236422164056e-16 -8.053107800876534138e-16 -2.419891638957450266e-16 2.830789160631269420e-16
-6.661113915636781506e-16 -2.569357007838213612e-15 1.204044347501353925e-16 2.295923293239634349e-16
-1.577918775114394725e-16 -4.948016096339681256e-16 2.113791262653152955e-16 -5.139968117570562496e-17
-9.862146523549516090e-16 -3.279517073178001321e-15 -6.427453745786568537e-16 7.911579790166292573e-16
-1.528054511004984513e-16 -3.356028812028573708e-17 -1.008031952175889867e-16 1.123916165491125304e-16
-2.125945665395686342e-18 -3.069404073585794562e-18 -1.887855619799174559e-18 1.897217483433042894e-18
-1.614510132100289065e-16 -5.610305918197426198e-16 -1.385797661496806014e-16 1.488941368020196025e-16
-2.035909949849162786e-16 -1.326745312981840352e-15 -1.045346760353764902e-16 1.623314414439150798e-16
-8.047176327636975846e-16 -1.084796954403512443e-15 -5.267842887203951050e-16 6.104004848373376999e-16
-1.223871437174914211e-15 -3.525178218037073216e-15 -4.400788204043817450e-16 7.675764355100726214e-16
-8.032442404543821442e-16 -2.286896248893066069e-15 -5.357011391071130914e-16 6.424562011234086157e-16
-4.658700253103179716e-17 -8.826015041508950047e-17 -3.924444987477182337e-17 4.085692503386708551e-17
-2.061100790318775004e-16 -1.599550214257664030e-15 -1.296405950160272758e-16 1.836526998390777676e-16
1.504012283686681824e-15 -1.543173369539471013e-16 -7.858223416403585953e-18 -5.308559639385297187e-16
-1.774806376366668339e-16 -4.317449939583429759e-16 -2.538227897846370199e-16 2.166997467407846819e-16
-8.395126906749584422e-18 -1.135864678907596347e-17 -7.566310567373156934e-18 7.537280724332306276e-18
0.000000000000000000e+00 0.000000000000000000e+00 0.000000000000000000e+00 0.000000000000000000e+00
3.420526473911910823e-17 -3.718538914491725822e-17 -2.463751036634685396e-18 -1.001189857132401424e-17
-4.376887983355478020e-16 -2.453844514614804375e-15 -8.157891732421941032e-16 6.733590654382881912e-16
-7.605920618579814335e-16 -9.469914015581546833e-16 -8.077314181348600252e-16 7.499584703365468388e-16
-1.223773749634454360e-15 -2.378540999490268463e-15 -4.126919157615437930e-16 7.258072997527009291e-16
3.825788626852135499e-16 1.257836102865951494e-16 -7.354918053676305466e-17 -9.844529469803990789e-17
0.000000000000000000e+00 0.000000000000000000e+00 0.000000000000000000e+00 0.000000000000000000e+00
1.193887021332155430e-15 3.546936725522655161e-16 4.631551130188657748e-16 -6.971872742979671336e-16
5.854887208809418854e-16 8.768015407309012114e-16 -6.647999056709568132e-18 -2.261022227719540878e-16
-2.410195923700275180e-16 -9.863616895978177756e-15 -4.005405364117396076e-16 5.384282980777115017e-16
-5.198705018395903150e-16 -8.684407151484728287e-16 -3.107358674926514167e-16 3.814866373367821410e-16
-2.472052582522699310e-16 -3.229780409072177420e-15 -2.503267765132282958e-16 3.038378600614073622e-16
4.047338598054569874e-15 -4.190273955377436048e-16 -7.694635595718838395e-16 -1.006222881413850436e-15
1.218877918175608659e-16 -4.699365570427391587e-17 -2.321621501081024647e-17 -2.949059118193085428e-17
0.000000000000000000e+00 0.000000000000000000e+00 0.000000000000000000e+00 0.000000000000000000e+00
-6.354727415039373322e-16 -2.545035480877969509e-15 1.204549499702731189e-16 2.180297816932727063e-16
-1.069560561268592679e-16 -4.784787429039568024e-16 -7.935316227061875598e-17 9.405997967189154656e-17
6.150104696258458589e-16 -1.941573407202570439e-16 1.083940135934768217e-15 -8.274984809547806525e-16
-9.541663765374126572e-18 -4.931817842044800197e-17 -1.329819788434033453e-18 5.299123614669468169e-18
-3.814562013835866756e-16 -9.730158686673967343e-16 -3.222289313083478573e-16 3.407802289744430029e-16
-1.825802503731405069e-16 -8.964846485416881396e-16 5.548834131863427436e-16 -2.271352955925037506e-16
6.382845145059301690e-16 -3.462587525579047351e-15 3.342356343195066241e-16 -3.379018278909742011e-16
7.653368808660584366e-16 -6.341856430601192002e-16 -3.358884494662476436e-16 -7.012809697669922327e-17
-8.589426987496439452e-16 -3.147366531877372140e-15 1.479841594218763150e-16 2.963621325490997956e-16
-9.481177383204765213e-18 -7.751277245473193931e-17 -6.513797641996320745e-18 8.848745090266023200e-18
-7.281577945542389459e-16 -1.842734150746647686e-15 -4.916581870499856358e-16 5.805242066298780853e-16
-9.108539808043588646e-17 -1.908114276314961144e-16 -6.159917005711184743e-17 7.176308053618353764e-17
-1.607791396860749201e-17 -4.169501374999558368e-17 -1.287494662170813093e-17 1.398043304510104614e-17
-9.472407447947743590e-17 -1.310790174154121327e-15 -5.541279962969903209e-17 9.524601546989820886e-17
-1.104665851809243039e-15 -1.046439721629382291e-15 -1.043129309909197749e-15 1.008329274104062557e-15
2.896684268278663682e-16 -4.224273104336610323e-15 5.161904392052715048e-17 -3.608192998111870956e-17
-1.177852025106269454e-15 -1.117890907099953589e-14 -6.520325840279909295e-16 1.046109026075509224e-15
2.424469398612926977e-16 -2.710626029497316586e-16 6.927209089783148618e-16 -4.715151777675446398e-16
-3.308673596029302381e-16 -8.093508903411178172e-16 -4.106518754265407248e-16 3.687978733103892998e-16
-1.054594873363410977e-15 -1.171225133745072805e-14 -8.701204638943155372e-16 1.137231683653295942e-15
9.579810040452988929e-16 1.994863065616918886e-15 1.553949658581323986e-15 -1.265747241280339799e-15
1.591625906208026227e-15 1.299294256365823398e-15 2.412497379383853616e-15 -1.961251223431737268e-15
1.510833487209734786e-15 9.332123331388258782e-16 6.395495600312241888e-16 -9.235269895645359517e-16
1.709836679753686168e-16 -1.159252333791921722e-16 -3.669239819066282587e-17 -3.789578552017424403e-17
2.954263402472363723e-16 4.914885887977119670e-16 -1.145300446150111781e-16 -5.248052691063907353e-17
-2.707010940235778899e-16 3.409913317399001640e-17 4.319019591271230239e-17 7.182958568161524193e-17
2.854707604982346312e-16 6.998274282348112563e-16 2.701726163860909627e-16 -2.707581449704700022e-16
8.549106090033530441e-16 -3.655832470869733579e-16 -4.277552986290658299e-16 -5.653911086637254387e-17
-1.132487422667989565e-15 4.826845834750664626e-15 4.106761374086394101e-16 6.336809324814259781e-17
-2.908198030759816095e-16 -4.805760216523941394e-16 5.283606814471009858e-16 -1.829245941251970954e-16
9.790342265724625574e-16 -1.163073943549448251e-16 5.652175509976889425e-16 -6.670077061811705887e-16
-6.098246612411541734e-16 -5.894972978053928145e-15 -3.017570932782317712e-16 5.238558707337862366e-16
2.818222902876289846e-16 7.168437537280161656e-16 -3.560128883434037968e-16 8.348521571481923464e-17
-1.309684365219476651e-16 -1.222461024541037926e-15 -1.757602198153813590e-16 1.741126409517049453e-16
-1.111883477887922941e-15 -4.368369849132453327e-16 9.395216449094328810e-16 -1.217713934244340231e-16
-1.515715072443609072e-15 -6.895967394303841681e-15 -8.479416507864804462e-16 1.179528356158459554e-15
-1.785559515382770947e-15 1.125869352656817668e-15 -6.218578491110011941e-16 9.647733284149578446e-16
-1.430740774351304207e-16 -3.491765958075934011e-16 -1.088710147509442091e-16 1.206914935979659164e-16
1.737355725956172608e-16 -6.344396063459369864e-15 -2.740071495588979820e-16 2.377807013202039488e-16
-2.012044275666797865e-16 -1.346080468833791512e-15 -1.263088358835054421e-16 1.742057022469445489e-16
1.340120406127558037e-15 1.047085555434824896e-15 -3.030527248487910592e-16 -3.331123581251725364e-16
1.237261728789419228e-16 6.337152604792872700e-16 -4.948971267275642165e-17 -3.092625157377501127e-17
-1.397660277428951898e-15 -1.694214924573729221e-15 2.618959227463044236e-15 -9.381954958370634254e-16
5.792447857629941783e-17 -1.840578126402615412e-16 -1.396096627113163381e-16 6.224161572367448800e-17
-3.849342316814570346e-17 -3.915422029990935800e-17 1.248201293885433132e-17 7.645061603303237373e-18
-2.804841835573562819e-16 -2.744752861970483879e-16 8.642517781028943101e-16 -3.808784216711030001e-16
0.000000000000000000e+00 0.000000000000000000e+00 0.000000000000000000e+00 0.000000000000000000e+00
-5.156053402710917163e-16 5.550113649504700178e-15 1.107806193436644968e-15 -5.675701082225245575e-16
-2.293938783708048751e-15 6.154546435224724029e-15 9.691414187831475627e-17 6.260790190175070601e-16
-4.170565775559260637e-17 -2.133872605147867664e-16 5.089577404949751543e-17 -8.885719748474430462e-18
-2.692367784284623174e-16 -1.550547271139077696e-16 7.725406547312995858e-16 -3.358968800891111230e-16
-5.317492981497008529e-16 -5.891478192030675849e-16 -2.188336270008419619e-16 3.274849110614704298e-16
-2.951359861893995400e-16 1.235176068175737288e-17 -2.564122568526038911e-16 2.501332868519274788e-16
-1.118627141253921938e-16 -7.387386538427573175e-16 -1.420546309195734961e-16 1.371624324937838255e-16
-1.317788392326547882e-16 -6.365353820774873106e-16 -9.477384728429616148e-17 1.152768030486996036e-16
2.172360761652405662e-16 3.608871060260365577e-17 3.568615400182996141e-16 -2.800138359984965375e-16
-2.260693964034841832e-15 -1.635741111456023754e-14 -3.361653484623278533e-17 1.203797012578857793e-15
-4.727460781656833875e-16 -3.254558606487760142e-15 -1.864673461558364449e-16 3.491751624666012260e-16
-7.202751364449671989e-16 -1.043397093702467664e-15 -3.284808258819246153e-16 4.673061761882218303e-16
0.000000000000000000e+00 0.000000000000000000e+00 0.000000000000000000e+00 0.000000000000000000e+00
-4.553801312615056272e-16 -6.081902513013962230e-15 -2.746481375551873047e-16 4.575127898000453593e-16
-3.867998370572272377e-16 -1.626269173773540248e-15 -2.631660272345658773e-16 3.243409151784703565e-16
-2.384432098367816703e-16 7.101845593816737657e-17 -1.484725199367402476e-16 1.675727182708160159e-16
-5.342802823735886142e-16 -1.017198091335391068e-14 -3.767838247924723230e-16 6.371547414877436887e-16
-5.037148618232602569e-16 -9.418295596287433645e-16 -5.775452877375694530e-16 5.279284884704073402e-16
-3.047847977618681149e-16 -6.524450166034683487e-16 -1.243800981846215340e-16 1.943278906478471665e-16
-4.555268220520403146e-16 -2.236049827284162281e-15 -3.179746086128969374e-16 3.938650889418997585e-16
-1.699813416894326087e-16 -3.854751747211906077e-16 -9.965296522476991413e-17 1.259619472661353305e-16
4.233009904772460217e-16 -6.368346506261916603e-16 5.774151670737283657e-16 -4.628628937195704430e-16
0.000000000000000000e+00 0.000000000000000000e+00 0.000000000000000000e+00 0.000000000000000000e+00
-2.805092029777092580e-16 -1.328814711626663462e-15 7.242435131060063437e-17 9.008612060220782041e-17
-9.533340087850655462e-18 -4.708778302541669213e-17 -6.981673968353837882e-18 8.434089412325025420e-18
-7.157778295795149147e-16 -7.838685437126031033e-15 -8.581099472623134130e-16 9.202877639632113726e-16
-2.574318667860912673e-16 -8.568652410659042475e-16 -1.414705894051349812e-16 1.916919150342760213e-16
-5.333947782076251958e-16 -4.976177479173808613e-15 -2.998896042062554541e-16 4.743615157961775943e-16
2.255773947552776421e-15 5.767085712587035205e-16 -1.124431548936463771e-15 -1.869085608589044339e-16
1.281471927237849121e-17 -2.768937826548383600e-17 -2.086316436079918974e-17 7.815723260731710510e-18
8.020958322004855070e-16 -1.034638538812749401e-15 -6.559557882836813259e-16 1.064796308791349047e-16
1.909990905683489288e-16 -7.098695342451269901e-16 -3.326490919487010138e-16 1.355408399465115586e-16
-6.168388380708800920e-16 -3.651812805634339580e-15 -2.487890038880948619e-16 4.450679950499031617e-16
-9.282856838414435050e-16 -1.759614766774848428e-15 -7.689446713749438078e-16 8.067762431997017284e-16
0.000000000000000000e+00 0.000000000000000000e+00 0.000000000000000000e+00 0.000000000000000000e+00
-3.482132857747459574e-16 -7.624551642899154658e-15 -2.709239706444028203e-16 4.523755209544716861e-16
-4.958531138665806182e-17 -5.687129171231456573e-16 -4.727207272685777040e-17 5.747271949868555411e-17
-4.054175700301583724e-18 -4.753532001235520219e-18 -3.797409588523915717e-18 3.704094106802258673e-18
-1.067589602798979201e-15 -1.586545998418069858e-15 -2.154903171215618968e-16 5.404288710946601668e-16
-1.636573013887471473e-16 -3.033049130783230223e-16 -1.190438323954697995e-16 1.327542798569274591e-16
-5.823746766360048077e-16 -1.117581354593022183e-15 -4.316837811925769463e-16 4.778347623980365198e-16
-6.646066949401013669e-16 -2.344334380831935446e-15 2.632212174870876037e-18 2.903489027358094819e-16
7.764674523267927825e-17 -5.149747124933227891e-16 3.025946989993177579e-16 -1.867540236048484523e-16
-4.499590708985537778e-16 -6.417025244849927185e-17 3.145260618856712164e-17 1.449257886635429542e-16
-9.689735363743791071e-16 -1.736950728707983513e-15 -7.731290362720391745e-16 8.231946333853584391e-16
-1.397863068662747683e-15 -7.122405253402052357e-15 -1.090845270133107685e-15 1.279555508264368204e-15
-3.879863958680045863e-17 -6.054767235513888871e-17 -3.389343485077540892e-17 3.441217649500248224e-17
-4.028965916531131702e-16 -1.867525986908981987e-15 -2.874111979308179946e-16 3.493177415954513972e-16
0.000000000000000000e+00 0.000000000000000000e+00 0.000000000000000000e+00 0.000000000000000000e+00
-1.286917930591835787e-15 -4.335175027423619409e-15 -1.152246189164872830e-15 1.210570347101693680e-15
0.000000000000000000e+00 0.000000000000000000e+00 0.000000000000000000e+00 0.000000000000000000e+00
2.253220302929707477e-17 -1.459966835623479485e-16 5.288355910099710472e-17 -3.456576405075246689e-17
-2.358443049386378790e-16 -8.820404311122339747e-16 -1.343025866213780988e-16 1.804904216136393610e-16
-1.650909361315133662e-17 -6.173918526418031431e-17 -1.254664898266018393e-17 1.440907902811359836e-17
-9.357435702273850578e-16 -2.090751658710472744e-15 -8.087995376475053856e-16 8.395259693643607241e-16
-3.306921269898594958e-16 -4.442452503346112662e-16 -2.692050205273692426e-16 2.805552025571243204e-16
-9.700263575838810069e-17 -2.113607777796259030e-16 -1.244537589184897878e-16 1.098197938784320802e-16
-2.531493092091757261e-16 -5.360222936854884956e-16 -8.653253867267342278e-17 1.518050058067467314e-16
-1.975592131757254160e-15 -2.060508982402867768e-15 -1.320689235886335230e-15 1.500203275310804889e-15
-1.557750756190697758e-15 -7.407249783786843011e-15 -1.745487151617520839e-15 1.712748318726402193e-15
-2.871041265274611332e-16 -1.557040624223502360e-15 -2.189017275783894551e-16 2.620610287404985891e-16
-7.484125415427108847e-16 -3.329710926611247270e-15 -7.465689741930874011e-16 7.656961698182790837e-16
-3.578468880034467085e-17 -1.002049072950685654e-16 -1.960392654143536075e-17 2.617846659882239745e-17
-6.542494091221596660e-16 -6.544275067937498722e-15 -2.954678662994193122e-16 5.511048216555789714e-16
0.000000000000000000e+00 0.000000000000000000e+00 0.000000000000000000e+00 0.000000000000000000e+00
-4.271062930307583662e-16 -5.246540004504120706e-15 -2.659106511101872206e-16 4.233066872392135050e-16
-5.411975497361392856e-16 -2.133251374435899226e-15 -3.507128052462079960e-16 4.406738911583676027e-16
-1.776025482864797794e-16 -2.714108317680931310e-15 -1.209280530838871386e-16 1.940693067761995770e-16
-1.043387743986297557e-15 -1.684702036389196410e-14 -5.327630088502074762e-16 1.060551452863408085e-15
-2.547417596646628537e-18 -2.544868539743020416e-16 -4.034237387490124430e-17 2.950875443563113449e-17
-2.681471965194848847e-16 -1.272576450445867448e-15 -9.073421125598277358e-17 1.764308331871683404e-16
-2.361132421675188654e-18 -9.024726719255629820e-18 -1.789060262984414506e-18 2.062226493796835661e-18
-1.175320031170222231e-15 -3.009135703956787666e-15 -1.433236093994942600e-15 1.298745428715092793e-15
2.341339415797325782e-15 -7.949613349142678395e-16 -6.267760942205540645e-16 -4.669273879275914568e-16
-1.787910905700367802e-15 -1.378103766436166403e-14 -9.407555937100437328e-17 1.009481307485754502e-15
-8.491139531965644600e-16 -2.854905606484576745e-15 2.008142107320767467e-17 3.583070044223322908e-16
0.000000000000000000e+00 0.000000000000000000e+00 0.000000000000000000e+00 0.000000000000000000e+00
-8.109936958481271528e-16 9.782690187167366523e-15 -2.554549754872354329e-16 2.104671110424664965e-16
0.000000000000000000e+00 0.000000000000000000e+00 0.000000000000000000e+00 0.000000000000000000e+00
3.501487278376241966e-16 -6.832063090409794420e-17 5.308617217021363158e-16 -4.234179171860739522e-16
5.243435557869457431e-17 8.937142699806203516e-16 6.655692210725454711e-16 -4.148177352425045368e-16
-8.082496810148163335e-17 -1.071899452865032564e-16 -8.350560172891915978e-17 7.853131305258274277e-17
-1.503251388014564570e-15 -2.899376934888202268e-14 1.496833588610195953e-15 3.585031749629241074e-16
-5.373137002626484899e-15 -5.978776308567133768e-14 2.717423868839717823e-16 3.141988127140057308e-15
-2.935941711315410004e-15 -1.032426806683491309e-13 -1.033154658293278708e-14 9.247754512525218323e-15
-2.191322825336235161e-14 -1.185811632107952050e-13 -1.785599383188601434e-14 2.064379302361824581e-14
-2.674270205449132956e-16 8.269488009848338247e-17 -1.816042376781973024e-16 1.963834543286243390e-16
-2.077612109535554854e-15 -3.465012883165127034e-15 -8.737337590377573419e-16 1.316748858802867443e-15
1.094896980765602854e-14 1.982474358065067822e-15 8.986894227199529988e-15 -9.038883761405659390e-15
-1.446784752030647626e-15 1.231701966574367493e-15 -1.285051088237859911e-15 1.215186255791606353e-15
-1.787904884610210742e-16 2.660722288716517741e-15 2.350673454536060906e-17 -1.019429064207675233e-17
-5.479386799501624565e-16 6.873273922660574259e-16 2.952969706680421510e-17 1.638885420374505728e-16
-1.514162652878389608e-16 1.486797507612105492e-15 -5.854097919489788519e-17 5.320065883995939159e-17
-2.438803808633787785e-15 -4.454115988175673781e-15 -1.229578608677514735e-15 1.669605696018521895e-15
-1.186759718071128030e-15 -5.793410415784737851e-15 -2.236335703440553190e-16 6.841392761838996112e-16
-8.303013238630865246e-16 4.278568674107854883e-17 5.860501524934746408e-16 -3.419700501333875947e-17
1.116610211129494768e-14 -3.044618497005657586e-15 -1.564616338303749116e-15 -3.047743618741192011e-15
-7.107581669953872849e-15 -8.278790603865038659e-15 6.590449511840019365e-15 -9.825622635053613375e-16
4.946895627474328472e-15 -7.027331719111346050e-15 2.293484874176745011e-15 -2.905309015813067546e-15
-1.695252681458644634e-15 -2.155826018422943923e-14 -1.337514930450724370e-15 1.856153107932434448e-15
5.325268775704709834e-16 -2.214018752661181894e-15 3.017718411985132557e-19 -1.402076694518817084e-16
-1.118643185728233580e-14 -2.543673063389500403e-14 -5.871300368197353144e-15 7.903551180616175502e-15
-6.877556881539819063e-16 -2.107399035024918995e-15 5.843867827113910602e-17 2.617227768311871917e-16
-1.740192153186701238e-15 -3.403064585927227586e-15 -1.451882380518872277e-15 1.520666415741884999e-15
-1.566818482452220435e-15 -1.360610925668385423e-14 -8.438975420543621358e-16 1.349351811103977108e-15
-8.142251410574676558e-16 -1.032485005260918241e-14 -4.342421520023562574e-16 7.733724318940732152e-16
1.203113199927058574e-16 -8.757921257286664695e-15 -7.980443901176221638e-17 2.026594503675727453e-16
-5.707098912954975315e-16 -5.907507787707556825e-15 -3.692370198680665188e-16 5.482055927723972131e-16
-1.039842446105274301e-15 -6.849722925066673606e-15 -5.900367303219131480e-16 8.624591508761933014e-16
-2.571565733817223840e-15 -1.308661559422038340e-14 -8.929355543321042903e-16 1.725075175205494026e-15
-6.223297844213274705e-16 -4.738061143278438981e-15 -1.084142530819058540e-17 3.376697486728482382e-16
-6.125364071892367719e-16 -1.205889937008217179e-15 -4.336987929186350691e-16 4.918015087339068912e-16
-1.504251608697657348e-15 -5.886448955116810009e-15 -9.899575497991130844e-16 1.232415927059448755e-15
-9.246336860436907120e-16 -4.267046963321432124e-15 -4.952839794212620645e-16 7.085249241970209738e-16
-3.145848634669670293e-15 -1.237027845278866807e-14 -2.153894362674209659e-15 2.625897300831415242e-15
-1.447282218241900919e-15 -4.651551261814219344e-15 -9.176015566237801220e-16 1.142875127975750411e-15
-4.332251941806542365e-17 -5.003363563406046846e-15 -1.246649133017524911e-15 8.336222323015831585e-16
-1.157601876086250988e-15 -4.424186876395087477e-15 -5.130234985712988098e-16 8.055992476411284512e-16
-1.516314492041124306e-15 -5.851129993307214230e-15 -5.918967761432922668e-16 1.011321563516743245e-15
-4.345589414562927457e-16 -2.188833015687505651e-15 1.030343538432705006e-16 1.477158788939463728e-16
-1.968905818530440725e-15 -6.612614322419844231e-15 -1.105365275004535078e-15 1.480645580691535306e-15
-9.696326805595075359e-16 -1.287689564780831549e-14 -5.830900967531949034e-16 9.715295179841704012e-16
-1.009582345984080413e-15 -9.699154808448013753e-15 -5.752568201632722023e-16 9.085878238896560257e-16
-3.584340679852742405e-16 -8.720333772449250166e-15 -2.963016641779286903e-16 4.954720491258945570e-16
-3.230865264658747493e-15 -2.458311332286885894e-14 -1.963827588203025980e-15 2.829029099615712233e-15
-1.384858181454703209e-15 -1.024653151503882714e-14 -8.556246288406708268e-16 1.213777976477856106e-15
-2.104256520934971834e-16 -3.953586481110473914e-14 -1.922825661543197037e-15 2.066510403681135849e-15
-1.108447656090698389e-16 -3.088793310474256117e-15 -3.010121105684844753e-16 2.803532468252177168e-16
-1.987264819716539589e-15 -6.194752702037833058e-15 -1.400063867096761530e-15 1.643929645156373271e-15
-2.053943381189969248e-15 -6.809685580322824393e-15 -1.428812716323326340e-15 1.698133790960311888e-15
3.606744795295413850e-16 -8.228257154469412782e-15 -1.771045551442747973e-15 1.058692858216939599e-15
-1.164286438371789792e-15 -1.263596609996842901e-14 -6.803099387125776376e-16 1.090600449861735294e-15
-1.334993355676560060e-15 -7.021154047279602293e-15 -8.151328581441394148e-16 1.099139923404724814e-15
-1.755280751835384647e-16 -2.694920383199082171e-15 -1.454810955322792360e-16 2.067404150788477145e-16
-3.474813026632206069e-15 -7.358070661461770252e-15 -1.557890698282031570e-15 2.292575599337854881e-15
-1.929150253458117554e-14 -1.644640476422697460e-13 -9.214804468568206958e-15 1.588036794031451027e-14
-4.911896237423132593e-10 -7.641415600608722739e-09 -4.464351032182812107e-10 6.030171668098248975e-10
-1.770479314920284316e-14 -3.198217039384880250e-13 -6.404428745757086898e-14 4.981035810201723707e-14
-2.178619996042569508e-14 -1.686216521596485824e-14 3.338242399417340184e-14 -1.064449246949454357e-14
-3.721287849102485497e-16 -1.857040811216756326e-14 1.175771721665449394e-14 -6.075358526299832588e-15
-1.104789557262277903e-13 -2.305736738758723689e-12 -1.704187673907589258e-13 1.885869398469250151e-13
-9.871154507853072696e-15 -2.023519804810806389e-13 -1.581587277655655653e-14 1.709849644613979940e-14
-6.968600531118549127e-15 -2.183098375100448944e-14 5.404482945058195130e-15 -5.255237648553451662e-17
-8.731989100319531495e-17 -4.295725205428765590e-16 -4.777409582388708901e-18 4.382469841475946452e-17
-2.500688895055625852e-16 -3.305508554670290663e-15 -2.221688558827893684e-16 2.907113231819862300e-16
-5.521621621582226681e-15 -3.781521727850916616e-14 -2.022956249013620477e-15 3.986359194056889672e-15
-4.420777889696532957e-17 -2.753871799915095285e-16 -3.590563683673877673e-17 4.240958247706594891e-17
3.166337075557690668e-16 -1.388988942679128922e-15 -3.744239867365008249e-17 -6.047439628291421970e-17
-1.565882390758949868e-17 -1.122260276565876341e-16 -5.693213089615939934e-19 8.503396396979588233e-18
-1.968712430164309424e-15 -1.623785550507833938e-14 -1.649918003236521721e-15 2.008452535922547648e-15
-1.105693174651474741e-16 -6.293506263274579038e-16 -1.345197652478973037e-16 1.299403158683496261e-16
-6.701674266000915051e-18 -1.179493578760224978e-16 -6.661452602629856627e-18 8.863085988880427133e-18
-2.822257706225287167e-14 -2.181656475360184146e-13 -2.266700047242648648e-15 1.639037712096667492e-14
-6.695804570682453454e-15 -4.549311695255089150e-14 -5.124412463210741517e-15 6.333001893684649988e-15
-1.391796048712757952e-16 -6.267862379885807667e-16 -1.045994282068871571e-16 1.232488490384875337e-16
-3.744661338462828447e-16 -1.775762689067791625e-15 -2.794840320403481757e-16 3.325561146495231845e-16
-2.969768022354857972e-16 -1.035270912170977349e-15 -2.066754454891654682e-16 2.467402999671035016e-16
-1.383354020216622686e-16 -7.231406818228546849e-15 -9.322917840165561821e-16 7.413517805523025050e-16
1.596431942212138182e-15 -6.867634298588034380e-15 -8.102119672370306003e-16 4.263314920141384064e-17
3.092011308584685187e-17 -1.330454185729123861e-16 1.339957129115584844e-17 -1.558874828862558896e-17
-1.758010103896353074e-17 -4.719932604778426411e-16 -6.045634059528429349e-17 5.122896646018850361e-17
-1.298614013430966228e-17 -1.156161236237506820e-15 -7.032076377581841887e-17 7.083034572895876096e-17
-3.023460939207415825e-16 -5.727353230030104194e-15 -4.344017864785757430e-16 4.847018425287886217e-16
-3.473635068028228636e-15 -3.785711969477120922e-14 -6.686224736027254616e-15 5.884866087391229519e-15
-1.802973929545478335e-17 -1.515148239299799368e-16 -1.027202899075326812e-18 1.051166303301710493e-17
-6.191510665890628134e-17 -6.643986881033237274e-16 7.046335692290901945e-19 3.701217321497830030e-17
-8.769125087067204050e-17 -1.006720626215789275e-15 -1.279889029752576444e-16 1.267083312539177512e-16
1.234791026290805119e-15 -9.470874577451034586e-16 -1.948729550966332271e-16 -3.107110889601334403e-16
-1.391133990881310382e-16 -6.937191123218707917e-16 -3.072268082006055854e-17 8.307415256787788538e-17
-3.883773425763476690e-17 -1.274104644525392079e-16 -1.668210096920599132e-17 2.624715826075098855e-17
5.336395481347342229e-17 7.371085035368531941e-17 -2.468262015132953956e-17 -6.880400326399520320e-18
-4.742934216743483379e-18 -2.703976594274425480e-17 -3.437968021213907973e-18 4.258835469510099633e-18
-3.586821846314862720e-18 -7.693008909693100118e-17 -1.814607552271806749e-17 1.328721338517996098e-17
-2.225556605469760458e-17 -2.770035985477634843e-16 -2.259021008962297731e-17 2.706878530774619315e-17
-5.947851226591311516e-18 -6.754329441562308686e-18 -8.152157515690604882e-20 2.331683766230025344e-18
-8.884904937636737965e-16 -3.328702336098282333e-15 -5.881853344276431046e-16 7.264890856888005700e-16
-3.317872598826981719e-17 -3.340578781241392530e-17 4.728838474143423972e-18 9.984007721429922300e-18
9.519695300139226812e-17 -3.166718384854852657e-16 -3.295903344203201687e-17 -8.249889128951548741e-18
-8.696683322715241079e-17 -7.910049889226998195e-16 -6.136949542630980486e-17 8.391446133692194755e-17
4.996852452479176269e-18 -3.916281609374105704e-18 1.809877794291955206e-18 -2.721635933279636822e-18
4.433666077922783529e-16 -1.188639629876792934e-15 4.493744252210156166e-18 -1.341322506715241185e-16
-1.135073938576564003e-15 -8.960410261197325926e-15 -6.744307573971652338e-16 9.925733779408924447e-16
-4.303624413924491133e-18 -1.972515020428035101e-17 2.060544894576023038e-18 8.312512068634755991e-19
-1.365112039934901854e-15 -5.055159851497664966e-15 1.119238619217307861e-16 5.417760770877270087e-16
2.180017610387418375e-16 -7.746652612094897135e-16 9.443537147704757412e-17 -1.136311665591796563e-16
1.288256660098175478e-16 -1.302320454956311646e-15 -1.909950488750015693e-16 9.146555551967382791e-17
1.876796246707070059e-17 -1.071684486045153701e-16 -1.140120997256677536e-17 2.165659329422421008e-18
-5.903408446729416113e-17 -2.985634428576528553e-16 -2.015063147011495419e-17 3.936266229957715578e-17
-1.886362628588783424e-16 -1.747986575686672511e-15 -1.998321980666760459e-16 2.204004469943406629e-16
-1.167459715405522916e-15 -6.509181478624456461e-15 -9.842776796205499325e-16 1.122825182862938755e-15
-2.836433165580778351e-17 -4.536121572527595489e-16 -6.277279339656484636e-17 5.597828741744346261e-17
2.977870826043403994e-16 -8.863964926576987847e-15 -1.022940476833950662e-15 6.736737469280024550e-16
4.425682003056907766e-17 -6.504502835335409624e-15 -6.136003181966693871e-16 4.794534234943725875e-16
-1.969333910030197625e-16 -1.963192367210147087e-15 -1.553218564892756330e-17 1.243139022304277200e-16
9.232356065681968929e-18 -1.053920862039938211e-16 6.968352263295316518e-18 -4.823889760011439330e-18
-4.191257503007331976e-16 -1.581008162946639597e-15 -2.385513564396942791e-16 3.209957283340498849e-16
-9.470909171212829470e-17 -6.928770965989788116e-16 7.468614448911252956e-17 7.669465091460360060e-18
9.143422926551388792e-17 -7.759877264663315235e-16 -1.263705327863033080e-16 5.633330825301094030e-17
-1.200372142910361427e-16 -1.463787657779395497e-15 -2.797500560738243840e-16 2.344041018782176884e-16
3.811616397489698814e-17 -3.331727917187327570e-16 -3.235570412041424221e-17 1.223762934433245260e-17
-2.707467965923594912e-17 -1.771432143251161520e-16 -2.520819303913175334e-17 2.798367181448132663e-17
-2.362986416068067790e-16 -1.355291620322769030e-15 -1.498620791231499229e-16 2.002796233761659080e-16
-4.352635265677658217e-17 -2.754964978614345993e-16 -3.719943045354041366e-17 4.289798584378162069e-17
3.222543203092355175e-17 -7.833077039559816613e-16 -1.280430060804615464e-16 7.865690309758696833e-17
-3.552011666886986226e-17 -1.171646980876634913e-16 3.018310312465464557e-17 -1.620018379890899029e-18
-1.714371554264976182e-17 -3.171989972482178746e-16 -5.956899765648284477e-17 4.702404377557958844e-17
-2.378903074632523045e-18 -1.777165794284090263e-17 -1.652785582562834971e-18 2.192180229300857791e-18
-2.127389525953672294e-17 9.701536334547596687e-17 5.334201397376294951e-18 2.388145266230922410e-18
3.623876684132327364e-17 2.738791656468267237e-17 -2.605825847166956482e-18 -1.214028042328909127e-17
-4.930085188339917030e-17 -3.570910987052169086e-16 -4.075019486841063468e-17 4.884043677923281963e-17
-3.692658883233465849e-17 -2.139689232003830310e-16 -6.001728816976049641e-19 1.847214332673555688e-17
-1.259879875223150208e-16 -8.019919414491341180e-16 1.826323256141384485e-17 5.321308186031824408e-17
-8.102936880843522349e-18 -1.708928107439459648e-16 1.767828348130759314e-17 -3.155168449639354719e-18
-5.472754972543787372e-18 -2.702767459775798730e-16 -2.582203830513487187e-18 9.612447981810327618e-18
-7.030028449622006600e-17 -9.266316680914152598e-16 -1.217634302756276346e-16 1.151294692013827648e-16
-6.803035494827025212e-17 -3.353090347539798188e-16 1.384870869236539633e-17 2.424368779146314326e-17
-1.928454766880391088e-17 3.271667525374263918e-18 -1.953240421025282961e-17 1.785508237296168875e-17
-7.799786050048353943e-19 -6.135921530766549396e-16 2.491434014994090204e-17 2.850622085693058336e-19
-2.719201389299920642e-17 -9.014142910537322002e-16 -1.166888146605872661e-16 9.624416891889800484e-17
-7.310162399185983118e-16 -2.224398621494807665e-15 3.522584939167075137e-16 1.141145792888922165e-16
-4.749506568120833500e-16 -2.923956922107760657e-15 -2.404578937604172544e-16 3.728518153406493701e-16
-2.205670322819129879e-16 -4.421470274503490836e-16 -1.327692546310551750e-16 1.640696089642625530e-16
-2.393181733930498033e-16 -2.779799031703523929e-15 -3.210344559657184407e-16 3.305955546570060389e-16
-3.872858715764649895e-16 -3.240294572365301613e-15 -5.013695927268290394e-16 4.959154325478334824e-16
-5.943163130871054244e-17 -5.742944317187339521e-16 -1.938305963095879912e-17 4.539176278502826988e-17
-3.882606659908860759e-17 -2.374905466255257361e-16 -2.220009135339027139e-17 3.187955948455724193e-17
-8.596854932689838988e-17 -8.859136324726047042e-16 -6.204284141287243755e-17 8.611206784611919871e-17
-1.037549377215941030e-15 -4.809284332428511386e-15 -6.739614230128526003e-17 5.199697247422158329e-16
-1.229939937984188511e-16 -6.435218418951217869e-16 -6.252863402328188666e-18 6.234155604312196385e-17
-5.954286277881443086e-16 -2.747291409693753804e-15 1.327861503821649594e-16 2.013614132511263101e-16
2.629249884237869151e-17 -1.906389427286660758e-15 -2.009941414899654607e-17 4.561620632529711970e-17
-6.238574814666628213e-16 -3.910744843914390168e-15 -3.932655499291038784e-16 5.350383839105672216e-16
-2.733546997005921564e-17 -7.028979086714459457e-16 -4.073324618471562100e-17 4.888748635021635383e-17
-5.544023300813543578e-18 1.879159046613593707e-16 -5.140746947028137447e-18 5.798259492537038726e-19
-1.383296776123535444e-16 -1.371534468102864274e-15 -3.988150325402871605e-17 1.034968478727598210e-16
-1.702207872216661962e-16 -1.505875946305336489e-15 -1.232427336207128789e-16 1.650379866216770992e-16
-1.640626142390940663e-18 -2.333883636948128929e-17 1.935630370719076363e-18 3.051557406218845816e-20
-1.150980034128440982e-17 -3.434403397810308899e-17 3.667289416515956896e-18 2.841391139667230774e-18
-1.838774686899210356e-17 -1.926729195248984370e-16 2.408979279772071638e-17 -2.589039180151152351e-18
-1.924566311372679756e-18 -1.957401224067245299e-18 3.713371646381000939e-18 -1.360918198728859417e-18
0.000000000000000000e+00 0.000000000000000000e+00 0.000000000000000000e+00 0.000000000000000000e+00
-1.897970631088277439e-17 8.371405552646354994e-17 5.354864659618850019e-18 1.859437783841851998e-18
8.182374725790658237e-17 -2.505402545135977612e-16 1.864352704864210802e-17 -3.409138658901655437e-17
0.000000000000000000e+00 0.000000000000000000e+00 0.000000000000000000e+00 0.000000000000000000e+00
7.550635287632233225e-16 -6.410597271635072173e-15 -4.919706139142729599e-16 1.540179456081787601e-16
-1.673923316793128156e-17 2.432458262312923811e-16 3.463973246014618643e-18 -1.532777211545363726e-18
2.107816317855148951e-17 -2.694657517452640284e-16 -1.990243962090748884e-17 9.854710313522719747e-18
-4.840742311577014226e-16 -3.921993776860934478e-15 6.547251589417852749e-16 -1.061130988217844903e-16
-5.773880563094253104e-18 -5.872684697715328119e-18 5.523278368321188566e-18 -9.133685482666122757e-19
4.576634167728026771e-17 -2.176424829410934578e-15 -6.533415116547525312e-17 7.035252989086163595e-17
-2.008932197451003823e-17 -7.317657021964311049e-17 -1.471187865297145860e-17 1.717561103129050267e-17
-1.042384019115741041e-16 -4.036248612147268751e-16 1.198477345009506697e-17 3.983310451152855159e-17
6.921771878524548174e-18 -1.957776316941521284e-18 -1.903497962867943306e-18 -1.360867227130387545e-18
8.589568540286481869e-17 -7.407227082892649645e-17 -3.370691680870442281e-17 -1.005602961169582295e-17
-6.116255918035154174e-17 -4.939717373563507965e-16 1.107221104061015312e-16 -2.924119090941704767e-17
-1.924916606849076158e-18 -1.958491903653934807e-18 -1.903493007087841923e-18 1.808558094605938874e-18
1.372187606542931786e-17 -4.441268330429725787e-18 -3.800663686390955587e-18 -2.669669352773692099e-18
9.569791452126519984e-18 -1.407171787969235108e-17 -1.896028879222074203e-18 -2.036107656840367306e-18
5.320922132218559649e-18 -2.294901591373488766e-17 -1.123961482722616848e-17 4.961694216867250014e-18
-7.718574047255860760e-18 -1.842884668902132198e-16 -1.894041185468790322e-17 1.767632299931562158e-17
-6.898097466055661121e-18 -7.933445098528205602e-17 -2.161299163365722857e-18 5.509179811358424150e-18
0.000000000000000000e+00 0.000000000000000000e+00 0.000000000000000000e+00 0.000000000000000000e+00
-1.860811276443510449e-18 -5.066887819958763460e-17 9.526613368334405036e-18 -3.547419496149317055e-18
0.000000000000000000e+00 0.000000000000000000e+00 0.000000000000000000e+00 0.000000000000000000e+00
2.632139451535139923e-17 -5.654767627471623357e-17 -1.301815074467209928e-17 -7.883017632587139796e-19
-2.349161475384491111e-18 -8.195360762416751373e-18 -1.802486857411927704e-18 2.046504623232105036e-18
-7.772908513968881741e-19 -9.789838218545274871e-18 1.716270315888635044e-18 -4.655526113810849836e-19
0.000000000000000000e+00 0.000000000000000000e+00 0.000000000000000000e+00 0.000000000000000000e+00
2.148814280754406195e-17 -1.994712225715506190e-17 -1.989667649150214818e-18 -6.118471664478275543e-18
-1.332537412212797902e-17 -4.993343894516598944e-17 -1.299030215439896859e-17 1.324822403700346436e-17
-3.652055490697969978e-16 -2.249387429160618985e-15 -8.291189120617594662e-17 2.291777650007273955e-16
0.000000000000000000e+00 0.000000000000000000e+00 0.000000000000000000e+00 0.000000000000000000e+00
-2.182430653561890892e-17 -1.147526318792734423e-16 1.208524186400629845e-17 3.629790566084812965e-18
-1.418571571301233627e-17 -4.515233317104327488e-17 1.908855021401655690e-18 5.039990612654647600e-18
-2.564972925593654525e-16 -2.611692946638680944e-15 -2.788412245621785366e-16 3.090895282377502578e-16
0.000000000000000000e+00 0.000000000000000000e+00 0.000000000000000000e+00 0.000000000000000000e+00
0.000000000000000000e+00 0.000000000000000000e+00 0.000000000000000000e+00 0.000000000000000000e+00
4.996904653139874333e-18 -3.916041578166893933e-18 1.809905227618966134e-18 -2.721675615511449766e-18
2.632937100637051922e-18 1.250942350600731425e-16 2.468453086932733154e-20 -3.824374675601604973e-18
0.000000000000000000e+00 0.000000000000000000e+00 0.000000000000000000e+00 0.000000000000000000e+00
-1.924667947476738898e-18 -1.957693944560417734e-18 -1.903488499615698930e-18 1.808448177336874052e-18
-2.252872011742945419e-17 -1.107491603980082113e-16 -1.297579609490431522e-18 1.134167426162023636e-17
2.850783889200044273e-18 -1.220885629194034621e-16 8.170187795065772381e-18 -2.833082865573282869e-18
-9.422512422177837049e-17 -2.814993430252655767e-15 -2.902740285892633248e-16 2.620645997686015794e-16
9.298517817018194796e-16 -2.165299486104754334e-15 -3.716244046902175717e-17 -2.625305614182024464e-16
-3.786264408430650185e-16 -2.645196163325979148e-15 -2.569596449034533877e-16 3.412646536714125898e-16
-1.461870404765127418e-16 -6.586626092229787742e-16 -2.009783736948982922e-17 7.880976810851506030e-17
-3.034570495337491295e-16 -5.425459996549304881e-16 -1.515865551488533128e-16 2.066846079550605974e-16
-7.472915319207146923e-17 -3.707726651048441712e-16 -7.009948609875839616e-18 3.922596088730977723e-17
1.219993522314829896e-17 -2.742298391590204231e-17 -1.310232832388627361e-17 3.650804373323422363e-18
-1.197829647135138206e-17 -2.189011589694905438e-16 -3.616679101078808328e-17 2.971575065197808757e-17
-2.351926080083944798e-18 -8.369363753474992287e-18 -1.799666055923157094e-18 2.049891591707103304e-18
-1.257804362694213328e-17 -4.390128592353058473e-17 -5.296329029604151517e-18 8.500890244423446451e-18
-9.654103413711132532e-17 -4.393388654485976981e-16 -3.823650518802171241e-17 6.623146141375147710e-17
1.131540714763156857e-17 -2.047523728755612359e-16 2.463760827990028732e-17 -1.326272508883783551e-17
-3.849582820540668083e-18 -3.916180516227958410e-18 -3.806981653432599834e-18 3.617005611380033593e-18
0.000000000000000000e+00 0.000000000000000000e+00 0.000000000000000000e+00 0.000000000000000000e+00
7.515048540146135152e-18 -1.026331146273857639e-16 9.057277844873288940e-18 -5.450563555112290542e-18
3.727213611510588092e-18 -2.170030954474701179e-16 9.921425503216809243e-18 -1.959761573317959041e-18
3.290185405029003051e-17 -1.319288398030472848e-16 4.931339665679326862e-18 -1.154610359691584352e-17
-1.567591913431962972e-17 -1.724085521227628343e-16 9.405727756314524059e-18 4.260470793974020217e-18
-6.684554452074582904e-17 -1.939449792555352425e-16 -1.712966940057624023e-17 3.805874557026837454e-17
-2.011045788774010107e-17 6.182482702603245463e-17 2.254973349390289801e-17 -6.935991526003349345e-18
-2.647057605001863254e-17 8.245925102671030723e-17 1.186547231235825954e-17 8.982526903458355084e-19
-4.869660934182442076e-18 -4.863751650872095195e-17 1.959918315427141076e-18 1.753492045585996425e-18
0.000000000000000000e+00 0.000000000000000000e+00 0.000000000000000000e+00 0.000000000000000000e+00
3.806714915807738605e-17 -5.573646377748119255e-16 8.498350240497520971e-19 -1.342597288374466797e-18
-4.118394355962267232e-17 -3.662583889249836505e-16 -4.115702138815125039e-17 4.637214356856543514e-17
-1.435804540811749570e-17 -1.001583477815626489e-16 5.276189761742322465e-17 -2.233144684136584805e-17
-3.079718011888826307e-15 -2.559716537346943887e-14 -2.371400773473893454e-15 3.028095188692710079e-15
-2.643743074424273059e-18 -6.861340456697384762e-17 7.710609529442748397e-18 -1.830953063971206732e-18
1.425804523476828749e-17 -2.129323826208102755e-17 -5.651234112580932841e-18 -1.431320835325111350e-18
3.072209656211308902e-18 -5.873872816094585194e-18 -9.360221223836507737e-20 -9.132039136056306195e-19
0.000000000000000000e+00 0.000000000000000000e+00 0.000000000000000000e+00 0.000000000000000000e+00
-3.407413566170797140e-17 -1.204966156958651043e-16 5.973063687824332888e-18 1.159887029059385643e-17
-3.722623452226598660e-17 -7.819163286200921496e-17 -6.338108578081792029e-18 1.870510684331302539e-17
-1.074693777473108121e-17 -1.326648323427409609e-16 -2.362849107164205790e-17 2.022330218958010803e-17
4.634016196698986525e-17 -1.106331982701259776e-16 -1.080955987360630464e-17 -7.966775061651084932e-18
0.000000000000000000e+00 0.000000000000000000e+00 0.000000000000000000e+00 0.000000000000000000e+00
-1.624205863341601556e-15 -1.363787954915706182e-14 -1.637583322087272777e-15 1.818478176103648998e-15
5.139412562065733139e-17 -4.026169003687948286e-16 -3.595259740599089560e-17 1.110188980789715444e-17
-1.835514712208315486e-16 -4.556633627361049633e-16 -9.064574613680910279e-17 1.273499577790313152e-16
-6.251680834970197377e-17 -8.927017759230469011e-16 -1.312801293134301575e-16 1.169331016208109391e-16
-3.115720858346926111e-16 -1.757124269571849356e-15 -1.495244703729527242e-16 2.362666072289967568e-16
-3.877602881563669942e-16 -3.859121506547704082e-15 -4.279807018062563695e-16 4.688591550014953298e-16
-1.552664301974472584e-15 -5.494437752673387888e-15 -1.030831682073242936e-15 1.263838611705725631e-15
-3.608123688542481976e-17 -2.661109476295763953e-16 4.361622686917837486e-17 -5.584793889882182451e-18
-4.643242903042574745e-16 -1.870501283916169496e-15 -2.799932818559857806e-17 2.250193973211649528e-16
-8.465208393778412249e-18 -2.726638257725244624e-16 -2.797141786691404633e-17 2.506514429716392543e-17
-7.462253889876192678e-17 -8.690954272312478066e-16 -8.389659749891737598e-17 9.399279553893463617e-17
-5.878841775028631577e-17 1.576525891947434689e-16 4.189543021772365975e-17 -6.191462831044152641e-18
-8.502034476427678293e-18 -5.322940964193156513e-16 1.494155301014428336e-17 6.815367340386940035e-18
3.964593402465230217e-17 -1.856074393680168703e-16 1.966018418733441498e-17 -2.104269363894841200e-17
1.221165378285323419e-17 -1.016640751519125003e-16 2.217703802059452036e-18 -3.296136552426469739e-18
0.000000000000000000e+00 0.000000000000000000e+00 0.000000000000000000e+00 0.000000000000000000e+00
-6.029325428486213524e-18 -1.098404895451979598e-16 1.360081366580666738e-17 -2.996665000131674052e-18
-1.425777140963247251e-17 -1.696794610284145938e-16 -4.964450491545505297e-17 3.700905268671780556e-17
-1.029071791589485729e-17 -6.610582216208709612e-17 4.711170441890938371e-19 4.936072037220843412e-18
9.455725182238435283e-18 -1.545688679962277725e-17 -6.562906241808056772e-19 -2.663018614568027472e-18
-6.442972484473912240e-18 -3.379894016237182242e-16 -8.466752523415914065e-17 5.782880552840076562e-17
-2.046934213688903345e-17 -1.233206942395475520e-16 8.178381274191625917e-19 9.698394683075536620e-18
1.288747309416551008e-16 -6.620532023401510392e-16 -7.886597922050608751e-17 1.350396855308873877e-17
1.408436615877424392e-17 -9.740281571446170866e-17 -1.835914941323293878e-17 7.545803431411478794e-18
-2.255760301580199417e-17 -1.475446363706887970e-16 -1.109849234733894863e-17 1.772555980009208189e-17
-2.852538206358944617e-18 -6.099606909873770415e-17 4.070176843821009621e-18 1.233803629582222354e-19
-4.769511392804139692e-17 -1.784342141326336323e-16 -3.381474175460181554e-17 4.025699197742476234e-17
1.431481175326452284e-18 -2.920418976957173515e-17 1.841978995629463438e-18 -8.828192013493339252e-19
0.000000000000000000e+00 0.000000000000000000e+00 0.000000000000000000e+00 0.000000000000000000e+00
1.919022416624910353e-17 -3.768601013149850851e-16 -4.345857091235548374e-17 2.628415962178750321e-17
6.556253132033605827e-17 -1.112259994706232196e-16 -2.836914329130251558e-17 -4.931761800200468725e-18
-1.696856617274840529e-17 6.207005189257692426e-17 4.653899657020374062e-19 4.393904630898573020e-18
-1.617919745792649820e-16 -2.621805192270323518e-15 -2.723545532615399372e-16 2.717320899152438951e-16
-3.145823009511138221e-16 -1.534887178575194827e-15 -2.331647852445228722e-16 2.794455469918348834e-16
-5.119731167594697876e-16 -2.520842810588262297e-15 -5.052857923365230143e-16 5.263056671051345478e-16
2.948678298224799492e-17 -6.396709321909725448e-16 -1.509403319757741286e-17 1.261422540647829418e-17
-3.239746051194990913e-16 -4.470839480377027377e-15 -4.081450994141797931e-16 4.488356748245097092e-16
-2.323859212032460777e-18 -6.923119134838613769e-18 -1.823268975676144859e-18 2.020006296195024838e-18
-1.968844498873662737e-17 -1.189788993062723313e-16 -2.327050444113099731e-17 2.291100621926793248e-17
-1.887520826713128911e-17 -5.596489919285372448e-17 -5.292733633111861614e-18 1.103138078459022976e-17
4.204536143565755636e-18 -6.136461452760698621e-17 -3.473682453270586605e-18 1.860198242535951049e-18
-1.183898195274793538e-17 -1.034505501972479239e-16 -6.351268663164812069e-18 1.019624033535516951e-17
-5.541765588587755791e-17 -2.701279511062790464e-16 -5.858567101553749501e-17 5.910233666009674931e-17
4.569984363270727712e-18 -1.032642601912072533e-17 1.913715748260673493e-18 -2.480375969717456860e-18
-7.561205188758149113e-18 5.857361673459497170e-17 -2.108915369593209533e-17 1.326595449803683490e-17
-4.687886510653488675e-18 -1.618670237010808298e-17 2.008391598736496719e-18 9.172428639409122502e-19
2.274063676186725439e-18 -1.580285803786069485e-17 -5.550038928202947105e-18 2.679116895669796518e-18
0.000000000000000000e+00 0.000000000000000000e+00 0.000000000000000000e+00 0.000000000000000000e+00
-6.685323332324475577e-18 -2.448608002935456043e-17 2.064958676459544081e-19 2.839789260662882585e-18
-1.924680056752781281e-18 -1.957758733274199581e-18 -1.903498178015020301e-18 1.808459461619235468e-18
-4.288679268298120839e-18 -1.122438659498213612e-17 1.928206345164039150e-18 7.057309518434009554e-19
0.000000000000000000e+00 0.000000000000000000e+00 0.000000000000000000e+00 0.000000000000000000e+00
5.059354511902445703e-19 -1.547445820725694575e-17 -7.492462922707337975e-18 4.401055148603961833e-18
0.000000000000000000e+00 0.000000000000000000e+00 0.000000000000000000e+00 0.000000000000000000e+00
-6.228433004794282112e-18 -2.168899294330993263e-17 5.774009491084550813e-18 -5.294850000591141650e-19
0.000000000000000000e+00 0.000000000000000000e+00 0.000000000000000000e+00 0.000000000000000000e+00
0.000000000000000000e+00 0.000000000000000000e+00 0.000000000000000000e+00 0.000000000000000000e+00
0.000000000000000000e+00 0.000000000000000000e+00 0.000000000000000000e+00 0.000000000000000000e+00
-1.924646390251051385e-18 -1.957592400552768915e-18 3.713394094906067915e-18 -1.360897794533679234e-18
0.000000000000000000e+00 0.000000000000000000e+00 0.000000000000000000e+00 0.000000000000000000e+00
6.921915971442367808e-18 -1.957281986335309320e-18 -1.903483544956197959e-18 -1.360938315246338442e-18
1.313721495052830943e-17 -3.996979584555367517e-17 -3.249561869094272524e-18 -1.956851956828314979e-18
0.000000000000000000e+00 0.000000000000000000e+00 0.000000000000000000e+00 0.000000000000000000e+00
0.000000000000000000e+00 0.000000000000000000e+00 0.000000000000000000e+00 0.000000000000000000e+00
0.000000000000000000e+00 0.000000000000000000e+00 0.000000000000000000e+00 0.000000000000000000e+00
-1.924662147879564768e-18 -1.957673428537674755e-18 -1.903487695512299653e-18 1.808445175629227391e-18
-2.361135666988168073e-18 -9.026796151053490482e-18 -1.789048091977360446e-18 2.062268220513706610e-18
-1.347266466759355821e-17 -1.370365069050680634e-17 -2.090615875120499682e-18 6.320435041728469816e-18
-4.248523549859770407e-18 -8.879920429748209365e-18 1.890107501793106893e-18 6.591067400109364096e-19
2.344971654184892133e-17 -3.603527567996220353e-17 -1.104330963734706805e-17 -1.343949015866485909e-18
0.000000000000000000e+00 0.000000000000000000e+00 0.000000000000000000e+00 0.000000000000000000e+00
0.000000000000000000e+00 0.000000000000000000e+00 0.000000000000000000e+00 0.000000000000000000e+00
0.000000000000000000e+00 0.000000000000000000e+00 0.000000000000000000e+00 0.000000000000000000e+00
-2.070345169121609287e-16 -4.633951155330635746e-16 5.613449389726899196e-18 8.162577746956839944e-17
-2.912906763028253533e-17 -1.521807306238773093e-16 1.544438090108594449e-17 5.209247163304299404e-18
-1.293335973727912956e-17 1.658259141658515965e-16 -1.254271576316292066e-17 7.910005756269885134e-18
-2.944313635295567248e-17 -2.709324230466484655e-16 4.517116673218065877e-19 1.650320495877251054e-17
-9.745181454530451986e-18 -1.031477192165527278e-17 1.295634002296704111e-17 -3.582916713839152598e-18
-1.436706850492788038e-17 -1.167731735658461091e-16 3.616875918226057873e-17 -1.258469325748606771e-17
-1.889619170542878128e-17 -7.186604521758802210e-17 1.125749057502404594e-17 2.064860780788025854e-18
-4.414003554277097025e-17 -2.113478146117669587e-16 1.370068886346766213e-18 1.988464193784160715e-17
-1.924913857139773515e-18 -1.958478688215883108e-18 -1.903491348603716956e-18 1.808555870794352481e-18
-8.280144100848450789e-18 -8.463375749165777921e-17 -3.476245428964741966e-18 6.867732723103438319e-18
2.460545162214222713e-15 1.029710359297778955e-15 -3.190832359265068380e-16 -7.250718787039512537e-16
-2.556612184789126579e-16 -1.961221271012391461e-15 -8.707397288518647205e-17 1.856761165124409092e-16
8.777564720755959958e-17 -1.057742436951879387e-15 -1.181204818797948164e-16 5.944676836643849724e-17
5.020507930462018289e-17 -2.108031362548588123e-16 5.924481788060578615e-17 -4.658382136371172276e-17
-3.941739076602711346e-17 1.109860495174328560e-17 -1.338935322400457943e-17 2.142224666072146960e-17
-1.539725947267395169e-17 -1.566133769165244209e-17 -3.994185805062795021e-18 8.128902803156271731e-18
-1.306500882088067861e-17 -2.669075609177168749e-16 2.096707798413732442e-17 -1.032499513798318489e-18
2.218961037872179444e-18 -1.198130474847331127e-16 6.015254568402571805e-18 -1.442956359936643875e-18
-3.438313733228879345e-17 1.917424147100091054e-17 5.086480466746545506e-18 9.008560573244675009e-18
-2.587430696713996736e-17 -4.622827166727610301e-17 -7.563817553267761447e-18 1.459717431719194278e-17
-6.863573716993983002e-18 -2.148177649243883513e-17 -5.460152759691729368e-18 6.032206769016899911e-18
-9.440020128093790823e-17 -6.606243156226345870e-16 -8.699667603453862115e-17 9.804938239947709271e-17
-5.007650338299346413e-17 -9.592738236028299936e-17 7.832664121443680912e-18 1.571946142223340454e-17
7.575843845751248725e-18 -8.199640833634162436e-17 1.647501331300273581e-17 -1.013080957453152212e-17
5.261228708213905055e-16 -5.838787309823957853e-15 -1.158234278234213066e-15 5.988726635130133851e-16
-7.058964631480692641e-17 -2.129972230472275415e-15 -5.481813742340223860e-16 3.834208883831808269e-16
3.121973795123899166e-17 -5.010695788400371590e-17 -5.758342297691867341e-18 -6.787162260471386573e-18
-1.234374231998059892e-16 -4.095209435081613026e-16 -7.492645559289643170e-17 9.588629276705944794e-17
1.764311289294285658e-16 -4.774554905924156026e-16 -1.017166062810351304e-16 5.128939384061189498e-18
3.117647109704926542e-17 -2.816105032282141297e-17 -1.116031460108847486e-17 -4.226591271223206748e-18
0.000000000000000000e+00 0.000000000000000000e+00 0.000000000000000000e+00 0.000000000000000000e+00
0.000000000000000000e+00 0.000000000000000000e+00 0.000000000000000000e+00 0.000000000000000000e+00
3.130992046516460201e-17 1.116777019533883360e-16 -4.231141915116202396e-18 -1.138931559419057225e-17
-1.113106109505280235e-17 -3.428063081022559121e-17 -3.509589628877591132e-18 6.753817608308837519e-18
0.000000000000000000e+00 0.000000000000000000e+00 0.000000000000000000e+00 0.000000000000000000e+00
-8.541794340692914132e-17 -4.716651321884573511e-16 -4.248707406080434143e-17 6.538581852939316393e-17
-7.325235582780117697e-17 -1.031850560331041822e-15 -8.544568112102282134e-17 9.810634976859147170e-17
-1.676219763773474016e-17 -1.362177259503833193e-16 8.425261571972007871e-19 8.651945181125183786e-18
0.000000000000000000e+00 0.000000000000000000e+00 0.000000000000000000e+00 0.000000000000000000e+00
0.000000000000000000e+00 0.000000000000000000e+00 0.000000000000000000e+00 0.000000000000000000e+00
-1.297527129435322052e-15 -4.989137186296028421e-15 -1.273453187873484059e-15 1.297751330171290489e-15
3.872665019194302421e-17 -2.052735658778581511e-16 -2.394658587657696059e-17 4.342595089948716520e-18
-1.924891581232749462e-18 -1.958372206223597325e-18 3.713392161481481935e-18 -1.360790988338078258e-18
-7.336915352380599761e-18 -1.834590067037242543e-16 -5.027008866488848194e-17 3.519840423505645272e-17
6.128665655050023390e-18 -7.702013016748461774e-17 -2.393723270719892776e-18 9.203171960010153057e-19
-1.299716520835582752e-15 -7.655977511870765363e-15 -8.296640656000371016e-16 1.109251126915204418e-15
4.557850738725525985e-18 -1.122369087860744422e-17 -3.688695908940065367e-18 7.057070799731872449e-19
-1.665555014330816345e-16 -7.129614405375934127e-16 -1.183682174477772987e-16 1.428007358577281309e-16
-6.241206458702119445e-17 -1.596857221170978803e-16 -2.623978617041401476e-17 4.082558269718878358e-17
-3.903837081160289867e-18 -2.722182447164699461e-17 -5.558025170964755840e-18 5.158639592778991494e-18
-4.874573149359594109e-17 -1.125541876795677769e-16 -2.401566981846334108e-18 2.139847037598939125e-17
0.000000000000000000e+00 0.000000000000000000e+00 0.000000000000000000e+00 0.000000000000000000e+00
-7.912616762979105064e-18 1.292142155166910134e-16 3.637411055488743797e-18 -2.179245651076182597e-18
0.000000000000000000e+00 0.000000000000000000e+00 0.000000000000000000e+00 0.000000000000000000e+00
0.000000000000000000e+00 0.000000000000000000e+00 0.000000000000000000e+00 0.000000000000000000e+00
-2.248971485788926114e-17 -5.089582127334443955e-17 7.615957874783528279e-18 4.926377030159302470e-18
-9.615695505557183606e-17 -2.428188246640333937e-16 -9.036245968614863584e-17 9.100176608717194984e-17
-9.980543319215810847e-18 -1.673461572118188801e-16 -2.011353279058230437e-17 1.876031165554127010e-17
6.320428810514492669e-17 -3.380246135055541190e-16 2.029885787500139153e-17 -2.634965916267593541e-17
-3.547434088263857089e-17 -4.111401069201634618e-16 1.435648910398319159e-17 1.403171991612966296e-17
5.495296859642684515e-17 -4.072643227124319054e-16 -6.055583925049677198e-17 2.381584188265424437e-17
-1.924677543216479414e-18 -1.957738771567693600e-18 -1.903493797957004816e-18 1.808455632140953364e-18
2.485969087071106258e-17 -1.229259663913396357e-16 -1.845321146051455070e-18 -5.047524698685078983e-18
-6.085298242925449616e-17 -2.547724566595103155e-16 -3.339531644980236646e-17 4.648394360064401978e-17
5.164997946723628643e-18 -1.816176941551995152e-16 8.347535055965220319e-18 -2.397827858177170388e-18
5.720334573203828753e-18 -1.797628630409853839e-17 -1.132004706724972813e-17 4.750009466886360314e-18
-8.250993170818689907e-18 1.236464046505482801e-16 -7.506060215417063817e-18 4.357319039488213598e-18
1.057611399134205767e-16 8.532410538394359406e-17 -3.926911605270811883e-17 -1.768791947462610890e-17
3.244099273537150306e-18 -2.688707021260692102e-17 -1.879442399418506876e-18 5.145028356418328593e-19
0.000000000000000000e+00 0.000000000000000000e+00 0.000000000000000000e+00 0.000000000000000000e+00
0.000000000000000000e+00 0.000000000000000000e+00 0.000000000000000000e+00 0.000000000000000000e+00
-6.098472243119616285e-17 -5.081063372623116297e-16 -8.090538505076620424e-17 7.914521632372620087e-17
1.575741626222172878e-17 -7.386762118976613323e-17 -2.802301561609376939e-17 1.185984182659837222e-17
-5.988029300117122943e-18 -7.105864804636561706e-18 -7.594295625711672451e-20 2.350987426492305338e-18
-7.984222628017275885e-17 -3.911666773186111582e-16 1.013943842564428742e-17 3.184862946911462146e-17
-9.902331313766253005e-18 -4.424425947824980303e-17 -1.109144218462261702e-17 1.082005424302490527e-17
3.780691007455754756e-18 -2.101249247213384857e-17 -1.972356746704562384e-18 2.400448873262002082e-19
3.706444022098499945e-19 -1.761971066266717139e-17 1.095308470617832839e-17 -5.909238961785216892e-18
-5.368765653211723935e-18 -7.645250282906474320e-17 1.010437343993896235e-17 -2.025700038722874125e-18
7.084087811419369566e-19 -1.513747238288823384e-17 -1.878665091730248295e-18 1.153198036046700901e-18
-1.418560575893206030e-17 -1.765538435808310247e-16 -2.716966273051020511e-19 9.282065863857861635e-18
-1.519123542547182066e-17 -3.465728172363485004e-17 -1.142976392488358270e-17 1.268601953677140358e-17
1.217398346956632680e-18 -3.044003163706812044e-17 -1.499100458455255074e-17 8.720244356368295380e-18
-3.849166123822251538e-18 -3.914585515434898024e-18 1.809990613665658600e-18 4.474332488898822003e-19
-3.240273949657568667e-17 -3.567203986819401710e-16 -3.722301424900309033e-17 4.078781020453064092e-17
-4.971288082801597663e-17 -6.050939049940721286e-16 4.193458982599314678e-18 2.931276088656976354e-17
-5.311563904931860287e-19 -1.065555682682192841e-16 -8.736130853710388500e-18 7.561932453631546503e-18
-4.160764132757997387e-16 -2.341070454834629819e-15 -2.617881639521618725e-16 3.504353801205941767e-16
7.131579664048541610e-18 -7.156990880980904413e-17 -2.034555306824803046e-17 1.056544564435804294e-17
-9.671780279906668289e-17 -3.456480083867001380e-16 1.744538898961707015e-17 3.272878045877065836e-17
-1.524975363944848672e-17 -2.084406427415478765e-16 -3.848448130817147438e-18 1.241234381199221171e-17
7.944013094589292898e-18 -3.631486524570734217e-17 -5.594858908047647471e-18 1.143229492351278672e-18
-1.429643171014949418e-17 -2.491040843487821885e-17 3.707470292931341957e-18 3.600837097654737528e-18
-6.396883584343349639e-17 -2.100538652456658558e-16 -6.810884432861940736e-18 3.157496135177993829e-17
-5.820544629899748663e-16 -1.377929126650879241e-15 -2.408431522085727518e-16 3.760050754276635054e-16
-2.502053117450488742e-17 -1.264617373883682151e-16 -7.034340305758465641e-18 1.583150071445018062e-17
-3.203327708618958442e-17 -1.264385002254027188e-16 -2.602284103854887444e-17 2.905764723349426017e-17
-1.480907814139183023e-17 -4.779791877457771357e-17 -1.278779724737466864e-17 1.361656528541190984e-17
-3.849021008350525482e-18 -3.914462524681520297e-18 -3.807001907821129090e-18 3.616776388781532194e-18
-3.646303105179691781e-17 1.190981715714123769e-17 -1.404887829112835978e-17 2.071736384432935622e-17
-9.907608956496793003e-19 1.272578710922148124e-16 -9.499873886752233337e-18 2.798508350894738926e-18
-4.967200113546083413e-18 -1.395918640138400774e-16 9.279000543012260518e-18 -2.566867832335671545e-19
-4.437167799025128865e-18 -2.132183875431713607e-16 -1.892578259984977472e-17 1.715554929246235987e-17
3.741299286544318953e-17 -4.417822328101497806e-17 -1.127543562084517039e-17 -6.028813221322436977e-18
-1.523288606602570944e-17 1.537234226206903493e-17 -3.610406007295307675e-18 7.142171255229201205e-18
-5.819694228923053832e-17 -4.958460517145801867e-16 -4.547903850070322341e-17 5.787608167693977417e-17
-1.924636392283580347e-17 -1.957562978080512444e-17 -1.341790026396882569e-17 1.491494515345461152e-17
2.551823017199208094e-17 -1.630049877728825182e-16 -1.271787269683077783e-17 1.770018438522037069e-18
-9.175242963780301362e-18 -8.067287418791336564e-17 -2.966100542647899867e-18 6.809776591240153499e-18
0.000000000000000000e+00 0.000000000000000000e+00 0.000000000000000000e+00 0.000000000000000000e+00
-9.327981770249302189e-18 -2.631737786610904503e-17 -5.761511747195609272e-18 7.195979552768792658e-18
-6.895689057278442953e-17 -7.034946224098290567e-17 -1.043054854160150180e-16 8.517144337364094349e-17
-7.698643356854717190e-18 -7.830643120293281912e-18 -1.997067980192895756e-18 4.064441629155306729e-18
1.147856260184467627e-18 -7.830626520488642791e-18 3.619760302011313118e-18 -2.274208079704854712e-18
0.000000000000000000e+00 0.000000000000000000e+00 0.000000000000000000e+00 0.000000000000000000e+00
-8.020787557288213048e-17 -4.324119941317527139e-16 -1.419655730140431153e-16 1.187504945321571571e-16
-4.044924646511191318e-17 -9.663539672248512721e-17 -7.133130038795443035e-18 2.073110704730515991e-17
-1.352740748831599211e-16 -8.018734645654598350e-16 -8.245200505678299445e-17 1.133659476268030758e-16
0.000000000000000000e+00 0.000000000000000000e+00 0.000000000000000000e+00 0.000000000000000000e+00
-3.222824430597805094e-18 -4.406925348903733610e-17 -1.092611486618153062e-17 8.329758912203342052e-18
-1.572450727242304987e-16 -5.341746753329940707e-16 -9.307048660118952320e-17 1.210930865643856959e-16
-1.458426928597590786e-18 -3.828278412545489735e-17 -5.572261954809751048e-18 4.544099081121435038e-18
-7.801799709058451751e-17 -8.790164276413007757e-17 4.687407850423476380e-17 3.516634120779386091e-18
-1.356863725195566550e-16 -3.866541390557259782e-16 -1.223263756465924735e-16 1.264959766867100141e-16
-1.760510927033108498e-17 2.296945059233924734e-16 -1.316730981595341730e-17 8.472259599140106309e-18
-1.924503542790039439e-18 -1.956916828057074239e-18 -1.903394223474215345e-18 1.808318270707745314e-18
0.000000000000000000e+00 0.000000000000000000e+00 0.000000000000000000e+00 0.000000000000000000e+00
0.000000000000000000e+00 0.000000000000000000e+00 0.000000000000000000e+00 0.000000000000000000e+00
-1.551848971363300025e-17 -1.618466482667567581e-17 1.629187018176363246e-18 5.011331370496035981e-18
-2.567693553517825954e-18 -8.297157742557281728e-17 1.509843577648347382e-17 -5.697701921608669239e-18
-1.844041718786672289e-16 -7.513992007486903214e-16 -5.374405144422017722e-17 1.136118918566891487e-16
-4.449825422366809988e-17 1.143902755918698838e-16 2.821382663654945632e-17 -2.599607006107468278e-18
-6.260569612472231263e-17 -1.554759816138426894e-16 -9.277767944424291885e-18 3.122761670167070710e-17
-1.943263401777124401e-17 -8.985347007846796915e-17 -1.655638547957490215e-17 1.836334850876664222e-17
-1.670944652022052749e-17 -6.487141206989292994e-17 5.902388017518642385e-18 4.142746615305117567e-18
0.000000000000000000e+00 0.000000000000000000e+00 0.000000000000000000e+00 0.000000000000000000e+00
-3.565029867198278656e-18 -2.528966520093442091e-17 5.649194353625278561e-18 -1.330720038934483464e-18
7.345808702989997370e-18 -4.859828121722788272e-16 -5.877926606143941559e-17 4.167336773266090241e-17
-4.854586427614811128e-17 -2.590748642011882543e-16 -5.037403205709551823e-17 5.175368131605605616e-17
-1.782197162791655723e-17 -1.319191695260563947e-16 -9.885532099070357181e-18 1.498642197374392408e-17
-2.653907454220459012e-17 -1.576158388972469969e-16 -1.328376339690720440e-17 2.061583640661141896e-17
-2.868744932943309373e-18 -5.650941518449025849e-17 4.019798964496022745e-18 5.477787260064217524e-20
-3.541090028271626379e-16 -1.635188927393728059e-15 -3.506718875144933391e-16 3.622088853522073889e-16
-3.682878088659095509e-18 -4.743145215090904283e-17 -5.250192421664130521e-18 5.368990221931703677e-18
9.914489637156856685e-20 -2.588657780723167870e-16 -2.934160929550415021e-17 2.245376232418690333e-17
3.304235791628966998e-16 -2.275561431250684515e-15 -1.289573056322895886e-16 6.543018444187003177e-18
1.060721870484608844e-17 -5.532951399160830724e-16 -4.324077470218712041e-17 3.328011952092770436e-17
-1.231244029278432731e-17 -1.974196439106628645e-16 8.651332598162247314e-19 8.447773981251213175e-18
-1.304164446621742216e-18 -1.075344324155571705e-16 -1.542097512074847637e-17 1.163324090212424086e-17
0.000000000000000000e+00 0.000000000000000000e+00 0.000000000000000000e+00 0.000000000000000000e+00
-1.020908095640023220e-16 4.067804261332635595e-17 -4.915179467102586495e-17 6.337666247306114290e-17
7.247054516065950831e-18 -1.884025238646098083e-16 -2.940599103135942917e-18 3.381113779680388786e-18
-2.848152063846571999e-17 -1.014900997516153778e-16 -2.165893878570004233e-17 2.475103698201600121e-17
-3.140855039753275206e-18 1.192226150489778247e-16 -1.130253725617583994e-17 4.770125159821399656e-18
3.529176830760932337e-17 -1.870230247282206820e-16 2.080262044608854755e-18 -9.530824202812930133e-18
3.456586706043410373e-16 -1.256058164780992765e-15 -2.231772083359925533e-16 3.088153878913440581e-17
1.040859070511325339e-17 1.020991256053963698e-16 -1.394341853033374205e-17 1.798499020403945678e-18
2.343213020610447566e-17 -5.463594657922702290e-16 6.069640507265984321e-18 7.030158045429639271e-19
-1.254636488965207032e-17 -6.656445682513205639e-16 -1.892995792637237528e-17 3.043275257734991298e-17
2.954577522281253552e-19 -5.803665165943467465e-17 -3.323785958146729953e-18 3.099806813041809651e-18
-4.141576793128028487e-17 -2.952642937131552215e-16 -2.723416604564435548e-17 3.697201008677430044e-17
-2.801521393397434627e-17 1.840944727384409941e-17 -2.871952639780003037e-17 2.581981863911607953e-17
3.573871101636696095e-17 -8.120163051935288337e-17 -8.133785367927237811e-18 -6.353087408419219725e-18
-5.450977978713805037e-17 -2.339906864119874165e-16 1.349934363539669443e-17 1.727471509178266577e-17
-2.873541543520449036e-17 -1.004701911636167590e-16 1.256580782561975982e-17 5.507247147169202179e-18
-1.907384847941898835e-17 5.946333833988558667e-17 -2.045019831681013585e-17 1.700954610872883200e-17
-2.186876599762493082e-16 -1.902908316255996229e-15 -1.531779695419350982e-16 2.083927401864581413e-16
-3.111455104783031002e-17 -1.743785542960379318e-16 -2.489876795081579424e-17 2.919303490304464529e-17
0.000000000000000000e+00 0.000000000000000000e+00 0.000000000000000000e+00 0.000000000000000000e+00
-6.909139945268737399e-15 -2.180832643437367577e-14 5.342161472308519938e-15 -3.920901319383863326e-17
-3.585558176363105090e-17 -2.328646337352563920e-16 4.288421347759540943e-18 1.576313815756980631e-17
4.557734350073963692e-18 -1.122470034854748748e-17 -3.688693344588533325e-18 7.057704675359611256e-19
-2.761176587148847581e-18 -6.543025845775575454e-17 -8.643196553342020739e-18 7.365824587791705476e-18
-2.900851300339018131e-17 -2.834724605817398047e-16 2.207025925663999074e-17 4.436612088656483608e-18
-4.763011643803627566e-17 -2.203028849979541617e-16 3.953053688852255541e-17 -1.918632481222424232e-19
-1.598823886493620664e-16 -3.556923423785769415e-16 9.083919559081653425e-17 1.417573636248537478e-17
2.366082242118393117e-18 -4.193193970481637206e-17 4.638408465964508226e-19 -1.483110074372747951e-19
-3.015246101197763504e-17 -2.283749992537381638e-16 3.507061811889305357e-17 -3.751871721106209399e-18
-4.537502662479110167e-18 -3.928918963183498933e-17 7.972894665192328966e-18 -1.972603889205615397e-18
0.000000000000000000e+00 0.000000000000000000e+00 0.000000000000000000e+00 0.000000000000000000e+00
-1.941197737340124981e-17 -1.043668619355764745e-16 1.581467110309496194e-17 4.231704899973321172e-19
-5.437245791454199695e-17 -2.147032186902017602e-16 5.026401737131429144e-18 2.156432012113455124e-17
0.000000000000000000e+00 0.000000000000000000e+00 0.000000000000000000e+00 0.000000000000000000e+00
0.000000000000000000e+00 0.000000000000000000e+00 0.000000000000000000e+00 0.000000000000000000e+00
0.000000000000000000e+00 0.000000000000000000e+00 0.000000000000000000e+00 0.000000000000000000e+00
0.000000000000000000e+00 0.000000000000000000e+00 0.000000000000000000e+00 0.000000000000000000e+00
0.000000000000000000e+00 0.000000000000000000e+00 0.000000000000000000e+00 0.000000000000000000e+00
0.000000000000000000e+00 0.000000000000000000e+00 0.000000000000000000e+00 0.000000000000000000e+00
0.000000000000000000e+00 0.000000000000000000e+00 0.000000000000000000e+00 0.000000000000000000e+00
0.000000000000000000e+00 0.000000000000000000e+00 0.000000000000000000e+00 0.000000000000000000e+00
4.474280742636621229e-18 -4.465924770939366820e-17 7.514898809422898465e-18 -4.819655269745819144e-18
-2.389136701531703618e-16 -2.787830344445195821e-15 1.797939325145577779e-16 4.804141338878357267e-17
1.341790443448231942e-17 -1.648092341380155834e-16 -3.300602827839275752e-17 1.759405826941421375e-17
-4.219311321638090557e-16 -2.831643362189951025e-15 1.101591899006286188e-16 1.539049141406975124e-16
-1.831757806161442435e-16 -1.513549681132730866e-15 7.296642634813093948e-17 5.914375605755300619e-17
6.921886142969739279e-18 -1.957424484712561345e-18 -1.903501192956622545e-18 -1.360914404916393626e-18
-1.337296735175192254e-15 -5.298153070063085755e-15 5.142014619186900618e-16 3.103945556325200819e-16
2.900478048962847841e-17 4.760049084887558530e-17 1.144080131653567473e-17 -1.793774305694803389e-17
-9.602507564999379173e-17 -7.610322542810907943e-16 2.134976063300513665e-17 3.979820021956219341e-17
-3.681597035895727645e-16 -1.249907347951137044e-15 3.796747150284996252e-16 -5.368736393028679226e-17
-2.905601970607940943e-16 -4.607036151670678732e-15 -1.595706416474233469e-16 2.997277033048957955e-16
-1.160512139216739916e-17 3.511558956142623780e-17 4.082587309572616642e-17 -1.968327648737081818e-17
-1.315324200868528043e-15 -4.192765939859476688e-15 -1.987584329674863784e-16 6.794759890311634189e-16
-1.914619914386978118e-15 -6.816260765863248031e-15 1.693165501603892893e-16 7.466232549187678343e-16
-1.303031295082812013e-15 -3.246956935581720990e-15 8.775954072351981940e-17 4.917256360076272219e-16
0.000000000000000000e+00 0.000000000000000000e+00 0.000000000000000000e+00 0.000000000000000000e+00
-9.172511904070650933e-16 -2.795342683151414603e-15 3.608356650627007268e-17 3.723234022744706154e-16
-1.200700428700652122e-17 -4.237985870793836662e-16 2.027075838233522479e-17 2.577316229689896146e-18
7.349502246944773269e-17 -1.419179432194567476e-15 1.086223255873058873e-16 -5.509292047485813454e-17
-1.019528301931087057e-15 -4.171824710009890693e-15 -5.727898877335370994e-17 4.931942461679111913e-16
3.153528420567906958e-17 -1.354665296421380268e-16 -9.364355198315170006e-19 -7.664530051843005308e-18
-4.359655576029349820e-16 -3.106688964406777181e-15 -2.182570031266747200e-16 3.505463697063256325e-16
6.807482147912032049e-17 -7.919069191956057787e-16 -3.340607573897794650e-17 1.261155233764153501e-17
-4.209471444444629628e-17 -2.497030805033555602e-16 4.109712936048391549e-17 -2.385071975072806905e-18
-1.529547782873011824e-16 -3.592071068320193096e-16 2.096042811154236697e-16 -5.523899753954061190e-17
7.153159271820977072e-17 -3.116647381190361176e-16 -4.637875510888503833e-17 7.685793539238145245e-18
2.132563059257041878e-19 -2.332452747429211827e-16 -1.515133492274947726e-17 1.381876918027762357e-17
9.689658366861444615e-17 -2.396022520096019530e-15 -4.013004601349463911e-16 2.466374081590439072e-16
5.282587624050918043e-16 -1.511324424202793602e-15 3.619692707018625400e-16 -3.588559184033842535e-16
-2.227700848993725119e-16 -1.565631809526777757e-15 -2.741195883919616043e-16 2.703664222811173250e-16
-1.400947805458586900e-16 -6.533454622577613115e-16 -1.466257553776938843e-16 1.478988887123205520e-16
-4.504520898117917620e-16 -5.606887889194163070e-15 -5.169444328387953128e-16 5.815760054880472437e-16
-1.172071138498518255e-17 -6.080722355125814589e-17 -1.540467574761524427e-18 6.461976841391320976e-18
-6.053460014330096366e-18 -6.561849881778474036e-16 -6.106629373861720657e-17 5.166529405263638516e-17
5.074825026142087997e-18 -5.100746571755656542e-17 -5.199088612438011680e-18 2.284585515289398838e-18
-8.560755318686974106e-17 -6.909080608749691885e-16 -8.224740506138152038e-19 4.696949173833469945e-17
-1.017282595806060279e-16 -4.039264669725730550e-16 -2.774680139378729259e-17 6.135934583176408643e-17
-1.834474746793884531e-16 -3.264359929846895183e-15 -3.357816455767882775e-16 3.300066439208254871e-16
7.214199944094048590e-17 -3.518576687417607303e-16 -8.907399568294215703e-18 -1.275494348616867773e-17
1.392967782169499513e-17 -3.567296891163862870e-16 -6.688327422778679983e-17 4.092484056450717375e-17
5.079577053235547699e-17 -5.711137266530572085e-17 -3.442921857220259549e-17 2.537669106261909428e-18
-5.478742584800909528e-18 -2.635584550607567239e-17 -1.885885865176603532e-18 3.631005318890648458e-18
1.837564560310095372e-17 -2.529084884348920531e-16 -3.288634186350619396e-17 1.776960916415904702e-17
-1.485473459459939020e-17 -8.881820305803787213e-17 3.730580621783022717e-17 -1.369229341866515121e-17
1.127584128647765519e-16 -3.816510417922901122e-16 -8.505880917116820342e-17 1.634526769001534682e-17
-4.149701062123321845e-17 -8.445252722355577289e-17 -7.379522374128878351e-18 2.096627352780483755e-17
-4.462219176952176084e-18 -1.077225317913899795e-16 -6.411119205117078520e-18 7.685128700691479001e-18
1.289194542873312722e-17 3.082491636742416146e-17 -1.006622300050991919e-18 -4.757185609358602220e-18
-1.127916885857363067e-17 -1.550834391730233272e-16 7.923074979956866056e-18 3.124788769675903348e-18
1.455024649860790802e-17 -4.056484032184904561e-16 -1.848806191637119714e-17 1.451665319814695325e-17
5.884935797261674545e-18 -3.081642738672001100e-16 -7.652551181310017040e-17 4.813447306909217746e-17
2.858301429990851926e-18 -7.106227899686312000e-18 -5.692815756344083216e-18 2.351042596077191676e-18
-4.001996971330140356e-17 -1.244114665840190076e-16 -4.443480715394787727e-17 4.226148171085976378e-17
-1.583965743167556957e-17 7.851889508913008408e-17 -1.103273642383011448e-17 1.010029129574477445e-17
8.335181530202403275e-17 -3.745258857139680731e-16 -4.210894504599802386e-17 2.482619803191307121e-18
-2.739008776705818470e-17 -2.993748610153470954e-16 -9.237775840460793287e-18 2.188689413541066151e-17
-1.109849053454337541e-17 -4.790713157061193407e-17 -3.856305085063639383e-18 7.250104330491660786e-18
5.680973162188566260e-17 1.628340966863303335e-16 -4.296722470057072787e-18 -2.166037483895217015e-17
-4.867681816665715048e-19 -4.075240953493296632e-16 -1.501394855199884057e-17 1.798652558190944428e-17
-1.196931026549067788e-16 -5.922252876699144481e-16 -2.406318002200107537e-17 7.003276079244462348e-17
0.000000000000000000e+00 0.000000000000000000e+00 0.000000000000000000e+00 0.000000000000000000e+00
-4.638477594171644727e-17 -2.216652579518000679e-16 -2.140663448048454637e-17 3.377711372392119464e-17
-8.536265903038183406e-17 -6.021854756507722391e-16 -3.544624263317268793e-17 6.438474890128083532e-17
-2.335212208645962590e-17 -2.209686493450362929e-16 -3.542782634620148285e-17 3.342095863839454380e-17
-7.591962920234478873e-17 -1.108198850011389132e-15 -9.053363756870309154e-17 1.036827243802524756e-16
-1.280217810447320396e-16 -6.730456488318361892e-16 -1.258076414260334954e-16 1.322784923754460388e-16
2.150543603603109540e-16 -7.805888654438078564e-16 9.842191479507090246e-18 -6.470761103723455672e-17
-1.426236643860311663e-17 -5.097414417563977028e-18 -2.535954425078031605e-17 1.953563154478207003e-17
-3.832462799451675151e-18 -6.613219399170298894e-17 6.268932689894390779e-18 -6.484835939693609401e-19
-3.216316712085324585e-15 -4.114998880052655888e-15 3.567295111594523264e-15 -7.662598471618006166e-16
-3.920338300181248759e-17 -1.122592646206969493e-16 -4.553069129105489376e-17 4.230875661243142505e-17
-4.232617241739995568e-16 -2.404059313663036945e-15 -1.287615734551742398e-16 2.793928090337402289e-16
-3.263567642497139569e-17 2.751838575698373751e-16 -2.189366987675242902e-17 1.773834967103260037e-17
8.633055431704921875e-17 -3.249681096463994872e-16 -7.308565524885901744e-17 1.775825244790288452e-17
-2.081285898565829173e-16 -5.198621736770843379e-15 1.185041418948633416e-16 1.268507903509780574e-16
2.349867293675953388e-18 -1.380713239919396475e-15 -9.521450356951588550e-17 8.452916163926731420e-17
2.880204025207994229e-16 -1.699767054585165015e-15 6.122203103848430662e-17 -9.877191918657848986e-17
3.308274325336887487e-17 -2.621956235226296779e-16 -3.574597336170728508e-17 1.432706328083319976e-17
-1.702682631346125472e-15 -1.067232307443545413e-14 -1.487634817456180154e-15 1.694013705666804414e-15
-1.065214903668092707e-17 -9.182384902443725504e-17 1.156572884295571543e-17 -6.051365584376509178e-19
1.839493488364583665e-15 -1.439659564911354406e-15 7.975371939100121031e-16 -1.076030976286995876e-15
2.646108557166220953e-17 -3.639016945602151208e-16 -3.342290382676396574e-17 1.771965246862754939e-17
-2.822986688560303561e-18 -1.227112563955388834e-17 5.435998754762115660e-18 -1.774654298189944488e-18
-1.826590535560285123e-16 -6.790498369275224475e-16 -1.880142043955495599e-16 1.870906032402352124e-16
-7.105545619508014926e-16 -2.955536691143988832e-15 -1.008766699229855016e-16 3.792240523287063853e-16
-1.329260789262847630e-15 -7.126810955729968653e-15 -2.503405533436326424e-16 7.808227867490042467e-16
-5.927501072138263451e-18 -3.910239980416698360e-17 3.926589726824153652e-18 8.042299514251378927e-19
-4.584136251810429133e-16 -1.962814808773142971e-15 -2.809427977241464197e-16 3.677414780222303725e-16
-3.252611274796977185e-17 -9.600349980585210443e-16 -9.678352644821605461e-17 8.826715932299716375e-17
-1.033846981952897823e-16 -2.715340723971843986e-15 -1.646064167551786409e-16 1.921538848178656910e-16
-3.035114006188177659e-16 -1.759006861943897369e-15 -1.878974693809671839e-16 2.550739704171168561e-16
-1.041948289601029862e-16 -8.416680104927346413e-16 -6.357126748463375046e-17 9.249011225732973771e-17
-2.381813840868168388e-16 -1.594650770773448582e-15 -1.060882675389769695e-16 1.817408170221180936e-16
-2.457470694675409866e-17 -5.840523893304682676e-16 -4.254582653560781376e-17 4.619721788546141780e-17
-3.025151328761907528e-17 6.307350415191393730e-17 1.709863415644026762e-17 -2.556877097835357719e-19
-1.392510884434250070e-16 -1.314726698111177846e-15 -1.778242251964806754e-16 1.803593373933596204e-16
4.646233525716486440e-17 -1.788910742587726980e-16 -1.941645449931476620e-17 -1.589612632449746048e-18
-1.900613481874476330e-17 -1.967992186200078510e-17 -1.004247722924538336e-17 1.292668273017733628e-17
-1.201967457414485209e-16 -7.074407535460985624e-16 -1.096199044538584305e-16 1.211294775411896853e-16
9.987367566440738333e-18 -5.403206745828222241e-17 7.295040497861416149e-18 -6.455890629546826139e-18
-5.960110540926582787e-17 -1.071267671386324632e-16 7.757326152414954941e-18 1.943094271788924804e-17
-6.464539023126669990e-18 9.489300920878775320e-18 -8.257412964994283731e-18 6.757747839478393273e-18
9.947444235273007187e-18 5.945158687157940783e-17 -2.176487151574580357e-17 7.354463312716630084e-18
-3.217692993790205068e-16 -7.519976666109978551e-16 -2.118188494754919491e-16 2.520319781903761217e-16
-7.645958744874784433e-16 -3.240454927401630553e-15 -4.849562058623049288e-16 6.218327833379315846e-16
-8.782822790011016530e-16 -1.017002618440845215e-14 -9.700214053488073490e-16 1.095087333744240624e-15
-1.732619768874069696e-17 -8.276969598875090015e-16 -1.279323897366320605e-16 9.736424401834184040e-17
-3.925709416497162794e-16 -3.806441855635949727e-15 -5.275041687643297879e-16 5.255314877269673229e-16
-1.485257036209836272e-17 -1.260513347732058951e-16 1.398059722533482510e-18 7.421327337233408448e-18
-7.519633368107745799e-17 -3.011810435278724522e-16 -3.456081320932490687e-17 5.334391053894047651e-17
6.943944490913238350e-17 -4.799791831489945954e-16 -3.381653875997670640e-17 5.204855303969179873e-18
0.000000000000000000e+00 0.000000000000000000e+00 0.000000000000000000e+00 0.000000000000000000e+00
-8.222706226777006348e-18 -1.800010047245116850e-16 -1.548327665121411667e-17 1.580796956470887303e-17
-1.218366694462636056e-16 -2.058486745944828016e-15 -1.677883570127172276e-16 1.855047447012354395e-16
-5.192630398946480459e-17 -2.723793413579879787e-16 -1.772462358290570558e-17 3.484720998273892708e-17
-8.943752910106358222e-17 -6.276935821960724977e-16 -3.592486128646675302e-17 6.669932005062804844e-17
-4.086661104594992156e-17 -3.530054047354117434e-16 -9.787504685944312793e-18 2.825439134100883777e-17
-3.155314652673279057e-17 6.711853513190211534e-17 5.201222845329558644e-19 9.472377106688565035e-18
-2.284386292420153281e-16 -1.249339044808721621e-15 -1.220955350926980513e-16 1.793679337962651598e-16
-1.652365665961304478e-16 -8.517253073071028940e-16 -6.507916878008057653e-17 1.154402552953812862e-16
7.359764304039165303e-18 -2.164097755267236011e-16 -9.671727419344947815e-18 7.780714191156238217e-18
-9.185463161943447826e-17 -5.174168928606880139e-16 -4.723501371877482311e-17 7.141949217395548272e-17
-2.531982603904570848e-17 -2.676143126282284394e-16 -3.364901786607166742e-17 3.419133461496902294e-17
-8.571169685515686369e-17 -1.141489641028267225e-16 -5.902455262509629462e-17 6.662805705409870505e-17
-3.499839570986522570e-18 -2.167629862243434707e-17 -5.643571764660575556e-18 4.935069438788754346e-18
-5.675598432584586008e-17 -2.995998839253271941e-16 5.417428606058643326e-18 2.414344317073759644e-17
-9.938133002715714120e-18 -7.093864168906143973e-17 -5.070720970442458922e-18 8.047515627970056696e-18
-2.862295946618255286e-17 -8.734568018890475484e-17 7.716540062379986591e-17 -3.128429056865632875e-17
3.148571458614951363e-17 -5.045824386736903653e-17 1.110560313524149289e-17 -1.638991044223333485e-17
-1.085471848896183175e-18 1.044407411761947079e-16 -3.533912736289479278e-17 1.793525454809258025e-17
-2.319403592937424087e-17 -2.394174913927473996e-16 3.119485482175307816e-17 -3.804793606081098081e-18
-3.849344843439153768e-18 -3.915439093349387805e-18 -3.806985371332429129e-18 3.616905458133639521e-18
-5.760096922406015527e-17 -4.522872926833908270e-16 -4.949047236835527789e-18 3.379507872566111477e-17
5.142000554596861541e-17 -1.759352989387911421e-16 -4.860835629820153015e-17 1.303808952949231038e-17
-4.179831791191913256e-17 -3.228889736096055808e-16 -1.239634862906909131e-18 2.307476236683901011e-17
-7.520350152942230285e-16 1.361847258138740608e-15 6.616689434865373732e-17 2.008753685312933113e-16
-1.135996579229457000e-17 -3.237580454653202212e-17 9.254321325823220347e-18 -4.098931532079233088e-19
-3.183613036939088930e-17 -4.186647749588533220e-16 1.584500101666426710e-17 1.206086640867073695e-17
-2.464870327467875768e-17 -1.523337795548113397e-16 2.695144109406305611e-17 -2.885257837946026466e-18
1.404210095580655578e-17 -4.518722792382310242e-17 -1.145185013453082542e-17 2.466703531674147742e-18
-3.726039859613085885e-17 -1.907777628943365775e-16 -3.766384724440076571e-18 1.984673103029953375e-17
9.558293691300027063e-18 -3.571864205798035043e-17 -2.111928149989720113e-18 -1.414017464395820065e-18
9.729864995982833572e-20 -1.150470715598072485e-16 -8.600093448864156683e-18 7.454649035869538824e-18
-2.983319763025138145e-17 -1.255402924348554585e-16 -1.093002711515797919e-18 1.418215519155879503e-17
-4.154162698503325484e-17 -3.509254834820427742e-16 1.338768065031118960e-17 1.537191110130222012e-17
-4.323501420034400658e-17 -3.067227236375316916e-16 1.791350754563451373e-17 1.241174637221364186e-17
2.931431380178040026e-17 -1.205999166871193081e-16 1.985053142235259834e-18 -8.858045174944288346e-18
-1.148679229453785173e-17 -1.710202374481955269e-16 -1.089777955881406124e-18 8.649962916911356775e-18
1.461019172203905768e-15 -5.601541245902377669e-15 -1.975616532428466958e-16 -2.835619050939948170e-16
2.014505108966007546e-17 -1.722305820776106246e-16 -2.992585599378322860e-18 -1.581047143548325084e-18
-6.372486889212751038e-16 -7.013541492838907364e-15 -5.098127846404237755e-16 6.767142768216909735e-16
-7.984925256247492635e-16 -1.389789632171182930e-14 -8.547537041350020453e-16 1.086905000269036138e-15
-3.248111118565811638e-17 -4.779065255127393185e-16 -6.571996169112272832e-17 5.967293753808158715e-17
-3.064171313726860453e-16 -1.575999666288897973e-15 -1.806008504841647225e-16 2.478033049612141745e-16
-1.081205559120291384e-17 -9.074123419654181123e-17 -4.759083772642393574e-18 8.638642223610312588e-18
-6.942591100290421505e-18 -3.092771309359726838e-17 -5.312042437923657897e-18 6.193445723121431381e-18
-2.521241366242787973e-17 -3.276534359660236148e-16 -2.431690184246198680e-17 3.026329229589902526e-17
-6.198550095416650800e-18 -1.210143633646426799e-17 7.297744346302094417e-21 2.493938777496001681e-18
0.000000000000000000e+00 0.000000000000000000e+00 0.000000000000000000e+00 0.000000000000000000e+00
-1.442558631576201722e-18 -8.949090411567208278e-17 2.247252244670355366e-18 1.299934167042025333e-18
-4.909528249294796852e-16 -2.296002103650024947e-15 2.445825959812897659e-16 9.050701275715380082e-17
-8.381661240299423573e-17 -3.041774645675409863e-16 2.060599241258371710e-17 2.537291953254342485e-17
1.384347039627471499e-17 -3.915710850555606975e-18 -3.806968909762662851e-18 -2.721719789523916519e-18
1.147080971623526038e-18 -7.832979591689347532e-18 9.236665602183578395e-18 -5.443225125565489155e-18
7.449385725789925299e-18 -1.877572305484182202e-16 -2.909043188152834564e-17 1.804892580210010015e-17
-2.522458078312114051e-18 1.254426972578379839e-17 -1.598834528632510310e-17 9.637631263017353567e-18
6.619323781077338618e-17 -8.252812436260347928e-16 -3.918361609877280548e-17 1.731057777510557905e-17
-5.452515526354257623e-17 1.502773018451390175e-16 -3.869175153139000557e-17 3.792168399277121680e-17
-1.670552836185169555e-17 -3.178556668785992697e-16 1.569134052005044538e-17 4.416331207998543918e-18
-1.924660820639439683e-18 -1.957660495675401747e-18 -1.903484510228903382e-18 1.808442606408460271e-18
-3.281027498850991513e-18 -1.676683611286811383e-17 5.507975036099662616e-18 -1.548127400051143550e-18
3.101938914591239145e-17 5.807628319504921172e-17 -5.829992367644879176e-18 -9.154526373153682726e-18
-2.155442995906354000e-17 -1.400645365714256394e-16 -1.409483678533507528e-18 1.172767853569465105e-17
3.393527105918428200e-18 -1.098905315956081469e-16 4.457428162253197632e-18 -1.212174677499828245e-18
3.703313312319480044e-17 5.045980416763271562e-17 -5.532388969989051717e-18 -1.130236117220518153e-17
2.457070835762164920e-16 -4.977414372097640862e-16 8.265493706605105975e-18 -8.128247979117580648e-17
-1.923799819910502564e-17 -6.130718536428804615e-17 -1.082144169290806793e-17 1.440338275431374747e-17
4.996661450265005516e-18 -3.916809660759598653e-18 1.809905240621894865e-18 -2.721570888543524546e-18
-6.213858437333340317e-18 -1.318399500468661440e-17 2.470158009490900445e-20 2.514415336773629673e-18
9.438896643535603891e-17 -2.740627688592288410e-16 -3.406912338273104714e-17 -8.310653654429417220e-18
-4.590216355610795016e-16 -4.923990697083479115e-15 -5.649670064960926877e-16 5.960908845925834447e-16
-2.128962372758677355e-16 -1.101858947612962233e-15 -1.478258398761414054e-16 1.849378342585804736e-16
-2.733382030100952092e-17 -2.256686073304779636e-16 -2.709831771925551931e-17 3.025522404868395263e-17
-5.169590307573460107e-16 -3.976588882341666938e-15 -4.487271410461068872e-16 5.295444320423915637e-16
-4.640862619995248825e-17 -3.220140926020030018e-16 -4.425943213350167061e-17 4.898039411851916345e-17
-5.698581552183324327e-16 -4.252151187445333974e-15 -2.692702253191168609e-16 4.535530864773235626e-16
-5.539549684246960862e-17 -1.546740350625220290e-15 -1.576344973883587909e-16 1.442429450108769031e-16
-6.869521240297611013e-16 -2.271811388082326350e-15 3.448135382685746372e-16 1.036157178513217580e-16
-8.442218844859957819e-16 -4.484249743630096783e-15 -5.083911166334150552e-16 6.920906512516852553e-16
-3.230976114002541398e-16 -2.650622906065448492e-15 6.787638275925898965e-16 -2.064883266392821583e-16
-3.132605677577157622e-16 -1.000001054608583278e-15 -1.862405931896400630e-16 2.402353266430897719e-16
-6.334815640828732750e-18 -1.369947599968103937e-17 -5.585897025865211026e-18 5.735354465708937702e-18
-7.102209184517477045e-17 -4.163759433761713540e-16 -5.349814334724240739e-17 6.517414753695118124e-17
5.707748834537226343e-18 -7.767408600174362850e-17 -1.250883899896352330e-17 6.793575354496220178e-18
5.899788154238567862e-19 -8.826848363609550312e-17 -1.855157025406285190e-18 2.858531653451791969e-18
-6.671394417250504660e-17 -7.547710022342310380e-16 -6.564168707273652499e-17 7.823877336477482859e-17
-6.677926953369399544e-17 -1.429368756665539009e-15 -7.465281849248778413e-17 9.880856528110419556e-17
-1.591474269373489799e-16 -8.447006591817990692e-16 -4.981553140780452917e-17 1.044852222082502295e-16
-3.076406008149251121e-16 -1.496040570939559809e-15 1.275287957917345219e-16 7.254625805246686395e-17
-8.363521583046297694e-17 -2.680105879551194283e-16 1.812552982745667156e-17 2.587858976001681744e-17
-5.453753890622731444e-17 -4.596818469132472995e-16 -6.445525689151451437e-17 6.644354290180433392e-17
-1.000802783744785214e-16 -8.975267997630344636e-16 -1.746552815888840187e-16 1.549756743184238037e-16
-1.923926544407673566e-18 -1.954173682375764102e-18 -1.903054066235295383e-18 1.807856747986183086e-18
-1.479357487420062827e-17 -5.178422078121432340e-16 -3.178742342723402578e-17 3.510504140608025728e-17
8.562334900538612219e-18 -1.065015158296724056e-15 -4.154888412702319125e-17 4.478673586844892070e-17
-3.922905100377448174e-17 -3.120592979425371279e-16 -5.309881788419185742e-17 5.116771608369303983e-17
-1.937987185702507680e-16 -9.480254127778089857e-16 -2.973251492125940029e-17 1.079357177926738094e-16
-4.594728870004577857e-17 -2.207258464022162315e-16 -2.240841518775096823e-17 3.416410482315832429e-17
-2.093291692080503647e-17 -1.675399507692553363e-16 -1.588618583455499279e-17 2.030325921370056304e-17
-1.509491294515700271e-17 -6.601092369744021254e-17 2.220458915142903107e-17 -5.608103718010038938e-18
-1.919933725275223699e-16 -1.555735787579217887e-15 -1.459218504201966710e-16 1.867777496734938099e-16
