-6.336905506862927252e-15 -3.683074186365519949e-15 -8.765382865912045413e-15 1.878536255914049182e-14
-3.629091939787702162e-15 -3.985179068553995649e-16 -3.515061737608328796e-15 7.542671584251430622e-15
-2.847275300859603634e-15 5.284482308927974921e-15 -5.784992555435207944e-15 3.347785547366838629e-15
-4.826809734618472238e-15 6.044237191673669671e-15 -4.395891638279533242e-15 3.178464181224335808e-15
-1.379911248060642800e-15 -1.095640093751075823e-14 -9.105765350799882573e-16 1.324688872065139126e-14
9.511395452652475302e-15 1.736456374584930659e-15 1.185820556190125642e-14 -2.310605738913867145e-14
-5.740287922009694567e-16 -5.505767158269523997e-16 -6.283876765387146755e-16 1.752993184566635842e-15
5.071841492991959221e-16 -5.123112241578169221e-15 -2.907481263447739299e-15 7.523409355726711119e-15
-3.395474973957784555e-17 -3.393015764061428983e-17 -2.835988239476156996e-17 9.624478977495369918e-17
6.358802088296702108e-15 9.744348363160588734e-16 3.541393673551252089e-15 -1.087463059816401110e-14
-5.434448006515615726e-16 -5.112494481244374195e-16 -6.225659895068280343e-16 1.677260238282826435e-15
-1.497747969342717940e-16 -1.760895390164559411e-16 -1.371970520073794182e-16 4.630613879581072273e-16
-8.261159569912144114e-17 -1.619716192092279326e-16 -1.568440247776426088e-16 4.014272396859918962e-16
-1.562566570781672650e-16 -2.001056868864073222e-16 -1.221959547818239331e-16 4.785582987463983971e-16
-1.233061392920233017e-16 -2.466060579860537848e-16 -1.746299554318886232e-16 5.445421527099658576e-16
-3.058399154940786560e-17 -3.932726770251518363e-17 -5.821687031886629647e-18 7.573294628380970277e-17
-2.575574545285739649e-16 -1.538277546159301377e-16 -1.251883925467197078e-16 5.365736016912238104e-16
-5.923523162396394739e-17 -9.432023961639391804e-17 -2.748820939570893274e-17 1.810436806360667889e-16
-1.353755013585346529e-16 1.328364496156103694e-16 -1.278238506590477014e-16 1.303629024019719849e-16
-8.804752607529949329e-18 -8.770437490286141054e-18 -8.835588462215337222e-18 2.641077856003142761e-17
-1.088803274953744021e-15 -7.225292771782036789e-16 5.346950579892694244e-17 1.757863046333020683e-15
9.868284486544454630e-16 -4.636506415542481434e-15 -2.243709162082863449e-15 5.893387128970897645e-15
0.000000000000000000e+00 0.000000000000000000e+00 0.000000000000000000e+00 0.000000000000000000e+00
-1.315914859665283588e-15 3.660038989093375960e-15 -1.314047168819784057e-15 -1.030076960608308316e-15
-6.578236031998370156e-17 -7.422652887797484278e-17 -5.252379236694272242e-17 1.925326815649012483e-16
-2.052851486857441630e-16 2.786279556328603844e-16 -1.651393220886061103e-16 9.179651514148983958e-17
-3.847630431672170186e-18 -3.821679531960931691e-18 1.745813120487383911e-18 5.923496843145717196e-18
-2.178894353308944906e-16 -3.481360630492032285e-16 -4.948678608834903629e-17 6.155122844684467863e-16
9.867608592374134952e-15 -3.461032715541242654e-15 -1.387548984836347473e-15 -5.019026891996546601e-15
-3.636597520730824896e-17 -3.608672676752062497e-17 -3.661818568644182836e-17 1.090708876612707085e-16
-3.803161241331702205e-17 -5.527875597865838395e-17 -3.927690198547972075e-17 1.325872703774551760e-16
-1.743966108184934079e-16 -1.817307729680082544e-16 -1.509089027877605047e-16 5.070362865742620930e-16
-7.511963691586786629e-15 1.294056889564609026e-14 5.187506962986266398e-16 -5.947355900357925538e-15
-2.068741776997663080e-15 5.530961269529024812e-15 -4.944279037659868701e-15 1.482059545128506181e-15
-9.173288669427234774e-17 -9.091944450417906231e-17 -4.753351910840456817e-17 2.301858503068559536e-16
1.750881883037791546e-15 -7.293588218212679997e-15 1.085007648152896348e-16 5.434205570359601072e-15
1.005070908257026561e-16 -3.121701930107750777e-16 -1.664329440840227258e-16 3.780960462690950611e-16
-5.841444036493523510e-16 -8.409303512400810359e-16 5.693518200787246106e-16 8.557229348107086777e-16
-1.589690783536726779e-15 8.503335167825896902e-16 -3.106716545910943396e-15 3.846073812665078118e-15
-2.729738634636283263e-16 1.355225298803221868e-17 -3.197812116011857096e-16 5.792028220767817540e-16
-1.150151814257217280e-15 1.408137790678793159e-15 -8.354727874507152608e-16 5.774868110291397770e-16
-5.709641367453129940e-18 -5.644224079275739481e-18 -5.768985932411391208e-18 1.712285137914026140e-17
-2.603954989750176654e-16 4.252965864716059690e-16 -2.215505204382202703e-16 5.664943294163210229e-17
-2.624766455905120759e-16 -3.117399782872788123e-16 -1.842123096542316825e-16 7.584289335320227186e-16
-6.574701681064978410e-17 -6.492574153787751086e-17 -2.717444212700851041e-17 1.578472004755358331e-16
8.896063888124627293e-16 -6.429366677740044056e-15 8.829989329000117872e-15 -3.290229040072538123e-15
-9.265792524403658848e-17 -2.288147964095927821e-15 3.556208478876071938e-16 2.025185041452357400e-15
-5.099498642119236742e-16 1.804296230536326651e-16 -2.583482722647273751e-16 5.878685134230184335e-16
-3.370126838395760309e-16 -3.583810652366710642e-16 -3.289382844678925523e-16 1.024332033544139697e-15
-1.659097052384271411e-16 -4.599041845161775794e-16 -2.032537530979321747e-16 8.290676428525368213e-16
-2.467209945310532928e-18 -2.430416945095100313e-18 -2.500714509840359900e-18 7.398341400245992371e-18
0.000000000000000000e+00 0.000000000000000000e+00 0.000000000000000000e+00 0.000000000000000000e+00
-2.899024416643374971e-16 -1.824682917712927677e-16 -1.721483007379636067e-16 6.445190341735938961e-16
-1.248201564610118576e-16 -1.315554244924075711e-16 -9.627274955850052934e-17 3.526483305119199211e-16
-3.130793131098433162e-15 -3.662812719298077440e-15 -1.019077299895278003e-15 7.812683150291791761e-15
-1.132459196091561638e-16 1.042947422620160957e-16 -8.795629228793904541e-17 9.690746963507911354e-17
-2.544720631162449206e-16 -5.183895518791061667e-17 -6.406225372117404940e-17 3.703732720253295189e-16
-1.502176726623251629e-17 -1.538459984747739794e-16 -1.253455392793561570e-16 2.942133050203627667e-16
-3.363132333794325361e-16 -3.477474232683945511e-16 -1.406631761932976119e-16 8.247238328411245758e-16
-2.177402067865746596e-16 1.750384889623009155e-16 -2.090618040981917007e-16 2.517635219224653955e-16
-1.883890077509547895e-15 5.292676052870083217e-15 -3.115063810668714905e-15 -2.937221646918205645e-16
-2.917039637573833073e-17 -3.729398103501997354e-17 -3.867796007587031657e-17 1.051423374866286270e-16
-1.661545445385370065e-18 -1.629464094264749102e-18 -1.690895100093968777e-18 4.981904639744087559e-18
1.068176849764283630e-08 6.811661063093713596e-09 1.412995142755542854e-08 -3.162338098829197016e-08
7.823974053363806245e-13 -1.142694504179211121e-12 1.021159338504449865e-11 -9.851296286201669868e-12
-1.269018127174793277e-15 3.568416994240674303e-15 -1.272549908108716389e-15 -1.026848958957165032e-15
0.000000000000000000e+00 0.000000000000000000e+00 0.000000000000000000e+00 0.000000000000000000e+00
-1.951610698543428042e-16 -1.477413775515810104e-15 -4.601211280081836546e-17 1.718586958170971305e-15
-1.233061392920233017e-16 -2.466060579860537848e-16 -1.746299554318886232e-16 5.445421527099658576e-16
-8.261159569912144114e-17 -1.619716192092279326e-16 -1.568440247776426088e-16 4.014272396859918962e-16
1.114210435281354377e-16 4.595592977092168035e-16 1.615055152829726645e-15 -2.186035494067079231e-15
-7.215486345384377587e-18 -7.182855258870934639e-18 -7.244871244362850467e-18 2.164321284861815653e-17
4.727580453538919472e-17 -4.041271424633203895e-17 1.427367209955286840e-17 -2.113676238861003034e-17
-5.770141780056631877e-17 4.623120745523048539e-17 -5.471280289976437888e-17 6.618301324510022458e-17
1.063036015424184059e-15 -1.529836762528609044e-15 1.673001333202378997e-15 -1.206200586097953420e-15
1.525874095195714946e-15 -3.597309496035952321e-16 -4.636670379293589846e-16 -7.024761076627605812e-16
1.172890141480369263e-15 -1.255809554569172708e-16 -3.674838339656363193e-16 -6.798253520578156487e-16
-2.236692546090456801e-17 -3.115376946880768183e-17 8.051377282936364225e-18 4.546931764677589331e-17
4.692090240690750710e-16 -1.030087022974188909e-15 -7.018072244621124955e-16 1.262685223367226432e-15
4.841407635015151408e-18 -3.916643500255681807e-18 -4.086080663333422830e-18 3.161316528573954001e-18
6.926507149697907470e-18 -1.917967639852578921e-17 2.458022013721226629e-18 9.795147235106655882e-18
-1.883682480106299963e-16 -5.617726894012062445e-17 -9.862198140367120272e-17 3.431674983544218728e-16
-3.144967230235476616e-17 -4.879399923517509582e-17 -3.260641643587113478e-17 1.128500879734009351e-16
-2.544720631162449206e-16 -5.183895518791061667e-17 -6.406225372117404940e-17 3.703732720253295189e-16
-3.058399154940786560e-17 -3.932726770251518363e-17 -5.821687031886629647e-18 7.573294628380970277e-17
-5.222320456750600128e-17 -6.894376551743952260e-17 -3.709937896169598459e-17 1.582663490466414530e-16
-4.202748332623440398e-17 2.669875496349396135e-17 -1.026720792102245043e-16 1.180008075729649223e-16
0.000000000000000000e+00 0.000000000000000000e+00 0.000000000000000000e+00 0.000000000000000000e+00
-2.467209945310532928e-18 -2.430416945095100313e-18 -2.500714509840359900e-18 7.398341400245992371e-18
2.892012178828601542e-16 -8.246769440920748191e-16 7.366014038975462974e-16 -2.011256776883313367e-16
-5.923523162396394739e-17 -9.432023961639391804e-17 -2.748820939570893274e-17 1.810436806360667889e-16
-4.289866203561926511e-17 -4.254205660822695988e-17 -4.322103624347981910e-17 1.286617548873260194e-16
-2.837668001053473532e-16 4.117306991312989229e-17 6.635706865683018279e-17 1.762366615353871611e-16
-1.099862579526968623e-16 -1.169558641739653424e-16 -8.122527077225873996e-17 3.081673928989208583e-16
-3.866975196970202127e-17 -1.088753275221612913e-15 -4.759494341162826890e-16 1.603372461307597111e-15
1.471832590159839291e-17 -2.920572923741095719e-17 -1.294264806090225480e-17 2.743005139671482833e-17
0.000000000000000000e+00 0.000000000000000000e+00 0.000000000000000000e+00 0.000000000000000000e+00
-1.945828038677832123e-17 -3.633119673051103200e-17 -9.818959701813104051e-18 6.560843681910244342e-17
-5.603072201850435529e-18 -5.581219414823879790e-18 -5.622715569714739982e-18 1.680700718638906069e-17
2.484955880264685001e-17 -2.795218807730079549e-17 -2.848002381575209705e-17 3.158265309040604869e-17
0.000000000000000000e+00 0.000000000000000000e+00 0.000000000000000000e+00 0.000000000000000000e+00
-1.219364069087941814e-16 -2.945200890810745535e-16 -2.017155876868914606e-16 6.181720836767602448e-16
-4.397329832963295357e-17 -1.653840954351030013e-16 -1.538165411040806604e-18 2.108955591757767491e-16
-6.970788185274508949e-16 -3.452830568779786438e-16 1.730454007217865094e-15 -6.880921318124352598e-16
4.852342257923546978e-16 -7.234983246433323468e-16 -4.150869143596065327e-16 6.533510132105839845e-16
-1.893965603765627868e-16 6.296107228820501754e-17 -1.562736532184021973e-16 2.827091413067598433e-16
-2.401859588851566748e-16 -3.953750804608706607e-16 3.608069528387913003e-16 2.747540865072361830e-16
-3.809618569343388404e-18 -2.985779318856956127e-16 3.320924561504468286e-16 -2.970490569540786832e-17
-3.787315680971081037e-16 1.607299329943974769e-17 -3.657006002160300487e-16 7.283591750136983893e-16
-1.124202349741911510e-16 1.051066951817262748e-16 -8.711809727350601236e-17 9.443163706597083928e-17
-8.256846349650532721e-19 -8.119529197101891984e-19 -8.381950144330131149e-19 2.475832569108255778e-18
-4.154981976083112936e-17 -7.610757426366675250e-17 -6.083547917255904496e-17 1.784928731970568898e-16
-7.731472736060519514e-18 -1.741986910722708357e-16 2.465921854332105074e-18 1.794642419539992544e-16
-3.363132333794325361e-16 -3.477474232683945511e-16 -1.406631761932976119e-16 8.247238328411245758e-16
-1.486007334817076466e-16 -1.268800687872693294e-15 3.368089102452065096e-16 1.080592511109194851e-15
-1.849268746077991148e-16 -4.716626023457616015e-16 -1.261932395417609493e-16 7.827827164953218135e-16
-1.723249764378885599e-17 -1.699161810420525482e-17 -1.745164447854942164e-17 5.167576022654352936e-17
-1.353755013585346529e-16 1.328364496156103694e-16 -1.278238506590477014e-16 1.303629024019719849e-16
1.307268628568006131e-15 -3.141077199392099906e-16 -2.345592032699874622e-16 -7.586017053588084815e-16
-1.171331349367123653e-17 -1.505950979690269313e-16 -1.219847218437955468e-16 2.842931333064936808e-16
-3.308453772561278605e-18 -3.250900505747019943e-18 -3.360817435560605611e-18 9.920171713868904159e-18
0.000000000000000000e+00 0.000000000000000000e+00 0.000000000000000000e+00 0.000000000000000000e+00
3.903638699247659805e-17 -3.103319883608586924e-17 1.324810784544652395e-18 -9.327998940935377553e-18
-4.807956369423834529e-16 1.712592026154511659e-15 -1.222281862088070713e-15 -9.514527124057361826e-18
-2.701581649663665415e-16 -4.201981201367656510e-16 -3.449557755754509660e-16 1.035312060678583159e-15
-4.187507265107203711e-16 -7.774401803399930690e-16 1.921593182353079735e-16 1.004031588615405319e-15
2.969212418219779214e-16 4.784944281708635619e-17 -1.655808694078172909e-16 -1.791898152312469496e-16
0.000000000000000000e+00 0.000000000000000000e+00 0.000000000000000000e+00 0.000000000000000000e+00
8.820731073946347934e-16 1.164681396226665662e-16 9.202960373118961013e-17 -1.090570850748490686e-15
2.910839357670383701e-16 6.455974017004440667e-16 -3.522248870680723161e-16 -5.844564503994099235e-16
4.022889920255040696e-16 -6.739697406040720444e-16 -1.629307877391611281e-16 4.346115363177291769e-16
-1.957530969023229718e-16 -2.534876951495707631e-16 -5.929062550901210113e-17 5.085314175609057251e-16
4.165529321133264802e-18 -1.808011810307062665e-16 -1.317852394023092423e-16 3.084208911118822664e-16
3.589654744997086142e-15 -8.076439902013763852e-16 -1.283328628575826553e-15 -1.498682126219884190e-15
1.169894106779724895e-16 -4.996580736522812304e-17 -2.966009033130257982e-17 -3.736351298144176196e-17
0.000000000000000000e+00 0.000000000000000000e+00 0.000000000000000000e+00 0.000000000000000000e+00
1.657359593620403909e-16 -1.663327261245806861e-15 8.596923190046254162e-16 6.378989828791415962e-16
-3.636597520730824896e-17 -3.608672676752062497e-17 -3.661818568644182836e-17 1.090708876612707085e-16
4.627662848136166249e-16 -2.925919535973866052e-16 8.885294971056418817e-16 -1.058703828321871704e-15
-3.847630431672170186e-18 -3.821679531960931691e-18 1.745813120487383911e-18 5.923496843145717196e-18
-5.605944296692853940e-17 -3.162514265361517016e-16 -7.905135323296852073e-17 4.513622227360484782e-16
3.376079437097183368e-17 -6.504296405420777677e-16 7.481067315522602785e-16 -1.314378853811545232e-16
1.454385589700172072e-15 -2.531309827298416199e-15 1.060658772146654002e-15 1.626546545158987204e-17
8.506938169663547545e-16 -5.263196315677787203e-16 -2.682540638390751447e-16 -5.612012155950074156e-17
1.471833006221881346e-16 -2.036318088775789907e-15 1.073358165502780781e-15 8.157766226508214603e-16
-3.201680405679513415e-18 -3.189218075462261649e-18 -3.212872892500596469e-18 9.603771373642371534e-18
-2.551582193062376709e-16 -2.957693883141750905e-16 -1.678710727950891825e-16 7.187986804155019194e-16
-3.207849144241260647e-17 -4.035563920952738430e-17 -1.897529589404703168e-17 9.140942654598704094e-17
-5.709641367453129940e-18 -5.644224079275739481e-18 -5.768985932411391208e-18 1.712285137914026140e-17
-3.395474973957784555e-17 -3.393015764061428983e-17 -2.835988239476156996e-17 9.624478977495369918e-17
-4.872663201513073669e-16 -3.650275815893041908e-16 -4.751013029746786409e-16 1.327395204715290149e-15
7.179144742863374058e-16 -7.524503213683520826e-16 1.947147849550739661e-16 -1.601789378730592153e-16
-2.801050220069692200e-16 -5.959174248018798499e-16 -2.134047206562939787e-16 1.089427167465142753e-15
2.083687905814774518e-16 -2.726093481419800587e-16 6.326376412322847398e-16 -5.683970836717824287e-16
-1.454677695348040476e-17 -3.441189025353533528e-16 -1.489136582917369886e-16 5.075793377805706845e-16
-1.225467305941677279e-16 -6.328169865373110760e-16 -4.191231039565850971e-16 1.174486821088064074e-15
1.580913461062637009e-16 1.317663889351953613e-15 6.544259364455892935e-16 -2.130181171903806558e-15
7.876003400555210724e-16 6.611260792775807787e-16 1.474528747108684315e-15 -2.923255166441786264e-15
9.755010637018964264e-16 4.754401196077443075e-16 4.115218615625056349e-17 -1.492093369465890619e-15
1.768968977709083358e-16 -8.684846070148006698e-17 -3.945180744851776026e-17 -5.059662962091052702e-17
1.374517598934113318e-16 4.597620540005423471e-16 -3.217005318453442870e-16 -2.755132820486093672e-16
-3.250229896041244114e-16 6.520922253993943652e-16 -1.321550327229664505e-16 -1.949142030723035033e-16
5.362730224694398571e-17 5.261306586113081078e-16 -8.589895756612833947e-18 -5.711680651016392288e-16
8.666081915875810189e-16 -3.293679703859575799e-16 -4.355510681025660800e-16 -1.016891530990574205e-16
-2.127871200267042219e-15 4.051251091982442471e-15 -7.624157457606171690e-16 -1.160964145954783477e-15
-1.575057526645769397e-16 -3.103213569462259888e-16 6.326134391100136453e-16 -1.647863294992106182e-16
8.143536903954922947e-16 -2.088628506498687516e-16 3.426524971656635418e-16 -9.481433369112869616e-16
2.075791304691780521e-16 -8.635478357117716383e-16 1.151338176537323378e-16 5.408348875888613963e-16
1.430777810486998349e-16 6.815344414024431711e-16 -5.775043008197798463e-16 -2.471079216313632829e-16
6.214021534051857248e-17 -1.837275453487911297e-16 -6.926544689231674999e-17 1.908527769005892948e-16
-8.709608636689975916e-16 -1.097201057589183011e-16 1.112431236469233308e-15 -1.317502670413171198e-16
-3.783918479778827502e-16 -5.359420975529333602e-16 -2.370619273638262868e-16 1.151395872894642348e-15
-1.618260818051322306e-15 1.448653691614415191e-15 -5.779865703062361750e-16 7.475936967431431918e-16
-6.472251163183024090e-18 -1.967959738703738121e-16 1.552365322073571498e-17 1.877445718128211305e-16
8.000506669839424129e-16 -5.862447985661154978e-16 -1.382164957035207696e-16 -7.558937271430645367e-17
-6.578236031998370156e-17 -7.422652887797484278e-17 -5.252379236694272242e-17 1.925326815649012483e-16
9.327870946727513557e-16 7.526366448335787985e-16 -8.012874611861189450e-16 -8.841362783202109133e-16
-3.051214407491645277e-17 5.643640209496879797e-16 -2.554673709683692788e-16 -2.783845059064021926e-16
-9.630788012937422201e-16 -1.150866030415032766e-15 2.967964396227892577e-15 -8.540195645191166051e-16
1.153321564014752949e-16 -1.207961599446108334e-16 -8.670436058122524559e-17 9.216836412436074709e-17
-2.252812830031012810e-17 -2.203090785413492354e-17 2.756761397104632156e-17 1.699142218339872700e-17
-2.392065240951958001e-16 -1.915230728778648105e-16 8.724447354561573080e-16 -4.417151384830969439e-16
0.000000000000000000e+00 0.000000000000000000e+00 0.000000000000000000e+00 0.000000000000000000e+00
-1.899381403689027023e-15 4.361365654958826294e-15 -4.350468901541184800e-16 -2.026937361115681087e-15
-3.411729801022657939e-15 5.234649431619719261e-15 -1.181513315607431317e-15 -6.414063149896279350e-16
1.882355156787998360e-17 -1.459645972533113816e-16 1.060952521149692986e-16 2.104579357046209628e-17
-2.525203822168687881e-16 -1.007281403803781667e-16 7.593442325605679083e-16 -4.060957099633210399e-16
-2.589906030704392576e-16 -9.173735243005907066e-17 -2.794236573093712024e-17 3.786703212314354300e-16
-2.177402067865746596e-16 1.750384889623009155e-16 -2.090618040981917007e-16 2.517635219224653955e-16
1.351731668253723670e-17 -1.004904595846830724e-16 -6.868747337595389726e-17 1.556606162780997792e-16
-3.803161241331702205e-17 -5.527875597865838395e-17 -3.927690198547972075e-17 1.325872703774551760e-16
1.406465649188704186e-16 -1.875007994446185095e-17 2.627836192967989775e-16 -3.846801042712074526e-16
-6.516824870025116351e-18 -2.313275194377977328e-15 1.099212086265930441e-15 1.220579932982071339e-15
-2.773280759165739493e-16 1.386711858264035616e-16 -1.379556350988527757e-16 2.766125251890231140e-16
-2.872367128448622392e-16 -4.120884791314304040e-16 3.347957322677951231e-17 6.658456187495130385e-16
0.000000000000000000e+00 0.000000000000000000e+00 0.000000000000000000e+00 0.000000000000000000e+00
-1.497747969342717940e-16 -1.760895390164559411e-16 -1.371970520073794182e-16 4.630613879581072273e-16
-1.314979487828741428e-16 -1.391887163597812698e-16 -1.076878665442806733e-16 3.783745316869361475e-16
-2.603954989750176654e-16 4.252965864716059690e-16 -2.215505204382202703e-16 5.664943294163210229e-17
-8.756008935633065321e-17 -3.172630718708734599e-16 -1.998844120045638958e-16 6.047075732317680459e-16
-1.376485945188960043e-16 -2.146909956666808337e-16 -3.023498021777812913e-16 6.546893923633581539e-16
-6.746098058161656899e-17 -2.918993924077375216e-16 6.815581462252295346e-17 2.912045583668311248e-16
-8.570765986285524346e-17 -2.689457014502317287e-16 -9.965485912893847180e-17 4.543082204420252961e-16
-6.574701681064978410e-17 -6.492574153787751086e-17 -2.717444212700851041e-17 1.578472004755358331e-16
4.651262182025825149e-16 -5.661215358085795058e-16 5.963145406921350128e-16 -4.953192230861380219e-16
0.000000000000000000e+00 0.000000000000000000e+00 0.000000000000000000e+00 0.000000000000000000e+00
1.280337034453004594e-16 -8.783275486942973121e-16 4.485545193974607794e-16 3.017393258515362212e-16
-3.227354307959040378e-18 -3.204641601370504909e-18 -3.247852362072721618e-18 9.679848271402264594e-18
7.473571469477813184e-17 4.066317627561707372e-17 -6.735303040510258362e-16 5.581314130806302238e-16
-8.932014964089144770e-17 -1.059290673785430409e-16 -3.497539895306907938e-17 2.302246159725035126e-16
-1.312265984940202673e-16 -2.627501188513187882e-16 -1.020882063132279789e-16 4.960649236585671946e-16
1.882160858732016578e-15 2.640950809250972727e-16 -1.547515271509002769e-15 -5.987406681481115740e-16
2.031764229695095210e-17 -1.478727298336698565e-17 -1.532487568475785193e-17 9.794506371173880865e-18
1.014045821406871246e-15 -6.196288349820926459e-16 -5.185837850633476473e-16 1.241667986385690472e-16
3.833860049494075726e-16 -3.790559021397030545e-16 -1.906292162008297293e-16 1.862991133911253344e-16
-1.832124087205806733e-16 -2.961374222126576979e-16 -1.363251729040517681e-17 4.929823482236435527e-16
-3.370126838395760309e-16 -3.583810652366710642e-16 -3.289382844678925523e-16 1.024332033544139697e-15
0.000000000000000000e+00 0.000000000000000000e+00 0.000000000000000000e+00 0.000000000000000000e+00
1.710612739453976220e-16 -4.990425235106676465e-16 -6.515669345278467207e-17 3.931379430180547089e-16
-4.036759058477349818e-18 -3.044023733013310389e-17 -2.508140049641971492e-17 5.955839688503016247e-17
-1.661545445385370065e-18 -1.629464094264749102e-18 -1.690895100093968777e-18 4.981904639744087559e-18
-5.280120643167491283e-16 8.506611952611207751e-19 5.498967146464749154e-17 4.721717316568405389e-16
-9.387671276424233068e-17 4.544907035429202524e-17 -8.359277139121916752e-17 1.320204138011694360e-16
-1.757086513904374022e-16 -3.381923249500798509e-16 -1.186043764305088980e-16 6.325053527710261265e-16
-2.546382951233042286e-16 -3.396262034006672480e-16 2.435202661930023958e-16 3.507442323309691300e-16
1.728868641942285867e-16 -4.019102167815926244e-16 3.839135959995843431e-16 -1.548902434122203300e-16
-6.198421155953008108e-16 1.300384519569830811e-15 -3.314666129437016780e-16 -3.490757910308282729e-16
-3.153538516114278486e-16 -5.016841839749685710e-16 -2.647779249101660131e-16 1.081815960496562137e-15
-2.195726482760059266e-16 -8.572723929160630775e-16 -3.952463206944378887e-16 1.472091361886506794e-15
-1.483389850831499843e-17 -1.459956031844222258e-17 -1.504747878624179246e-17 4.448093761299900731e-17
-8.790855018014671429e-17 -2.185438676279956560e-16 -9.889919365315461530e-17 4.053516114612969609e-16
0.000000000000000000e+00 0.000000000000000000e+00 0.000000000000000000e+00 0.000000000000000000e+00
-4.977176107177278050e-16 7.970460171196897943e-17 -7.663215903447560843e-16 1.184334599350514860e-15
0.000000000000000000e+00 0.000000000000000000e+00 0.000000000000000000e+00 0.000000000000000000e+00
5.107991250799246724e-17 -8.877673865607939695e-17 7.088491956908966752e-17 -3.318809342100275629e-17
-8.605924730835360124e-17 -8.529613837289869465e-17 -4.181440135549477993e-17 2.131697870367470635e-16
-5.673639385918747272e-18 -5.623306131280364578e-18 -5.719117752909780532e-18 1.701606327010889315e-17
-1.004052020088419644e-16 -1.188375260167663965e-15 -2.479281260940809306e-17 1.313573274785914161e-15
-1.202864266804951328e-16 -2.214451552339665439e-16 -6.814085890044551417e-17 4.098724408149071662e-16
-1.760202138541230854e-17 -6.083055507930504279e-17 -6.274936457545014776e-17 1.411819410401675145e-16
-7.629860199975450164e-17 -1.794878981278891711e-16 4.512973267055949752e-17 2.106567674570842122e-16
-1.061005346014076856e-15 2.472025672039934889e-16 -7.613414856751125771e-16 1.575144264485195895e-15
-1.218090702467699805e-15 3.008359152805695821e-15 -2.272596140281251193e-15 4.823276899432558664e-16
-3.489244201532294400e-17 -1.923152247940055003e-16 -7.219811245703039091e-17 2.994057792663588537e-16
-4.437809230455051223e-16 7.701500640963163365e-16 -7.750541266642602351e-16 4.486849856134489222e-16
-4.689673249049031699e-17 9.162199485270133639e-17 -4.149726071106757480e-17 -3.228001651143464635e-18
-2.575574545285739649e-16 -1.538277546159301377e-16 -1.251883925467197078e-16 5.365736016912238104e-16
0.000000000000000000e+00 0.000000000000000000e+00 0.000000000000000000e+00 0.000000000000000000e+00
-1.338897316172626416e-16 -1.689519174175996712e-16 -1.302473320647602773e-16 4.330889810996226394e-16
-2.094959950847871483e-16 8.139187439778177044e-17 -2.290851623954064357e-16 3.571892830824117889e-16
-5.044757466171003339e-17 -7.691265494787970522e-17 -6.581936219789699601e-17 1.931795918074867593e-16
-4.054371366335208613e-16 -1.170737213056842297e-16 -3.568622153043671302e-16 8.793730732435722705e-16
-4.770873391271956642e-18 7.196178770544325602e-17 -6.142234104602343963e-17 -5.768573268147882857e-18
-2.005142752944721840e-16 2.066661679274171530e-16 -1.037169810425826830e-16 9.756508840963770164e-17
-8.102292368530514822e-19 -8.031498031150766872e-19 -8.166045752599680832e-19 2.429983615228095964e-18
-8.585257516661079019e-16 1.807196045131863014e-15 -1.622417710993594431e-15 6.737474175278397140e-16
2.238075795088883562e-15 -8.651968599817174689e-16 -7.565918264759946473e-16 -6.162871086311705584e-16
-7.969284220836895066e-16 -5.170815604692537399e-16 3.403387991895166575e-16 9.736711833634266876e-16
4.571670105423278578e-17 -1.430757245236568444e-15 7.185873070411270061e-16 6.664532371412084304e-16
0.000000000000000000e+00 0.000000000000000000e+00 0.000000000000000000e+00 0.000000000000000000e+00
-3.134683732920757508e-15 7.870506968088013294e-15 -2.757440396400652142e-15 -1.978382838766604038e-15
0.000000000000000000e+00 0.000000000000000000e+00 0.000000000000000000e+00 0.000000000000000000e+00
2.628922578249444838e-16 -1.242711878154039981e-16 4.184641894937843922e-16 -5.570852595033247053e-16
-2.477135818574792829e-16 6.298168456847338519e-16 3.357816122602052282e-16 -7.178848760874597972e-16
-2.917039637573833073e-17 -3.729398103501997354e-17 -3.867796007587031657e-17 1.051423374866286270e-16
4.352092060064293983e-19 1.527981293733408081e-15 8.326210314273360501e-16 -2.361037534366751230e-15
-1.188882210155116382e-15 3.209508607100844090e-15 -1.822091680595771604e-16 -1.838417228886149808e-15
6.983536292302971885e-15 -5.893927264999976735e-15 -6.912799722173040313e-15 5.823190694870045952e-15
-5.830668683257421230e-15 -6.367990813127959919e-15 -8.957109538925049419e-15 2.115576903531042662e-14
-2.131028549268793540e-16 1.543800188677086992e-16 -1.407505370090050310e-16 1.994733730681757104e-16
-6.541125938847588596e-16 -1.817723332429783169e-15 4.285625989143922344e-16 2.043273327400149498e-15
7.896197535685654677e-15 5.754230848379818264e-17 5.221838210879919901e-15 -1.317557805504937221e-14
-1.416866743846783058e-15 2.626501246376277653e-15 -1.652536558929694484e-15 4.429020564002000364e-16
-8.255031189804707758e-16 2.169575131276284385e-15 -6.886973986024884380e-16 -6.553746136933245795e-16
-6.053995363334843814e-16 9.834879564108129498e-16 -1.754551664320032053e-16 -2.026332536453251906e-16
-4.912510352165098334e-16 1.287782138055876362e-15 -4.572610798565182925e-16 -3.392700229828479399e-16
-1.265525654977031003e-15 3.905340808497808982e-16 -6.474805888873825072e-16 1.522472163014633204e-15
-1.447554444575634310e-16 -1.214720480075385183e-15 4.595972216352573029e-16 8.998787028976913845e-16
-7.676321384972081632e-16 3.540541573435796753e-16 5.767275082124654072e-16 -1.631495270588370426e-16
1.052106327586773045e-14 -1.873370796260037430e-15 -3.016518724949869260e-15 -5.631173754657821788e-15
-5.078390321609551572e-15 -2.315749212230381892e-15 8.033223862659404828e-15 -6.390843288194707723e-16
5.092859211463219274e-15 -3.168100461283391755e-15 1.918281124367775984e-15 -3.843039874547603503e-15
1.395010247177596213e-15 -3.501072378338024568e-15 2.751400083339804147e-16 1.830922122826448187e-15
8.473071583563746543e-16 -9.219244882034132480e-16 1.970249021523256040e-16 -1.224075723052864187e-16
-4.342183003845695471e-15 -3.687611874917232358e-15 -1.312776467826604439e-15 9.342571346589530690e-15
-3.045673134170092665e-16 -3.442998010822715364e-16 3.042777692698788545e-16 3.445893452294017511e-16
-5.516239390805822784e-16 -7.297842193993437816e-16 -5.907164531628503449e-16 1.872124611642776109e-15
-5.461528250012717366e-16 -6.230439272228731106e-16 -2.897113461994200455e-16 1.458908098423565041e-15
-2.347875162664388935e-16 -4.185260270689362710e-16 -1.471851603146577467e-16 8.004987036500330099e-16
3.717589811135876934e-16 -3.884423459491079193e-16 -4.694312705208669690e-17 6.362649188760699672e-17
-6.084705993892869814e-17 -4.718639116549872117e-16 -7.655238947310127064e-17 6.092633610670171558e-16
-3.874003380414685858e-16 -3.518268703498781142e-16 -2.087215967797341504e-16 9.479488051710808259e-16
-1.432397744944251571e-15 5.359394419436946876e-16 -5.074971361059783408e-16 1.403955439106535027e-15
-2.260605134555970366e-16 -2.625117678013880827e-16 1.750673233390758627e-16 3.135049579179092812e-16
-3.006823389350590374e-16 4.743744950122510067e-17 -2.556720074920397571e-16 5.089168969258736999e-16
-5.851512708049109910e-16 -6.295145848794389898e-16 -3.260151908811902196e-16 1.540681046565540644e-15
-1.273645352441908428e-15 2.560350470009355689e-15 -1.143958628700537441e-15 -1.427464888669100425e-16
-1.524803888280472885e-15 2.991022377084412202e-16 -1.364246439002451347e-15 2.589948089574483062e-15
-7.475975203671978031e-16 1.580691129868840483e-16 -5.620750276578466912e-16 1.151603435038161136e-15
4.221843476631072427e-16 7.566407061322777700e-16 -1.370273249390615290e-15 1.914481955952298087e-16
-4.434320132123990550e-16 -4.479417038156121514e-16 -6.864140038115001525e-17 9.600151174091607532e-16
-5.868578872229845122e-16 -5.479825680426844483e-16 -3.634136005051580905e-17 1.171181815316185016e-15
-1.333170889734747754e-16 -2.476646702873814977e-16 2.469069172998268565e-16 1.340748419610294166e-16
-1.079759482506087750e-15 4.137457785267790755e-16 -7.106760083945270210e-16 1.376689712373835646e-15
-3.032751746093219128e-16 -3.581129185214340927e-16 -2.914337814555196578e-16 9.528218745862754168e-16
-3.770415176288468527e-16 -3.073291421269568612e-16 -2.588351999302607100e-16 9.432058596860642760e-16
-3.645761877107543188e-17 -1.218709043872683955e-16 -2.200851771371397838e-16 3.784137002954837221e-16
-1.131549615638676074e-15 -8.892852958540101264e-16 -9.232889887965485574e-16 2.944123900289234955e-15
-4.677869253299525279e-16 -4.414860095534610738e-16 -3.833097683452842337e-16 1.292582703228697934e-15
2.302515289743235883e-15 -2.824309071107459051e-15 -1.045915762172068172e-15 1.567709543536291340e-15
1.763702419901770204e-16 -2.815772694637336687e-16 -1.675596124452798014e-16 2.727666399188364744e-16
-1.149548641168589911e-15 8.111286921190607128e-16 -1.101514010894802453e-15 1.439933959944332046e-15
-1.033058887555536075e-15 3.385001943662666615e-16 -9.468296294827574257e-16 1.641388322672027628e-15
3.013013938215319526e-17 4.411288379392287033e-15 -3.219937314460832215e-15 -1.221481204313608636e-15
-3.819982042977635387e-16 -4.514636454204655032e-16 -3.022879688481988336e-16 1.135749818566427925e-15
-5.496838768788910389e-16 -3.035226211224110385e-16 -3.577970091486493914e-16 1.211003507149951567e-15
-1.075424097987370945e-17 -1.252204282945638651e-16 -7.007560221715260331e-17 2.060502714915901717e-16
-2.552416112504101365e-15 1.614582626229723532e-15 -1.140060763362546915e-15 2.077894249636924748e-15
-2.188193361366467573e-15 -6.324720811252015149e-15 -2.614929276714664716e-15 1.112784344933314507e-14
2.873955547129919122e-10 -3.132968870289906248e-10 -2.099125725518978390e-10 2.358139048678966292e-10
1.754372506086882784e-14 -1.466517327131696722e-14 -4.794338380368922336e-14 4.506483201413735327e-14
-2.045306494280024577e-14 2.019472511634178217e-15 3.250726518060809368e-14 -1.407367274944203560e-14
-1.141268898623804250e-15 2.161081058929066308e-15 9.166947127906780578e-15 -1.018675928821204520e-14
8.840588940291274013e-14 -4.853555698038919469e-14 -1.224686346450340061e-13 8.259830222251046063e-14
9.777437566149594593e-15 -9.050789600996903805e-15 -9.663399717269340673e-15 8.936751752116649885e-15
-5.971107716644637457e-15 4.154895438148660759e-15 4.495469278694844413e-15 -2.679257000198870082e-15
-7.306901373553143033e-17 6.587673258809078503e-17 -1.189025748877713990e-17 1.908253863621776517e-17
1.427180207705110183e-17 -1.977878400425970588e-16 -9.414558924682690740e-17 2.776616272123728459e-16
-1.588996217846157564e-15 -1.242318165884124315e-15 -3.596597170341857335e-16 3.190974100764467268e-15
-1.130031519301225424e-17 5.591410139162467620e-18 -2.506410707668964929e-17 3.077301213053942820e-17
3.723170645230614407e-16 -2.346756184316602592e-16 -3.338409731093465735e-17 -1.042573487804666844e-16
-6.905070150523666709e-18 -6.850381296204405657e-18 4.279061316681408393e-18 9.476390130046663202e-18
-2.744663062145158289e-16 -6.498041628527573645e-16 -8.825168496497616004e-16 1.806787318717034498e-15
-2.248801248540539544e-17 2.783289014906871362e-17 -1.027834070646024042e-16 9.743852940093908290e-17
6.318545478220060450e-18 -1.987067299008386995e-17 1.926474435827792619e-18 1.162565307603601110e-17
-8.904470138772641381e-15 1.412852501992416143e-15 2.117970577390255913e-15 5.373647059389969719e-15
-1.155944381730375078e-15 -1.089317772728264324e-15 -2.802143044786539422e-15 5.047405199245178231e-15
-4.673855523208190215e-17 -5.500389199240941221e-17 -4.487864645701085605e-17 1.466210936815021273e-16
-1.883134819971921496e-16 1.321760178319254654e-16 -2.164150711081229464e-16 2.725525352733896059e-16
-1.464358860150664449e-16 9.588842636248709421e-17 -1.502582994424510445e-16 2.008057590950304321e-16
6.740729721768500161e-16 -7.890310841073428734e-16 -5.397161057908141575e-16 6.546742177213071134e-16
2.017608248363670145e-15 -6.998889990751003294e-16 -8.505140652682086128e-16 -4.672051840203613010e-16
4.164937152944860022e-17 -4.584163817025976394e-17 1.969466575988978568e-17 -1.550239911907863120e-17
2.648673754622796588e-17 -2.672106583444071405e-17 -4.181453975246190457e-17 4.204886804067463425e-17
1.098643036467941670e-16 -1.370409122295582303e-16 -1.759285178603325704e-17 4.476946036879733884e-17
2.604573730196088493e-16 -3.283579882964939159e-16 -2.318609963347415613e-16 2.997616116116266279e-16
7.865050720114064105e-16 -1.213616380940087757e-15 -4.800546669477186464e-15 5.227657978405866528e-15
3.760905959794650012e-18 -3.110631368860433596e-17 1.283579403888645974e-17 1.450961368992322775e-17
3.730895709406519356e-17 -1.631489521266765216e-16 6.699352461743769969e-17 5.884647041517361598e-17
2.312418560318316581e-17 -7.409612863717705704e-17 -7.275907081363627047e-17 1.237310138476301956e-16
1.196647959382947677e-15 -5.093064728479143137e-16 -2.705891404065851544e-16 -4.167523461284482088e-16
-5.182160366473799457e-17 -5.163137225153208596e-17 1.691411459804309213e-17 8.653886131822698224e-17
-8.563160366347426519e-17 2.181498673010701639e-16 -8.630475288809427192e-17 -4.621351074950164524e-17
2.497677870947939408e-17 6.749798252733764747e-17 -5.690890398253990929e-17 -3.556585725427712918e-17
-1.611438778051453240e-18 -1.600952489401438298e-18 -1.620903316189484928e-18 4.833294583642377044e-18
6.494288591554108525e-18 -1.101672736618233430e-17 -1.136492736437143726e-17 1.588736613899966612e-17
3.042221704259858206e-17 -9.163379436049185366e-17 1.726795085220770303e-17 4.394362646568555932e-17
-3.144548208772039501e-18 -3.078888268618340906e-18 2.412415925371247198e-18 3.811020552019135135e-18
-4.545357929326986419e-16 4.350064315939088978e-17 -3.455693737695650589e-16 7.566045235428727186e-16
-4.208059516397298698e-17 7.059329803803214246e-17 -1.330129994357564702e-17 -1.521140293048350231e-17
1.309122682864259650e-16 -1.060394148867177253e-16 -1.419471108029115009e-17 -1.067814231941706028e-17
3.020435632271900501e-17 -1.615604692478011544e-16 1.832574785849666913e-17 1.130303650665854741e-16
5.031788992655297103e-18 -3.730512466798699911e-18 1.724967203224291434e-18 -3.026243729080888626e-18
4.999254549906528365e-16 -2.746451187741396635e-16 -9.532161375228596519e-18 -2.157481748412846505e-16
-1.306609888783142971e-16 -7.035813615751377366e-16 -1.547744119157463844e-16 9.890167623691986153e-16
-2.283013244133220828e-18 -2.246742913111414751e-18 3.300670950878151425e-18 1.229085206366482614e-18
-6.236547553493563396e-16 -4.633335601836845136e-16 5.269955516652517426e-16 5.599927638677890119e-16
2.441304795946061531e-16 -7.501348645469766916e-17 5.023891212202417140e-17 -2.193559052619326615e-16
2.110988486407040896e-16 -2.138880508417277788e-17 -1.959664876305114888e-16 6.256444073980112339e-18
3.613163188930364755e-17 -4.262473244225064364e-17 6.596021770653644572e-19 5.833498375881617957e-18
-1.559673188147306598e-17 -4.152789080196576862e-17 7.860418965862602220e-18 4.926420371757624470e-17
5.570837237156934668e-17 -2.934185911209625216e-16 -3.847966040138563404e-17 2.761898791507787411e-16
-3.344571785080613209e-16 -2.426000373026850133e-16 -5.454573574757122300e-16 1.122514573286458959e-15
3.706974571440033713e-17 -8.540330254138984482e-17 -2.063525226392302568e-17 6.896880909091252105e-17
1.242474399194416672e-15 -1.237929360760538529e-15 -5.732024523769452697e-16 5.686574139430671265e-16
7.007686230731401828e-16 -7.962111838798146138e-16 -3.045976489710168250e-16 4.000402097776911574e-16
-2.667079830621828136e-17 -1.153496522427481982e-16 5.247954721841922394e-17 8.954090333054720636e-17
2.872540492534441216e-17 -4.986929266000134318e-17 2.118989305202049288e-17 -4.600531736355835642e-20
-2.103114996529609932e-16 2.475916505557424014e-17 -1.319697681000769209e-16 3.175221026974636647e-16
-5.535435093430167736e-18 -1.532110692961266629e-16 1.336696540047127575e-16 2.507685038484410006e-17
1.510529481202178964e-16 -3.606905028909108713e-17 -1.188415762657143671e-16 3.857678434587537019e-18
-1.813577528327564015e-17 1.251101802674125492e-16 -2.652014772422547669e-16 1.582270722581178363e-16
7.803112359907960856e-17 -8.837373190545641613e-17 -7.331493356899569396e-18 1.767410166327634924e-17
2.436400209721827860e-18 -3.243724194336749357e-17 -5.332220767561137971e-18 3.533306250120679328e-17
-9.377246383296885826e-17 -1.587080074634835936e-17 -8.257676841951401361e-17 1.922200329988312035e-16
-3.210766879788865331e-18 -3.804428975327471901e-17 -1.101603671170077911e-17 5.227109334476437501e-17
1.062382609766226265e-16 -4.467206282316151550e-17 -1.080683665722818477e-16 4.650216841882071211e-17
-1.580145384239600769e-17 -3.286977521047927111e-17 4.457027309772365764e-17 4.100955955151632713e-18
-1.213310272586001234e-17 1.162932275401655413e-16 -9.006817196535783994e-17 -1.409195284894773216e-17
-8.015551261164121739e-19 -7.979901621576163383e-19 -8.047549908803962874e-19 2.404300279154424992e-18
-4.463043405528642731e-17 8.595162140485273043e-17 -2.083152403588796298e-17 -2.048966331367832782e-17
1.822721498858411493e-17 4.357252887225732957e-17 -2.565670655984987915e-17 -3.614303730099156535e-17
1.426082629666477673e-18 -5.947339318845466562e-17 -5.267858558224219256e-18 6.331516911701238987e-17
-5.604506911086091615e-18 -4.030472802779827461e-17 2.016829045242334583e-17 2.574094448646103194e-17
-1.141110850833923870e-17 -1.166552154559157803e-16 8.119548744647760392e-17 4.687083651777739971e-17
1.094928587497029189e-17 -4.133440363269089861e-17 3.016113999520265122e-17 2.239777625179612765e-19
2.931424792885133346e-17 -6.674566754836953987e-17 2.072701207948058760e-17 1.670440754003763113e-17
-1.346876123718693096e-17 1.473733936207235671e-16 -1.457665890445677844e-16 1.186195666103121137e-17
-3.671981331212436262e-17 6.636463988396628709e-18 2.105491330451419630e-17 9.028436019213542234e-18
-3.474293280170202311e-17 8.629697907482527982e-17 -4.161551431999572956e-17 -9.938531953127520993e-18
1.117247280661335193e-17 1.037806483854990669e-16 -2.161115299426629476e-17 -9.334196819784619651e-17
7.047370059979600608e-17 -8.814510620607513383e-17 -7.096869663273472495e-17 8.864010223901387734e-17
-4.459528095355828587e-16 -1.377202540422392673e-16 4.974420323762768129e-16 8.623103120154528847e-17
-6.869760394844552846e-17 -3.991885963335946440e-16 1.983727510345914764e-17 4.480489251785810987e-16
-2.213444485317508835e-16 3.601610959517022759e-16 -1.934936048793721051e-16 5.467695745942071259e-17
7.919666522232902643e-17 -2.130420040356665914e-16 -1.656034121346345563e-16 2.994487509479720720e-16
5.752503229002472867e-17 -3.216353984478154671e-16 -2.505646268579481090e-16 5.146749930157388474e-16
2.053989152441587971e-17 -1.188688492346841343e-16 3.431497186134456047e-17 6.401398584892370338e-17
-2.268969203419521084e-17 2.925414962375121283e-17 -2.323630497603684549e-17 1.667184738648083118e-17
3.393686953837627913e-17 -1.667148747518765582e-16 1.886506502780459514e-17 1.139129401856956870e-16
-3.885937725666229822e-16 -4.058741479611629763e-16 2.809216201231236267e-16 5.135463004046622825e-16
-2.060839320070402607e-17 -1.332708240079908145e-16 6.445620010337268805e-17 8.942301710532215872e-17
-2.382582864304087549e-16 -4.001452028220565370e-16 3.646285689840163093e-16 2.737749202684489332e-16
2.081064332590266737e-16 -2.921088865512233625e-16 6.265510133830286957e-17 2.134735195389374834e-17
-1.451272500307130477e-16 -2.010908898693426123e-16 -1.569233425699751015e-16 5.031414824700307369e-16
6.569805847296672250e-17 -1.271090272119748151e-16 1.133942947179571446e-17 5.007153926721237505e-17
-6.302000688140506761e-17 1.884146719560204136e-16 -6.838942823987251237e-17 -5.700523683474282132e-17
-1.041322989027827672e-17 -3.065405715095005828e-17 -2.899286032026067514e-18 4.396657307325438864e-17
1.301797420197650566e-17 -1.541764536497971821e-16 -2.367108587546380255e-17 1.648295653232844805e-16
1.947817205521192013e-18 -6.775649850928752745e-18 4.222507235187649294e-18 6.053254102199127857e-19
-3.529229769828413461e-18 -1.212934531012522994e-17 9.866149315472812429e-18 5.792425764480830203e-18
1.542339217667005120e-17 -7.161460915946989108e-17 4.922278342891705123e-17 6.968433553882771702e-18
-1.481460781513882549e-18 -1.448764624718810454e-18 4.105407682393773208e-18 -1.175182276161080012e-18
0.000000000000000000e+00 0.000000000000000000e+00 0.000000000000000000e+00 0.000000000000000000e+00
-4.033316677215554151e-17 8.145918167660188489e-17 -1.981497866123002976e-17 -2.131103624321632286e-17
1.064111627938949869e-16 -1.037789159190524065e-16 3.257061428652672763e-17 -3.520286116136929574e-17
0.000000000000000000e+00 0.000000000000000000e+00 0.000000000000000000e+00 0.000000000000000000e+00
1.239969335241811340e-15 -7.106746997276485442e-16 -3.947531217235614205e-16 -1.345415137906014497e-16
-7.687301622288949239e-17 1.922464493550973020e-16 -5.892564604701761920e-17 -5.644778708519020272e-17
4.104847007375095195e-17 -3.800949487246934293e-17 -1.099722195283180973e-17 7.958246751550193004e-18
-1.584600699022313428e-16 -8.035316288293031424e-17 6.585698518200382833e-16 -4.197566190348767125e-16
-3.798828177224238694e-18 -3.714971877693612872e-18 7.358012907891747395e-18 1.557871470261037374e-19
2.877623072543130129e-16 -3.622355306216296522e-16 4.492085353712289430e-17 2.955236983019362182e-17
-5.507726151943907188e-18 -1.409536963523752649e-17 -3.357179921591716785e-18 2.296027570877315239e-17
-2.885545645183373001e-17 -1.064553575608280226e-16 6.941877748639140999e-17 6.589203652627033028e-17
6.513204789413975785e-18 -2.281768032910129772e-18 -2.380500667723015708e-18 -1.850936088780831460e-18
7.371863228786475650e-17 1.980869241568679277e-17 -5.573210892932849340e-17 -3.779521577422304662e-17
-3.095288336493072654e-17 -1.389667307158647733e-17 1.082836303685650653e-16 -6.343407393204785532e-17
-8.358988697784974932e-19 -8.174594377585757843e-19 -8.528207510748837273e-19 2.506179058611957005e-18
1.304347737989853197e-17 -4.554434980712001182e-18 -4.736475840115529438e-18 -3.752566559070999813e-18
1.077727957245666810e-17 -6.791830346753963173e-18 -1.412051067234466099e-18 -2.573398158468236325e-18
9.729436672747001180e-18 -7.807458599864577202e-18 -8.106301270564359962e-18 6.184323197681937524e-18
1.109862797894995763e-17 -2.389940829963745038e-17 -7.791506379480197109e-18 2.059228670016768832e-17
-2.107980558235556908e-17 6.554352365546174569e-17 -2.491256274440218170e-17 -1.955115532870400107e-17
0.000000000000000000e+00 0.000000000000000000e+00 0.000000000000000000e+00 0.000000000000000000e+00
3.187422911798603901e-18 -1.421593785951626182e-17 1.331319021866816268e-17 -2.284675270950507072e-18
0.000000000000000000e+00 0.000000000000000000e+00 0.000000000000000000e+00 0.000000000000000000e+00
3.210571402283905723e-17 -2.058150408189694053e-17 -1.009785325532883488e-17 -1.426356685613277591e-18
-8.114627403337205931e-19 -8.038852774192621949e-19 -8.183226874575962309e-19 2.433670705210579404e-18
1.878523596028828920e-18 -6.814187941180112707e-18 4.124739892441825241e-18 8.109244527094587391e-19
0.000000000000000000e+00 0.000000000000000000e+00 0.000000000000000000e+00 0.000000000000000000e+00
2.232229427761577886e-17 -1.280413607230296659e-17 -2.067605224138719998e-18 -7.450552981174089569e-18
-1.566982705935115537e-17 4.480544080433347140e-17 -2.393036270534391176e-17 -5.205251039638384237e-18
-1.121795496505646822e-16 -1.817831073581429153e-16 5.640417204990138613e-17 2.375584849588062114e-16
0.000000000000000000e+00 0.000000000000000000e+00 0.000000000000000000e+00 0.000000000000000000e+00
-9.510586429222250685e-18 -1.803298744734895974e-17 2.066433950976985151e-17 6.879234366801357373e-18
-4.323828944576223384e-18 -1.292393365086553825e-17 9.071721156926013510e-18 8.176041438515751972e-18
3.596272488028580224e-17 -2.109165777513185451e-16 -1.293262073926216495e-16 3.042800602636544478e-16
0.000000000000000000e+00 0.000000000000000000e+00 0.000000000000000000e+00 0.000000000000000000e+00
0.000000000000000000e+00 0.000000000000000000e+00 0.000000000000000000e+00 0.000000000000000000e+00
5.031771516595516190e-18 -3.730498317036937496e-18 1.724974878783929456e-18 -3.026248078342507765e-18
-3.030336939875169379e-17 9.951372084044830102e-17 -3.388347397608281933e-17 -3.532687746561378173e-17
0.000000000000000000e+00 0.000000000000000000e+00 0.000000000000000000e+00 0.000000000000000000e+00
-8.359138498604247519e-19 -8.174626861381162907e-19 -8.528358771479464417e-19 2.506212413146488158e-18
-4.738894681574154363e-18 -2.207047351301020797e-17 1.093904209532147864e-17 1.587032609926288293e-17
1.511421375782719796e-17 -2.858027175469701795e-17 1.532433027474174759e-17 -1.858272277871930689e-18
8.703973485416396603e-17 1.807809797325715650e-16 -3.124554161190418814e-16 4.463470153230630105e-17
9.896910127914520866e-16 -3.777872048651185231e-16 -1.272349394900804555e-16 -4.846688684362531081e-16
-7.312223948299457382e-17 -5.933549964158590707e-17 -1.353003260188654706e-16 2.677580651434457666e-16
-2.846733654648224312e-17 -1.496558613281422744e-16 6.430471354823925257e-17 1.138184843263853081e-16
-3.493579334053956275e-16 6.476325161423071495e-16 -2.924999353783210569e-16 -5.774647358590461210e-18
-2.011170828659948371e-17 -6.331252458617468836e-17 3.019982110434482506e-17 5.322441176842934085e-17
1.629096566994320290e-17 -1.006228363794810222e-17 -1.041875639188293291e-17 4.190074359887834531e-18
1.947284200509864956e-17 -4.173106685026726422e-17 -1.502795788167998174e-17 3.728618272684859640e-17
-8.111920427695939113e-19 -8.037269348824224390e-19 -8.179488759966891790e-19 2.432867853648705433e-18
-5.586184242363087617e-18 -5.493872425972372868e-18 -5.381359052665607650e-20 1.113387025886211889e-17
-2.584716249625859573e-17 -5.189083866987811617e-17 4.830791871149914718e-18 7.290720929498680719e-17
3.640503220590068946e-17 -6.838539370550446483e-17 4.133206338763542679e-17 -9.351701888031666824e-18
-1.671812778375273962e-18 -1.634922209099474495e-18 -1.705656780229720569e-18 5.012391767704469411e-18
0.000000000000000000e+00 0.000000000000000000e+00 0.000000000000000000e+00 0.000000000000000000e+00
2.544394938811654842e-17 -4.445985095258485226e-17 2.127988565725228825e-17 -2.263984092784000209e-18
3.192173435246680931e-17 -6.415941365563999441e-17 2.897081170947205990e-17 3.266867593701121730e-18
2.326038278792150998e-17 3.101012454871716132e-17 -1.593829580569132533e-17 -3.833221153094735829e-17
1.286995389436210411e-17 -5.677094272908929802e-17 3.093214555338199924e-17 1.296884328134518389e-17
-1.762085503403331796e-17 -6.068231228004596628e-17 2.132793886210483327e-17 5.697522845197442632e-17
-4.134983358077763407e-17 8.007159533256049486e-17 -3.636730654651571150e-18 -3.508503109713129349e-17
-6.905988566459751696e-17 1.569451282749493984e-16 -4.020304808789347905e-17 -4.768219452245842084e-17
3.007490129984548196e-18 -1.439768266225313143e-17 7.518400893974694904e-18 3.871791638293884094e-18
0.000000000000000000e+00 0.000000000000000000e+00 0.000000000000000000e+00 0.000000000000000000e+00
9.827041705603335091e-17 -1.381443191905804415e-16 3.692277558170679915e-17 2.951126552840319513e-18
1.417375564879709809e-17 -7.303042970325442445e-17 -2.424603287219961023e-18 6.128127734167727892e-17
-4.707196189414070174e-18 -3.067872906202942068e-17 5.810411722756751070e-17 -2.271819197612399442e-17
-3.292464428625228781e-16 -8.319271181662234229e-16 -1.242426010259489370e-15 2.403599571288234635e-15
6.636844343381522482e-18 -1.953314746092436710e-17 1.346075110298960538e-17 -5.644479854467523826e-19
1.647434359485334224e-17 -9.880132218023676087e-18 -4.617454311443114692e-18 -1.976757065386553387e-18
4.195866584529267418e-18 -4.547968938513326535e-18 8.721340479420403770e-19 -5.200316939579806826e-19
0.000000000000000000e+00 0.000000000000000000e+00 0.000000000000000000e+00 0.000000000000000000e+00
-2.526007830834618359e-17 2.681495457925527058e-17 2.162831165894689709e-18 -3.717707436803772083e-18
-3.754456258795227201e-17 7.518664461446361647e-17 -2.417504886803515269e-17 -1.346703315847621180e-17
9.383199273996751475e-18 -2.555978568212223286e-17 -9.556914218550949082e-18 2.573350062667643355e-17
5.298734009094598392e-17 -3.480908550416901979e-17 -8.005240233887323772e-18 -1.017301435288964498e-17
0.000000000000000000e+00 0.000000000000000000e+00 0.000000000000000000e+00 0.000000000000000000e+00
6.377513149891395090e-18 -9.444506073246990165e-16 -8.034892884888873327e-16 1.741562382663694759e-15
8.620998170997892970e-17 -5.473468841288178142e-17 -2.629361062516785295e-17 -5.181682671929279153e-18
-1.724606447624558408e-16 2.529064381628264740e-16 -1.299427709220155887e-16 4.949697752164499237e-17
3.105759756338543669e-17 -6.604609984791515652e-17 -8.178450168809730349e-17 1.167730039726269987e-16
-1.075531621260290641e-16 -7.405709801610135787e-17 -4.344133809370036835e-17 2.250515982358308026e-16
3.963271634174255765e-17 -2.700465541168123824e-16 -2.174571133657554076e-16 4.478709511408252446e-16
-7.655953975087472807e-16 -3.899446585705299716e-17 -5.627047580228756290e-16 1.367294621388676160e-15
-1.768080352444659584e-17 1.598413482719646672e-17 3.764490377403755781e-17 -3.594823507678743176e-17
-3.102032134480267621e-16 2.013290962096957402e-16 -4.076188486273238767e-18 1.129503057246043492e-16
2.408487778579649575e-17 -4.596547984529024928e-17 -8.026643601158847539e-18 2.990724566065258566e-17
-8.956189840446490709e-17 2.979542068317327757e-16 -1.685314836879379492e-16 -3.986082473933003652e-17
-1.360739272664688156e-16 2.981333273421262208e-16 -5.663094967771575503e-17 -1.054284503979417241e-16
4.635396578117325710e-17 -1.023839277153477928e-16 4.610907798698004396e-17 9.920883947194485536e-18
2.211119396835348249e-17 4.660659945080287991e-17 -9.754678335845598241e-18 -5.896311508331076878e-17
2.310342081237669717e-17 -2.941728305407398574e-17 8.832862879063946789e-18 -2.519000637366650130e-18
0.000000000000000000e+00 0.000000000000000000e+00 0.000000000000000000e+00 0.000000000000000000e+00
-2.378275062582189053e-17 7.108671712736096640e-17 -1.259716125187336007e-17 -3.470680524966571579e-17
1.557937996983745544e-19 2.568587411006584263e-17 -4.951364774938204837e-17 2.367197983961783781e-17
-1.956507752339742590e-18 -1.062971100336105491e-17 5.889421069900918769e-18 6.696797685799879121e-18
-2.297485480133053766e-17 1.317098786790838171e-16 -4.752555399804169299e-17 -6.120946987971158955e-17
3.644785996562890617e-18 8.032685687383094721e-17 -1.020121628125978287e-16 1.804051994220399012e-17
-3.827230035600796467e-18 -2.120964947691905898e-17 1.189749566285251917e-17 1.313938384966734090e-17
1.300800750030079235e-16 1.156696398327466524e-16 -1.413693637470793744e-16 -1.043803510886752139e-16
2.645791719753570201e-17 -2.610919713655461107e-17 -1.023875659541910693e-17 9.890036534438020611e-18
-2.255362697078559393e-17 5.476158314286458087e-17 -2.357146386713158184e-17 -8.636492304947409712e-18
3.873720787905436646e-18 -1.356335608684318073e-17 8.414198106302051958e-18 1.275437192635697131e-18
-3.357220399805329346e-17 4.438033961784217697e-17 -3.517368143200695236e-17 2.436554581221809350e-17
6.171363137154864208e-18 -1.130804435076241195e-17 5.133777586154649309e-18 2.903627452898851053e-21
0.000000000000000000e+00 0.000000000000000000e+00 0.000000000000000000e+00 0.000000000000000000e+00
7.000573392015356903e-17 -9.628366125907223577e-17 -9.848220916087124725e-18 3.612614825500579763e-17
7.914083148786012666e-17 -5.252871301102714281e-17 -2.079575413229511619e-17 -5.816364344537859944e-18
-3.974167714958580380e-17 9.027046094115753030e-17 -2.664901213854119818e-17 -2.387977165303055605e-17
7.348152733197538472e-17 -1.179000112157348567e-17 -2.135705515084631135e-16 1.518790252980611266e-16
-2.246540793983000098e-16 3.462559350625193193e-16 -2.628085290376007823e-16 1.412066733733814974e-16
-1.760525779708717897e-16 -3.808087301919993901e-17 -3.213867644197348947e-16 5.355202154098064693e-16
1.179660112266668999e-16 -1.711008525494441290e-16 3.836506469680474025e-17 1.476977662597249508e-17
5.748922576046049748e-17 -4.782876797611743590e-17 -2.967520115329584142e-16 2.870915537486153649e-16
-8.136599164596205367e-19 -8.051606938278111478e-19 -8.213583706273209101e-19 2.440178980914752402e-18
-3.214493889225676059e-18 -1.192073299048834134e-17 -1.218865029768668690e-17 2.732387717740070777e-17
-8.683810791544300040e-18 -8.546503433905822693e-18 2.424389480876821146e-18 1.480592474457329851e-17
1.103815175532272686e-17 -1.520959414747957634e-17 1.082248419163334872e-18 3.089193972993515563e-18
-1.210835675894646705e-17 4.784533364344932099e-17 -1.988675676637359108e-17 -1.585022011812925361e-17
-5.175334737911022574e-18 -4.856858590931891329e-17 -2.209023323253322296e-17 7.583415387976316498e-17
5.075532182592281429e-18 -3.706176051953168709e-18 1.786736731273207922e-18 -3.156092861912319486e-18
-4.943633964559653606e-17 1.665965105688970234e-16 -7.331819224000306284e-17 -4.384197868329745535e-17
-2.251919415507860641e-18 -2.229897517013841584e-18 3.345072758025386127e-18 1.136744174496314557e-18
4.885879955846600096e-18 -3.892084981118232786e-18 -4.023214856788965501e-18 3.029419882060597805e-18
0.000000000000000000e+00 0.000000000000000000e+00 0.000000000000000000e+00 0.000000000000000000e+00
-3.096292130775680203e-18 -3.051766450191107888e-18 2.479904026298043919e-18 3.668154554668744173e-18
-8.359106832648988290e-19 -8.174656484250336339e-19 -8.528378299173215851e-19 2.506214161607254048e-18
-2.291353470601210540e-18 -2.251705082734336972e-18 3.289283760720037815e-18 1.253774792615508926e-18
0.000000000000000000e+00 0.000000000000000000e+00 0.000000000000000000e+00 0.000000000000000000e+00
4.041108403363676780e-18 -4.714483959992700349e-18 -4.888435057459310981e-18 5.561810614088333009e-18
0.000000000000000000e+00 0.000000000000000000e+00 0.000000000000000000e+00 0.000000000000000000e+00
-3.737924580124644072e-18 -3.680453992688810074e-18 7.443243326875220782e-18 -2.486475406176928124e-20
0.000000000000000000e+00 0.000000000000000000e+00 0.000000000000000000e+00 0.000000000000000000e+00
0.000000000000000000e+00 0.000000000000000000e+00 0.000000000000000000e+00 0.000000000000000000e+00
0.000000000000000000e+00 0.000000000000000000e+00 0.000000000000000000e+00 0.000000000000000000e+00
-1.481463141309212984e-18 -1.448748801382236014e-18 4.105428365709619348e-18 -1.175216423018169965e-18
0.000000000000000000e+00 0.000000000000000000e+00 0.000000000000000000e+00 0.000000000000000000e+00
6.513172074608616999e-18 -2.281762415764957871e-18 -2.380515776992092849e-18 -1.850893881851567435e-18
1.320824604771485989e-17 -4.460177812220321567e-18 -4.506747031244122902e-18 -4.241321204250411570e-18
0.000000000000000000e+00 0.000000000000000000e+00 0.000000000000000000e+00 0.000000000000000000e+00
0.000000000000000000e+00 0.000000000000000000e+00 0.000000000000000000e+00 0.000000000000000000e+00
0.000000000000000000e+00 0.000000000000000000e+00 0.000000000000000000e+00 0.000000000000000000e+00
-8.359143793409864192e-19 -8.174625312489364322e-19 -8.528360313447241517e-19 2.506212941934647003e-18
-8.102224282403769411e-19 -8.031558458082172819e-19 -8.166080169919748203e-19 2.429986291040569429e-18
-7.142502003994800212e-18 -6.984799362172192721e-18 3.946689263511178378e-18 1.018061210265581456e-17
-2.295117523995625086e-18 -2.253914014864856657e-18 3.284067350349199554e-18 1.264964188511280647e-18
2.442056330814673155e-17 -1.073920456220469679e-17 -1.117235294602276782e-17 -2.509005799919267324e-18
0.000000000000000000e+00 0.000000000000000000e+00 0.000000000000000000e+00 0.000000000000000000e+00
0.000000000000000000e+00 0.000000000000000000e+00 0.000000000000000000e+00 0.000000000000000000e+00
0.000000000000000000e+00 0.000000000000000000e+00 0.000000000000000000e+00 0.000000000000000000e+00
-1.673936248839556100e-16 1.205868724496206301e-16 3.487974658519214193e-18 4.331877777581577883e-17
-4.478753090438705249e-18 -3.916514062536881413e-17 3.251535416101029450e-17 1.112853955479722642e-17
-6.748947229102981877e-17 1.845185030307402548e-16 -7.338889801654227177e-17 -4.364013272316821361e-17
-2.469624879989326370e-18 -3.722660375075961572e-17 1.773766390446801054e-17 2.195856472628092577e-17
-6.750866051050271887e-18 -6.606712281778898193e-18 1.558444772383214742e-17 -2.226869391002981194e-18
-2.702440255990423629e-18 -2.874477224611866089e-17 4.332214367187374567e-17 -1.187493116976466039e-17
-5.284960105818169559e-18 -2.256571202772816842e-17 2.158004340631235853e-17 6.270628727233975594e-18
1.077449810272269312e-18 -7.694097673891282429e-17 3.794838372898978110e-17 3.791514319965076501e-17
-8.358994470086295827e-19 -8.174589497305029412e-19 -8.528204586137175280e-19 2.506178855352849763e-18
4.807782751293487957e-18 -2.133556842209873751e-17 5.991220277391593211e-18 1.053656539341365403e-17
1.567696110827308530e-15 1.566816040844187083e-15 -1.380792935992930114e-15 -1.753719215678565500e-15
6.589352116115207917e-17 -4.311688245008192989e-16 1.268772907194981384e-16 2.383980126201691553e-16
2.521153349277981689e-16 -2.829250265905095442e-16 -2.322600887749294876e-17 5.403570054020436411e-17
7.321319492619113123e-17 -1.015903631678334080e-16 7.407611519305880160e-17 -4.569894695141653100e-17
-4.245313489661296915e-17 6.165916638472821275e-17 -2.278515945039332480e-17 3.579127962278099678e-18
-7.978396713816988968e-18 -7.802297993016095665e-18 3.093816110595323683e-18 1.268687859623775980e-17
1.540803601707430662e-17 -2.876886220742695788e-17 2.879698517013167908e-17 -1.543615897977904015e-17
1.861779114193601658e-17 -3.386817530297927278e-17 1.554928081330610990e-17 -2.988966522628357322e-19
-3.933330401145221853e-17 5.604805986324651029e-17 -6.150194876161515082e-18 -1.056456097563275896e-17
-1.274689062993666352e-17 -1.248911066063982711e-17 3.867484956226680788e-18 2.136851633434981369e-17
-2.445127296121262404e-18 -2.417711478693329576e-18 -2.470021066222331637e-18 7.332859841036922462e-18
-4.051821265728569875e-17 5.384151057933791053e-17 -7.791003286494534590e-17 6.458673494289311563e-17
-1.583396157435168432e-17 -5.874044721474117879e-17 3.982141319375489529e-17 3.475299559533795550e-17
2.132609024294168847e-17 -3.978748607756032295e-17 2.605984682989390548e-17 -7.598450995275275625e-18
1.271284643630452048e-15 -8.639914041927665312e-16 -8.382108180834179755e-16 4.309175786457327054e-16
2.498952964742899550e-16 -2.784045614920046924e-16 -3.685149753732700854e-16 3.970242403909848228e-16
3.654340207406718403e-17 -2.491587775797754208e-17 -3.340806349130287431e-18 -8.286717966959361837e-18
-3.843839924811076241e-17 -7.267263790962399889e-17 -1.309036670532067607e-17 1.242014038630554482e-16
1.685084593967455988e-16 9.258068102620713099e-17 -1.626242618536917720e-16 -9.846487856926093314e-17
3.192031470285103136e-17 -1.212186779608237611e-17 -1.248540201763775773e-17 -7.313044889130909846e-18
0.000000000000000000e+00 0.000000000000000000e+00 0.000000000000000000e+00 0.000000000000000000e+00
0.000000000000000000e+00 0.000000000000000000e+00 0.000000000000000000e+00 0.000000000000000000e+00
-1.269982694073512499e-17 1.341725685048418014e-16 -5.829063977401757012e-17 -6.318210179008908476e-17
-4.735808015088418319e-18 -4.669021586536785462e-18 8.201806279078181396e-19 8.584648973717387664e-18
0.000000000000000000e+00 0.000000000000000000e+00 0.000000000000000000e+00 0.000000000000000000e+00
-3.677604844967628336e-17 6.309130077538553348e-18 -2.368382485056874614e-17 5.415074322270648540e-17
6.548003943316559767e-17 -1.966044455481436417e-16 4.886278694653864714e-18 1.262381274203241593e-16
2.695593264660132275e-19 -2.581205711591343661e-17 1.262910349206835557e-17 1.291339429737906560e-17
0.000000000000000000e+00 0.000000000000000000e+00 0.000000000000000000e+00 0.000000000000000000e+00
0.000000000000000000e+00 0.000000000000000000e+00 0.000000000000000000e+00 0.000000000000000000e+00
-3.974478221207397144e-16 -1.678553338496342487e-16 -7.464814796761562127e-16 1.311784635646530422e-15
6.510773961666174481e-17 -6.627486455459391212e-17 -7.007770436503441298e-18 8.174895374435630177e-18
-1.481438107128877293e-18 -1.448741665725269849e-18 4.105456070206183243e-18 -1.175276297352035138e-18
2.818052614685628285e-17 -5.046142169623883194e-17 -2.424718689254842111e-17 4.652808244193096403e-17
2.246416049927886968e-17 -3.869033086662594015e-17 1.038477367807936534e-17 5.841396689267707440e-18
-2.657790709231204673e-16 -7.549586724771472786e-16 -2.099608810620774595e-16 1.230698624462345452e-15
5.703297709638888835e-18 -3.084732532027846898e-18 -3.196668738413161284e-18 5.781035608021194430e-19
-4.374960006018398595e-17 -9.553909534406494834e-17 -3.621722060486602744e-17 1.755059160091149248e-16
-6.276894380736871394e-17 1.104244081165702055e-16 -4.791080591322569741e-17 2.553416040242287329e-19
1.800116115861307360e-18 -6.938385538805785229e-18 -1.527984280023017087e-18 6.666253702967495342e-18
-1.634869703383288204e-17 -4.206166047533372482e-17 2.375802286006250550e-17 3.465233464910409212e-17
0.000000000000000000e+00 0.000000000000000000e+00 0.000000000000000000e+00 0.000000000000000000e+00
-3.979380146133538799e-17 9.915327738662880122e-17 -2.917051654949276281e-17 -3.018895937580062578e-17
0.000000000000000000e+00 0.000000000000000000e+00 0.000000000000000000e+00 0.000000000000000000e+00
0.000000000000000000e+00 0.000000000000000000e+00 0.000000000000000000e+00 0.000000000000000000e+00
-1.233789166398113108e-17 -1.210099762419973795e-17 1.552941600797966226e-17 8.909473280201208314e-18
-8.454830292406717853e-17 1.241349255953561930e-16 -1.018014757759718580e-16 6.221485310468285588e-17
1.754138281248765685e-17 -4.362088318983065557e-17 -1.467974547405908914e-19 2.622629783208358064e-17
4.439880269592223797e-17 5.994200833339670307e-17 -2.280296912328785307e-17 -8.153784190603109723e-17
9.139239673701749300e-18 -6.935938601645327345e-17 4.083624488472737935e-17 1.938390145802414943e-17
1.110535715679389227e-16 -1.168227276430293273e-16 -2.541825048828049141e-17 3.118740656337088986e-17
-8.359119531679454281e-19 -8.174642503276380531e-19 -8.528367506563958950e-19 2.506212954151979280e-18
4.141578962100357696e-17 -4.613460468762356784e-17 8.282433480164425095e-18 -3.563618413544427281e-18
-7.239558385625392175e-18 -6.785306159615990507e-17 8.270575974034890488e-18 6.682204400775042371e-17
2.475084769901523431e-17 -4.519535143213759705e-17 2.062624599860259257e-17 -1.817422654802386185e-19
9.707200785082338762e-18 -7.819780415178064032e-18 -8.137792064105488009e-18 6.250371694201211738e-18
-3.867336186839819581e-17 1.003225704895869614e-16 -3.932984496747429696e-17 -2.231936365371449023e-17
5.264522214073409450e-17 1.287083389487986213e-16 -1.029988919920053036e-16 -7.835466909752739991e-17
7.654941101161605041e-18 -9.858482600072996660e-18 1.031498604983780773e-18 1.172042893927612387e-18
0.000000000000000000e+00 0.000000000000000000e+00 0.000000000000000000e+00 0.000000000000000000e+00
0.000000000000000000e+00 0.000000000000000000e+00 0.000000000000000000e+00 0.000000000000000000e+00
1.290552621679308922e-17 -8.304929422767308173e-17 -2.947618446495080466e-17 9.961995247583079408e-17
2.859641978604346520e-17 -2.402409091724098885e-17 -1.928509344891437392e-17 1.471276458011189756e-17
-3.142387342142335659e-18 -3.077788804161160216e-18 2.415356745090275129e-18 3.804819401213220360e-18
-2.967478246496685234e-17 -6.389297160054031131e-17 4.620846905772066280e-17 4.735928500778649469e-17
-7.320400212660524410e-19 -9.403875823316883897e-18 -4.121199802487984881e-18 1.425711564707092420e-17
7.581763007417642466e-18 -9.898886626438422705e-18 9.280778156121566543e-19 1.389045803408621851e-18
3.947255340853514579e-18 -1.344212400336956634e-17 1.406057609267772406e-17 -4.565707430161672301e-18
-9.871963191833526583e-19 -9.656193894572894761e-18 1.247114853794553462e-17 -1.827758324189286627e-18
3.385815742221828911e-18 -5.350805641218228919e-18 5.604498415193258275e-20 1.908944914844466991e-18
2.668664303572167329e-18 -2.349852721060685441e-17 9.490684406117200429e-18 1.133917850091748781e-17
-3.915778464042071435e-18 -1.250502140172275355e-17 -1.764102110811663737e-18 1.818490197657649335e-17
8.116122349774139499e-18 -9.409995191900377008e-18 -9.729338385693587981e-18 1.102321122781982241e-17
-2.317423202820612312e-18 -2.266172860059985450e-18 3.252614485515576796e-18 1.330981577365020581e-18
1.898239624793376597e-17 -6.831869440753462765e-17 -3.143043896905858938e-18 5.247934205650671253e-17
3.327490896773772624e-17 -1.495851307209856812e-16 6.388727061112836137e-17 5.242295114211958128e-17
1.287034935472221368e-17 -2.213066295203273642e-17 -3.997372868428929309e-19 9.660050884153413305e-18
-6.438097255951437381e-17 -3.085471253096976499e-16 -3.706766125792103211e-17 4.099957591271331298e-16
1.714745472791236226e-17 -1.787687218512383963e-17 -1.295233236499516931e-17 1.368174982220664976e-17
-3.174355380826314041e-17 -9.191054840457155144e-17 6.761123928440520633e-17 5.604286292842949168e-17
5.281389157983476599e-18 -2.963277796383050864e-17 8.782369559386965643e-18 1.556901924646006485e-17
1.332519424444036939e-17 -1.296139302491632402e-17 -2.211785918716092750e-18 1.847984699192046990e-18
-7.722412177103766167e-18 -7.579741921223481904e-18 8.997601918423991987e-18 6.304552179903257625e-18
-2.176091656314177185e-17 -4.745677854780058950e-17 2.394827400409489172e-17 4.526942110684745731e-17
-5.356224484419230616e-16 6.992800507039478051e-16 -3.371564639035359345e-16 1.734988616415116347e-16
-3.069901070548857684e-18 -2.908116712005866217e-17 9.225967743774006219e-18 2.292510044683351941e-17
-5.207262726560206243e-18 -3.113616509181954455e-17 -4.221205618398119449e-18 4.056463343677786331e-17
-5.760857356500341746e-18 -5.671552562152347760e-18 -5.842519154930786767e-18 1.727492907358347858e-17
-1.671838781631540226e-18 -1.634939583614509342e-18 -1.705699627688898352e-18 5.012477992934947149e-18
-5.041170831947190982e-17 8.840231835928073697e-17 -3.404822818442770686e-17 -3.942381855381142628e-18
-3.243478409271496806e-17 9.789369313882327108e-17 -4.210468277822635779e-17 -2.335422626788194215e-17
1.914594159789625138e-17 -5.062160797109454127e-17 2.609077898060128721e-17 5.384887392597000363e-18
-2.114400731319165279e-18 9.179174691909558875e-17 -4.882644521363761134e-17 -4.085090097413883448e-17
4.024767236095666563e-17 -2.125237309491549331e-17 -1.083332477865536220e-17 -8.161974487385814746e-18
-2.858090485377926719e-17 6.691860280265415640e-17 -2.359417115782883179e-17 -1.474352679104606668e-17
9.690599484647766196e-18 -8.611971099991930685e-17 8.765703003687436673e-19 7.555254121490277811e-17
-9.004729498199380086e-18 -8.805885656604953895e-18 -3.570085329346183490e-18 2.138070048415052055e-17
3.261407444173080520e-17 5.508889971417039006e-18 -1.998867219578408201e-17 -1.813429221736375835e-17
-4.221478345186783761e-19 -9.150842927954080467e-18 1.857879207653643148e-18 7.715111554819114925e-18
0.000000000000000000e+00 0.000000000000000000e+00 0.000000000000000000e+00 0.000000000000000000e+00
-1.418903801585586662e-18 -1.005870806631072114e-17 7.790663329739948587e-19 1.069854553492231362e-17
-1.010959957726250752e-16 2.887624570705274425e-16 -1.766137175685460918e-16 -1.105274372935639099e-17
-3.989204456706371013e-18 -3.901137104820544930e-18 1.546920551193814880e-18 6.343421010333098174e-18
2.714379672581609308e-18 -5.996748612137150876e-18 4.977502106422141388e-18 -1.695133166866598664e-18
0.000000000000000000e+00 0.000000000000000000e+00 0.000000000000000000e+00 0.000000000000000000e+00
-4.031382921278272613e-17 8.069125560467623770e-17 -1.355229716592278943e-16 9.514554526733440125e-17
-1.885726318345854613e-17 -1.854826300353735986e-17 8.944752260252655100e-18 2.846077392674326322e-17
-9.222428091385327078e-19 -1.660960227416723487e-16 1.369084989332262466e-17 1.533274156574882903e-16
0.000000000000000000e+00 0.000000000000000000e+00 0.000000000000000000e+00 0.000000000000000000e+00
2.406985948261574033e-18 -6.327948233083779982e-18 -6.541536816128870376e-18 1.046249910095107864e-17
-6.651943464969281549e-17 -3.980339715646882444e-17 -3.301693380262340301e-17 1.393397656087850183e-16
6.019498487725856814e-18 -1.147390515508277946e-17 -6.216582069639764259e-19 6.076064874320895894e-18
-7.000973609813212318e-17 3.500941338217329762e-17 4.431052510553006808e-17 -9.310202389571244067e-18
-9.821646969255220161e-17 1.363477901258018085e-16 -1.261470837663592212e-16 8.801576333310962669e-17
-7.597678433493772721e-17 1.935605956279345378e-16 -7.526682432402348110e-17 -4.231698696897335415e-17
-8.359472758878732239e-19 -8.174347172595824506e-19 -8.528199249338792027e-19 2.506201918081335166e-18
0.000000000000000000e+00 0.000000000000000000e+00 0.000000000000000000e+00 0.000000000000000000e+00
0.000000000000000000e+00 0.000000000000000000e+00 0.000000000000000000e+00 0.000000000000000000e+00
-8.613202196644088237e-18 -8.427741371781673864e-18 8.067676997250241474e-18 8.973266571175519087e-18
7.885091197094927613e-18 -2.696758850386726571e-17 2.256293232435399255e-17 -3.480435017581649064e-18
-7.457597444775551322e-17 -7.383314741606630552e-17 1.612471305241801989e-17 1.322844088114037958e-16
-8.479856792367519427e-17 1.584752086803387142e-16 -2.100041075331920171e-17 -5.267623000334433360e-17
-7.021042797535176278e-17 1.123537973269780510e-16 -3.575399614861357201e-17 -6.389373203012673872e-18
-2.104974414816950269e-18 -1.943645002496926834e-17 -3.277763792472440597e-18 2.481918823225865034e-17
-5.721316794829163003e-18 -1.432583526997280237e-17 1.329554934637864592e-17 6.751602718423318686e-18
0.000000000000000000e+00 0.000000000000000000e+00 0.000000000000000000e+00 0.000000000000000000e+00
4.472822356181521512e-19 -8.234703873555825274e-18 8.301404914917032907e-18 -5.139832769793560295e-19
5.495284993352169573e-17 -4.228702994901933168e-17 -4.091486113665704008e-17 2.824904115215468836e-17
6.196458172947242334e-18 -7.199602794542680886e-17 -7.324680839909644149e-18 7.312425061238918756e-17
-3.636346816747787970e-18 -1.234641725333060049e-17 -1.373362042337089163e-18 1.735612611241547935e-17
8.136826204097567131e-18 -5.276427083901759497e-17 1.267797061912434111e-17 3.194947401579568981e-17
3.910034922125296037e-18 -1.354191509518902351e-17 8.463960874734206477e-18 1.167919298329523110e-18
-1.909201095499772957e-16 3.008327708195142587e-16 -3.326924804439572953e-16 2.227798191744203077e-16
1.817177582783160512e-18 -6.928194446071242369e-18 -1.504708169697995241e-18 6.615725032986076519e-18
2.736758862814486665e-17 -1.700311898447350720e-17 -2.085031654573059903e-17 1.048584690205923803e-17
4.833373150852652843e-16 -2.237606266141404588e-16 -1.245502972077031648e-16 -1.350263912634215128e-16
6.055379567435165570e-17 -5.410738565695442740e-17 -2.517550046681847997e-17 1.872909044942124859e-17
1.404470362925391437e-17 -4.700833622576681170e-17 1.872390402325247383e-17 1.423972857326043274e-17
-7.527811473926129368e-18 5.261994904123220095e-17 -3.233626297446121736e-17 -1.275587459284485576e-17
0.000000000000000000e+00 0.000000000000000000e+00 0.000000000000000000e+00 0.000000000000000000e+00
-1.073480999175219851e-16 1.368006588976070713e-16 -6.682791642901160640e-17 3.737535744892652634e-17
3.026840183491349801e-17 -4.846386951816381058e-17 1.162511750131000503e-17 6.570350181940301379e-18
-2.422053701868861128e-17 4.517472939336642116e-17 -2.932165183187400309e-17 8.367459457196191671e-18
-3.327542453449838087e-17 9.707463373347006961e-17 -4.296413794100628597e-17 -2.083507125796538736e-17
5.683493904074122111e-17 -6.570845096200943467e-17 1.604090729226568725e-17 -7.167395370997473683e-18
1.945027651104544553e-16 8.631707249780988050e-16 -5.807720997719667243e-16 -4.769013903165863142e-16
-6.616759500699953818e-17 2.802331832191176029e-16 -1.151130702056534252e-16 -9.895251800646460254e-17
1.043856273885556153e-16 -1.839360346110055248e-16 6.190507308234843929e-17 1.764533414010142711e-17
5.686274376461653256e-17 -9.240161102872599614e-17 1.366555204316114031e-17 2.187331522094831557e-17
6.891967520956433218e-18 -1.063508813648637287e-17 2.817129403829365251e-19 3.461407675147003997e-18
-6.415549486622825694e-18 -3.250959150598763478e-17 -5.276944116859468764e-18 4.420208510946993463e-17
-5.633309220897554812e-17 1.518052822475079658e-16 -7.308961832668370687e-17 -2.238257171184870152e-17
4.928610658142791660e-17 -4.703740485157323960e-17 1.621607831167923244e-18 -3.870309561022584259e-18
-1.266975457541310578e-17 -6.448648043959390440e-17 4.543289819039517151e-17 3.172333682461185870e-17
-3.327610890436343876e-17 5.359986835601787033e-17 -3.635650220924743170e-18 -1.668810923072969225e-17
-5.071390121292512981e-17 1.402778808547046556e-16 -6.320172232019073759e-17 -2.636225732158876661e-17
-1.062684211187166464e-16 2.030031976417577982e-16 -1.732363869914354411e-16 7.650161046839427706e-17
-6.124779808703817862e-18 -2.343351170945009603e-17 -7.318453294376721667e-18 3.687674481253063401e-17
0.000000000000000000e+00 0.000000000000000000e+00 0.000000000000000000e+00 0.000000000000000000e+00
-5.894826763908323962e-15 4.108300397903322934e-15 4.447008677477044440e-15 -2.660482311472039862e-15
-1.330211942841657514e-17 -2.190229276360875758e-17 1.694547439313221257e-17 1.825893779889312631e-17
5.703318756701470468e-18 -3.084729415673624700e-18 -3.196649478100887031e-18 5.780601370730415522e-19
3.355633496869893045e-18 -5.447311295637999791e-18 -5.530184463730073686e-18 7.621862262498180431e-18
-1.198685273108560543e-17 -2.065420081047470702e-17 2.955639069794422021e-17 3.084662843616089542e-18
-2.687197494121214234e-17 -2.650877031634449612e-17 5.143269730972117166e-17 1.948047947835471801e-18
-1.335441257288400223e-16 6.701513743938051644e-17 8.683286413017011540e-17 -2.030387584071056020e-17
4.294135094064206510e-18 -4.491888777928545352e-18 1.009197295556052817e-18 -8.114436116917128195e-19
-4.395775240589622303e-18 -4.779081359860222547e-17 5.170886971052074231e-17 4.777191286711062334e-19
-2.849868287914590515e-18 -2.833323345377687647e-18 8.368878871958450023e-18 -2.685687238666171090e-18
0.000000000000000000e+00 0.000000000000000000e+00 0.000000000000000000e+00 0.000000000000000000e+00
-7.729640144928719500e-18 -1.633798320770016251e-17 2.252526578221860240e-17 1.542357570410286152e-18
-5.293770436635453810e-17 6.022101187814518656e-17 -7.759213872468893042e-18 4.759063606782403522e-19
0.000000000000000000e+00 0.000000000000000000e+00 0.000000000000000000e+00 0.000000000000000000e+00
0.000000000000000000e+00 0.000000000000000000e+00 0.000000000000000000e+00 0.000000000000000000e+00
0.000000000000000000e+00 0.000000000000000000e+00 0.000000000000000000e+00 0.000000000000000000e+00
0.000000000000000000e+00 0.000000000000000000e+00 0.000000000000000000e+00 0.000000000000000000e+00
0.000000000000000000e+00 0.000000000000000000e+00 0.000000000000000000e+00 0.000000000000000000e+00
0.000000000000000000e+00 0.000000000000000000e+00 0.000000000000000000e+00 0.000000000000000000e+00
0.000000000000000000e+00 0.000000000000000000e+00 0.000000000000000000e+00 0.000000000000000000e+00
0.000000000000000000e+00 0.000000000000000000e+00 0.000000000000000000e+00 0.000000000000000000e+00
9.711553747343300443e-18 -1.649248056181124106e-17 1.094900576456991959e-17 -4.168078950101973584e-18
-3.209062567468250229e-17 -9.828996327649618604e-17 2.181334001549543558e-16 -8.775281120377565517e-17
2.537902858402110612e-17 1.535146322153874919e-17 -3.704629284977713635e-17 -3.684198955782724357e-18
-2.031135971156326063e-16 1.389416773418118322e-16 1.163333266646962416e-16 -5.216140689087551674e-17
1.245555525611199654e-17 -2.156313922413619791e-16 1.671504874339878487e-16 3.602534955126213389e-17
6.513189389400456804e-18 -2.281777077729311635e-18 -2.380524287184253255e-18 -1.850888024486889603e-18
-9.953369383413906374e-16 6.710373769111031392e-16 4.527135085032908255e-16 -1.284139470730035246e-16
-2.540402927572336721e-17 1.819312965051524926e-16 -6.239607173425726055e-17 -9.413119549517185559e-17
-8.059179690023530630e-18 -9.554382151478485834e-17 6.697326104733015664e-17 3.662974015747822001e-17
-4.453120144947455990e-16 6.898168598105257757e-16 1.497797574975274974e-16 -3.942846028133076248e-16
-6.010388258354952459e-17 4.301284313968231728e-16 -2.669882498159581051e-16 -1.030362989973156910e-16
-2.956175946608687571e-17 5.731235987607360767e-17 1.692748890881503741e-17 -4.467808931880175088e-17
-8.912581351327561705e-16 5.946577222173093272e-16 -1.158131356050114281e-16 4.124135485204582222e-16
-1.535325038882206331e-15 1.637640113413790541e-15 -5.506417448178055889e-17 -4.725090004980379825e-17
-1.067318315118223491e-15 9.069945398113267008e-16 2.047826562302661813e-17 1.398455096838702187e-16
0.000000000000000000e+00 0.000000000000000000e+00 0.000000000000000000e+00 0.000000000000000000e+00
-6.182365710369611014e-16 2.259970536354226987e-16 1.369542605455020580e-16 2.552852568560362462e-16
4.389419189643153902e-17 -1.132169366799892238e-16 5.683507487688252968e-17 1.248766990667513046e-17
1.476870163033738452e-16 -8.399075221181735006e-17 9.372787834688578761e-17 -1.574241424384422951e-16
-5.090294682492229200e-16 -6.675166999697381375e-17 1.746788459738219134e-16 4.011022922723748574e-16
3.938731187276239694e-17 -3.083734941836320514e-17 1.816287846126007666e-18 -1.036625030052519292e-17
-1.119010206514443359e-16 -6.332057274609353552e-17 -9.320656440703523932e-17 2.684281578045730245e-16
1.692485892217292285e-16 -2.331048222694246849e-16 3.333834836349139154e-17 3.051788468420407717e-17
8.601479427159700189e-19 -8.584897054844460410e-17 7.367530545162353718e-17 1.131351715410509806e-17
-1.783628782219270462e-16 2.131160464110515220e-16 1.336917658571983593e-16 -1.684449340463227858e-16
8.134046240604584966e-17 -7.622990422751764420e-18 -5.571631985603361756e-17 -1.800115212726045073e-17
3.988336416310763928e-17 -8.229833303655960144e-17 1.560771764212882941e-17 2.680725123132311119e-17
3.514374032276548359e-16 -2.487668631683250004e-16 -2.943895233068318709e-16 1.917189832475020354e-16
6.015798650088512461e-16 -5.044603746848591880e-16 3.597688239829187665e-16 -4.568883143069108739e-16
4.267512486662596828e-18 -1.881266008290825394e-16 -1.290972471390666965e-16 3.129563354814865590e-16
-1.174245318022622080e-16 2.292763222715851984e-16 -1.834871344278282132e-16 7.163534395850524748e-17
1.714212079730125234e-16 -5.839874139844808396e-16 -1.823348254565959614e-16 5.949010314680642037e-16
-2.787084843556393983e-18 -1.144352216542924484e-17 5.043308840866286057e-18 9.187298168119351990e-18
3.884106468328335273e-17 -2.344682469946831348e-17 -4.933018334181407758e-17 3.393594335799904141e-17
9.141390430783961127e-18 -8.406551726188937381e-18 -3.067276664829032719e-18 2.332437960234007047e-18
1.449837580825832745e-17 -1.595225830631233087e-16 7.081783007663423159e-17 7.420637717823072497e-17
-7.559310955727368939e-17 8.084368696323668068e-17 -3.435643004946965303e-17 2.910585264350665558e-17
1.789200610928537507e-16 -2.726147562795735945e-16 -1.715059795168860847e-16 2.652006747036060025e-16
9.571146291533449170e-17 -7.985504716996338473e-17 1.787586826322188911e-18 -1.764400257169330513e-17
5.708647846874066654e-17 -6.566359837130906921e-17 -3.968557328311348006e-17 4.826269318568187040e-17
3.212674732081381159e-17 5.692267476914757959e-17 -6.180204549622060430e-17 -2.724737659374078996e-17
2.749568842869898487e-19 -8.411201785125351339e-18 2.515395429589588583e-18 5.620849471248771656e-18
5.382300555085944387e-17 -6.876376721564419718e-17 -9.398512607186338919e-18 2.433927427197110456e-17
-9.301985671655147315e-19 -3.562075175975422586e-17 4.730039656865966215e-17 -1.074944624173991462e-17
1.401568436145507040e-16 2.287143259500629691e-17 -1.071665658424604181e-16 -5.586171036709664144e-17
-3.223427894982222240e-17 3.688917280373024681e-17 -8.997573222134034088e-18 4.342679368226014302e-18
5.304221624756588932e-18 -1.222168203711793606e-17 -1.307315908090942849e-18 8.224776320452288436e-18
-2.633962611055989515e-17 1.380442793878365314e-16 -5.407095355627495059e-17 -5.763369972100167641e-17
9.855107985966082829e-18 -4.237653159943412852e-17 2.340254777240069252e-17 9.118875841067354716e-18
4.990252756409293529e-17 -3.844451829221640113e-17 -9.081655215249274154e-18 -2.376354056627274641e-18
1.764967506459701002e-17 5.969886523325171973e-17 -9.038367402431281443e-17 1.303513372646409239e-17
4.852264443617684795e-18 -3.910786347142431318e-18 -4.070553046217565045e-18 3.129074949742311953e-18
-5.151169800975941517e-17 1.472979129121813302e-16 -8.078952079947386016e-17 -1.499669410294808565e-17
-3.950357372949876691e-17 9.095065232036681642e-17 -3.805508242708169181e-17 -1.339199616378634999e-17
1.275345528562896859e-16 -1.178918238350917345e-16 -1.552899716083692826e-17 5.886268139638991567e-18
2.681057916866509976e-17 -9.516419794273876428e-17 3.042994247993227240e-17 3.792367629414138904e-17
5.344974988877377993e-19 -1.683191062065894946e-17 5.010203321492179760e-18 1.128720980027903334e-17
8.261576781070602932e-19 1.470148032250336958e-16 -6.660179721545309818e-17 -8.123916368768763543e-17
6.985152442464110646e-17 -1.397714747195031570e-16 3.481245189848665215e-17 3.510749839637539227e-17
-4.667392770645732096e-17 -3.782041858602165524e-17 1.422350455324782449e-17 7.027084173923114863e-17
0.000000000000000000e+00 0.000000000000000000e+00 0.000000000000000000e+00 0.000000000000000000e+00
-8.450711904964670607e-18 -4.310561322128909585e-17 6.047515951414513169e-18 4.550880917483925098e-17
-6.439768813668368905e-17 9.161036753142418198e-17 -5.084973779027363526e-17 2.363705839553313308e-17
2.680183320383252615e-18 -2.354311943373115229e-17 -1.853066398671201879e-17 3.939360010005991500e-17
4.425609920134506905e-17 -1.141037492906841904e-16 -3.001665329539379902e-17 9.986430338473292034e-17
-3.437088323245806491e-17 -2.643028519497006025e-17 -7.373298530679453581e-17 1.345341537342226394e-16
2.861129908394946157e-16 -2.401908121391127667e-16 3.917755944494695122e-17 -8.509973814532881257e-17
-5.675625381657068333e-17 1.765770043272545623e-16 -7.944010061965557505e-17 -4.038064989102834089e-17
5.428642161447356365e-19 -8.180424026017412893e-18 8.434266666131498208e-18 -7.967068562588210478e-19
-3.229927576403088960e-15 2.146281202963358378e-15 2.981050018364816171e-15 -1.897403644925085589e-15
-4.517838465468511463e-17 1.109002334314312634e-16 -7.100740532420406341e-17 5.285556547457910837e-18
-1.953839633737896537e-16 1.177844006941446506e-17 -3.671161455291774272e-17 2.203171378572928990e-16
-1.403083498612582574e-16 3.801838520483019864e-16 -1.445206598672044707e-16 -9.535484231983925828e-17
1.259745182740048094e-16 -5.069444838588621552e-17 -6.504078082000624346e-17 -1.023928906811231349e-17
1.081381437082380063e-16 1.726914704621865128e-16 4.139765201142044871e-17 -3.222272661818449432e-16
2.061740568622310189e-16 -3.113403105598324371e-16 2.020518960815108202e-17 8.496106408945034544e-17
2.769512808840626707e-16 4.349982003265980260e-16 -1.768945296865220332e-16 -5.350549515241385155e-16
7.819542976865049416e-17 -9.685198448615042627e-17 -4.969959715033790973e-18 2.362651443253372154e-17
-3.242719128453180359e-16 -6.475694481621254606e-16 -7.463628783010986403e-16 1.718204239308542728e-15
2.001536048096558046e-18 -2.406552929572713002e-17 1.996428854149014661e-17 2.099704706140421510e-18
1.461906128764172706e-15 6.023383947138090880e-16 5.964072057939441005e-17 -2.123885244057376253e-15
6.915833915989880898e-17 -7.990095656709728612e-17 -9.427444631939242281e-18 2.017006203913770401e-17
4.031068758423364313e-19 -8.259700557345497586e-18 8.238872238057339421e-18 -3.822785565541783139e-19
-6.118579762396799404e-17 7.533427580501041297e-18 -1.244355723166929732e-16 1.780879423601599106e-16
-2.894538598064306374e-16 -3.469257167679807443e-16 1.684426166806640459e-16 4.679369598937472618e-16
-3.844607613577303955e-16 -7.925427286948169688e-16 3.041740891632549653e-16 8.728294008892924977e-16
-3.493519638783536532e-19 -9.030660313835185839e-18 7.503903381197209882e-18 1.876108896516329562e-18
-2.155195543768662535e-16 1.956735818820272395e-18 -1.549568397532342603e-16 3.685196583112802171e-16
7.213290518678336195e-17 -1.381222599055964499e-16 -3.534108742553234386e-17 1.013304421443455057e-16
1.526938905884736563e-16 -1.932934734369484600e-16 -7.003327069496853947e-17 1.106328535434433802e-16
-8.534427455245798738e-17 -1.801887878613933491e-16 -4.448371631990603098e-17 3.100167787337572996e-16
-1.217309084312784311e-17 -3.122090539448889831e-17 -2.560464804770768344e-17 6.899864428532440945e-17
-6.882391374836656487e-17 -8.687030842164065477e-17 -2.138138562445759842e-17 1.770756077944648027e-16
4.129138858233408360e-17 -9.860501703207938743e-17 -6.516598770660078452e-19 5.796528832681130850e-17
-5.323840737307091251e-17 8.617943109994650834e-17 -9.334015634635667927e-18 -2.360700809223991558e-17
-3.699571086114255290e-17 3.112470370376603158e-17 -1.461333645373098626e-16 1.520043716946863716e-16
4.948320243627976792e-17 1.324879724990120609e-17 -3.417015260530486917e-17 -2.856184708087610792e-17
-3.288737362456966284e-17 7.953940780902127363e-17 -3.196875181843039150e-17 -1.468328236602122546e-17
-8.558960658390908852e-18 -1.128299751887162173e-16 -3.218695058122526968e-17 1.535758864283323604e-16
1.818187571168247224e-17 -2.554211576269594153e-17 1.281081367426121823e-17 -5.450573623247749722e-18
-7.850669894816745094e-17 1.302270319939860005e-16 -2.840758939700600076e-17 -2.331274364881254881e-17
-4.072790358053436703e-17 1.410600098505332342e-16 -5.611221802902587191e-17 -4.421988824097301989e-17
-8.960103149394591969e-17 3.432345923606938394e-16 -1.437037653744976736e-16 -1.099297954922503077e-16
-2.357750309850629529e-16 2.507825772675173506e-16 -2.021596460919133395e-16 1.871520998094588679e-16
-3.472095485944141548e-16 -1.182086977443246583e-16 -2.296991092279743506e-16 6.951173555667130651e-16
1.531380476504782657e-16 -5.103573619621159369e-16 -5.351147199644078484e-16 8.923340342760458895e-16
3.076325004728324413e-17 1.048850488051322743e-16 -1.481556195197645060e-16 1.250732066734892132e-17
1.283352904646724921e-16 -5.539187356266799452e-16 -1.965535628676789551e-16 6.221370080296865067e-16
-1.580447803397133433e-17 4.454477276215864637e-17 -1.270760295053325991e-17 -1.603269177765403826e-17
-4.614102826381800054e-17 3.173020188649571919e-17 -2.519897781902657355e-17 3.960980419634883641e-17
9.550331838519266009e-17 -3.736355619014979398e-17 -3.552717721656292789e-17 -2.261258497847995978e-17
0.000000000000000000e+00 0.000000000000000000e+00 0.000000000000000000e+00 0.000000000000000000e+00
1.400614937177450349e-17 -2.978973777475460537e-17 -2.538863577958118282e-18 1.832245198093822363e-17
-1.067221909985758568e-17 2.167132195980657912e-16 -2.083362802251201242e-16 2.295279726911958659e-18
-2.120141555639508337e-17 -2.098452299335718168e-17 1.068760411991628350e-18 4.111717813776063825e-17
-2.491682226471663170e-17 -2.575058364511700044e-17 -5.788375865096158696e-18 5.645578177492979392e-17
1.376839735956971524e-17 -8.212137259622950877e-17 2.749916418698786487e-17 4.085381104967193945e-17
-6.541367870930478863e-17 1.513068404586665721e-16 -4.499431571505661182e-17 -4.089884603430519634e-17
-6.072946104929214245e-17 -1.129867337554522460e-16 -2.167111316818650085e-17 1.953873079729308862e-16
-4.146059716302764582e-17 -1.278721573858584349e-16 1.985402941352036782e-17 1.494787251353657191e-16
2.914495496494253350e-17 -4.095381468126630606e-17 2.694738327170450756e-18 9.114121389153323342e-18
-1.649044874795081379e-17 -8.570582630399989895e-17 6.801624682902422603e-18 9.539465036904824546e-17
9.860666458667543916e-18 -4.250069007109955205e-17 -1.017219167205671176e-17 4.281221528448872143e-17
-6.614153595085309338e-17 5.609910503383510987e-17 -5.164946676482206137e-17 6.169189768184005720e-17
1.732568716663003512e-18 -6.975750527110052206e-18 -1.623460288695032002e-18 6.866642099142080695e-18
-4.666306284544930862e-17 4.040837947844407825e-17 -3.526255553324915674e-19 6.607308922337725983e-18
-1.288879179202255428e-18 -9.984532526008155319e-18 9.604787561963086481e-19 1.031293294901409786e-17
-1.912919439429828577e-17 -1.038768766790326410e-17 7.556797457896200421e-17 -4.605109251676045742e-17
3.458774157515832547e-17 -2.681965555379699964e-17 1.150675670785984567e-17 -1.927484272922117458e-17
-4.265799442377820648e-17 1.568007535959435671e-16 -8.526965911008382149e-17 -2.887310006208149595e-17
5.519384394583345437e-18 -5.541641398015824363e-17 4.941032413198646924e-17 4.867054535884156638e-19
-1.671825050590435978e-18 -1.634927960571801412e-18 -1.705673545263837005e-18 5.012426556426075551e-18
-7.263027687292528860e-18 -3.422752960674130614e-17 1.864736469501694623e-17 2.284319259901689956e-17
7.745732276057756399e-17 -6.289280135199547333e-17 -3.147731581798681315e-17 1.691279440940469476e-17
-5.239434098926920385e-18 -4.866146466844596431e-17 2.280614473751213161e-17 3.109475402986074847e-17
-1.159686911061751046e-15 2.024376789684039275e-15 -4.787552292566200659e-16 -3.859346493656682121e-16
-4.166203022094873359e-18 -1.275582664513752258e-17 1.483650453840344493e-17 2.085525128828949853e-18
1.509293372672255829e-17 -8.078915061652152751e-17 4.566133988624254539e-17 2.003487700355640533e-17
1.056926114487743781e-17 -7.626966043632435747e-17 5.541892402909397679e-17 1.028147526235295520e-17
2.241621205569530525e-17 -2.139665476166151166e-17 -5.348242725736452880e-18 4.328685431702660063e-18
-1.794838223776509145e-17 -1.768444090595359415e-17 9.894280877170917954e-18 2.573854226654776765e-17
1.599261548169190664e-17 -1.898437280858281330e-17 2.699471544571919781e-18 2.922857823189894718e-19
1.288564830795959072e-17 -2.211949792470382543e-17 -3.809842259208060885e-19 9.614833842665038397e-18
-1.223046151490086226e-17 -2.068424302695320032e-17 1.226449763814766999e-17 2.065020690370638643e-17
1.701135008941913043e-18 -6.794530492982534430e-17 4.223782124194671734e-17 2.400634867893671527e-17
-1.119824868829554953e-17 -3.734594158012687160e-17 3.492505154095965241e-17 1.361913872746276410e-17
4.325869754891003525e-17 -4.440270462639098644e-17 1.022749475870095354e-17 -9.083487681220006975e-18
1.208961059228663814e-17 -4.023650754791213444e-17 1.449047093073203323e-17 1.365642602489346152e-17
1.825912568151948626e-15 -1.113672146667113377e-15 -1.532781345854080754e-16 -5.589622868994276671e-16
4.094843196698364415e-17 -4.674340249222021059e-17 7.952021927388870217e-18 -2.157051402152313402e-18
7.021196182841648438e-17 -4.112255982135019424e-16 -2.062013290827964151e-16 5.472149654678817499e-16
3.663279677983528641e-16 -4.815471941099390061e-16 -5.006045510566245130e-16 6.158237773682107537e-16
3.014809172972703549e-17 -7.486404159656643772e-17 -2.650328355655689047e-17 7.121923342339629270e-17
-5.862198945828522588e-17 -2.492101479924771696e-16 -9.789312239136801171e-18 3.176214496898992290e-16
-1.200209883922312632e-18 -9.935190143802928499e-18 1.085547458530502269e-18 1.004985256919474021e-17
-2.433134418099153007e-18 -2.410695923404534513e-18 -2.453477959857353403e-18 7.297308301361040152e-18
2.183182214033703894e-17 -6.559675302975586920e-17 5.445268036512363872e-18 3.831966285290645868e-17
-3.128850903417531080e-18 -3.070089024527689970e-18 2.434274447196126160e-18 3.764665480749093350e-18
0.000000000000000000e+00 0.000000000000000000e+00 0.000000000000000000e+00 0.000000000000000000e+00
1.163683353969461118e-17 -2.336213487896910166e-17 9.599515083528174134e-18 2.125786255746318266e-18
-2.358203690691472246e-16 -2.171313876403346195e-16 3.752514815834579765e-16 7.770027512602371976e-17
-3.602102491251956393e-17 -5.288162822727463788e-17 5.224623895524502692e-17 3.665641418454916256e-17
1.302640154659836372e-17 -4.563507317009780685e-18 -4.760966387155155919e-18 -3.701927842433425580e-18
2.068903532682994611e-18 -6.627988621205828706e-18 9.935882969803947075e-18 -5.376797881281112209e-18
3.441775459397128675e-17 -4.444341601101393136e-17 -1.219109283785441274e-17 2.221675425489706352e-17
-2.298213211752007589e-17 8.109785279902363620e-17 -4.260627913936024202e-17 -1.550944154214331829e-17
1.152966839861335809e-16 3.220966180078343875e-17 -6.596150739256848774e-17 -8.154483839434851347e-17
-1.102339015408094249e-16 2.462125406336864900e-16 -1.080003688391758195e-16 -2.797827025370122088e-17
1.074254680470335257e-17 -5.035994079214618901e-17 3.231710632782490393e-17 7.300287659617943297e-18
-8.359152748132454556e-19 -8.174615051049519561e-19 -8.528352134056209552e-19 2.506211993323818656e-18
4.277202605620028837e-19 -8.246194137486243770e-18 8.273769763026898055e-18 -4.552958861026567832e-19
6.197508453676111685e-18 6.636195274123105274e-17 -3.548261997407674461e-17 -3.707684122083040594e-17
4.579554149764456305e-19 -3.427309655407621400e-17 1.502402097953525956e-17 1.879112015956452653e-17
1.234158733283483656e-17 -2.261381734402296643e-17 1.026227994042124183e-17 9.950070766893229268e-21
9.306988337225809191e-18 6.942222389842110615e-17 -3.794532198228251637e-17 -4.078389025336439435e-17
2.644714794879954658e-16 -1.402790186521198278e-16 -2.543695757873371429e-18 -1.216487650780022361e-16
-8.044005112615623069e-18 -7.918642649572798199e-18 -2.541692560143791878e-18 1.850434032233221430e-17
5.031788378224917077e-18 -3.730484116943465798e-18 1.725006801974386786e-18 -3.026311063255836909e-18
-3.127218669249875746e-18 -3.069164974036861930e-18 2.436486116551517461e-18 3.759897526735221756e-18
1.174404511878904752e-16 -5.887378520162368133e-17 -3.046336697740319024e-17 -2.810329900886356664e-17
8.536619708821820820e-17 -2.718598816035828066e-16 -3.248543334449943777e-16 5.113480179603588898e-16
-8.764666304491756605e-17 5.831133367805643899e-17 -1.069124878921833370e-16 1.362478172590445011e-16
1.121693948321056470e-17 -4.988055273130091559e-17 -9.126085586952971033e-19 3.957622180678564722e-17
-1.370613766863584357e-16 5.408279890239053526e-18 -3.043663797554173392e-16 4.360194765515366859e-16
-1.337971664531561147e-17 1.221504358939203649e-17 -3.502105739205232994e-17 3.618573044797590338e-17
-2.907090715862735205e-17 -5.016276843888444606e-16 3.938137344422094470e-17 4.913172181032509789e-16
1.262434350114580115e-16 -1.821727910320894272e-16 -6.763879042395926318e-17 1.235681464445906296e-16
-4.172771888172485300e-16 -1.184430766189850500e-16 4.728438119278772596e-16 6.287645350835634511e-17
-1.744244385696467463e-16 -6.256555996089333464e-16 -5.679731978562742650e-17 8.568773579642075809e-16
-1.164205418407833333e-16 -8.711810529758815696e-17 6.559340492055314292e-16 -4.523954020671599636e-16
-2.801101601744313463e-16 4.295667680211909209e-16 -2.430735362398887535e-16 9.361692839312920351e-17
-2.475633825666341482e-18 -2.434610236524112309e-18 -2.513037122209134737e-18 7.423281184399587372e-18
-7.321440344639831728e-18 -6.813409573551522141e-17 -8.478353553779923396e-18 8.393388963393495651e-17
1.316650780070428320e-17 -1.312866734658711495e-17 -7.979372066666648080e-18 7.941531612549476747e-18
1.394143686435695823e-17 -2.966574495082968848e-17 8.454445198598005338e-18 7.269862887874732618e-18
4.645082118324265378e-17 -1.630059057534473199e-16 1.126135355156712209e-17 1.052937310186375980e-16
5.022548767398606806e-17 -4.007133312063641334e-17 -4.738274065782369356e-17 3.722858610447405116e-17
-5.555455534402171443e-17 -6.445903782476934289e-17 1.018683223109504897e-17 1.098267609376960130e-16
-1.617414917186794403e-16 -7.328659061209381772e-18 1.708386042198763810e-16 -1.768453439987513950e-18
-3.693071950731906917e-17 -5.373716677379583033e-17 5.128604293995408829e-17 3.938184334116082354e-17
-2.876177623234865040e-17 7.450418137953812373e-17 -7.421502764536116451e-17 2.847262249817166652e-17
-2.518363307714697256e-17 8.564929769651749084e-17 -1.658298972711696380e-16 1.053642326517990766e-16
-8.360669235731574980e-19 -8.173335617248642931e-19 -8.527613379516433989e-19 2.506161823249665094e-18
4.183358112471829649e-17 -8.930956745198523621e-17 3.203580651989670687e-18 4.427240567527724322e-17
1.248269159749776843e-16 -2.078794304195356222e-16 2.702404287616440501e-17 5.602847156839352990e-17
4.194601905234590693e-18 -1.383524385676980747e-17 -3.415169986624192190e-17 4.379234181777712943e-17
-9.686976770604261854e-17 -9.702097247950140669e-18 1.264315066689314121e-17 9.392871428709964728e-17
-1.560940420427740254e-17 -2.413309998542334795e-17 -2.282847157147243423e-18 4.202535134684800431e-17
3.317460408381933951e-18 -3.151263908781705986e-17 1.124176133341863818e-18 2.707100254609326266e-17
-2.506884238066547975e-18 -2.844782749540046808e-17 3.219072561976271938e-17 -1.236013886295700820e-18
-2.712595285203004488e-19 -1.837266935809624250e-16 -2.938958514615647152e-17 2.133875382556391642e-16
-2.776972112752992404e-17 -3.637763277736920737e-17 9.603995470544405818e-18 5.454335843435471943e-17
1.833847476607567976e-17 -2.955074944467058797e-16 1.018444490525104824e-17 2.669845747753790716e-16
4.220817189074117910e-18 -2.201152284266660422e-17 5.485450296638974956e-18 1.230525535695351290e-17
