0.015773
-0.272282
0.037233
0.219276
-0.039025
0.006084
-0.013285
0.046226
-0.021857
0.051469
-0.052381
0.022768
-0.004499
0.001499
-0.003045
0.006045
0.014458
-0.053543
0.015055
0.024029
0.036594
0.057507
0.022020
-0.116121
-0.010968
0.006225
-0.011565
0.016308
0.008235
-0.054703
-0.006887
0.053355
-0.007558
-0.003359
-0.005791
0.016708
0.060395
0.058923
-0.002948
-0.116370
-0.010581
0.007860
-0.012711
0.015432
-0.011164
-0.007133
-0.004591
0.022888
0.008640
-0.012775
-0.016344
0.020479
-0.007893
-0.008634
-0.004400
0.020928
-0.005455
-0.015899
-0.005107
0.026460
-0.002963
-0.007234
0.004345
0.005852
-0.020728
-0.000247
0.002331
0.018644
-0.006092
-0.009510
0.008340
0.007263
-0.014707
0.023980
-0.013677
0.004404
-0.004212
-0.000965
-0.003588
0.008764
-0.047576
-0.010531
0.024072
0.034035
0.017459
-0.057803
-0.003803
0.044147
0.000000
0.000000
0.000000
0.000000
-0.030892
0.069594
-0.025667
-0.013035
-0.008343
-0.006835
-0.005477
0.020655
-0.023176
0.035806
-0.003250
-0.009380
-0.003192
-0.001038
0.003941
0.000289
0.003182
-0.027310
0.003143
0.020985
0.041085
-0.000465
-0.002130
-0.038491
-0.007438
-0.001866
-0.006554
0.015858
-0.000030
-0.010272
-0.002842
0.013144
-0.016069
-0.005524
-0.007052
0.028645
-0.038412
0.092481
-0.012599
-0.041469
-0.012094
0.057291
-0.047610
0.002413
-0.015419
-0.008229
0.001388
0.022260
0.030794
-0.048379
0.021245
-0.003660
0.005802
-0.017426
0.001618
0.010005
-0.017692
-0.035870
0.035576
0.017986
-0.020723
0.027181
-0.029476
0.023019
-0.015959
0.014921
-0.009487
0.010525
-0.012534
0.048348
-0.015089
-0.020725
-0.004828
-0.000523
-0.002628
0.007979
-0.020554
0.031639
-0.011117
0.000031
-0.016458
-0.015093
-0.005089
0.036640
-0.015081
-0.009598
0.005272
0.019407
0.014084
-0.054649
0.055315
-0.014750
0.007102
-0.068126
0.012983
0.048040
0.001421
0.005021
0.001594
-0.008035
-0.022201
-0.011049
-0.022163
0.055413
-0.005972
-0.021053
-0.002980
0.030005
-0.002836
-0.000843
-0.002675
0.006354
0.000000
0.000000
0.000000
0.000000
-0.023330
0.000953
0.002776
0.019601
-0.014635
-0.012923
-0.004084
0.031642
-0.013685
-0.022703
-0.002157
0.038544
-0.001984
0.015525
-0.008206
-0.005334
-0.018045
0.009108
0.011236
-0.002298
0.009391
-0.012296
-0.012195
0.015099
-0.026848
-0.015901
0.006506
0.036243
-0.013534
0.020478
-0.025691
0.018748
0.025401
-0.018107
-0.006802
-0.000493
-0.002466
-0.003912
-0.007846
0.014224
-0.001098
-0.000777
-0.001924
0.003799
0.044085
0.048198
0.012748
-0.105031
0.012694
0.011664
0.023101
-0.047460
-0.027788
0.069055
-0.027242
-0.014025
0.000000
0.000000
0.000000
0.000000
-0.002745
-0.059633
0.036589
0.025789
-0.005455
-0.015899
-0.005107
0.026460
0.008640
-0.012775
-0.016344
0.020479
0.047776
0.017043
-0.008808
-0.056010
-0.005276
-0.000512
-0.003403
0.009191
0.017054
-0.014803
0.002666
-0.004917
-0.018463
0.022256
-0.003358
-0.000434
0.073040
-0.095487
0.084541
-0.062094
0.059781
0.010355
0.006245
-0.076380
0.045130
0.037900
-0.023631
-0.059399
-0.002870
-0.005730
0.015985
-0.007385
0.031853
-0.016916
-0.014769
-0.000168
0.000037
-0.003352
-0.006104
0.009419
-0.001043
-0.014033
0.005582
0.009494
-0.024228
0.011853
0.000446
0.011928
-0.000266
-0.007118
-0.002229
0.009613
-0.018045
0.009108
0.011236
-0.002298
-0.002963
-0.007234
0.004345
0.005852
-0.002678
-0.008316
0.005775
0.005219
-0.009025
0.013130
-0.011126
0.007021
0.000000
0.000000
0.000000
0.000000
-0.002836
-0.000843
-0.002675
0.006354
0.009341
-0.038019
0.025076
0.003602
-0.006092
-0.009510
0.008340
0.007263
-0.008192
-0.000845
-0.007614
0.016651
-0.050660
0.003945
-0.022224
0.068939
-0.013528
-0.012517
-0.002293
0.028337
0.020163
-0.085459
0.019600
0.045695
-0.004415
-0.015565
0.000250
0.019730
0.000000
0.000000
0.000000
0.000000
-0.008422
-0.016570
-0.006196
0.031189
-0.003170
-0.001129
-0.002812
0.007111
0.008510
-0.004295
-0.009318
0.005103
0.000000
0.000000
0.000000
0.000000
-0.008721
-0.011461
-0.010700
0.030882
0.002015
-0.020232
0.010004
0.008214
0.000404
0.017027
0.004725
-0.022156
0.014954
-0.024910
-0.002293
0.012248
-0.020215
0.025190
-0.003296
-0.001678
-0.005093
-0.028647
0.025828
0.007912
0.019385
0.010144
-0.050678
0.021150
0.000755
0.003750
-0.003396
-0.001110
-0.001900
0.015676
-0.008156
-0.005620
-0.000949
-0.000751
-0.000905
0.002605
0.005545
-0.018521
-0.003296
0.016273
-0.007579
-0.014485
0.013769
0.008296
-0.026848
-0.015901
0.006506
0.036243
0.046355
-0.076169
0.025571
0.004242
0.005408
-0.036429
0.000549
0.030472
-0.006777
-0.002922
-0.005879
0.015578
-0.014707
0.023980
-0.013677
0.004404
0.102367
-0.010746
-0.027808
-0.063814
0.010073
-0.012106
-0.011962
0.013995
-0.003445
-0.002160
-0.002412
0.008017
0.000000
0.000000
0.000000
0.000000
0.018505
-0.015523
-0.002851
-0.000131
0.009924
0.059846
-0.045981
-0.023790
-0.006640
-0.024432
-0.010345
0.041417
-0.013337
-0.051142
0.042499
0.021980
0.023716
0.020485
-0.006070
-0.038131
0.000000
0.000000
0.000000
0.000000
0.029627
0.010049
-0.040147
0.000471
-0.019826
0.071175
-0.065788
0.014439
0.027228
-0.027376
0.006974
-0.006826
-0.026467
-0.019209
0.005352
0.040323
0.003780
-0.008021
-0.010585
0.014826
0.144433
0.008746
-0.071850
-0.081329
0.026221
-0.013392
0.000905
-0.013734
0.000000
0.000000
0.000000
0.000000
0.021648
-0.124527
0.061345
0.041534
-0.007438
-0.001866
-0.006554
0.015858
0.049992
-0.009251
0.007581
-0.048322
-0.003192
-0.001038
0.003941
0.000289
0.002435
-0.027921
0.023313
0.002173
0.011549
-0.051896
0.036801
0.003546
0.024155
-0.096537
0.054665
0.017717
0.053473
-0.031795
-0.004101
-0.017577
-0.056146
-0.102595
0.079140
0.079601
-0.002790
-0.000108
-0.002229
0.005127
-0.017255
-0.013976
-0.002182
0.033413
-0.005777
-0.008389
0.003014
0.011152
-0.004828
-0.000523
-0.002628
0.007979
-0.007558
-0.003359
-0.005791
0.016708
-0.023813
-0.021389
-0.017795
0.062997
0.061888
-0.050472
0.020464
-0.031880
-0.027318
-0.018641
0.005119
0.040840
0.035837
-0.012761
0.019697
-0.042773
0.024418
-0.040875
-0.006721
0.023178
-0.009431
-0.019390
-0.015110
0.043931
-0.025193
0.063976
0.009309
-0.048092
-0.011035
0.066144
0.035704
-0.090813
0.010533
0.050779
0.007724
-0.069036
0.037730
-0.021147
-0.002855
-0.013728
0.026451
0.048746
-0.038972
-0.036226
-0.004879
0.057209
0.001924
-0.054254
-0.007196
0.030106
0.009501
-0.032412
0.037869
-0.004380
-0.036164
0.002675
-0.048664
0.098888
-0.027909
-0.022315
-0.008696
-0.001929
0.021028
-0.010403
0.031772
0.016300
0.017351
-0.065423
0.010898
-0.044592
0.017117
0.016577
0.004491
0.028376
-0.024474
-0.008393
0.003000
-0.014157
0.010773
0.000384
-0.089247
0.018452
0.065270
0.005525
-0.020403
0.062314
-0.019498
-0.022414
-0.072192
0.038573
0.003877
0.029741
0.001302
-0.046928
0.028465
0.017161
0.043560
0.034549
-0.056532
-0.021576
-0.008343
-0.006835
-0.005477
0.020655
0.003223
0.052053
-0.032796
-0.022479
-0.000468
0.052313
0.000486
-0.052332
-0.024263
-0.002092
0.063989
-0.037635
0.005481
-0.023064
-0.007378
0.024961
-0.013621
-0.007420
0.007815
0.013226
0.008461
-0.015793
0.002728
0.004604
0.000000
0.000000
0.000000
0.000000
-0.008284
0.091306
-0.038168
-0.044854
-0.083618
0.108680
-0.030890
0.005828
0.006814
-0.033841
0.024591
0.002437
-0.015292
-0.011336
0.075422
-0.048794
-0.009998
-0.010669
0.008998
0.011668
-0.013534
0.020478
-0.025691
0.018748
0.001790
-0.009308
-0.006519
0.014037
-0.000030
-0.010272
-0.002842
0.013144
0.012223
-0.002094
0.004094
-0.014223
-0.005797
-0.064275
0.079521
-0.009449
-0.033263
0.039285
-0.017036
0.011013
-0.027509
-0.053392
0.019705
0.061196
0.000000
0.000000
0.000000
0.000000
-0.011164
-0.007133
-0.004591
0.022888
-0.013820
-0.005862
-0.003800
0.023481
-0.020554
0.031639
-0.011117
0.000031
0.006128
-0.019946
-0.005281
0.019100
-0.000334
0.005667
-0.037755
0.032422
-0.003666
-0.045260
0.029731
0.019195
-0.003941
-0.017756
0.001847
0.019851
-0.015081
-0.009598
0.005272
0.019407
0.051568
-0.026992
0.004096
-0.028672
0.000000
0.000000
0.000000
0.000000
0.023622
-0.050259
0.024107
0.002530
-0.002763
-0.001853
-0.002076
0.006692
0.015917
-0.030232
0.010156
0.004159
-0.010857
-0.008819
-0.008208
0.027884
-0.016435
-0.013499
0.019112
0.010822
0.061568
0.039629
-0.151753
0.050556
0.012686
-0.008316
-0.009120
0.004750
0.087349
-0.055721
-0.054742
0.023114
0.062285
-0.054200
-0.029747
0.021662
0.003902
-0.026580
0.004613
0.018065
-0.022201
-0.011049
-0.022163
0.055413
0.000000
0.000000
0.000000
0.000000
0.015191
-0.029971
0.010480
0.004301
-0.001993
-0.003127
-0.004450
0.009570
-0.001098
-0.000777
-0.001924
0.003799
-0.002122
0.056050
0.001396
-0.055324
-0.023851
0.023659
-0.014811
0.015003
-0.002541
-0.029966
-0.000046
0.032553
-0.015780
-0.020800
0.033595
0.002986
-0.010669
-0.031252
0.051060
-0.009139
-0.005494
0.060845
-0.014258
-0.041093
-0.016350
-0.033741
-0.013341
0.063433
-0.002793
-0.031159
-0.012511
0.046463
-0.005616
-0.003384
-0.005654
0.014655
-0.001104
-0.019407
0.001370
0.019141
0.000000
0.000000
0.000000
0.000000
-0.028621
0.030837
-0.022982
0.020765
0.000000
0.000000
0.000000
0.000000
0.021191
-0.024365
0.006885
-0.003711
-0.014919
-0.007817
0.002171
0.020565
-0.003892
-0.002623
-0.002778
0.009293
-0.000494
-0.042323
-0.001724
0.044541
-0.018553
-0.021333
0.000815
0.039070
0.001662
-0.008475
-0.016320
0.023133
0.002277
-0.025162
0.008818
0.014067
-0.037915
0.080735
-0.046928
0.004108
-0.020127
0.057112
-0.038785
0.001800
0.006290
-0.016450
-0.000566
0.010726
-0.029454
0.030518
-0.022887
0.021823
-0.013722
0.014596
-0.000899
0.000026
-0.020728
-0.000247
0.002331
0.018644
0.000000
0.000000
0.000000
0.000000
-0.007350
-0.007004
-0.011139
0.025492
-0.007769
0.013815
0.005464
-0.011510
-0.007076
-0.011002
-0.005521
0.023598
-0.015811
0.029965
-0.010498
-0.003657
-0.004805
0.010070
-0.010218
0.004954
-0.023409
0.034889
0.001324
-0.012804
-0.005209
-0.002415
-0.000892
0.008516
-0.026747
0.103440
-0.056339
-0.020354
0.120981
-0.046715
-0.029701
-0.044565
-0.060744
-0.006976
0.044483
0.023237
0.012858
-0.100452
0.057819
0.029775
0.000000
0.000000
0.000000
0.000000
-0.063716
0.183942
-0.057726
-0.062499
0.000000
0.000000
0.000000
0.000000
0.024894
0.016513
0.003758
-0.045166
0.008416
0.054586
-0.008864
-0.054138
-0.002466
-0.003912
-0.007846
0.014224
0.037308
0.025862
-0.013183
-0.049987
0.019869
0.035076
-0.014736
-0.040209
0.050267
-0.020172
-0.038203
0.008109
-0.076427
-0.031998
0.006204
0.102220
-0.015210
-0.001381
-0.008042
0.024632
-0.037285
-0.024995
0.016317
0.045963
0.145503
-0.030580
0.024065
-0.138987
-0.009145
0.027772
-0.029487
0.010859
0.008360
0.008830
0.000266
-0.017456
-0.026292
0.015082
0.008055
0.003155
-0.013677
0.010882
-0.001759
0.004553
-0.023342
-0.004020
-0.014962
0.042324
-0.016142
-0.049030
0.048516
0.016656
-0.037015
0.014799
0.019592
0.002624
0.088795
-0.020451
-0.051027
-0.017317
-0.136333
-0.009044
0.128910
0.016467
0.121980
-0.029911
0.059313
-0.151382
0.040468
-0.056550
0.007953
0.008129
0.053275
-0.045850
-0.004467
-0.002958
-0.083390
0.020793
-0.021515
0.084112
-0.053732
-0.026821
0.057906
0.022647
-0.011607
-0.001983
-0.023234
0.036824
-0.032539
-0.019168
0.004311
0.047397
-0.011207
-0.024180
-0.000366
0.035753
0.052084
-0.034771
0.007493
-0.024805
0.009431
-0.028497
0.011084
0.007982
-0.027665
-0.015632
0.005215
0.038082
-0.037885
0.000061
-0.005147
0.042971
-0.002694
0.007745
0.014352
-0.019403
-0.020395
-0.003882
-0.011816
0.036092
-0.038263
-0.020736
-0.001447
0.060446
-0.032065
0.017326
-0.012121
0.026860
-0.055213
0.026700
-0.022012
0.050525
-0.051245
0.012095
-0.002810
0.041961
0.067900
0.016717
-0.023355
-0.061261
-0.038033
-0.024619
0.011022
0.051630
-0.035753
-0.022033
0.015702
0.042084
0.014061
-0.011625
0.003790
-0.006226
-0.037690
-0.002780
-0.000187
0.040657
-0.013527
-0.014986
-0.001966
0.030480
-0.028571
-0.007090
-0.003157
0.038818
0.019871
0.001224
-0.013961
-0.007134
-0.070995
0.005266
-0.014600
0.080330
-0.044942
-0.001692
-0.008639
0.055273
0.097343
-0.057564
0.013493
-0.053272
0.028041
-0.016882
-0.009819
-0.001341
-0.052256
0.032894
-0.028294
0.047655
-0.055826
0.013089
-0.015195
0.057932
0.075387
0.062060
-0.053151
-0.084296
-0.031583
-0.013025
-0.004544
0.049152
-0.028908
-0.011041
0.004653
0.035296
0.012203
-0.016158
0.002379
0.001576
-0.056671
0.013498
0.008667
0.034506
-0.047515
-0.015322
0.022340
0.040497
0.012204
-0.021316
0.031065
-0.021953
0.287283
-0.184517
-0.335552
0.232786
-0.295756
0.015735
0.377312
-0.097291
0.031440
-0.071130
0.166223
-0.126533
0.026249
0.014372
-0.009529
-0.031092
0.045206
-0.015417
-0.017263
-0.012526
-0.009176
0.019779
0.022036
-0.032639
-0.023869
0.018721
0.011301
-0.006153
0.003635
-0.015497
0.009720
0.002143
0.011593
0.006908
-0.011130
-0.007372
-0.003911
0.005669
-0.001942
0.000184
0.063103
-0.038895
0.000637
-0.024845
-0.005060
-0.004540
0.006625
0.002974
-0.021520
0.015966
-0.005532
0.011086
-0.000613
0.010585
-0.020141
0.010169
-0.003406
-0.009463
0.007676
0.005193
-0.004504
-0.012953
0.022092
-0.004636
-0.011116
0.003305
0.015961
-0.008150
-0.003963
-0.008997
-0.002722
0.015682
-0.012444
0.016785
-0.005612
0.001271
-0.009746
0.011137
-0.002857
0.001467
0.026271
-0.015597
-0.001725
-0.008949
0.022939
0.006605
-0.018457
-0.011087
0.010174
-0.023906
0.013564
0.000167
-0.000501
0.003674
-0.007143
0.003970
0.007972
-0.014906
0.005755
0.001179
0.003463
-0.013161
0.013809
-0.004111
0.007339
0.017099
-0.039537
0.015099
0.002049
-0.016551
0.007663
0.006839
0.012347
-0.034327
0.020119
0.001861
0.011321
-0.016165
-0.004606
0.009450
0.101568
-0.051358
0.001098
-0.051308
-0.010065
-0.009662
0.008663
0.011064
-0.012915
0.032204
0.000129
-0.019418
0.003192
0.017285
-0.011365
-0.009112
-0.003332
-0.002843
-0.001241
0.007416
0.007493
-0.005828
-0.009576
0.007911
0.016572
-0.033318
0.015869
0.000877
-0.005654
-0.003910
0.003110
0.006453
-0.014256
0.012605
-0.000086
0.001737
-0.009395
0.013235
0.007898
-0.011738
0.028922
-0.026902
0.002315
-0.004334
0.013925
-0.031208
0.009059
0.008224
0.005168
-0.005002
0.003699
-0.003865
0.041420
-0.024328
0.007161
-0.024253
0.004792
-0.018630
0.012035
0.001804
-0.004375
-0.003276
0.004191
0.003461
-0.023494
0.008056
0.024291
-0.008854
0.017039
0.008652
-0.005854
-0.019837
0.009495
0.015854
-0.013752
-0.011597
0.013133
-0.022751
0.004907
0.004711
-0.005874
-0.018591
0.011010
0.013455
0.015123
-0.031589
0.009340
0.007127
-0.014396
0.026779
-0.032216
0.019833
0.014462
-0.021052
0.001995
0.004595
0.036064
-0.026292
-0.001604
-0.008168
0.017790
-0.023017
0.018372
-0.013145
-0.005267
0.003940
0.000694
0.000633
0.011985
-0.022410
0.010517
-0.000093
-0.011787
0.019919
0.000707
-0.008839
0.007772
-0.033497
0.030276
-0.004550
0.018245
-0.026072
0.001630
0.006197
0.015891
-0.007767
-0.021476
0.013352
0.019276
-0.024833
0.002927
0.002630
-0.000581
-0.009484
0.000427
0.009637
-0.003885
0.003305
0.002045
-0.001464
0.000067
-0.010781
-0.000473
0.011187
0.006537
0.009359
-0.018912
0.003016
-0.005295
-0.015919
0.018786
0.002428
0.001993
0.020298
-0.023439
0.001149
-0.001207
-0.000005
-0.000797
0.002009
-0.018867
0.019470
0.003532
-0.004135
0.005936
0.003788
-0.001998
-0.007726
0.005354
-0.018803
0.004681
0.008767
-0.007344
-0.014906
0.013248
0.009003
0.004599
-0.010085
-0.008983
0.014468
-0.000022
-0.009586
0.006083
0.003524
0.008065
-0.016084
0.002340
0.005679
-0.003522
0.030742
-0.007388
-0.019831
-0.010433
0.009289
0.002088
-0.000944
-0.000120
0.000376
-0.005109
0.004853
-0.009997
0.019220
0.007201
-0.016424
0.019595
-0.003766
-0.015421
-0.000408
-0.024230
0.017009
0.005521
0.001700
0.001739
-0.020971
0.009059
0.010173
-0.015601
0.022663
-0.012407
0.005346
0.010725
-0.015504
0.003308
0.001471
0.020532
-0.020899
-0.010391
0.010758
0.004014
-0.032141
0.012397
0.015731
-0.003238
0.013864
-0.016853
0.006226
0.007761
-0.031216
0.007308
0.016147
-0.012916
0.000652
0.003888
0.008375
0.000189
-0.030558
0.014014
0.016355
-0.023822
-0.031844
0.032188
0.023479
0.014801
-0.017856
0.007840
-0.004785
-0.020113
0.013944
0.016678
-0.010509
0.004176
-0.011128
0.003890
0.003062
-0.002972
0.024660
-0.013271
-0.008418
-0.008938
0.011115
0.004693
-0.006870
0.004315
-0.017519
0.010981
0.002223
0.004340
-0.005398
0.002570
-0.001512
-0.003435
-0.008192
0.001826
0.009801
0.002195
-0.023243
0.014659
0.006390
-0.002748
-0.001704
0.006801
-0.002348
0.000000
0.000000
0.000000
0.000000
-0.014080
0.028942
-0.010596
-0.004266
0.022895
-0.028292
0.007468
-0.002071
0.000000
0.000000
0.000000
0.000000
0.033588
-0.002412
-0.017711
-0.013465
-0.015822
0.023123
-0.003453
-0.003847
0.013200
-0.016598
0.001471
0.001927
0.008032
0.017609
-0.006252
-0.019390
-0.004152
-0.005080
0.006411
0.002821
0.000329
-0.012646
0.003620
0.008698
-0.003493
-0.008963
-0.001906
0.014361
-0.004959
-0.028974
0.021165
0.012768
0.006781
-0.001393
-0.003269
-0.002119
0.014436
-0.005065
-0.008609
-0.000762
-0.001500
0.008346
-0.000691
-0.006155
-0.002705
-0.002339
-0.005836
0.010879
0.012119
-0.001619
-0.003857
-0.006643
0.006222
-0.006674
0.002203
-0.001750
0.008002
-0.007901
-0.007341
0.007240
0.004497
-0.009629
-0.000836
0.005967
0.000910
0.021877
-0.020985
-0.001802
0.000000
0.000000
0.000000
0.000000
0.001564
-0.009328
0.006220
0.001544
0.000000
0.000000
0.000000
0.000000
0.010755
-0.012297
-0.000951
0.002493
-0.003116
0.000124
-0.001445
0.004438
0.004410
-0.009718
0.001252
0.004057
0.000000
0.000000
0.000000
0.000000
0.008621
-0.008866
0.003550
-0.003305
0.003602
0.005888
-0.007131
-0.002359
0.008347
-0.019104
0.004662
0.006095
0.000000
0.000000
0.000000
0.000000
-0.006524
-0.015250
0.015929
0.005845
-0.003538
-0.006804
0.006224
0.004118
0.019106
-0.026911
-0.001774
0.009579
0.000000
0.000000
0.000000
0.000000
0.000000
0.000000
0.000000
0.000000
0.004374
-0.006157
0.007501
-0.005718
0.008020
0.010304
-0.004326
-0.013998
0.000000
0.000000
0.000000
0.000000
-0.004406
-0.000339
-0.003767
0.008512
-0.001680
-0.012615
0.004345
0.009950
0.001303
-0.009969
0.009800
-0.001134
-0.003255
0.021370
-0.001444
-0.016671
0.024623
0.002376
0.007276
-0.034276
-0.008561
0.005760
-0.001000
0.003801
0.004958
-0.031742
0.014929
0.011855
-0.014517
0.041998
-0.010611
-0.016871
0.000999
-0.020599
0.017968
0.001632
0.012745
-0.009075
-0.009212
0.005543
0.008688
-0.013605
-0.004935
0.009852
-0.001945
-0.000201
-0.002423
0.004569
-0.007539
-0.004659
0.005285
0.006913
-0.005000
0.000033
-0.000652
0.005620
0.011828
-0.028243
0.020215
-0.003799
-0.004858
-0.000058
-0.003657
0.008572
0.000000
0.000000
0.000000
0.000000
0.005431
-0.018569
0.009905
0.003234
0.008753
-0.015719
0.005646
0.001321
0.010178
-0.004238
-0.003110
-0.002830
0.003768
-0.020552
0.011264
0.005520
-0.002147
-0.024684
0.007527
0.019303
-0.002651
0.006377
0.010910
-0.014636
-0.007626
0.011382
0.000438
-0.004193
0.006565
-0.014023
0.000281
0.007177
0.000000
0.000000
0.000000
0.000000
0.017504
-0.027409
0.009530
0.000375
0.005442
-0.021366
0.001138
0.014785
0.004527
-0.011911
0.019698
-0.012314
-0.012659
-0.004141
0.007199
0.009601
0.010468
-0.014863
0.007526
-0.003130
0.010896
-0.010421
-0.001257
0.000782
0.002582
-0.009367
0.005234
0.001550
0.000000
0.000000
0.000000
0.000000
-0.004495
0.004790
-0.000842
0.000547
-0.006394
0.007000
-0.001960
0.001355
0.006179
-0.012571
-0.006997
0.013389
0.017504
-0.013492
-0.003161
-0.000851
0.000000
0.000000
0.000000
0.000000
-0.009532
-0.004295
0.002695
0.011132
-0.001270
0.000467
0.000717
0.000086
-0.017988
0.023871
-0.006480
0.000598
0.008080
-0.017670
-0.008377
0.017968
-0.018166
0.003474
0.001006
0.013687
0.014325
-0.011436
-0.013725
0.010837
-0.048719
0.033526
-0.009954
0.025147
-0.001197
0.007910
0.002357
-0.009070
-0.032567
0.024212
0.015153
-0.006799
0.005757
-0.012262
-0.000293
0.006798
-0.007175
0.024403
-0.013832
-0.003396
-0.029189
0.030733
0.006842
-0.008387
0.009214
-0.029048
0.015277
0.004557
0.009646
0.004717
0.000147
-0.014510
0.010790
-0.012452
0.002002
-0.000340
0.000000
0.000000
0.000000
0.000000
-0.009079
0.013755
0.008763
-0.013438
-0.013342
0.021961
-0.008969
0.000350
0.002417
-0.006891
0.002245
0.002228
-0.007598
0.016085
0.007530
-0.016017
0.005923
0.011237
-0.019200
0.002040
-0.002596
-0.010985
0.008527
0.005053
0.005910
0.002645
-0.015901
0.007347
0.013263
-0.017447
-0.006959
0.011143
0.003974
-0.007935
0.007222
-0.003261
0.005761
-0.009746
0.004557
-0.000572
-0.005235
0.020135
-0.019808
0.004908
0.004178
-0.010680
0.003436
0.003067
0.000000
0.000000
0.000000
0.000000
0.016769
-0.027450
0.002954
0.007727
0.021075
-0.021220
-0.002027
0.002172
-0.006008
0.017867
0.000762
-0.012621
0.004353
0.010835
-0.014166
-0.001021
-0.011551
0.026776
-0.005771
-0.009454
-0.025432
0.019518
-0.005718
0.011631
0.014458
-0.027428
0.015483
-0.002514
0.012259
0.011431
-0.017943
-0.005747
-0.002232
-0.003372
-0.001307
0.006910
-0.002460
-0.007600
-0.007185
0.017245
-0.007330
-0.009517
0.007425
0.009422
0.009091
-0.011782
0.000289
0.002402
0.001780
0.001959
0.007121
-0.010860
0.005332
-0.022560
-0.001156
0.018383
0.006623
-0.004440
0.004380
-0.006562
0.001012
0.012899
-0.005603
-0.008308
-0.002442
-0.007169
0.010834
-0.001223
0.007129
-0.006884
-0.008261
0.008016
0.000000
0.000000
0.000000
0.000000
-0.003919
-0.002974
0.003490
0.003403
-0.001310
-0.001989
-0.005430
0.008729
-0.003929
-0.006766
0.004277
0.006418
0.000000
0.000000
0.000000
0.000000
0.000551
-0.003353
-0.005648
0.008450
0.000000
0.000000
0.000000
0.000000
-0.004953
-0.006650
0.006492
0.005111
0.000000
0.000000
0.000000
0.000000
0.000000
0.000000
0.000000
0.000000
0.000000
0.000000
0.000000
0.000000
-0.003234
-0.005023
0.011386
-0.003129
0.000000
0.000000
0.000000
0.000000
0.010694
-0.002136
-0.006465
-0.002094
0.016724
-0.005333
-0.003006
-0.008386
0.000000
0.000000
0.000000
0.000000
0.000000
0.000000
0.000000
0.000000
0.000000
0.000000
0.000000
0.000000
-0.001541
-0.002824
-0.001991
0.006356
-0.001162
-0.001541
-0.000875
0.003578
-0.007007
-0.010502
0.006942
0.010567
-0.003309
-0.003831
0.008867
-0.001726
0.007415
-0.005769
-0.005073
0.003428
0.000000
0.000000
0.000000
0.000000
0.000000
0.000000
0.000000
0.000000
0.000000
0.000000
0.000000
0.000000
-0.008819
0.002333
-0.002705
0.009191
0.003855
-0.017852
0.015829
-0.001833
-0.009665
0.026026
-0.018273
0.001911
0.003262
-0.014965
0.006297
0.005406
-0.007757
-0.005057
0.011120
0.001693
0.005636
-0.009207
0.011650
-0.008079
-0.002671
-0.011914
0.011033
0.003552
0.008094
-0.023597
0.013942
0.001561
-0.002297
-0.004193
-0.006000
0.012490
0.010613
-0.018948
0.005056
0.003279
0.003183
0.087627
-0.045588
-0.045222
-0.007727
-0.026925
0.003341
0.031311
-0.000179
-0.017409
-0.011468
0.029055
0.010373
-0.024730
0.017746
-0.003389
-0.006061
0.005791
-0.003939
0.004209
-0.013375
-0.006726
0.004731
0.015370
-0.003545
-0.003063
0.004771
0.001838
0.002635
-0.014444
0.007879
0.003930
-0.008899
0.000750
-0.002238
0.010387
-0.012904
-0.009162
0.002642
0.019424
-0.002706
-0.004332
-0.004307
0.011345
-0.008704
0.016070
-0.012333
0.004967
0.000195
-0.017465
0.003742
0.013529
0.005562
-0.019068
0.008278
0.005228
-0.004440
0.017162
-0.017945
0.005223
-0.015312
0.007815
-0.028750
0.036246
0.016574
-0.013843
-0.000073
-0.002658
-0.018143
-0.009714
0.006248
0.021609
0.005093
0.019377
-0.011117
-0.013353
0.017732
-0.006024
-0.007539
-0.004170
0.000000
0.000000
0.000000
0.000000
0.000000
0.000000
0.000000
0.000000
-0.003783
0.019567
-0.015893
0.000108
-0.008765
-0.006886
0.004164
0.011487
0.000000
0.000000
0.000000
0.000000
-0.006844
0.020216
-0.000121
-0.013251
0.010567
-0.036551
0.006673
0.019311
0.002808
-0.011378
0.007345
0.001225
0.000000
0.000000
0.000000
0.000000
0.000000
0.000000
0.000000
0.000000
0.008328
-0.007302
-0.010756
0.009730
0.016462
-0.021645
0.001588
0.003595
-0.005539
-0.002668
0.010192
-0.001986
0.016340
-0.016512
-0.008418
0.008590
0.004518
-0.018359
0.003950
0.009891
0.003548
0.012632
-0.017160
0.000980
0.004109
-0.001994
-0.002485
0.000370
-0.000005
-0.025562
0.004992
0.020575
-0.010806
0.017419
-0.003976
-0.002638
0.002709
-0.007923
0.002840
0.002374
-0.009444
-0.015358
0.014653
0.010149
0.000000
0.000000
0.000000
0.000000
-0.011090
0.022101
0.006300
-0.017311
0.000000
0.000000
0.000000
0.000000
0.000000
0.000000
0.000000
0.000000
-0.007203
-0.007986
0.007365
0.007824
-0.013652
0.022868
-0.013538
0.004323
0.008762
-0.018193
0.005028
0.004402
0.006009
0.011009
0.005314
-0.022331
0.004115
-0.020548
0.016753
-0.000319
0.019691
-0.027654
0.001546
0.006417
-0.001532
-0.001162
-0.001231
0.003925
0.011776
-0.017002
0.004863
0.000363
0.003851
-0.027318
0.000847
0.022619
0.010344
-0.015879
0.009299
-0.003764
0.007668
-0.007463
-0.008346
0.008141
-0.009624
0.023019
-0.011866
-0.001530
0.006700
0.037158
-0.029168
-0.014690
0.007638
-0.007382
0.000934
-0.001191
0.000000
0.000000
0.000000
0.000000
0.000000
0.000000
0.000000
0.000000
0.009005
-0.020547
-0.005018
0.016560
0.009077
-0.012167
-0.009854
0.012943
-0.006003
-0.004718
0.007068
0.003653
-0.006186
-0.016314
0.020503
0.001998
-0.001153
-0.005401
-0.001652
0.008205
0.008547
-0.006268
-0.001992
-0.000287
-0.001723
-0.009006
0.012054
-0.001324
0.005155
-0.011219
0.008929
-0.002865
0.005460
-0.006116
-0.002548
0.003204
0.002821
-0.010154
0.006121
0.001212
-0.003735
-0.008994
0.001713
0.011016
0.003408
-0.005580
-0.007589
0.009761
-0.003647
-0.007473
0.008810
0.002310
0.004021
-0.022686
0.008477
0.010188
0.009115
-0.030488
0.017119
0.004254
0.011637
-0.011857
0.003209
-0.002989
0.003080
-0.001600
0.010736
-0.012216
0.005498
-0.009915
-0.004377
0.008794
-0.003181
-0.028533
0.024633
0.007082
0.008045
-0.013660
0.003709
0.001906
0.004950
-0.006293
-0.002143
0.003486
-0.007106
-0.005152
0.009003
0.003254
-0.005503
-0.016779
0.014121
0.008161
-0.014027
0.025338
-0.004294
-0.007016
-0.002217
-0.011709
0.008626
0.005301
0.005574
-0.015046
0.001335
0.008137
-0.006659
-0.001077
-0.004971
0.012707
-0.005355
-0.000201
-0.003504
0.009061
-0.021539
0.030556
0.000976
-0.009993
0.002882
0.015316
-0.014054
-0.004144
0.005574
-0.014350
0.014065
-0.005289
0.008364
0.000536
0.003118
-0.012018
0.018595
-0.012713
-0.003871
-0.002011
-0.009993
0.014203
0.001860
-0.006070
0.010940
-0.031109
0.009615
0.010554
-0.007463
-0.005370
0.000303
0.012530
0.001550
0.004373
-0.001024
-0.004900
0.003175
-0.007637
0.008437
-0.003975
0.000000
0.000000
0.000000
0.000000
0.001036
-0.008590
0.001910
0.005643
0.002794
0.010862
-0.005756
-0.007900
-0.005254
-0.005848
0.003281
0.007821
0.006081
-0.003628
-0.003842
0.001389
0.000000
0.000000
0.000000
0.000000
0.005621
0.015850
-0.025086
0.003616
-0.010516
-0.007551
0.012307
0.005761
0.012429
-0.034384
0.012075
0.009880
0.000000
0.000000
0.000000
0.000000
0.008013
-0.003196
-0.004853
0.000037
-0.010567
0.002260
-0.006370
0.014677
0.006485
-0.009834
0.003289
0.000061
-0.010985
0.011180
0.003355
-0.003550
-0.001430
0.040777
-0.029400
-0.009947
-0.012801
0.026947
-0.010621
-0.003525
-0.002015
-0.004907
-0.001035
0.007957
0.000000
0.000000
0.000000
0.000000
0.000000
0.000000
0.000000
0.000000
-0.007729
-0.011392
0.013204
0.005917
0.007763
-0.014783
0.009155
-0.002135
-0.006436
-0.012851
0.010766
0.008521
-0.013280
0.015820
0.008894
-0.011434
-0.002241
0.026013
-0.012555
-0.011217
-0.000535
-0.009432
0.001885
0.008082
-0.003829
-0.010416
0.011699
0.002545
0.000000
0.000000
0.000000
0.000000
0.001710
-0.010559
0.011521
-0.002671
0.008615
-0.011430
0.006904
-0.004088
0.012884
-0.023503
-0.000368
0.010987
0.003453
-0.007194
0.001983
0.001758
0.006073
-0.018953
0.009971
0.002909
0.007634
-0.007189
0.003433
-0.003878
0.000374
0.019989
-0.002559
-0.017803
0.003713
-0.005458
-0.000270
0.002015
0.003410
0.006091
-0.005080
-0.004421
0.024473
-0.007181
-0.002576
-0.014715
0.005637
-0.003740
0.003704
-0.005600
0.002622
-0.017286
0.011108
0.003556
0.003134
0.019504
-0.017690
-0.004948
0.000000
0.000000
0.000000
0.000000
-0.021479
0.019858
-0.008658
0.010279
0.011346
-0.020201
0.005510
0.003345
-0.011262
0.020332
-0.015513
0.006444
-0.007195
0.022856
-0.014798
-0.000863
0.015677
-0.027472
0.010883
0.000911
0.008032
0.048924
-0.029316
-0.027640
-0.009343
0.026984
-0.014735
-0.002905
0.012552
-0.035493
0.017409
0.005533
0.002385
-0.002578
0.004300
-0.004108
0.006706
-0.010833
0.004484
-0.000357
-0.003316
-0.008664
-0.001089
0.013068
-0.008773
0.021258
-0.003501
-0.008984
0.016353
-0.016988
-0.001681
0.002316
0.001535
-0.026973
0.017346
0.008092
-0.009802
0.012746
0.002889
-0.005833
-0.003507
0.016183
-0.002839
-0.009836
-0.015128
0.034409
-0.005323
-0.013958
0.006353
-0.011805
-0.009646
0.015097
0.000000
0.000000
0.000000
0.000000
-0.006177
0.018989
0.019534
-0.032346
-0.005118
-0.013861
0.010119
0.008859
0.013551
-0.008521
-0.009093
0.004062
0.007963
-0.008415
-0.004098
0.004550
-0.002395
-0.009588
0.012965
-0.000983
-0.013722
-0.006180
0.017230
0.002673
-0.020486
0.026712
-0.001885
-0.004341
0.008227
-0.003973
-0.002006
-0.002249
0.002203
-0.019354
0.014401
0.002750
-0.001991
-0.006057
0.012192
-0.004144
0.000000
0.000000
0.000000
0.000000
-0.000154
-0.010713
0.009709
0.001157
-0.004030
0.008145
-0.007964
0.003849
0.000000
0.000000
0.000000
0.000000
0.000000
0.000000
0.000000
0.000000
0.000000
0.000000
0.000000
0.000000
0.000000
0.000000
0.000000
0.000000
0.000000
0.000000
0.000000
0.000000
0.000000
0.000000
0.000000
0.000000
0.000000
0.000000
0.000000
0.000000
0.000000
0.000000
0.000000
0.000000
-0.001458
-0.008514
0.011299
-0.001328
-0.004276
-0.006070
0.007407
0.002940
0.012145
-0.003907
-0.012652
0.004415
-0.004658
0.003990
0.005841
-0.005173
0.012946
-0.015479
-0.002007
0.004540
0.007745
-0.001886
-0.003022
-0.002837
-0.020079
0.008356
0.017004
-0.005281
0.007966
0.022522
-0.013767
-0.016721
0.007871
-0.015639
-0.000586
0.008353
-0.022330
0.037855
0.028668
-0.044193
0.009942
0.006530
-0.013561
-0.002911
0.001878
0.018909
-0.013925
-0.006862
-0.031075
0.032718
-0.023549
0.021906
-0.031468
0.041024
-0.007246
-0.002309
-0.042221
0.045504
-0.009650
0.006368
0.000000
0.000000
0.000000
0.000000
-0.041232
0.004245
0.026579
0.010408
0.003890
-0.028354
0.011432
0.013032
0.003364
0.007236
0.000962
-0.011562
-0.021471
-0.002669
0.012776
0.011364
0.012216
-0.011395
0.006934
-0.007755
-0.019624
0.018418
-0.006586
0.007792
0.020418
-0.038990
0.006560
0.012012
0.004884
-0.015229
0.004875
0.005470
-0.022858
0.027909
-0.002683
-0.002367
0.013769
0.006679
-0.019596
-0.000852
0.006765
-0.018379
0.004428
0.007186
0.014185
-0.001775
-0.019226
0.006816
0.024138
-0.028448
0.026162
-0.021852
0.004054
-0.018004
-0.010712
0.024662
0.004936
0.010637
-0.012407
-0.003166
-0.005079
-0.010325
-0.004177
0.019580
-0.000607
-0.009613
0.007532
0.002688
0.009634
-0.002762
0.000465
-0.007337
0.006669
-0.006866
-0.001001
0.001198
0.008595
-0.038403
0.022829
0.006980
0.000767
0.004720
0.002772
-0.008259
0.000158
-0.003366
-0.018912
0.022120
0.026018
-0.027241
0.006097
-0.004874
0.019969
-0.018014
-0.010122
0.008167
-0.000313
0.019087
-0.012318
-0.006456
0.000890
-0.010006
0.000627
0.008489
0.021020
-0.021754
0.004487
-0.003754
0.001725
-0.016868
0.018342
-0.003199
0.001486
0.015741
-0.004986
-0.012241
-0.006349
0.003639
-0.002185
0.004895
0.001260
-0.010293
0.007587
0.001446
-0.016103
0.026648
-0.007592
-0.002954
0.005627
-0.017398
0.011886
-0.000115
0.005312
0.001467
0.003314
-0.010093
0.009196
-0.002632
-0.002702
-0.003862
0.004738
-0.006052
-0.005580
0.006894
-0.011335
0.006332
0.005414
-0.000411
-0.018368
0.025981
-0.018660
0.011047
0.020455
-0.027541
0.002861
0.004225
0.005286
-0.029993
0.009483
0.015225
-0.001103
-0.010483
0.002601
0.008985
0.000492
0.030195
-0.015855
-0.014832
0.011312
-0.033316
0.013525
0.008479
0.002854
-0.001404
-0.002984
0.001533
0.000000
0.000000
0.000000
0.000000
-0.003585
-0.017976
0.005415
0.016145
-0.008030
0.017115
-0.009323
0.000239
0.005582
-0.008690
-0.007826
0.010934
-0.000054
-0.007051
0.005977
0.001128
-0.000968
0.008402
-0.001650
-0.005783
0.017508
-0.030477
0.014932
-0.001963
0.001991
0.016304
-0.019213
0.000918
0.002726
-0.008243
0.009181
-0.003664
-0.021979
0.031496
0.012702
-0.022219
-0.015410
0.025181
-0.012466
0.002695
0.002127
-0.009294
0.010149
-0.002981
-0.012379
0.041141
-0.007698
-0.021064
-0.000507
0.000071
-0.002116
0.002552
-0.009430
0.024398
-0.016624
0.001656
0.015778
-0.033750
0.003442
0.014529
0.015687
0.013555
-0.001615
-0.027627
0.019603
-0.026574
0.002941
0.004031
-0.007152
-0.017245
0.007274
0.017123
0.001353
-0.010344
0.011205
-0.002215
0.003942
0.047842
-0.020434
-0.031350
0.017258
-0.022345
0.005889
-0.000802
0.003471
-0.009982
0.006457
0.000054
0.005657
-0.009700
0.000388
0.003656
-0.027321
-0.021796
0.032809
0.016308
-0.005062
-0.023994
0.025702
0.003354
0.002191
-0.009008
0.007712
-0.000895
-0.012147
0.021801
-0.007565
-0.002089
0.021429
-0.028813
0.005842
0.001541
-0.001484
0.001325
0.014868
-0.014710
0.001296
-0.029238
0.013681
0.014261
-0.003571
0.004639
0.001733
-0.002801
0.006956
-0.004442
-0.001006
-0.001508
0.015961
-0.027976
0.006670
0.005345
-0.019672
0.014256
0.005898
-0.000482
-0.009454
0.016752
-0.015372
0.008073
0.003920
0.010632
-0.007852
-0.006699
0.001902
0.007487
-0.002189
-0.007200
-0.000963
-0.016198
-0.005674
0.022835
0.009763
-0.014566
0.001415
0.003389
-0.002144
0.021888
-0.022671
0.002927
0.005411
0.025992
-0.016872
-0.014531
-0.003262
0.020478
-0.008605
-0.008611
-0.010961
0.028371
-0.016420
-0.000989
-0.017195
0.009130
-0.015074
0.023139
0.011572
0.006613
-0.003989
-0.014195
-0.000533
0.026523
-0.007910
-0.018079
0.017715
-0.025938
-0.008630
0.016854
-0.000654
0.004060
0.009452
-0.012858
-0.014037
0.001910
0.008899
0.003227
0.018753
-0.011531
0.003928
-0.011149
0.000000
0.000000
0.000000
0.000000
0.010430
-0.016401
0.002570
0.003401
0.012177
-0.013010
-0.009933
0.010766
-0.010875
-0.010500
0.009661
0.011714
-0.001402
-0.007589
0.005225
0.003766
0.008269
-0.023033
0.009586
0.005178
-0.017519
0.025444
0.004846
-0.012771
-0.000515
-0.020505
0.012162
0.008858
-0.004960
-0.023724
0.011263
0.017420
0.010487
-0.017769
0.003465
0.003816
0.002889
-0.027821
0.005167
0.019765
0.007662
-0.019143
-0.004327
0.015807
-0.010716
0.002808
-0.005555
0.013463
0.005087
-0.006596
-0.004747
0.006257
-0.005449
0.011394
-0.007482
0.001536
-0.002946
-0.006982
0.007211
0.002716
-0.000189
0.000227
0.009484
-0.009521
0.010189
-0.012581
0.014271
-0.011879
0.003758
0.022604
-0.027708
0.001346
0.005161
-0.020083
0.019080
-0.004157
-0.002610
-0.002938
-0.003094
0.008642
-0.002554
-0.013182
0.009434
0.006302
0.015479
-0.019497
-0.003207
0.007225
0.001058
-0.014686
0.008389
0.005239
-0.027005
0.041081
-0.033655
0.019579
-0.002942
-0.006208
0.005811
0.003338
0.002670
-0.020507
0.010659
0.007178
0.005647
-0.015189
0.004607
0.004934
0.009842
-0.012943
-0.003490
0.006591
-0.011120
-0.007008
0.008552
0.009575
0.005395
-0.009460
0.002794
0.001271
0.005744
-0.008517
0.002228
0.000545
-0.005785
-0.007530
0.006073
0.007242
0.005772
-0.021812
0.012818
0.003221
0.003466
-0.018363
0.011127
0.003770
0.013970
-0.015816
0.004972
-0.003126
0.002144
-0.010740
0.004745
0.003851
0.049689
-0.024121
0.017065
-0.042632
0.012219
-0.017113
0.008916
-0.004022
-0.020290
0.013684
0.011559
-0.004954
0.005013
0.026479
-0.028739
-0.002753
0.010570
-0.016970
0.002209
0.004191
0.000149
-0.038012
0.013272
0.024591
-0.000460
-0.005326
0.005877
-0.000090
-0.003071
-0.000847
-0.002173
0.006090
0.006552
-0.015662
0.009721
-0.000611
-0.004849
-0.003723
0.004376
0.004196
0.000000
0.000000
0.000000
0.000000
0.009228
-0.016576
0.008278
-0.000930
-0.001802
-0.029302
0.020617
0.010487
-0.007792
-0.018346
0.011886
0.014253
0.008668
-0.001783
-0.003217
-0.003668
-0.001147
-0.005874
0.011226
-0.004206
0.015902
-0.022569
-0.003869
0.010536
0.001692
0.017610
-0.024468
0.005166
-0.013703
0.028729
-0.001555
-0.013471
-0.014802
0.037632
-0.021944
-0.000887
0.005919
-0.016558
0.013392
-0.002753
-0.001489
-0.002982
-0.001733
0.006204
-0.003255
-0.010117
0.010711
0.002661
0.012290
0.003224
-0.012888
-0.002626
0.005088
-0.017657
0.009104
0.003466
0.000544
-0.014574
0.006700
0.007330
0.002422
0.019861
-0.011548
-0.010734
0.028950
-0.008596
0.005074
-0.025427
-0.008356
-0.002863
0.000263
0.010956
0.003164
-0.004902
0.004561
-0.002823
-0.006728
-0.005213
-0.000286
0.012227
0.016685
-0.015229
-0.003141
0.001685
0.004458
-0.001377
-0.007001
0.003920
-0.012648
0.016133
-0.012214
0.008728
0.007541
-0.016302
0.004411
0.004350
0.000037
0.003627
-0.007380
0.003716
-0.003797
0.010504
-0.008012
0.001306
0.005059
-0.013078
0.004279
0.003741
0.008317
-0.011173
0.008233
-0.005377
-0.018155
0.019437
0.002020
-0.003302
0.006887
-0.058595
0.015147
0.036560
-0.001468
0.020561
0.001749
-0.020843
-0.012906
0.031958
-0.002519
-0.016533
-0.003869
-0.001459
-0.002508
0.007836
0.005628
-0.018650
0.001639
0.011384
0.014562
-0.007331
-0.008635
0.001404
0.008314
-0.018072
0.006149
0.003609
0.011633
-0.027004
0.011126
0.004246
-0.005586
0.016444
-0.003734
-0.007124
-0.006677
-0.009444
0.010244
0.005877
0.008965
-0.022660
0.019101
-0.005406
-0.012006
-0.019633
0.024255
0.007383
-0.006215
0.015841
-0.004312
-0.005315
-0.001072
0.013392
-0.014973
0.002654
-0.005047
-0.001639
-0.002759
0.009445
0.014514
-0.026498
0.008041
0.003944
0.019482
-0.038248
0.015577
0.003190
0.003312
0.009945
-0.004716
-0.008540
-0.009887
0.009176
-0.009359
0.010069
-0.008016
-0.009605
0.004228
0.013393
0.002464
-0.016277
0.004891
0.008922
0.002457
-0.010302
0.006473
0.001372
0.005938
-0.003691
-0.011695
0.009447
-0.003646
0.005551
-0.007003
0.005099
0.010765
-0.041715
0.021791
0.009159
0.008328
-0.014293
0.002885
0.003080
-0.012838
-0.010543
0.016069
0.007312
0.010933
-0.006205
-0.005803
0.001074
0.023809
-0.028986
0.004594
0.000583
0.010195
-0.013648
-0.002747
0.006200
-0.004132
-0.000205
-0.001672
0.006009
-0.000497
-0.005555
0.012521
-0.006468
0.014678
-0.016579
0.003651
-0.001750
0.002524
-0.025344
0.013089
0.009731
-0.014662
0.015559
0.003815
-0.004713
-0.007304
-0.010490
0.007783
0.010012
-0.011525
-0.007582
0.017100
0.002007
-0.016988
0.005657
0.006196
0.005135
-0.008860
0.002845
-0.008740
0.014755
0.010759
-0.017755
-0.001957
0.008953
-0.013306
0.012617
0.007048
-0.006360
-0.021046
0.019964
-0.002348
0.003431
-0.004918
-0.006752
0.009876
0.001794
0.012056
-0.017692
0.009028
-0.003392
0.007082
-0.016435
0.004895
0.004458
0.014918
-0.029265
0.015612
-0.001265
0.003422
-0.012787
0.007700
0.001664
-0.002436
0.001138
-0.002421
0.003720
0.011391
-0.009723
-0.004747
0.003079
0.007047
0.014610
0.001240
-0.022897
0.028341
-0.055428
0.014005
0.013082
-0.005276
0.004660
0.001659
-0.001042
0.009462
-0.001192
-0.002206
-0.006063
0.000000
0.000000
0.000000
0.000000
0.007120
-0.009948
0.002370
0.000458
-0.014759
-0.012816
0.011072
0.016504
0.001641
-0.017678
0.005317
0.010720
0.006621
-0.017517
0.006097
0.004799
-0.002571
-0.016059
0.009510
0.009120
-0.003639
-0.003160
-0.002154
0.008953
-0.000971
-0.010055
-0.001970
0.012996
0.009752
-0.014684
0.011689
-0.006756
0.002976
-0.002083
-0.003747
0.002853
-0.008111
0.010040
0.003337
-0.005265
-0.012605
0.021460
-0.005496
-0.003359
-0.007391
-0.002368
-0.003757
0.013516
-0.000717
0.003941
-0.000696
-0.002528
0.009205
0.010198
-0.002629
-0.016773
0.009527
0.016454
-0.007053
-0.018928
0.022528
-0.012842
0.002976
-0.012662
-0.021072
0.033174
0.001149
-0.013251
0.009969
-0.013213
-0.005609
0.008853
0.014697
-0.038250
0.007620
0.015933
0.011088
0.004074
-0.016827
0.001664
0.004167
-0.008355
0.004329
-0.000140
0.006228
-0.007843
-0.006091
0.007706
-0.011299
-0.005860
0.005223
0.011936
0.017058
-0.017282
0.002079
-0.001855
0.003184
0.037592
-0.026626
-0.014150
0.004997
0.010484
-0.013745
-0.001735
-0.011129
-0.020790
0.005850
0.026069
0.008657
-0.002273
-0.003807
-0.002577
0.035597
-0.048039
0.001238
0.011204
0.032140
-0.018511
0.009133
-0.022762
0.010780
-0.013653
0.002945
-0.000071
0.002919
0.009724
-0.004135
-0.008508
0.005486
-0.011885
0.004610
0.001789
0.001725
-0.011906
0.000170
0.010012
-0.002507
0.018211
-0.010493
-0.005211
0.008318
-0.020019
0.008093
0.003609
0.009513
-0.004686
-0.002619
-0.002208
-0.005961
0.033262
-0.018124
-0.009177
-0.017853
0.000541
0.002322
0.014990
-0.013815
0.016605
0.009225
-0.012015
0.002100
0.019799
-0.009946
-0.011952
-0.009811
0.002295
-0.022592
0.030108
-0.007727
-0.019622
-0.008717
0.036067
-0.006361
0.018467
-0.001958
-0.010148
-0.015620
-0.010566
0.002304
0.023882
-0.026854
0.014687
0.006553
0.005614
-0.011656
0.017153
-0.011527
0.006030
0.014340
-0.026472
0.002074
0.010058
-0.005540
0.005688
-0.001209
0.001061
-0.008206
-0.025632
0.010993
0.022845
-0.000006
-0.029565
0.016903
0.012668
0.005867
-0.022772
0.012132
0.004773
0.002684
-0.014981
0.003965
0.008331
0.001423
0.005359
-0.014332
0.007550
0.004836
-0.001333
0.006085
-0.009589
-0.015086
0.012969
-0.006629
0.008746
0.008722
-0.010677
0.004842
-0.002887
-0.012490
0.024869
-0.004290
-0.008089
0.007540
-0.030473
0.010224
0.012709
0.015249
-0.021625
0.008247
-0.001870
-0.001075
-0.010281
0.006126
0.005230
0.005897
0.026587
-0.035694
0.003210
0.011685
-0.019345
0.000852
0.006808
0.001074
0.003787
-0.003742
-0.001120
0.005725
-0.010817
0.006702
-0.001610
0.020210
-0.006901
-0.008332
-0.004977
0.000000
0.000000
0.000000
0.000000
0.003735
-0.006117
0.005263
-0.002881
0.000000
0.000000
0.000000
0.000000
-0.011206
-0.006672
0.002365
0.015513
0.001298
-0.006738
-0.002210
0.007651
0.000000
0.000000
0.000000
0.000000
-0.002657
0.017793
-0.002797
-0.012339
0.000000
0.000000
0.000000
0.000000
0.024613
-0.003246
-0.000975
-0.020392
-0.046186
0.011467
0.005123
0.029596
-0.025826
0.061538
-0.003251
-0.032461
-0.058797
0.034225
0.017093
0.007479
0.000072
-0.019577
0.014751
0.004754
0.000348
-0.014590
0.010406
0.003836
0.000000
0.000000
0.000000
0.000000
0.000000
0.000000
0.000000
0.000000
0.007769
-0.008155
-0.001243
0.001628
0.003904
-0.028003
0.015370
0.008730
-0.025946
0.021821
0.005988
-0.001863
0.003682
-0.033510
0.014013
0.015816
0.012388
-0.018596
0.006981
-0.000774
-0.012651
0.017580
-0.002994
-0.001935
-0.003268
-0.000973
-0.003343
0.007584
0.009096
-0.007040
-0.000891
-0.001165
-0.000342
-0.004521
0.004771
0.000092
0.006186
-0.020584
0.007581
0.006818
-0.005292
-0.009435
0.000426
0.014300
-0.005324
-0.006118
0.002468
0.008974
0.004090
-0.007489
-0.000709
0.004107
0.004356
-0.005418
-0.000666
0.001728
-0.011148
0.010290
-0.001541
0.002399
-0.024378
0.032426
-0.000679
-0.007368
-0.018738
0.036897
0.001460
-0.019619
-0.040108
0.041004
-0.009894
0.008998
-0.013011
0.010002
0.004171
-0.001162
-0.013389
0.024640
-0.013127
0.001876
-0.024359
0.025636
-0.005602
0.004324
0.006682
-0.015955
0.001036
0.008237
0.006635
-0.014979
-0.001200
0.009544
-0.002688
-0.004332
0.001351
0.005669
0.003686
0.002463
-0.005434
-0.000716
-0.009851
-0.006841
-0.000323
0.017015
-0.000420
-0.018765
0.008605
0.010580
0.015162
-0.016080
0.009520
-0.008602
-0.006003
0.050187
-0.018427
-0.025757
0.007033
-0.010895
0.006188
-0.002326
0.011070
0.021112
-0.011195
-0.020987
-0.006248
0.002490
-0.004320
0.008079
0.013178
-0.033500
0.016754
0.003568
0.002836
0.000996
-0.003717
-0.000114
0.008759
-0.026747
0.010680
0.007308
-0.001768
-0.018187
-0.011244
0.031199
-0.019282
0.027036
-0.007441
-0.000314
0.015615
-0.013344
-0.002412
0.000140
-0.003262
-0.002235
0.000799
0.004699
0.004255
-0.017006
0.002986
0.009765
-0.005794
-0.007290
-0.004806
0.017890
-0.000439
-0.009830
-0.026672
0.036942
0.017328
-0.025156
-0.009799
0.017627
0.013650
-0.013079
0.004732
-0.005303
0.030634
-0.022136
-0.006188
-0.002310
-0.007145
0.016200
0.004166
-0.013221
0.020660
-0.029684
0.010168
-0.001145
-0.008219
-0.001019
0.007221
0.002017
-0.015397
0.001803
-0.003038
0.016632
0.003006
-0.001308
-0.002567
0.000868
-0.016502
0.011695
-0.001461
0.006269
0.003378
0.013634
-0.010205
-0.006806
-0.003441
-0.003003
0.000355
0.006090
0.007179
-0.004124
-0.005214
0.002159
0.005245
-0.015090
-0.003020
0.012865
0.007448
-0.007937
0.002917
-0.002428
-0.001347
0.008115
-0.009868
0.003100
-0.013615
0.022504
-0.003524
-0.005365
-0.019834
0.016777
0.002312
0.000744
0.035806
-0.034218
0.010043
-0.011632
-0.014705
-0.005805
0.003063
0.017448
-0.009819
0.043699
-0.016738
-0.017142
0.000686
0.031316
-0.018193
-0.013809
0.002605
-0.025192
0.021376
0.001211
0.001570
-0.004527
-0.001398
0.004356
0.000000
0.000000
0.000000
0.000000
-0.013714
-0.028794
0.024996
0.017512
0.005820
-0.008528
0.011764
-0.009056
0.013553
-0.031318
0.007779
0.009986
0.004758
0.003155
0.005054
-0.012968
0.089513
-0.044839
0.109737
-0.154412
0.011103
0.005950
-0.070799
0.053747
0.008688
-0.012352
0.011966
-0.008303
-0.008951
-0.012113
0.008156
0.012907
0.012811
-0.016708
0.038732
-0.034834
0.016663
-0.002358
-0.008021
-0.006284
-0.032462
0.033553
0.001958
-0.003049
-0.016387
0.019181
-0.009588
0.006794
0.061240
-0.016921
0.059640
-0.103959
0.039151
-0.039993
0.008893
-0.008052
0.010888
-0.002478
0.006057
-0.014467
-0.056842
0.038687
-0.053262
0.071417
0.021333
-0.054114
0.007709
0.025071
-0.008724
0.028444
0.011451
-0.031171
0.000000
0.000000
0.000000
0.000000
-0.002371
-0.008777
0.003819
0.007329
-0.000215
0.020021
-0.021718
0.001913
0.024912
0.006731
0.064214
-0.095857
0.025564
-0.017400
-0.015844
0.007680
0.002299
-0.006663
-0.003478
0.007842
-0.001762
-0.006766
-0.018846
0.027374
0.005852
-0.019218
-0.008389
0.021755
-0.018373
0.017173
-0.008333
0.009533
-0.032433
0.044198
0.003660
-0.015425
0.005917
0.001296
0.000910
-0.008122
