-8.136600573852760482e-12
-4.396098597355118081e-12
-1.107820967162860582e-11
2.361090884283609825e-11
-3.707570923343261693e-12
-2.863506306304126886e-13
-3.633183565917807813e-12
7.627105119891439786e-12
-2.933023659344785440e-12
5.374850934214273009e-12
-5.873105979462630824e-12
3.431278704593209494e-12
-5.105079467392055988e-12
6.268591646418392961e-12
-4.729024747630832237e-12
3.565512568604454067e-12
-1.553992086805834633e-12
-1.091277105959122823e-11
-1.157574649894496044e-12
1.362433779629146863e-11
8.416261109445086048e-12
4.657863932023980695e-13
1.039518588986656808e-11
-1.927723339251394375e-11
-5.774101334538859579e-13
-5.466766545986368376e-13
-6.279856823324852476e-13
1.752072470385004307e-12
4.683664879468273204e-13
-5.074484617920809640e-12
-2.941402587186134886e-12
7.547520717160126091e-12
-3.406468745832851163e-14
-3.375025693400803586e-14
-2.842875075712825224e-14
9.624369514946470507e-14
6.089780893503745584e-12
8.555167290312529028e-13
3.166079038391525031e-12
-1.011137666092646394e-11
-5.467074281264001381e-13
-5.071054277132868377e-13
-6.223314232651641073e-13
1.676144279104847852e-12
-1.502746080709865543e-13
-1.749792063772200388e-13
-1.377544728114973977e-13
4.630082872597058335e-13
-8.309266172172387845e-14
-1.612931227478897349e-13
-1.572878797515000374e-13
4.016736642211131837e-13
-1.571778423387809631e-13
-1.979560971323104635e-13
-1.232294614358857226e-13
4.783634009069803551e-13
-1.245731339039054044e-13
-2.447150905479814622e-13
-1.751634237146390438e-13
5.444516481665272230e-13
-3.070270532748293571e-14
-3.957122688535126207e-14
-5.654259067321375336e-15
7.592819128015555891e-14
-2.593114297654546036e-13
-1.495586377441589549e-13
-1.275306473031526611e-13
5.364007148127650079e-13
-5.995990054601098109e-14
-9.375766978480645624e-14
-2.771946218342359932e-14
1.814370325142414469e-13
-1.383706244048369379e-13
1.381925692940610422e-13
-1.299293835609119852e-13
1.301074386716876536e-13
-8.774136125436884709e-15
-8.792415806423669269e-15
-8.897193125594973045e-15
2.646374505745552229e-14
-1.102585802335092751e-12
-7.113876759635077240e-13
4.016017757576169546e-14
1.773813300722826183e-12
9.515393288445660693e-13
-4.592260840604227632e-12
-2.267207511028175652e-12
5.907929022787877201e-12
0.000000000000000000e+00
0.000000000000000000e+00
0.000000000000000000e+00
0.000000000000000000e+00
-1.326033540084971299e-12
3.666737757755904824e-12
-1.316430541965011271e-12
-1.024273675705925081e-12
-6.634196973871810730e-14
-7.248717334750376784e-14
-5.378867256823371634e-14
1.926178156544557808e-13
-2.064562573037770786e-13
2.809502755546273135e-13
-1.697556785789884461e-13
9.526166032813927140e-14
-3.863075850826805518e-15
-3.681527924516328147e-15
1.675637951139771601e-15
5.868965824203364431e-15
-2.204240719952029763e-13
-3.451427294749006906e-13
-5.276044680858469582e-14
6.183272482786871068e-13
9.655621535083009034e-12
-3.750940898571300233e-12
-1.623160055104653689e-12
-4.281520581407039763e-12
-3.660294358552901256e-14
-3.627643478121703488e-14
-3.681894188283694176e-14
1.096983202495832353e-13
-3.892061114024337322e-14
-5.386843314974128024e-14
-4.008796940481543632e-14
1.328770136948001466e-13
-1.764518884685251497e-13
-1.778829269638690646e-13
-1.542632184256867421e-13
5.085980338580805272e-13
-7.916528933722082154e-12
1.231134026120024892e-11
-1.030743503387894635e-13
-4.291736977139397558e-12
-2.141828231440879965e-12
5.600181893474954122e-12
-5.016782377631594858e-12
1.558428715597526961e-12
-9.281091456873485842e-14
-9.002691915587528150e-14
-4.889151010233590227e-14
2.317293438269454553e-13
1.636038141689581449e-12
-7.217998534918858533e-12
-8.617643470826358926e-15
5.590578036700090369e-12
1.007312538443914358e-13
-3.143109915876275170e-13
-1.692529443415974069e-13
3.828326820848329201e-13
-5.987552184969034644e-13
-8.236330200731612392e-13
5.551841049656740745e-13
8.672041336043976973e-13
-1.637796388504650924e-12
9.276159319891639439e-13
-3.184391070638574039e-12
3.894571527154062837e-12
-2.856676330919832760e-13
2.595146766909116129e-14
-3.249069127822434366e-13
5.846230782051340778e-13
-1.175415712679332194e-12
1.440647555935530537e-12
-8.793197504321070456e-13
6.140879071759156699e-13
-5.572470212314165637e-15
-6.238779988159305078e-15
-5.534631795075796357e-15
1.734588199554927812e-14
-2.611434763136077691e-13
4.191670193342115202e-13
-2.191955458325771563e-13
6.117200281197312762e-14
-2.654798855958366735e-13
-3.096987387271623855e-13
-1.882573065971777173e-13
7.634359309201774830e-13
-6.643186029151334310e-14
-6.554706327941590922e-14
-2.717693095578580511e-14
1.591558545267151332e-13
7.126067042092737844e-13
-6.633388298848485523e-12
8.644063389868024790e-12
-2.723281795228898072e-12
-1.252190896288488659e-13
-2.316741399609426642e-12
3.112778670504617524e-13
2.130682622187841852e-12
-5.385665502925948700e-13
2.122316912605100176e-13
-2.842114673671636356e-13
6.105463263992471501e-13
-3.450071516295170611e-13
-3.550711297338617633e-13
-3.335725750030229993e-13
1.033650856366396826e-12
-1.722079350784081844e-13
-4.576516798657749754e-13
-2.102252680088939814e-13
8.400848829530782267e-13
-2.615668216363235349e-15
-2.345821824224634524e-15
-2.681927469611771019e-15
7.643417510199642864e-15
0.000000000000000000e+00
0.000000000000000000e+00
0.000000000000000000e+00
0.000000000000000000e+00
-2.894395223726217422e-13
-1.775048959011378339e-13
-1.835908979885907799e-13
6.505353162623512395e-13
-1.239067565144588857e-13
-1.362004276454314477e-13
-9.741550550062001429e-14
3.575226896605108020e-13
-3.190030228495407601e-12
-3.694772524672349499e-12
-1.148957006423671651e-12
8.033759759591459043e-12
-1.116016709793396394e-13
9.575668881867370411e-14
-8.797964003972849570e-14
1.038246222003944940e-13
-2.616310516288519799e-13
-4.591149338115458577e-14
-7.180592394534516763e-14
3.793484689553514430e-13
-1.977127558582048840e-14
-1.491185317639083820e-13
-1.298902696837823967e-13
2.987800770335112103e-13
-3.456941768788468060e-13
-3.403246500624086328e-13
-1.511823120458772278e-13
8.372011389871317578e-13
-2.162227547734409419e-13
1.849186655303096513e-13
-2.170615184108018563e-13
2.483656076539332226e-13
-2.090706595228338097e-12
5.446008981410573360e-12
-3.360606866728054095e-12
5.304480545820674545e-15
-3.035822935794321833e-14
-3.593872085186003718e-14
-4.023913643777476063e-14
1.065360866475781045e-13
-1.904538479857068914e-15
-1.417141116955900531e-15
-1.688272017943048296e-15
5.009951614756020895e-15
1.047140555640626999e-08
1.951611647924393071e-09
2.087368318366638287e-08
-3.329670038799591600e-08
-1.427838905975719592e-09
-2.775705275270980094e-09
7.323452694320538219e-09
-3.119908513073823437e-09
-1.279862854349481047e-12
3.576803767925770076e-12
-1.274786995717343816e-12
-1.022153917858945213e-12
0.000000000000000000e+00
0.000000000000000000e+00
0.000000000000000000e+00
0.000000000000000000e+00
-1.999151926764598157e-13
-1.472067530152949083e-12
-4.194093269832433482e-14
1.713923655527732911e-12
-1.245731339039054044e-13
-2.447150905479814622e-13
-1.751634237146390438e-13
5.444516481665272230e-13
-8.309266172172387845e-14
-1.612931227478897349e-13
-1.572878797515000374e-13
4.016736642211131837e-13
6.205676825774590327e-14
4.460426594347737514e-13
1.535711154441796901e-12
-2.043810582134295338e-12
-7.233054914027046732e-15
-7.166595104587485139e-15
-7.265414540450085211e-15
2.166506455906460288e-14
4.486395246465570795e-14
-4.099590479383593017e-14
1.645570555449981893e-14
-2.032375322531955254e-14
-5.760635103976180896e-14
4.954986830987452158e-14
-5.833240024906845404e-14
6.638888297895574141e-14
1.031451162593533687e-12
-1.545197739713840893e-12
1.655801713785779007e-12
-1.142055136665470791e-12
1.515318779115589830e-12
-3.648254769343558389e-13
-4.834126395664951451e-13
-6.670806626147361707e-13
1.174430088227606651e-12
-2.117117787202045954e-13
-3.511690078448382382e-13
-6.115493016625630098e-13
-2.230950488915008840e-14
-3.133753787592948127e-14
8.093196730439503246e-15
4.555384603464008851e-14
4.626816522334288986e-13
-1.022995945621844360e-12
-7.056938727631128939e-13
1.266008166151531586e-12
4.790135064848561063e-15
-4.745218159738967267e-15
-3.605963630723802820e-15
3.561046725614216123e-15
6.867908802812784757e-15
-1.898246438710977892e-14
9.008081084967053260e-16
1.121374747580025689e-14
-1.876786663697852660e-13
-5.064450452268509560e-14
-1.077204812179181070e-13
3.460436521103883550e-13
-3.183634482839012112e-14
-4.740204148381681549e-14
-3.361476656928942561e-14
1.128531528814960025e-13
-2.616310516288519799e-13
-4.591149338115458577e-14
-7.180592394534516763e-14
3.793484689553514430e-13
-3.070270532748293571e-14
-3.957122688535126207e-14
-5.654259067321375336e-15
7.592819128015555891e-14
-5.299409158731704004e-14
-6.825674286397794189e-14
-3.835555222816540084e-14
1.596063866794600041e-13
-4.046453862679471659e-14
1.617971268549155253e-14
-9.880845885581527636e-14
1.230932847971181691e-13
0.000000000000000000e+00
0.000000000000000000e+00
0.000000000000000000e+00
0.000000000000000000e+00
-2.615668216363235349e-15
-2.345821824224634524e-15
-2.681927469611771019e-15
7.643417510199642864e-15
2.774751075875611957e-13
-8.382643964295510407e-13
7.188524847992143384e-13
-1.580631959572209341e-13
-5.995990054601098109e-14
-9.375766978480645624e-14
-2.771946218342359932e-14
1.814370325142414469e-13
-4.353049201837355961e-14
-4.144257206349316332e-14
-4.404682384375903246e-14
1.290198879256258753e-13
-2.905876236368644298e-13
-6.007313908178365823e-15
5.485905695268024664e-14
2.417358805923622650e-13
-1.089250742219070267e-13
-1.214404243298928811e-13
-8.225095891341985313e-14
3.126164574652201648e-13
-5.007347646460697012e-14
-1.076353879036813821e-12
-4.932084230964811856e-13
1.619635778597906830e-12
1.427122534070753470e-14
-2.836814223286151553e-14
-1.362752612754473344e-14
2.772444301969870165e-14
0.000000000000000000e+00
0.000000000000000000e+00
0.000000000000000000e+00
0.000000000000000000e+00
-1.973291141427869276e-14
-3.542276600472682561e-14
-1.172643799562113888e-14
6.688211541462657204e-14
-5.552608116435742288e-15
-5.547366557796921999e-15
-5.710574655485777362e-15
1.681054932971844638e-14
2.550421189243525699e-14
-2.869635937610709376e-14
-2.886567457460082799e-14
3.205782205827276259e-14
0.000000000000000000e+00
0.000000000000000000e+00
0.000000000000000000e+00
0.000000000000000000e+00
-1.261614622477703470e-13
-2.909662109091592745e-13
-2.081804515156695419e-13
6.253081246726042120e-13
-4.604647283063863896e-14
-1.666854689566149183e-13
-2.044816493224714882e-15
2.147767582804785333e-13
-7.383009659774400773e-13
-3.405873588407095385e-13
1.702464867571625461e-12
-6.235765427534751381e-13
4.770209378422791555e-13
-7.112248162781842267e-13
-4.196041052741501784e-13
6.538079837100510592e-13
-2.034144559594846533e-13
8.706773085484300477e-14
-1.651863493554544591e-13
2.815330744600961960e-13
-2.475443365705736772e-13
-3.846555928666014281e-13
3.524183119907199946e-13
2.797816174464556660e-13
-4.533124630139074978e-14
-2.680119198501722099e-13
3.005146307571752387e-13
1.282853539438677428e-14
-3.940617104430198887e-13
3.020900784752278603e-14
-3.800579051736474355e-13
7.439106077691440080e-13
-1.108058417286860473e-13
9.656774807724924885e-14
-8.711182049665856613e-14
1.013499141480954151e-13
-7.958292506535428543e-16
-8.110592585755386231e-16
-8.678195430699996829e-16
2.474708052299081752e-15
-4.178863850570566057e-14
-7.729597587124312148e-14
-6.091210457097414290e-14
1.799967189479232720e-13
-8.833516369471496204e-15
-1.727448691315449461e-13
6.745120620530285638e-16
1.809038734389631979e-13
-3.456941768788468060e-13
-3.403246500624086328e-13
-1.511823120458772278e-13
8.372011389871317578e-13
-1.618404801291862695e-13
-1.271674356156556119e-12
3.123165707910418722e-13
1.121198265494687567e-12
-1.873095218362571232e-13
-4.716493013141585751e-13
-1.389412358447508524e-13
7.979000589951688983e-13
-1.697210706218085817e-14
-1.790092763196013318e-14
-1.728587482692089377e-14
5.215890952106189773e-14
-1.383706244048369379e-13
1.381925692940610422e-13
-1.299293835609119852e-13
1.301074386716876536e-13
1.300830086095204044e-12
-3.310090521790891608e-13
-2.517322471070474498e-13
-7.180887868090614764e-13
-1.630847049413405834e-14
-1.457321957754926446e-13
-1.267481065724438860e-13
2.887887728420705384e-13
-3.462805091686449773e-15
-3.386335988415825752e-15
-3.142163111338603471e-15
9.991304191440880180e-15
0.000000000000000000e+00
0.000000000000000000e+00
0.000000000000000000e+00
0.000000000000000000e+00
3.773578204874480795e-14
-3.074728732011867388e-14
2.468080145319903643e-15
-9.456574873946009710e-15
-5.000204881779956837e-13
1.729488988805794217e-12
-1.232085572051433446e-12
2.617071423630587447e-15
-2.678796932843597581e-13
-4.671923462510901304e-13
-3.415204065621908829e-13
1.076592446097640923e-12
-4.292933300110601835e-13
-7.830223823165029783e-13
1.825286539038452351e-13
1.029787058423715857e-12
3.049348305676939893e-13
2.807961486829639812e-16
-1.516342560414351372e-13
-1.535813706749420003e-13
0.000000000000000000e+00
0.000000000000000000e+00
0.000000000000000000e+00
0.000000000000000000e+00
8.460240948153088707e-13
1.289885197688851891e-13
2.271094350259014192e-14
-9.977235580867789322e-13
2.947484779921812803e-13
5.315530704928267843e-13
-3.294776528473837006e-13
-4.968238956376241621e-13
3.986003566127112180e-13
-6.694430030360965017e-13
-1.661059225219927453e-13
4.369485689453758328e-13
-1.997751293071045048e-13
-2.520227511389647387e-13
-6.392020775753067071e-14
5.157180882036004696e-13
3.138170143530633209e-15
-1.805485039745686793e-13
-1.318029203899980723e-13
3.092132542210349224e-13
3.565153063971380797e-12
-8.350329356317868448e-13
-1.312495858206013903e-12
-1.417624270133589642e-12
1.173317594357175982e-13
-5.330057239176145403e-14
-2.937120968886218520e-14
-3.465997735509394001e-14
0.000000000000000000e+00
0.000000000000000000e+00
0.000000000000000000e+00
0.000000000000000000e+00
1.515784242812364124e-13
-1.685231320101797534e-12
8.232645861546514096e-13
7.103883096659055463e-13
-3.660294358552901256e-14
-3.627643478121703488e-14
-3.681894188283694176e-14
1.096983202495832353e-13
4.291015815057726497e-13
-2.716672093468438980e-13
8.528420215769390018e-13
-1.010276393735859524e-12
-3.863075850826805518e-15
-3.681527924516328147e-15
1.675637951139771601e-15
5.868965824203364431e-15
-5.787826724447576147e-14
-3.141930115285710534e-13
-8.880113376998058802e-14
4.608724125430263301e-13
2.798189587734172859e-14
-6.589194307623010542e-13
7.337868613576049613e-13
-1.028493264726524926e-13
1.433198074924055986e-12
-2.564968758140716790e-12
1.006424656710637142e-12
1.253460265059997316e-13
8.449952944163621850e-13
-5.354355542040131310e-13
-2.763360615293046728e-13
-3.322367868304332732e-14
1.151855744446429902e-13
-2.066326162493021822e-12
1.038513398148891290e-12
9.126271898994858762e-13
-3.221528009001140054e-15
-3.245049248626752397e-15
-3.186618470109190162e-15
9.653195727737083796e-15
-2.574812079251255780e-13
-2.945218070594161958e-13
-1.714947917538070177e-13
7.234978067383486148e-13
-3.179465735333976443e-14
-4.070272088251418993e-14
-2.022898971558700306e-14
9.272636795144106471e-14
-5.572470212314165637e-15
-6.238779988159305078e-15
-5.534631795075796357e-15
1.734588199554927812e-14
-3.406468745832851163e-14
-3.375025693400803586e-14
-2.842875075712825224e-14
9.624369514946470507e-14
-4.869058118393392643e-13
-4.242250639653852691e-13
-4.739535689634053836e-13
1.385084444768132845e-12
7.107595690435518249e-13
-7.445386242723909407e-13
1.830980641783844905e-13
-1.493190089495420173e-13
-2.851052153556201301e-13
-5.897360308184538568e-13
-2.167956278302178720e-13
1.091636874004281736e-12
1.977613938891717287e-13
-3.033978896456574779e-13
6.358851753571195494e-13
-5.302486796006346080e-13
-2.107896459718552141e-14
-3.414819083300794560e-13
-1.570271797812064781e-13
5.195880527084720488e-13
-1.272763106381342838e-13
-6.264146623356026184e-13
-4.230248153593969723e-13
1.176715788333136727e-12
9.439188378782582902e-14
1.294871239099930098e-12
5.768615726401174555e-13
-1.966124695527878305e-12
7.025330488546083777e-13
6.363267958033052674e-13
1.386833691050837940e-12
-2.725693535708763702e-12
9.594371683253804647e-13
4.617580716032272865e-13
-1.626832538820248879e-14
-1.404926914540407373e-12
1.742277976956042856e-13
-8.485012738074041712e-14
-4.176113757771603040e-14
-4.761653273714809052e-14
1.028819587128076586e-13
4.793784520443735891e-13
-3.304084348991151542e-13
-2.518519758580650459e-13
-3.512570284563357274e-13
6.838809925746715462e-13
-1.452702315224168474e-13
-1.873537325959198550e-13
5.725967466136759981e-14
4.615084178935914123e-13
-3.778504796989327273e-14
-4.809830445850644520e-13
8.833714389750091651e-13
-3.936544597149967714e-13
-4.250375395110838403e-13
-6.467943974892654662e-14
-2.157209296335046093e-12
3.766901210480130288e-12
-7.632364064756697877e-13
-8.464555076694123870e-13
-1.638071852458929489e-13
-3.202728021074628940e-13
6.103292007188014014e-13
-1.262492133654446751e-13
7.969509199686445212e-13
-2.201367394161252602e-13
2.889913960027889977e-13
-8.658055765553088646e-13
1.968241100757442462e-13
-8.564192935475823774e-13
1.074381145798226037e-13
5.521570688920112866e-13
4.508639498725108564e-14
7.734355913321836489e-13
-6.521356320342109308e-13
-1.663863542852180230e-13
6.172610345797882189e-14
-1.847185559792515213e-13
-7.077268471213359937e-14
1.937651372334055667e-13
-8.803703859135685951e-13
-1.481485792567505355e-13
1.069187866463639862e-12
-4.066890129332613971e-14
-4.013897803949209180e-13
-5.425717283136070422e-13
-2.610529564561691368e-13
1.205014465164699016e-12
-1.669014545136088106e-12
1.499038422713416658e-12
-7.009721012496333145e-13
8.709482236723135477e-13
-1.666578535925343922e-14
-1.853287023690625518e-13
-4.881213565695934707e-16
2.024826090848854119e-13
7.751439468743833742e-13
-5.465256543752120158e-13
-1.598379368391846991e-13
-6.878035565998876709e-14
-6.634196973871810730e-14
-7.248717334750376784e-14
-5.378867256823371634e-14
1.926178156544557808e-13
8.618775143004307360e-13
7.524753791126481971e-13
-8.529612864877748522e-13
-7.613916069253109471e-13
-6.509613199390734068e-14
5.937456350521749361e-13
-2.982614025231735327e-13
-2.303881005350921569e-13
-9.974706996146446941e-13
-1.206167172609139739e-12
2.945865312239394050e-12
-7.422274400155843728e-13
1.143606842473016914e-13
-1.238443248436803610e-13
-8.825642058597762660e-14
9.774006118235560204e-14
-2.396050518510381665e-14
-1.955512331594489989e-14
2.600021469648306762e-14
1.751541380456564892e-14
-2.406669641868662696e-13
-2.531616183797392652e-13
8.723163976271350786e-13
-3.784878150605262116e-13
0.000000000000000000e+00
0.000000000000000000e+00
0.000000000000000000e+00
0.000000000000000000e+00
-2.014970032350061826e-12
4.321743989925119073e-12
-4.977951520907457357e-13
-1.808978805484304746e-12
-3.432273930115263622e-12
5.184799752653598775e-12
-1.324542670043724669e-12
-4.279831524945885225e-13
1.671095890643042164e-14
-1.429783916112646933e-13
1.023329216868758462e-13
2.393451101795886412e-14
-2.365089027057576044e-13
-1.867218742837446994e-13
7.681764370846510541e-13
-3.449456600951523854e-13
-2.690138966670810643e-13
-5.571092731018937900e-14
-6.277176697378076040e-14
3.874965909510511974e-13
-2.162227547734409419e-13
1.849186655303096513e-13
-2.170615184108018563e-13
2.483656076539332226e-13
1.350093849397700193e-14
-1.008960762322694321e-13
-6.961458505486282176e-14
1.570097227931552030e-13
-3.892061114024337322e-14
-5.386843314974128024e-14
-4.008796940481543632e-14
1.328770136948001466e-13
1.256179097668388779e-13
5.071372316139698693e-15
2.350017441411562686e-13
-3.656910262241354360e-13
-3.669166173260966705e-14
-2.282898214186173019e-12
1.072207596297268725e-12
1.247382279621509562e-12
-2.800179681112325831e-13
1.423094809822798998e-13
-1.387153718059885979e-13
2.764238589349418366e-13
-2.904957611017400838e-13
-4.125471346934293017e-13
2.501341051708791388e-14
6.780294852780771550e-13
0.000000000000000000e+00
0.000000000000000000e+00
0.000000000000000000e+00
0.000000000000000000e+00
-1.502746080709865543e-13
-1.749792063772200388e-13
-1.377544728114973977e-13
4.630082872597058335e-13
-1.329213964501518551e-13
-1.364403549003763998e-13
-1.102163945819284543e-13
3.795781459324565956e-13
-2.611434763136077691e-13
4.191670193342115202e-13
-2.191955458325771563e-13
6.117200281197312762e-14
-8.850917747366397917e-14
-3.163908378045164215e-13
-1.994621733907098530e-13
6.043621886688892187e-13
-1.495972222527019318e-13
-1.933069581107929177e-13
-3.189200294774236249e-13
6.618242098409185754e-13
-6.793244243269383797e-14
-3.034766939428608102e-13
6.768274574585061802e-14
3.037263906297049894e-13
-8.781696605558412578e-14
-2.653427631188860306e-13
-1.041874097980557559e-13
4.573471389725237918e-13
-6.643186029151334310e-14
-6.554706327941590922e-14
-2.717693095578580511e-14
1.591558545267151332e-13
4.545732751327771529e-13
-5.723639290376326939e-13
5.869582802685587582e-13
-4.691676263637089727e-13
0.000000000000000000e+00
0.000000000000000000e+00
0.000000000000000000e+00
0.000000000000000000e+00
1.183018648031513070e-13
-8.883416633379832154e-13
4.282491049386302023e-13
3.417906935962003430e-13
-3.485688159820640228e-15
-2.908858096470667515e-15
-3.281037385916954799e-15
9.675583642208264120e-15
5.361328114806601830e-14
6.539953987420408601e-14
-6.938053481448353203e-13
5.747925271225642946e-13
-9.108337243288074523e-14
-1.036253597426909893e-13
-3.670870337222102889e-14
2.314174355477925867e-13
-1.334878037908041462e-13
-2.594922662102476340e-13
-1.040489816626750772e-13
4.970290516637246738e-13
1.894356135051665152e-12
1.643481438875607218e-13
-1.548605131026172134e-12
-5.100991479130482869e-13
1.949773798384187483e-14
-1.377656417376965151e-14
-1.602150507919518003e-14
1.030033126912295987e-14
1.010723176372674898e-12
-6.337917105114551291e-13
-5.263953297835860741e-13
1.494638639223727672e-13
3.764541926782683911e-13
-3.813961156488601518e-13
-1.944304127912477707e-13
1.993723357618392033e-13
-1.851020390069918386e-13
-2.948318298946124775e-13
-1.586464285337818959e-14
4.957985117549830169e-13
-3.450071516295170611e-13
-3.550711297338617633e-13
-3.335725750030229993e-13
1.033650856366396826e-12
0.000000000000000000e+00
0.000000000000000000e+00
0.000000000000000000e+00
0.000000000000000000e+00
1.676391888616813752e-13
-4.954360209687665714e-13
-6.756744701064022690e-14
3.953642791177241609e-13
-4.438592150477762382e-15
-2.980299625585182542e-14
-2.529840367554609485e-14
5.953999208187560140e-14
-1.904538479857068914e-15
-1.417141116955900531e-15
-1.688272017943048296e-15
5.009951614756020895e-15
-5.251065095175698853e-13
-4.406322008230725221e-14
4.630436663915899075e-14
5.228653629607225581e-13
-1.019073828689543152e-13
5.504921722449435049e-14
-8.630635006726505977e-14
1.331645157117247341e-13
-1.795913959003377833e-13
-3.353112414848787040e-13
-1.278761463467160112e-13
6.427787837319319179e-13
-2.601275094934518693e-13
-3.353520674638676480e-13
2.394744963471738593e-13
3.560050806101444464e-13
1.644554329812369962e-13
-3.996350789364185282e-13
3.747774173336766254e-13
-1.395977713784942351e-13
-6.218402683275962191e-13
1.305839462553617409e-12
-3.546230949421248594e-13
-3.293760992839037523e-13
-3.227590988363879732e-13
-4.979248063053795103e-13
-2.763193251644454062e-13
1.097003230306214303e-12
-2.267825370054996458e-13
-8.550185629636406949e-13
-4.028805119037346899e-13
1.484681611872885633e-12
-1.498168229255208621e-14
-1.476000331553848772e-14
-1.516454658719995921e-14
4.490623219529063095e-14
-8.928996342434137379e-14
-2.194568019457165637e-13
-1.001696737156647923e-13
4.089164390857216948e-13
0.000000000000000000e+00
0.000000000000000000e+00
0.000000000000000000e+00
0.000000000000000000e+00
-5.069542464188872421e-13
9.253894604951896029e-14
-7.844746404988417710e-13
1.198889940868209295e-12
0.000000000000000000e+00
0.000000000000000000e+00
0.000000000000000000e+00
0.000000000000000000e+00
4.947960939673668625e-14
-8.856934054813386624e-14
7.029182123040024728e-14
-3.120209007900325031e-14
-8.699215682577921086e-14
-8.461298640001894272e-14
-4.306281625954273458e-14
2.146679594853400488e-13
-5.818757742955523709e-15
-5.413932755856380589e-15
-5.828693842793210284e-15
1.706138434160510669e-14
-1.181752208895633640e-13
-1.209874835209336691e-12
-4.390869126829688376e-14
1.371958747367190767e-12
-1.253457335424376419e-13
-2.185249010621280664e-13
-7.306254661987314384e-14
4.169331812244383725e-13
-1.788626103001873020e-14
-6.270765037080912870e-14
-6.272425771453009544e-14
1.433181691153577524e-13
-7.772754360893701249e-14
-1.810913778572487965e-13
4.223851754707109390e-14
2.165804039191156302e-13
-1.068574990657649312e-12
2.405452306796514386e-13
-7.937840150741581673e-13
1.621813775052155890e-12
-1.239137877277461168e-12
3.022073652017373105e-12
-2.299821994757785815e-12
5.168862200178750891e-13
-3.579581688455288716e-14
-1.927969914872502139e-13
-7.400404938752878759e-14
3.025968577593300648e-13
-4.554273715520025373e-13
7.840211097527365501e-13
-7.902865439699073412e-13
4.616928057691687846e-13
-4.617068573549047981e-14
8.993398983013690628e-14
-4.164354624766545479e-14
-2.119757846980980355e-15
-2.593114297654546036e-13
-1.495586377441589549e-13
-1.275306473031526611e-13
5.364007148127650079e-13
0.000000000000000000e+00
0.000000000000000000e+00
0.000000000000000000e+00
0.000000000000000000e+00
-1.348683374496307232e-13
-1.666185592563808686e-13
-1.313226581663254057e-13
4.328095548723382092e-13
-2.084321340688245001e-13
8.201936042264862767e-14
-2.382706082010027635e-13
3.646833818471764396e-13
-5.078287795138624962e-14
-7.654059662966970981e-14
-6.586726446516985805e-14
1.931907390462264990e-13
-4.074153727013519162e-13
-1.141739932791003151e-13
-3.570019854092864410e-13
8.785913513897359964e-13
-5.249857806530827260e-15
7.297045849304606485e-14
-6.143626813719480533e-14
-6.284332549320470912e-15
-2.012063994972460959e-13
2.079798170615818040e-13
-1.083194104417943602e-13
1.015459928774597881e-13
-8.557755814954204267e-16
-8.013969751371085794e-16
-7.829187076486927328e-16
2.440091264281220654e-15
-8.866077568930318640e-13
1.857779646786664628e-12
-1.654809872714701737e-12
6.836379828210754354e-13
2.228459487749845386e-12
-8.764744883208014323e-13
-7.717447087461828859e-13
-5.802402906828587449e-13
-8.014888696266762489e-13
-5.122152486157060726e-13
3.359027291629589677e-13
9.778013890794197188e-13
1.452972704385281646e-14
-1.408798463518931556e-12
6.873397256074624994e-13
7.069290108676117023e-13
0.000000000000000000e+00
0.000000000000000000e+00
0.000000000000000000e+00
0.000000000000000000e+00
-3.207537474287782184e-12
7.939776268447524110e-12
-2.859673207442420136e-12
-1.872565586717281400e-12
0.000000000000000000e+00
0.000000000000000000e+00
0.000000000000000000e+00
0.000000000000000000e+00
2.310084419233071775e-13
-1.052850837406319757e-13
3.938596434395461977e-13
-5.195830016222200364e-13
-2.896422533900019847e-13
6.856593202832861355e-13
2.901088701999700818e-13
-6.861259370932524152e-13
-3.035822935794321833e-14
-3.593872085186003718e-14
-4.023913643777476063e-14
1.065360866475781045e-13
-1.592228699568295204e-13
1.402944766847998150e-12
6.441246216652609726e-13
-1.887846518556424882e-12
-1.483299199125312738e-12
2.905911692472606197e-12
-7.451917442209998672e-13
-6.774207491262998526e-13
6.439262334406407825e-12
-5.985472249198350942e-12
-7.559334132248338360e-12
7.105544047040191812e-12
-6.318840165178132393e-12
-6.509483008076408901e-12
-9.467466729288724252e-12
2.229578990254304017e-11
-1.930363201323058926e-13
8.841440374891602587e-14
-1.247288317007851828e-13
2.293507480841747845e-13
-6.926372749304950254e-13
-1.858238534021270457e-12
3.718357008026629677e-13
2.179040108149104736e-12
7.642909131118493931e-12
-3.048420735140219079e-13
4.839306642129332841e-12
-1.217737369973369586e-11
-1.523559083861321041e-12
2.733533478913523908e-12
-1.805927657536213568e-12
5.959532624839964637e-13
-8.553442718196173810e-13
2.253919920038715796e-12
-7.490269329960697619e-13
-6.495487152230126988e-13
-6.707602199003610336e-13
1.012408637150714450e-12
-2.169584285398926642e-13
-1.246899887104574703e-13
-5.081800348039593677e-13
1.244094260957839120e-12
-4.463493120334582886e-13
-2.895649141204188386e-13
-1.314466804411692392e-12
4.198132941526068265e-13
-7.046155854363708286e-13
1.599269095695458717e-12
-1.511502047393828230e-13
-1.233669428731321477e-12
4.422171570600765754e-13
9.426024764106142189e-13
-7.747089670880014383e-13
3.580375672173406176e-13
5.141338656431471445e-13
-9.746246577248980734e-14
1.025069258532732419e-11
-2.175657089070511017e-12
-3.439683203016239353e-12
-4.635352293240583107e-12
-5.183097510179999282e-12
-2.395350399556811042e-12
7.896574514927304483e-12
-3.181266051904208015e-13
5.069081272944204524e-12
-3.378034224150626381e-12
1.874396614340377740e-12
-3.565443663133975673e-12
1.334867451546087088e-12
-3.477663197993105319e-12
2.088313997272446955e-13
1.933964346719797164e-12
8.273866227974376901e-13
-9.119972061719598251e-13
1.771656008314749703e-13
-9.255501745695416052e-14
-4.372063526382817245e-12
-3.815342170191139284e-12
-1.422040674122400804e-12
9.609446370696488599e-12
-3.116703092390364284e-13
-3.384450782131387327e-13
2.995310943338576021e-13
3.505842931183187707e-13
-5.608035040500103671e-13
-7.503809125419509425e-13
-6.116266546366599240e-13
1.922811071228621234e-12
-5.520013267911089914e-13
-6.168753243427429245e-13
-2.952640664370504071e-13
1.464140717570909442e-12
-2.383292485715944143e-13
-4.164099019249098524e-13
-1.485331807087289519e-13
8.032723312052298611e-13
3.712942259653980719e-13
-3.897684996419919563e-13
-4.514329781530055376e-14
6.361757149189705723e-14
-6.462025805624651239e-14
-4.730608506828380921e-13
-8.031085362275593444e-14
6.179919623618388224e-13
-3.960624775900507236e-13
-3.494392877012256347e-13
-2.129186861241657344e-13
9.584204514154481258e-13
-1.469575085334877240e-12
6.009273412858363531e-13
-5.709491484999078780e-13
1.439596892548958458e-12
-2.313239929671321668e-13
-2.636051202163270109e-13
1.699923794690807490e-13
3.249367337143763335e-13
-3.085018053153595996e-13
4.750188046012105406e-14
-2.615145189695693954e-13
5.225144438248082502e-13
-5.994162008165462244e-13
-6.170790706492885761e-13
-3.397171331675479931e-13
1.556212404633385217e-12
-1.283677736701266995e-12
2.571204214811294697e-12
-1.151260471201286285e-12
-1.362660069087377569e-13
-1.553871649581053886e-12
3.424298661511025298e-13
-1.396123119576389475e-12
2.607564903006357492e-12
-7.606083488307404042e-13
1.828731176326006818e-13
-5.770011275937588118e-13
1.154736358791895025e-12
4.085165955893877176e-13
7.812510676301840905e-13
-1.407669859004376252e-12
2.179021957847956087e-13
-4.473423992255711976e-13
-4.456383483404525525e-13
-7.358310420525670730e-14
9.665638517712736669e-13
-5.947249730116356821e-13
-5.361479498663955086e-13
-4.666775705540466572e-14
1.177540679933421531e-12
-1.404465398703249888e-13
-2.469259975216876223e-13
2.460456846597203525e-13
1.413268527322914760e-13
-1.090313753027101954e-12
4.296382216821193520e-13
-7.246427853398729861e-13
1.385318316684843674e-12
-3.059480927663514741e-13
-3.564733389304580167e-13
-2.918989889133974839e-13
9.543204206102096000e-13
-3.794485235198527564e-13
-3.034897436959064631e-13
-2.617736962320690906e-13
9.447119634478205856e-13
-3.672577144354466378e-14
-1.244041390184970573e-13
-2.187616144398746908e-13
3.798915249019168284e-13
-1.147799292733968169e-12
-8.575177492046542078e-13
-9.443803068068123439e-13
2.949697348745404833e-12
-4.727555564793252796e-13
-4.360973371261014461e-13
-3.874920877585227102e-13
1.296344981363958423e-12
2.282414185190828142e-12
-2.801766342104448769e-12
-1.058340852796129972e-12
1.577693009709742925e-12
1.767245116992335384e-13
-2.840307549746352558e-13
-1.687589320122537945e-13
2.760651752876538711e-13
-1.175690719717841931e-12
8.538225297379844596e-13
-1.126799796589005725e-12
1.448667986568861177e-12
-1.045843601460428339e-12
3.579821059268513818e-13
-9.693451012029079209e-13
1.657206596736496238e-12
1.439840027389795084e-15
4.406566342631446212e-12
-3.243739737162937956e-12
-1.164266445495841638e-12
-3.849726411756148993e-13
-4.453436688015928624e-13
-3.051193837349036853e-13
1.135435693712112255e-12
-5.590291341964234966e-13
-2.916484469897028357e-13
-3.697467188927221173e-13
1.220424300078850570e-12
-1.203245066269666025e-14
-1.235480878673524249e-13
-7.084999673392712759e-14
2.064305352639767350e-13
-2.648381534437582441e-12
1.608814226198448497e-12
-1.207678256490990229e-12
2.247245564730103978e-12
-3.105020773952537792e-12
-6.264642448027184793e-12
-3.773222534104936334e-12
1.314288575608459147e-11
1.910254217820963808e-07
-2.824619670552238394e-07
-2.279143979487437067e-07
3.193509432218740771e-07
1.648191773329392878e-11
-1.508421814720813120e-11
-4.940265119409002476e-11
4.800495160800438551e-11
-2.089378086168549160e-11
1.924463434031841340e-12
3.203004719821706997e-11
-1.306072977056359460e-11
-1.396662673232799866e-12
2.045854928499861178e-12
8.788111772127882719e-12
-9.437304027394948474e-12
6.918250128085266234e-11
-4.322177869044078710e-11
-1.303827105530122644e-10
1.044219879626004603e-10
8.630428817398638038e-12
-9.722503017226497039e-12
-1.095699193381108875e-11
1.204906613363898653e-11
-6.155710940232802762e-12
4.214260229490490902e-12
4.138353119749777840e-12
-2.196902409007497080e-12
-7.401070639350954654e-14
6.840495874755451479e-14
-1.292218596043028200e-14
1.852793360638526168e-14
8.730971235191995066e-15
-1.918049376043528918e-13
-1.051041987432007681e-13
2.881781651123607135e-13
-1.747468252629648591e-12
-1.157066467725602058e-12
-5.620772218700698095e-13
3.466611942225296932e-12
-1.474085542913770039e-14
1.012201276268010529e-14
-2.931081989441955151e-14
3.392966256087728071e-14
3.660682970581750678e-13
-2.261705521374418458e-13
-3.887058677091456372e-14
-1.010271581498187404e-13
-7.162332700879352003e-15
-6.597318387037455726e-15
4.311782188315090556e-15
9.447868899601720329e-15
-3.605337740824449959e-13
-6.972510646801259770e-13
-8.833770036677205558e-13
1.941161842430318388e-12
-1.427605457527383067e-14
5.735987990463446232e-15
-1.024334760152029692e-13
1.109735426000138010e-13
6.035203393451023604e-15
-1.928935676483629294e-14
1.187269488607214950e-15
1.206688388277804492e-14
-1.007874376467279554e-11
1.069549425622188952e-12
3.409506873266607476e-13
8.668243651723891163e-12
-1.404115387227810971e-12
-1.242374603766574912e-12
-3.049508570607258148e-12
5.695998561601603844e-12
-4.808336288795534264e-14
-5.531233912135496165e-14
-4.470594558476427242e-14
1.481016475940743684e-13
-1.993510451964494241e-13
1.232488312145322197e-13
-2.276474543601244805e-13
3.037496683420423916e-13
-1.295242394279167654e-13
6.895495761588501066e-14
-1.558863684413817147e-13
2.164556502534135325e-13
6.304850315494801064e-13
-7.372063696720458393e-13
-5.947026231682192177e-13
7.014239612907776805e-13
1.972137011998337181e-12
-6.798518440822209878e-13
-9.388732092459488706e-13
-3.534119586701402107e-13
4.541819991348554832e-14
-5.454807125243148100e-14
2.172403543553206254e-14
-1.259416409658621190e-14
2.079845662231756029e-14
-3.069168513609635263e-14
-4.003910996811991719e-14
4.993233848189838767e-14
1.110925365759092993e-13
-1.524501972084160215e-13
-1.882024783415846772e-14
6.017790846666392140e-14
2.334221607651165139e-13
-3.728951555600150340e-13
-2.334329941419656295e-13
3.729059889368641496e-13
5.871818483549567603e-13
-1.269335946417300231e-12
-4.935472220793061837e-12
5.617626318855382992e-12
3.161304342626003492e-15
-3.244690742738404868e-14
1.389337691263871993e-14
1.539222617211932802e-14
3.501493630373959042e-14
-1.642119345862120875e-13
6.414816840462527286e-14
6.504882987784705382e-14
3.019123522264284532e-14
-1.000997943076353278e-13
-6.498524414152445526e-14
1.348938032265173038e-13
1.185968860753757905e-12
-5.121694407600952022e-13
-2.779919643529313049e-13
-3.958074556407332662e-13
-6.987133179597345496e-14
-3.958996546836010954e-14
1.663960632319781855e-14
9.282169094113590056e-14
-9.046199906347017080e-14
2.303886396446049934e-13
-9.226218747070061117e-14
-4.766445311043387065e-14
1.512922483540367201e-14
8.650372138459394051e-14
-6.378846828410527322e-14
-3.784447793589225410e-14
-1.610675345232334549e-15
-1.670919118937296783e-15
-1.604369218943721183e-15
4.885963683113353500e-15
6.637305955344858934e-15
-1.164565946002692549e-14
-1.142144625897250091e-14
1.642979976365457850e-14
2.727053129723975594e-14
-8.991331549652316010e-14
1.567241341671551330e-14
4.697037078256797606e-14
-3.673010838562351436e-15
-2.045831489891298599e-15
2.025423870333779057e-15
3.693418458119870977e-15
-4.706272312289085121e-13
7.131812892644141700e-14
-3.688224248788378049e-13
7.681315271813112740e-13
-3.862708638240324833e-14
6.376917798215899450e-14
-1.011062191104420636e-14
-1.503146968871144830e-14
1.289180974343461359e-13
-1.062826495294374448e-13
-1.478111052064985099e-14
-7.854337384258889066e-15
2.958099279047836345e-14
-1.608580232333415640e-13
1.399139467367101342e-14
1.172856357691918968e-13
5.123485436682702619e-15
-4.064481472282002490e-15
1.423793447143373122e-15
-2.482797411544072265e-15
5.173787227177582370e-13
-3.329862767192332567e-13
1.004780927965061863e-15
-1.853972269264853311e-13
-1.446554949663916942e-13
-7.010136831406901828e-13
-1.909901594986610208e-13
1.036659337605748022e-12
-2.217247014120710424e-15
-2.468634185326574292e-15
3.366566852693979289e-15
1.319314346753304441e-15
-6.482093276276504244e-13
-4.797844480558578228e-13
5.052152794420556541e-13
6.227784962414590555e-13
2.332561927724756070e-13
-4.838970140228510870e-14
1.477541078516555653e-14
-1.996419021553546002e-13
2.090715479070446555e-13
-3.499247686293069080e-14
-2.020414646436923277e-13
2.796239359957948006e-14
3.493332812411847510e-14
-3.898461800894698584e-14
-2.795564544954035818e-15
6.846854429782534329e-15
-1.364798872986832310e-14
-4.356795390871052951e-14
7.077563316376574870e-15
5.013837932220224382e-14
5.357123407262315129e-14
-2.973519764157390249e-13
-4.188363843361812969e-14
2.856643807767326528e-13
-3.525851102082024805e-13
-2.608280175050201512e-13
-5.702939012430022628e-13
1.183707028956225046e-12
3.527649317411851742e-14
-8.335187544920811094e-14
-2.256631415095203018e-14
7.064169642604176254e-14
1.175780184613976911e-12
-1.164742786421826351e-12
-6.553995191804609125e-13
6.443621209883227719e-13
6.946545450489191019e-13
-8.058802874163946377e-13
-3.363765830017361675e-13
4.476023253692081187e-13
-3.093774616779127049e-14
-1.466893308568157928e-13
6.070118595753283804e-14
1.169258910670750646e-13
2.595872962366315977e-14
-4.786376712449169280e-14
2.022522696126861499e-14
1.679810539559853161e-15
-2.145100021478517177e-13
3.617413917893315229e-14
-1.466816891246656246e-13
3.250175520935831361e-13
-8.694730144827936770e-15
-1.535850600993117675e-13
1.328069207748708200e-13
2.947286946926896784e-14
1.432682365336171656e-13
-4.083648907137531473e-14
-1.198881618395661617e-13
1.745641437732328529e-14
-2.031616258224155013e-14
1.111982032067638738e-13
-2.619988754938172849e-13
1.711168348692955450e-13
7.506302851147367731e-14
-8.313415915632938336e-14
-1.052965916494454560e-14
1.860078980980039206e-14
2.178322832449336342e-15
-3.373765104702908206e-14
-4.836254610477136606e-15
3.639558282505689337e-14
-8.424659328691805963e-14
-5.665828332647721218e-14
-6.721975031308424941e-14
2.081246269264793066e-13
-1.614784722153467130e-15
-4.131213107559690427e-14
-1.062557831621502693e-14
5.355249411396551883e-14
1.243627669990846438e-13
-9.164339281488652102e-14
-9.890305093146897724e-14
6.618367674727122053e-14
-1.693763621069319371e-14
-3.181279468462142558e-14
4.321591052076929290e-14
5.534520374545417110e-15
-2.500027011170943422e-14
1.175056620204384466e-13
-8.749595345686858738e-14
-5.009438451860217524e-15
-8.296389974646364409e-16
-6.892778939818213858e-16
-8.452692571968950500e-16
2.364186148643352680e-15
-3.429552689259457490e-14
6.457360410421480255e-14
-1.729404710662418965e-14
-1.298403010499602381e-14
1.739492526647282667e-14
2.876241096427917611e-14
-2.068844994068260406e-14
-2.546888629006943027e-14
1.215725229062026838e-15
-5.895218159372189378e-14
-6.440398221591056533e-15
6.417685458625093925e-14
-8.896120326396558943e-15
-3.770757962013099641e-14
2.025447421086709971e-14
2.634922573566040988e-14
-1.397441127077938864e-14
-1.261577323321733167e-13
7.695340822136010798e-14
6.317873538159303126e-14
1.219423485247882270e-14
-4.771616407322583718e-14
3.191029772967983753e-14
3.611631491067225864e-15
2.979647014698487537e-14
-6.673209731509543511e-14
1.694431846850646096e-14
1.999130869960403883e-14
-1.086813806949731365e-14
1.463440935905258492e-13
-1.531496537343628743e-13
1.767369821333384644e-14
-4.487823927377814858e-14
1.065208830135427243e-14
2.104153844194428518e-14
1.318461253047948368e-14
-3.542413469549685295e-14
8.698444632859061312e-14
-4.322946493011889324e-14
-8.330846702974881125e-15
3.085418877867008382e-14
4.401399125729431842e-14
-1.438970551959780883e-14
-6.047847451636659657e-14
7.813143366628657901e-14
-8.942599818593584538e-14
-8.759715785982170883e-14
9.889172237947053343e-14
-4.619584290816635437e-13
-1.195428102935039923e-13
4.695047768981879563e-13
1.119964624769770049e-13
-8.323788798506800742e-14
-3.841385980954374065e-13
-2.085179217956578725e-15
4.694616652984601065e-13
-2.076684932923792408e-13
3.265277666510439858e-13
-1.966914606127781470e-13
7.783218725411450007e-14
6.592581003799075852e-14
-1.847524742400491029e-13
-2.051868828119770294e-13
3.240135470140338214e-13
3.983417608662561579e-14
-3.064825427961227492e-13
-2.710144065096259050e-13
5.376627732191267302e-13
1.820492524735671549e-14
-1.192708430530288321e-13
3.221162732141897742e-14
6.885429048425348948e-14
-2.291086435876577910e-14
1.767046336641564539e-14
-2.076089247103258101e-14
2.600129346338272735e-14
3.133695085678874799e-14
-1.676195047001462996e-13
1.540061035217443033e-14
1.208819434911835441e-13
-4.244495308102054822e-13
-4.083371469351466164e-13
2.553941058816787813e-13
5.773925718636716008e-13
-2.169172758738474623e-14
-1.335667880566997151e-13
6.278893438979878453e-14
9.246958125428610913e-14
-2.448699993482680059e-13
-3.967115370847496395e-13
3.520091146146685297e-13
2.895724218183502769e-13
1.926937490539616808e-13
-3.037799627001107852e-13
6.480682856459107605e-14
4.627938508155653903e-14
-1.396017344519891362e-13
-2.490954934076636422e-13
-1.655114908079144738e-13
5.542087186675646521e-13
6.855447347544846628e-14
-1.429280848955518506e-13
9.655151096459853089e-15
6.471846032364342709e-14
-6.640543629868846748e-14
1.799225029233780182e-13
-6.098650000590187833e-14
-5.253056661878747679e-14
-3.633491377835125260e-14
-1.335119696158239211e-14
-7.528959119979674341e-15
5.721506985991339794e-14
2.963726073772584553e-15
-1.411737315000043354e-13
-3.966902461565162692e-14
1.778790300418833703e-13
2.257293957047115862e-15
-7.721272254527407359e-15
4.340770318998899687e-15
1.123207978481393781e-15
-2.940840731074783683e-15
-1.294328551565026648e-14
9.590809671856641924e-15
6.293316574868398378e-15
1.179228433648604908e-14
-6.864009257158053548e-14
4.724619288060215778e-14
9.601615354492227649e-15
-1.537597526201325339e-15
-6.986074307932086091e-16
3.546373739214016657e-15
-1.310168782219482413e-15
0.000000000000000000e+00
0.000000000000000000e+00
0.000000000000000000e+00
0.000000000000000000e+00
-2.866163334290819614e-14
5.578887565364905621e-14
-1.282745447156357260e-14
-1.429978783917724015e-14
1.050497354616243322e-13
-1.029048872024013803e-13
2.843318749371395449e-14
-3.057803575293686857e-14
0.000000000000000000e+00
0.000000000000000000e+00
0.000000000000000000e+00
0.000000000000000000e+00
1.202076796326656935e-12
-7.323490714315099963e-13
-4.258428637548873310e-13
-4.388486114025647793e-14
-7.957896833493987356e-14
1.939456481268358306e-13
-5.931748409416951178e-14
-5.504919569772647054e-14
4.002821394658020174e-14
-3.634044861527462628e-14
-1.155909982088541714e-14
7.871334489579975776e-15
-1.744546875201601885e-13
-1.157724783790032526e-13
6.313887522925705324e-13
-3.411615863934079748e-13
-3.847596127087294747e-15
-3.446440638808801034e-15
7.165027590487026978e-15
1.290091754090736591e-16
2.623217148611280048e-13
-3.527361161632234618e-13
2.615118871590625828e-14
6.426321258618982664e-14
-5.728164947776599753e-15
-1.266402151301821492e-14
-4.222627018635348228e-15
2.261481347943014475e-14
-3.443079176257322089e-14
-9.856755987715295114e-14
6.351576982445708768e-14
6.948258181526929892e-14
6.932186386507878630e-15
-3.056830074066363398e-15
-2.336389560581322810e-15
-1.538966751860193408e-15
6.169428069686697521e-14
3.439776438301908966e-14
-6.331601976410976235e-14
-3.277602531577627097e-14
-3.639567454258127987e-14
-3.498876737256639137e-15
9.606091136443132492e-14
-5.616636008459333609e-14
-8.545271262264490786e-16
-7.463326626853471635e-16
-9.536974496029917091e-16
2.554557238514789036e-15
1.325760011238345161e-14
-4.932431250951981696e-15
-4.605096175160271021e-15
-3.720072686271194158e-15
1.068125374086219172e-14
-5.343582674176266177e-15
-2.510001481525944029e-15
-2.827669585159970865e-15
9.310261411692241230e-15
-7.269188087112090314e-15
-8.127416452099698929e-15
6.086343127519553535e-15
1.041340789134225641e-14
-2.258956974324099402e-14
-9.720157960603974128e-15
2.189631981250271647e-14
-1.988795041726669240e-14
7.403629751918866297e-14
-3.196049185031915583e-14
-2.218785525160278635e-14
0.000000000000000000e+00
0.000000000000000000e+00
0.000000000000000000e+00
0.000000000000000000e+00
3.215129239131993057e-15
-1.478140475501914868e-14
1.362459067496162572e-14
-2.058315159074467336e-15
0.000000000000000000e+00
0.000000000000000000e+00
0.000000000000000000e+00
0.000000000000000000e+00
3.221423343225186876e-14
-2.042316022400345203e-14
-1.096758086901044624e-14
-8.234923392379293721e-16
-7.891679347907107050e-16
-8.650989391464570260e-16
-7.970932055289002898e-16
2.451360079466067035e-15
1.959062466240713605e-15
-7.134385447452289676e-15
3.663916454535837825e-15
1.511406526675741204e-15
0.000000000000000000e+00
0.000000000000000000e+00
0.000000000000000000e+00
0.000000000000000000e+00
2.340966814538266731e-14
-1.558071956184666477e-14
-9.337561930341165246e-16
-6.895192390501896475e-15
-2.137045013172498396e-14
4.952145912408475571e-14
-2.788691444352088360e-14
-2.640945488389163952e-16
-1.186014309598036323e-13
-1.879567914749463850e-13
4.422856641286611686e-14
2.623296560218848093e-13
0.000000000000000000e+00
0.000000000000000000e+00
0.000000000000000000e+00
0.000000000000000000e+00
-9.803919086561955964e-15
-1.701760311412399807e-14
2.001820032432148269e-14
6.803321876364465824e-15
-3.438466169699300362e-15
-1.428494407406533927e-14
8.956018103455989646e-15
8.767392140308647619e-15
2.757226502955534155e-14
-1.906386152250978739e-13
-1.497859679770151729e-13
3.128523181725593714e-13
0.000000000000000000e+00
0.000000000000000000e+00
0.000000000000000000e+00
0.000000000000000000e+00
0.000000000000000000e+00
0.000000000000000000e+00
0.000000000000000000e+00
0.000000000000000000e+00
5.001784795860886785e-15
-3.971360528440750759e-15
1.700249411491219540e-15
-2.730673678911353003e-15
-3.116092082340689279e-14
9.782395133568000057e-14
-3.400446849844194331e-14
-3.265856201383118340e-14
0.000000000000000000e+00
0.000000000000000000e+00
0.000000000000000000e+00
0.000000000000000000e+00
-9.805120899427382139e-16
-6.675342492850794673e-16
-8.080923729367759628e-16
2.456138712164593250e-15
-4.933096062033840743e-15
-2.214477448980933656e-14
1.104604245672405814e-14
1.603182809511910732e-14
1.701217806407883433e-14
-3.359359817248795306e-14
1.646843074701415982e-14
1.129893613949316501e-16
7.848079759532344838e-14
1.409010426365106721e-13
-3.150689898286394003e-13
9.568714959680266717e-14
9.998203383646350395e-13
-4.263036584982690807e-13
-1.404737623398994623e-13
-4.330429175264649314e-13
-1.053395337679094896e-13
-3.320027180861962581e-14
-1.626018182470686073e-13
3.011416238235980572e-13
-3.220763936133064249e-14
-1.422439493448791556e-13
5.731241749473016402e-14
1.171391712114801011e-13
-3.560895615623083305e-13
6.554771903192720906e-13
-3.137798048673120613e-13
1.439217611035169017e-14
-2.040141772633177363e-14
-6.351980424028024212e-14
2.897090877247634232e-14
5.495031319413567974e-14
1.633894209376731808e-14
-9.832243640516100350e-15
-1.111421342354258162e-14
4.607514970291364684e-15
1.990639682175061722e-14
-4.352507971914238916e-14
-1.497237305027710653e-14
3.859105594766888794e-14
-8.623680955196963348e-16
-7.052914856974449397e-16
-8.216749369547761196e-16
2.389334518171917887e-15
-5.642021283085396606e-15
-5.330679825358210010e-15
-5.823217147081253609e-16
1.155502282315173760e-14
-3.449334992957549927e-14
-5.390710636755493775e-14
6.525546163098576615e-15
8.187491013403185567e-14
3.550301607586449444e-14
-6.992037418975674436e-14
4.194264355730456292e-14
-7.525285443412278279e-15
-1.956382293472415065e-15
-1.341099349577856231e-15
-1.685693856375504891e-15
4.983175499425776186e-15
0.000000000000000000e+00
0.000000000000000000e+00
0.000000000000000000e+00
0.000000000000000000e+00
2.630867471085330525e-14
-4.936182246646489877e-14
2.250818350637650055e-14
5.449642492350567740e-16
3.208282869445628883e-14
-6.775256798667731941e-14
2.908349451285530213e-14
6.586244779365752910e-15
2.201919381867238226e-14
3.685742545528096452e-14
-2.602021973067637788e-14
-3.285639954327695313e-14
1.116756925228244940e-14
-5.501328257156856270e-14
2.847720142685569775e-14
1.536851189243040135e-14
-1.833291847743762279e-14
-6.278282998928098980e-14
2.217629409474298491e-14
5.893945437197539101e-14
-4.163311124393181208e-14
8.083232852234095897e-14
-2.671120328687057621e-15
-3.652809694972210662e-14
-7.182776155946281804e-14
1.694656161059618320e-13
-5.321979846853723041e-14
-4.441805607796201070e-14
3.749826259545363996e-15
-1.723593505610060127e-14
8.370479771473431568e-15
5.115629025081834103e-15
0.000000000000000000e+00
0.000000000000000000e+00
0.000000000000000000e+00
0.000000000000000000e+00
1.011675097862026459e-13
-1.459881868975458975e-13
3.508808037677656952e-14
9.732596734567057573e-15
1.452440430617705533e-14
-7.466682320836764612e-14
-3.590921712069979762e-15
6.373334061426036624e-14
-6.551543987162303269e-15
-2.872100597780997224e-14
5.788973077961698704e-14
-2.261718081464475965e-14
-4.236678426768119337e-13
-9.432864405549969907e-13
-1.335183685423907404e-12
2.702137968655723093e-12
7.137143572793492145e-15
-2.190390801773685287e-14
1.450829937620335723e-14
2.584650687399881596e-16
1.614977886822935092e-14
-9.630645245022787509e-15
-4.442291263759149030e-15
-2.076842359447420694e-15
3.551966230557454375e-15
-3.727466066834246480e-15
7.006691224483820349e-16
-5.251692861715908178e-16
0.000000000000000000e+00
0.000000000000000000e+00
0.000000000000000000e+00
0.000000000000000000e+00
-1.991375539863718877e-14
2.087578281148418072e-14
2.366364773866581993e-15
-3.328392186713614969e-15
-2.340135472947785677e-14
4.856834671679513211e-14
-2.525992121959916975e-14
9.292923228185529894e-17
7.920947389061849470e-15
-2.264190048483726084e-14
-1.068581264451583534e-14
2.540676574029121042e-14
5.132616427406378086e-14
-3.654611085605120448e-14
-6.772107894409700014e-15
-8.007945523602869265e-15
0.000000000000000000e+00
0.000000000000000000e+00
0.000000000000000000e+00
0.000000000000000000e+00
-4.173753439905716883e-14
-9.659492746356070728e-13
-8.630124732627389501e-13
1.870699282297396736e-12
7.969944607647956237e-14
-5.594076726149601173e-14
-2.439325299698096815e-14
6.345741819971861838e-16
-1.640917566184883536e-13
2.166456162031791636e-13
-1.256537775985312306e-13
7.309991801384020602e-14
1.894049215512372480e-14
-5.897532205073281987e-14
-8.126489398551118887e-14
1.212997238811208298e-13
-1.207755552578991430e-13
-5.948816109656167764e-14
-5.560618844695972289e-14
2.358699048014211367e-13
2.760867761963373191e-14
-2.505625331109682045e-13
-2.467368068471376563e-13
4.696906623384736687e-13
-7.891157939467852472e-13
-2.371548497158017916e-14
-5.896344171708531498e-13
1.402465696089215395e-12
-1.506462241448253820e-14
-1.560244650177764123e-15
4.396717424824002303e-14
-2.734230718357978263e-14
-3.266977157935336124e-13
1.971830017990539803e-13
-5.878851639638428135e-15
1.353935656341204237e-13
2.242028593052304441e-14
-4.509339908353578858e-14
-7.983653668469016227e-15
3.065676682148177460e-14
-8.617256701429702365e-14
2.778493115064073791e-13
-1.650482509711224216e-13
-2.662849352098774762e-14
-1.302163788623013643e-13
2.876930044616585657e-13
-6.371430098532081570e-14
-9.376232461403694107e-14
4.278455558825068870e-14
-9.764357050759448254e-14
4.276954677488289907e-14
1.208946814446110144e-14
2.190690476369599339e-14
4.533051025749771489e-14
-9.188765906224539677e-15
-5.804864911496913073e-14
2.251013542996504973e-14
-2.972528141788723234e-14
8.578818858228184727e-15
-1.363672870306062851e-15
0.000000000000000000e+00
0.000000000000000000e+00
0.000000000000000000e+00
0.000000000000000000e+00
-2.462987497084332100e-14
7.116656002282041013e-14
-1.403235709771301614e-14
-3.250432795426410139e-14
3.107433421360869730e-15
4.863231168202162852e-15
-3.916988125306659851e-14
3.119921666350358486e-14
-2.860174594395673038e-15
-9.529870857451636340e-15
5.598818791375004231e-15
6.791226660472301598e-15
-1.839059820245136063e-14
1.118749859028693166e-13
-3.835059321829705683e-14
-5.513379448212087391e-14
-6.327198779840877454e-15
1.050612042866006834e-13
-1.173039399156395051e-13
1.856993440887927871e-14
-2.818514147931239257e-15
-2.469807906116907309e-14
1.288386380789356426e-14
1.463272940120676859e-14
1.071761228172110088e-13
1.418860181344644202e-13
-1.611213374504611141e-13
-8.794080350121398676e-14
2.566523008079191214e-14
-2.426053367101835862e-14
-1.175633445147212396e-14
1.035163804169856729e-14
-2.456590168229782478e-14
5.684488102974478837e-14
-2.490526230558437703e-14
-7.373717041862566052e-15
2.976332607506651589e-15
-1.206658321616694926e-14
7.737457551800684427e-15
1.352793056859615812e-15
-3.189747088245823203e-14
3.931179803792086862e-14
-3.516452249106627810e-14
2.775019533560360365e-14
6.429406868323847532e-15
-1.334261258837006626e-14
6.011410961976018687e-15
9.017947580701974756e-16
0.000000000000000000e+00
0.000000000000000000e+00
0.000000000000000000e+00
0.000000000000000000e+00
7.098800782410606950e-14
-1.042479625650908775e-13
-7.910502099320780379e-15
4.117045684030546215e-14
7.802361158259351104e-14
-5.327984656154144408e-14
-2.153086036324252805e-14
-3.212904657809714832e-15
-4.455644344663292360e-14
9.715870583849752189e-14
-2.728667964171723773e-14
-2.531558275014728798e-14
4.682449697950148809e-14
-4.534596174074617903e-15
-2.365430338946171863e-13
1.942531330891890586e-13
-2.327553419969556813e-13
3.274813013125679920e-13
-2.583363050863278538e-13
1.636103457707172850e-13
-1.826848017698921178e-13
-6.638172550222510408e-14
-3.154114442490983263e-13
5.644779715212169871e-13
1.097008612862316462e-13
-1.716962950798862221e-13
3.696182249622552569e-14
2.503361129742877247e-14
5.648303596088460220e-14
-1.081134847005955585e-13
-3.010589060398423115e-13
3.526893547795501123e-13
-8.936492013582076383e-16
-6.952940374666704950e-16
-8.483467448673823885e-16
2.437289983692261311e-15
-3.679272311410659122e-15
-1.129815332357224083e-14
-1.246086477665231278e-14
2.743829041163518986e-14
-8.960714520207681429e-15
-7.997832194700368970e-15
2.305488010584964304e-15
1.465305870432309122e-14
9.758410187498499889e-15
-1.391714852288613244e-14
8.847078383057848587e-16
3.274030497081833101e-15
-1.469033289790133505e-14
5.455388109708355943e-14
-2.554644410400633294e-14
-1.431710409517576208e-14
-5.560002681217434769e-15
-4.961567247116734277e-14
-2.164664193624037717e-14
7.682231708862519100e-14
5.196373670623625901e-15
-3.519581333514338698e-15
1.503194142565878287e-15
-3.179986479675165688e-15
-5.269705474983358248e-14
1.764127110052137273e-13
-7.565923533915370213e-14
-4.805642091622685921e-14
-2.408044275228646992e-15
-2.289189763681421435e-15
3.482395132571989114e-15
1.214838906338079707e-15
5.208552678259177363e-15
-4.382572697298510375e-15
-4.124351795926386702e-15
3.298371814965716558e-15
0.000000000000000000e+00
0.000000000000000000e+00
0.000000000000000000e+00
0.000000000000000000e+00
-2.700673531397540771e-15
-4.246528331874975944e-15
2.931612675749901663e-15
4.015589187522615840e-15
-1.129967006621708936e-15
-4.535681815091414230e-16
-9.429151301093404951e-16
2.526450318240190362e-15
-2.345806270293413689e-15
-2.052902981684676898e-15
3.013792128683643211e-15
1.384917123294447180e-15
0.000000000000000000e+00
0.000000000000000000e+00
0.000000000000000000e+00
0.000000000000000000e+00
4.483130518953606621e-15
-5.128143977678315120e-15
-5.222129351424486798e-15
5.867142810149192142e-15
0.000000000000000000e+00
0.000000000000000000e+00
0.000000000000000000e+00
0.000000000000000000e+00
-4.024417104475402522e-15
-2.731550703322184218e-15
6.733030221013095834e-15
2.293758678449371680e-17
0.000000000000000000e+00
0.000000000000000000e+00
0.000000000000000000e+00
0.000000000000000000e+00
0.000000000000000000e+00
0.000000000000000000e+00
0.000000000000000000e+00
0.000000000000000000e+00
0.000000000000000000e+00
0.000000000000000000e+00
0.000000000000000000e+00
0.000000000000000000e+00
-1.551304126063167791e-15
-1.145105935158915168e-15
4.040529285507794829e-15
-1.344119224285712265e-15
0.000000000000000000e+00
0.000000000000000000e+00
0.000000000000000000e+00
0.000000000000000000e+00
7.058789321073145659e-15
-3.629434094995073902e-15
-2.046943782077495365e-15
-1.382411444000575997e-15
1.358626335665640457e-14
-5.588651868708276026e-15
-4.066988796579465652e-15
-3.930622691368661314e-15
0.000000000000000000e+00
0.000000000000000000e+00
0.000000000000000000e+00
0.000000000000000000e+00
0.000000000000000000e+00
0.000000000000000000e+00
0.000000000000000000e+00
0.000000000000000000e+00
0.000000000000000000e+00
0.000000000000000000e+00
0.000000000000000000e+00
0.000000000000000000e+00
-6.927220225853881522e-16
-1.008704336524053641e-15
-8.802751743776619707e-16
2.581701533487103469e-15
-7.216812464681106695e-16
-9.481354876354687996e-16
-7.783616525496106623e-16
2.448178386653189934e-15
-7.603500975858498803e-15
-5.630353464629933357e-15
3.335825430902660842e-15
9.898029009585783940e-15
-2.368514989060342212e-15
-2.587043174892442905e-15
3.445707236407901593e-15
1.509850927544885102e-15
2.496112730118541249e-14
-1.312128058202970754e-14
-1.036323822397605172e-14
-1.476608495179654809e-15
0.000000000000000000e+00
0.000000000000000000e+00
0.000000000000000000e+00
0.000000000000000000e+00
0.000000000000000000e+00
0.000000000000000000e+00
0.000000000000000000e+00
0.000000000000000000e+00
0.000000000000000000e+00
0.000000000000000000e+00
0.000000000000000000e+00
0.000000000000000000e+00
-1.702670130573110773e-13
1.016289696030490934e-13
1.319704447133066828e-14
5.544099898293186307e-14
-6.378498537231160618e-15
-3.683068986699155248e-14
3.092907554793197084e-14
1.228011285629084323e-14
-6.850572358747975799e-14
1.813830477707853060e-13
-7.177574222024799050e-14
-4.110158196305720405e-14
-2.626669869817402136e-15
-3.817047458217115618e-14
1.793391716506565517e-14
2.286322728692292917e-14
-7.131755610756537870e-15
-5.981357124349491448e-15
1.530231551415712949e-14
-2.189202779051096619e-15
-2.684369014203706894e-15
-3.240197518472689288e-14
4.524700231787365994e-14
-1.016065811894311025e-14
-5.156746009568011047e-15
-2.429900722312331499e-14
2.176358146921470855e-14
7.692171763476604864e-15
-5.236075219606150690e-16
-7.628724446946956508e-14
3.519658552841861657e-14
4.161426646301147719e-14
-7.824214688303801272e-16
-1.055184409660478324e-15
-7.673840113624170425e-16
2.604989889853275198e-15
4.140802671254029371e-15
-2.077170319093621745e-14
5.647187085967544899e-15
1.098371343371463845e-14
1.500560101184798778e-12
1.593080440955788098e-12
-1.439638960709138343e-12
-1.654001581431425714e-12
6.232313744797993678e-14
-4.634011931489448457e-13
1.240011800776273879e-13
2.770768756233361579e-13
2.390010675851351732e-13
-2.891677208305201072e-13
-2.427204474348095426e-14
7.443869798886554111e-14
6.891765091203557020e-14
-9.870095184104244879e-14
7.008989705669941603e-14
-4.030659612769281511e-14
-4.162814503318669149e-14
6.123896770715227291e-14
-2.508747913368052021e-14
5.476656459714907226e-15
-8.448013041321852441e-15
-6.944898374648269011e-15
2.772046988613765003e-15
1.262086442735634225e-14
1.497091626331031022e-14
-3.245933226197817760e-14
2.535931181940658052e-14
-7.870895820738697365e-15
1.812416259276657244e-14
-3.364096638901162700e-14
1.505374450636136874e-14
4.630592898836471622e-16
-3.803368877827677277e-14
5.283655822910763576e-14
-6.738405108771390819e-15
-8.064464342059398804e-15
-1.359421374128064211e-14
-1.105704315413349519e-14
3.094504789314920471e-15
2.155675210609921959e-14
-2.382101831425629684e-15
-2.447434252456351967e-15
-2.538778403939806146e-15
7.368314487821790953e-15
-5.065996200034713287e-14
6.716845071708634595e-14
-8.581634778336167577e-14
6.930785906662231754e-14
-1.942578564043362151e-14
-5.609416659785804537e-14
3.893314832655328752e-14
3.658680391173839829e-14
2.170570159733202881e-14
-4.172406207926875614e-14
2.582867713499696878e-14
-5.810316653060280891e-15
1.254367492299007069e-12
-8.831500698310126435e-13
-8.973327672463095995e-13
5.261153447783097217e-13
2.422044804647895945e-13
-2.824671774948335678e-13
-3.809999341793418005e-13
4.212626312093837038e-13
3.601283458456392031e-14
-2.387609554185336007e-14
-4.955302550534399830e-15
-7.181436492176095722e-15
-3.759593927377422555e-14
-7.677551556616478550e-14
-1.393558342947990411e-14
1.283070382694190477e-13
1.709069696812637967e-13
6.970687967022705513e-14
-1.614479262929195950e-13
-7.916592305857152181e-14
3.213890528732470357e-14
-1.403367560301293323e-14
-1.198143115598989275e-14
-6.123798528321894162e-15
0.000000000000000000e+00
0.000000000000000000e+00
0.000000000000000000e+00
0.000000000000000000e+00
0.000000000000000000e+00
0.000000000000000000e+00
0.000000000000000000e+00
0.000000000000000000e+00
-3.505693530168632953e-14
1.561553450242213233e-13
-6.472440711455992945e-14
-5.637400260797512116e-14
-5.149117740879950627e-15
-3.786647355660544586e-15
7.285135637956726091e-16
8.207251532744816194e-15
0.000000000000000000e+00
0.000000000000000000e+00
0.000000000000000000e+00
0.000000000000000000e+00
-4.407635658899388800e-14
2.142427053917252558e-14
-3.007443901683208353e-14
5.272652506665345225e-14
6.387168611285540929e-14
-2.025567241359794316e-13
5.015085428872492984e-15
1.336699525942519829e-13
-4.290141458783387715e-16
-2.448109936506374654e-14
1.188080641580235016e-14
1.302930709513973096e-14
0.000000000000000000e+00
0.000000000000000000e+00
0.000000000000000000e+00
0.000000000000000000e+00
0.000000000000000000e+00
0.000000000000000000e+00
0.000000000000000000e+00
0.000000000000000000e+00
-4.105669479477451020e-13
-1.846123787592507488e-13
-8.026520070049961439e-13
1.397831333711985633e-12
6.487979297652136928e-14
-7.038789731145540918e-14
-6.485379004168551517e-15
1.199348333910272000e-14
-1.108127671277117831e-15
-2.218217576727959999e-15
4.446359706031101145e-15
-1.120014458026022526e-15
2.938216245839758578e-14
-5.410113346760894736e-14
-2.413003954640074443e-14
4.884901055561217543e-14
2.289973118126222483e-14
-4.054551075070742234e-14
9.729614464750883180e-15
7.916165104694397948e-15
-3.291368897297438179e-13
-6.615887403554907746e-13
-2.702238605765786330e-13
1.260949490661826100e-12
5.656624627757983901e-15
-2.923149154385459146e-15
-3.495153001899761513e-15
7.616775285272383364e-16
-4.437842830896973178e-14
-9.667302514158778242e-14
-3.693026989825484294e-14
1.779817233488123698e-13
-7.240303073506851464e-14
1.102555487757213810e-13
-4.335558187683665317e-14
5.503063836183621918e-15
2.490460575840986210e-15
-8.065663346078889942e-15
-1.170339435755042936e-15
6.745542205992951007e-15
-1.658571357754768113e-14
-4.263700099769554070e-14
2.388065819947730997e-14
3.534205637576592763e-14
0.000000000000000000e+00
0.000000000000000000e+00
0.000000000000000000e+00
0.000000000000000000e+00
-3.759558096286598772e-14
9.283920321750928230e-14
-2.753692016008739095e-14
-2.770670209455593518e-14
0.000000000000000000e+00
0.000000000000000000e+00
0.000000000000000000e+00
0.000000000000000000e+00
0.000000000000000000e+00
0.000000000000000000e+00
0.000000000000000000e+00
0.000000000000000000e+00
-1.264707747458761671e-14
-1.062329672418055996e-14
1.426224851793416858e-14
9.008125680833997055e-15
-8.372138356006844058e-14
1.275382647390882394e-13
-1.051695915271452931e-13
6.135271034812579715e-14
1.678708246297499502e-14
-4.340741920989124818e-14
-1.020597166877117772e-15
2.764093391379336404e-14
4.121157911534508481e-14
6.378223324318812383e-14
-2.891498283214384687e-14
-7.607882952638916612e-14
9.684967093258433954e-15
-7.450001365016711898e-14
4.253039574276222268e-14
2.228465081414630457e-14
1.097295763948293674e-13
-1.127532222190958294e-13
-3.169890780590809585e-14
3.472255363017445057e-14
-9.709278978966453429e-16
-8.967747628957962727e-16
-7.236279275873834684e-16
2.591330588379824985e-15
3.836176282418410706e-14
-4.211767759812514556e-14
6.384775834281672278e-15
-2.628861060340590785e-15
-1.086619703650437617e-14
-6.193437333910797426e-14
4.445051336634289917e-15
6.835551903897796191e-14
2.666836896658394838e-14
-5.102931155303554052e-14
2.215642918886384578e-14
2.204513397587741627e-15
9.334352744039304095e-15
-6.732117801771965227e-15
-8.926801676806782087e-15
6.324566734539434541e-15
-3.721035099448652481e-14
1.061456394246266505e-13
-4.588975144629131836e-14
-2.304553698384878837e-14
4.985313577890264136e-14
1.247666678038405615e-13
-1.011956006451740792e-13
-7.342420293756910470e-14
7.689327543809211605e-15
-1.025723805701990493e-14
1.125737142284419252e-15
1.442173370926271509e-15
0.000000000000000000e+00
0.000000000000000000e+00
0.000000000000000000e+00
0.000000000000000000e+00
0.000000000000000000e+00
0.000000000000000000e+00
0.000000000000000000e+00
0.000000000000000000e+00
1.357453890064385968e-14
-8.683760503033261798e-14
-2.916266433077782046e-14
1.024257304604663374e-13
2.907719589536437326e-14
-2.421803552079568317e-14
-1.998997160198733685e-14
1.513081122741866253e-14
-3.521172020508911933e-15
-2.872362943843484415e-15
2.696112040558281961e-15
3.697422923794114387e-15
-2.823385279534118051e-14
-7.017999164996503493e-14
4.751362054576216098e-14
5.090022389954387776e-14
-8.626737624799851067e-16
-8.771821229720846179e-15
-4.661274918256536158e-15
1.429576991045736498e-14
7.696520882505245251e-15
-1.028239807390016653e-14
6.004091743443392237e-16
1.985468017050584619e-15
5.006625862075309850e-15
-1.605536243940905660e-14
1.417473695168540154e-14
-3.126000374351646507e-15
-3.598589169457428192e-16
-9.958792389810787589e-15
1.213721819624259710e-14
-1.818566889486076500e-15
3.720478005351197350e-15
-5.750611163437845930e-15
-1.758636114779914292e-16
2.205996769564639245e-15
2.754701281430991060e-15
-2.429520238164426105e-14
9.682988839195790427e-15
1.185751226101742316e-14
-4.185345051060665458e-15
-1.354881426693321664e-14
-1.453620491275026664e-15
1.918777980926889199e-14
8.790596528486940657e-15
-1.023980432665607036e-14
-1.027095851951892523e-14
1.172016631768805809e-14
-2.175391004313249103e-15
-3.221695752226108919e-15
3.847355670722728580e-15
1.549731085816630033e-15
1.887645143171059185e-14
-7.255619491092525264e-14
-1.875833386641056825e-15
5.555557686585591325e-14
3.111652008496859880e-14
-1.496430670535182584e-13
5.979864469496458339e-14
5.872790227358515825e-14
1.212275465936266899e-14
-2.209930054145731786e-14
-7.752094082495992356e-16
1.075175529034427572e-14
-6.983581869417975339e-14
-3.121438230825091662e-13
-4.533742735881964485e-14
4.273170691355070751e-13
1.765915287036768184e-14
-2.184481672146227877e-14
-1.117840177954136893e-14
1.536406563063594061e-14
-3.359147939901090471e-14
-8.905166071042425158e-14
6.322342661136772797e-14
5.941971349806733366e-14
4.787459155961309104e-15
-3.160082697785753438e-14
9.879568839903580621e-15
1.693379898199264150e-14
1.301484622467968495e-14
-1.294521651648315788e-14
-2.233983934692599588e-15
2.164354226496067394e-15
-7.391567976734335837e-15
-9.025446518185829552e-15
9.520339825371556279e-15
6.896674669548610688e-15
-2.329156780794133921e-14
-4.661311931332629013e-14
2.350473562987155314e-14
4.639995149139610461e-14
-5.493890024631213907e-13
6.657929255608212918e-13
-3.336823671578614494e-13
2.172784440601642241e-13
-3.427593820740648735e-15
-3.069243098615327981e-14
9.630930401403630084e-15
2.448909440549032095e-14
-4.415811074667163082e-15
-3.226977679321804932e-14
-4.378005994224232854e-15
4.106359386210948076e-14
-6.024126401742990724e-15
-5.404394088525463856e-15
-6.052640271204222625e-15
1.748116076147269062e-14
-1.683752440522512819e-15
-1.879204469905001259e-15
-1.642779291780288839e-15
5.205736202207802325e-15
-5.338161940368037135e-14
9.374379208970421222e-14
-3.519283190587927071e-14
-5.169340780144677443e-15
-4.125760105260139222e-14
1.124913686195753075e-13
-4.687454971982294299e-14
-2.435921784715089338e-14
1.882592075656683582e-14
-5.042571919342023763e-14
2.447641959162421996e-14
7.123378845229164495e-15
-1.735245288433707842e-14
1.147398894961032257e-13
-5.645826955805959381e-14
-4.092916705370669229e-14
4.002959517640011329e-14
-2.109919254704562907e-14
-1.163939000347178078e-14
-7.291012625882697134e-15
-3.062445221176084924e-14
7.333074082835653997e-14
-3.182809584772968571e-14
-1.087819276886596715e-14
7.917113263170242635e-15
-8.892517972667237128e-14
1.577821539469700669e-15
7.943024492403248872e-14
-9.465133345802654360e-15
-8.282993981569684297e-15
-3.363170612651809642e-15
2.111129794002414633e-14
2.894316060385364846e-14
-3.401892198839285983e-15
-1.760371862810191533e-14
-7.937549776912486583e-15
-3.002607489692028359e-16
-1.017393324825295969e-14
2.222135565848849304e-15
8.252058431373322935e-15
0.000000000000000000e+00
0.000000000000000000e+00
0.000000000000000000e+00
0.000000000000000000e+00
-1.966458999522928273e-15
-1.024013773884996662e-14
9.248756908940617585e-16
1.128172104747884437e-14
-1.154816952923635218e-13
3.006575280577892428e-13
-1.839115925821235720e-13
-1.264240183301951831e-15
-4.590607631115719401e-15
-3.654109370479833958e-15
1.706741894626801398e-15
6.537975106968746636e-15
2.493925226861532616e-15
-7.083622125024428783e-15
5.670387115827122980e-15
-1.080690217664227405e-15
0.000000000000000000e+00
0.000000000000000000e+00
0.000000000000000000e+00
0.000000000000000000e+00
-4.987894439804916463e-14
7.016833596736430897e-14
-1.283731834400672308e-13
1.080837918707526923e-13
-1.938561684259480670e-14
-1.845681802864146277e-14
8.711634369759920361e-15
2.913080050147634596e-14
-1.411041734192647437e-15
-1.682974570525814764e-13
1.088413087481403103e-14
1.588243679119599372e-13
0.000000000000000000e+00
0.000000000000000000e+00
0.000000000000000000e+00
0.000000000000000000e+00
2.246436862334781019e-15
-6.639841662401984357e-15
-6.400178182623408346e-15
1.079358298269060656e-14
-6.922689231021625975e-14
-3.426607418980868892e-14
-4.148945902818979110e-14
1.449824255282147145e-13
5.432333052819743767e-15
-1.010036079805965043e-14
-1.090284946812532309e-15
5.758312692052447844e-15
-6.790161809693623017e-14
1.992619284565699802e-14
5.215746666138578927e-14
-4.182041410106534239e-15
-1.164925928267956022e-13
1.419745614153792211e-13
-1.297561496085273021e-13
1.042741810199433551e-13
-8.102655131178840501e-14
2.006881281407649558e-13
-7.632479111462217002e-14
-4.333678571435409673e-14
-9.510232584785076273e-16
-5.806536537274696507e-16
-9.119800522564672698e-16
2.443656964462443858e-15
0.000000000000000000e+00
0.000000000000000000e+00
0.000000000000000000e+00
0.000000000000000000e+00
0.000000000000000000e+00
0.000000000000000000e+00
0.000000000000000000e+00
0.000000000000000000e+00
-7.873228466859938992e-15
-1.032991804746247664e-14
8.558590470681915048e-15
9.644556043640495848e-15
8.776535876971932542e-15
-3.168904715871221592e-14
2.449674967433796464e-14
-1.584238392597671014e-15
-8.361458919097206466e-14
-5.271533635469472924e-14
3.937064010783305934e-15
1.323928615348837041e-13
-9.039941793849626620e-14
1.553827570795508718e-13
-1.551549728786055033e-14
-4.946784185319408365e-14
-7.453540134457379183e-14
1.002739461276398854e-13
-2.710740439958315747e-14
1.368859616516953085e-15
-2.979829562683174514e-15
-1.695962348312538430e-14
-4.796157699905084886e-15
2.473561074571363305e-14
-5.616416689738848844e-15
-1.220217093496485217e-14
1.116776612759169397e-14
6.650821497111995206e-15
0.000000000000000000e+00
0.000000000000000000e+00
0.000000000000000000e+00
0.000000000000000000e+00
2.748949232911013363e-16
-8.285293463431573678e-15
8.046171985012924684e-15
-3.577344487245647797e-17
5.717434808099468162e-14
-5.147910567077711991e-14
-4.041010386595740670e-14
3.471486145573968722e-14
5.603267701099512410e-15
-7.424189016859778384e-14
-7.286239738873598029e-15
7.592486220637177006e-14
-3.912481315975360033e-15
-1.242949007837310448e-14
-1.234374256469663054e-15
1.757634565081813644e-14
5.941461901874196806e-15
-5.352898420207339150e-14
1.400050014427039614e-14
3.358702215592879460e-14
4.232403712248564418e-15
-1.370332699123496954e-14
8.147990397420569223e-15
1.322932881565846946e-15
-1.621579579478224065e-13
1.955510643006046695e-13
-3.142544247842056516e-13
2.808613184314214448e-13
2.108299615120489858e-15
-6.831603591996772771e-15
-2.015521661643236865e-15
6.738825638519515439e-15
3.789201052702666264e-14
-5.493563967086428377e-14
-9.143284438203829719e-15
2.618691358204159442e-14
4.505228541676469893e-13
-1.936783792376379828e-13
-1.614648244547592434e-13
-9.537965047524898064e-14
5.313035104977312501e-14
-4.617729381290270984e-14
-3.389171841255715210e-14
2.693866117568682213e-14
1.254613676063984722e-14
-4.739958390157645438e-14
1.819014441486038363e-14
1.666330272607623299e-14
-1.023802169701756654e-14
4.721344037392409609e-14
-3.053053778116956331e-14
-6.444880895737070365e-15
0.000000000000000000e+00
0.000000000000000000e+00
0.000000000000000000e+00
0.000000000000000000e+00
-1.050730350103151484e-13
1.280824351497244039e-13
-6.741192463933953472e-14
4.440252449992976804e-14
3.285984152861269031e-14
-5.165894075918531405e-14
1.047080657854247541e-14
8.328292652030121512e-15
-1.377958743623961130e-14
2.839174448948947695e-14
-2.748251174533475927e-14
1.287035469208495042e-14
-3.850541688730825651e-14
1.077260813485523763e-13
-5.197339750051394177e-14
-1.724726696073025058e-14
5.638644337525629521e-14
-6.698122185301522346e-14
1.588030508909976572e-14
-5.285526611340859559e-15
2.036912004573816785e-13
7.573685265090220874e-13
-5.776734458831772976e-13
-3.833862810832258877e-13
-8.472469372556565812e-14
3.012068328766640783e-13
-1.231013714586757011e-13
-9.338076769242273169e-14
1.037318753542381285e-13
-1.913044009416142832e-13
6.162343959209944386e-14
2.594908599527695694e-14
5.678363653747847602e-14
-1.149961395053644497e-13
2.189514369984497657e-14
3.631735926804067211e-14
6.726061441426375709e-15
-1.057460046059439034e-14
3.162618680078222013e-16
3.532277151160192327e-15
-6.214554367553439391e-15
-3.335761791766533998e-14
-5.038058115767771507e-15
4.461023040098650039e-14
-5.850276202412789584e-14
1.558802264122850234e-13
-7.658332870209600715e-14
-2.079413568606087108e-14
5.051505337468955846e-14
-4.543663361471058374e-14
-1.348270622089524908e-15
-3.730149137889465989e-15
-9.776610719990771895e-15
-7.138167906315240659e-14
4.535099852099679261e-14
3.580729126214659098e-14
-3.152453822277154723e-14
5.776692125134478707e-14
-1.513042430835967286e-14
-1.111195872021357171e-14
-5.457188037813738612e-14
1.571126802649647932e-13
-7.155805683572868069e-14
-3.098274305109855594e-14
-1.414313275731101526e-13
2.381730456772132671e-13
-1.917732356517060436e-13
9.503151754760054358e-14
-6.999685207406465184e-15
-2.308202871257543554e-14
-8.015655392985778390e-15
3.809736931296769962e-14
0.000000000000000000e+00
0.000000000000000000e+00
0.000000000000000000e+00
0.000000000000000000e+00
-6.081235763734208023e-12
4.168117171727372795e-12
4.090036406919522284e-12
-2.176917814912713713e-12
-1.331406537407127865e-14
-2.266259378465412298e-14
1.701380718960197784e-14
1.896285196912343168e-14
5.519075581953680046e-15
-2.586106052855091587e-15
-3.489197442669212680e-15
5.562279135706229392e-16
3.237954985029083307e-15
-5.624415333906475534e-15
-5.446465476279405732e-15
7.832925825156797959e-15
-1.235454997703352363e-14
-2.016113625258558781e-14
2.944221764519869772e-14
3.073468584420385321e-15
-2.681882577688617309e-14
-2.790646836712854427e-14
5.173450719428883668e-14
2.990786949725870823e-15
-1.379246086471345693e-13
7.794216845076646321e-14
7.333851181468283716e-14
-1.335607161831518383e-14
4.907233477626480862e-15
-6.098955612450331354e-15
1.422985382737046311e-15
-2.312632479131935999e-16
-6.152092625193011846e-15
-4.606627529836616617e-14
5.030937653470529585e-14
1.908991388853857315e-15
-2.914719306426444603e-15
-2.826137640501509089e-15
8.393143444657128624e-15
-2.652286497729177299e-15
0.000000000000000000e+00
0.000000000000000000e+00
0.000000000000000000e+00
0.000000000000000000e+00
-7.709046553943371240e-15
-1.741530251026273323e-14
2.303138783552578931e-14
2.092961228680310814e-15
-5.530186051435347995e-14
6.855175510469300134e-14
-1.544977898705233618e-14
2.199884396712781661e-15
0.000000000000000000e+00
0.000000000000000000e+00
0.000000000000000000e+00
0.000000000000000000e+00
0.000000000000000000e+00
0.000000000000000000e+00
0.000000000000000000e+00
0.000000000000000000e+00
0.000000000000000000e+00
0.000000000000000000e+00
0.000000000000000000e+00
0.000000000000000000e+00
0.000000000000000000e+00
0.000000000000000000e+00
0.000000000000000000e+00
0.000000000000000000e+00
0.000000000000000000e+00
0.000000000000000000e+00
0.000000000000000000e+00
0.000000000000000000e+00
0.000000000000000000e+00
0.000000000000000000e+00
0.000000000000000000e+00
0.000000000000000000e+00
0.000000000000000000e+00
0.000000000000000000e+00
0.000000000000000000e+00
0.000000000000000000e+00
0.000000000000000000e+00
0.000000000000000000e+00
0.000000000000000000e+00
0.000000000000000000e+00
9.252528310157283877e-15
-1.736413063182553210e-14
1.140927308258616091e-14
-3.297670760917906776e-15
-6.227796540999271663e-14
-6.032083625057041084e-14
1.848143368532796896e-13
-6.221553519271752140e-14
2.064153662898001898e-14
2.920980444394675932e-14
-4.631830650423123898e-14
-3.533034568695630038e-15
-2.155804337194548960e-13
1.662445305836254109e-13
7.197255291647195791e-14
-2.263664978064278514e-14
4.165370153622965242e-15
-2.043080679173759551e-13
1.526298461721924997e-13
4.751285159155953093e-14
6.243524156678607038e-15
-1.567143363574419527e-15
-3.009052610185305181e-15
-1.667328182918883513e-15
-1.058242128551594429e-12
7.758680526807070676e-13
3.615977558294215840e-13
-7.922367995854429520e-14
-3.550806867841193365e-14
1.713605895757137205e-13
-5.615846831118467690e-14
-7.969405258611760849e-14
3.604555997024833453e-15
-1.304781246150349124e-13
7.409880495019317949e-14
5.277476366781741852e-14
-4.763748023633664481e-13
6.772155809371465901e-13
1.548357331513930647e-13
-3.556765117251757311e-13
-8.493037794829123315e-14
4.357168668877953028e-13
-3.167727007903740195e-13
-3.401378814912625726e-14
-3.329791844680551881e-14
6.792333573080620933e-14
6.032798253389719585e-15
-4.065821553739050161e-14
-8.976617452306093029e-13
5.808178715357319791e-13
-1.560152249093863834e-13
4.728590986042628236e-13
-1.524577038157801709e-12
1.483355087820877661e-12
-6.091474560317433216e-14
1.021366959401066217e-13
-1.071582186937452777e-12
8.392965087428376906e-13
2.255599699381710884e-14
2.097296812007943643e-13
0.000000000000000000e+00
0.000000000000000000e+00
0.000000000000000000e+00
0.000000000000000000e+00
-6.397473514901408928e-13
2.252290911660303141e-13
1.273116407007886341e-13
2.872066196233238126e-13
4.239979356672218708e-14
-1.140916523343240499e-13
5.398260468626224169e-14
1.770925408133968425e-14
1.475730023983062194e-13
-6.957400030878653751e-14
6.964573587952474237e-14
-1.476447379690456359e-13
-5.292889466159786273e-13
-7.483512101362702398e-14
1.531082909172639672e-13
4.510157767123434006e-13
3.953881670986537105e-14
-3.273673375110962189e-14
1.624031497064593559e-15
-8.426114455820383740e-15
-1.457847747938705351e-13
6.510832726844507898e-15
-1.452016827962966095e-13
2.844756248633232615e-13
1.641363358213131334e-13
-2.289461304860130652e-13
2.920029947329521331e-14
3.560949519140461120e-14
-4.760826350838823767e-15
-7.792987581673158131e-14
6.972097578737151028e-14
1.296972638019854297e-14
-1.777946387360434271e-13
1.557898975853470577e-13
1.506187117357009239e-13
-1.286139705850043778e-13
8.279624324831595627e-14
-2.571033769114752363e-14
-4.974793551425793389e-14
-7.337970042910490863e-15
3.918267901832181882e-14
-8.493075807979001147e-14
1.475916447323241966e-14
3.098891458823562468e-14
3.565925746680479575e-13
-2.923225401082108474e-13
-2.992963742626312137e-13
2.350263397027914783e-13
5.972751280397729019e-13
-5.107244647098912816e-13
3.278990838738109163e-13
-4.144497472036935463e-13
-9.002082866739554271e-15
-1.853733439072996050e-13
-1.313922285788034387e-13
3.257676553528439106e-13
-1.375640509949551832e-13
2.469302133791260914e-13
-1.883409928380098238e-13
7.897483045384013995e-14
1.391743062725178905e-13
-5.462454375084513499e-13
-2.160120019945833008e-13
6.230831332305142359e-13
-2.743206417435999037e-15
-1.125974973866565287e-14
5.105649796803935250e-15
8.897306359297733220e-15
3.776556892127542622e-14
-2.491695594753667458e-14
-5.047319117117598634e-14
3.762457819743731675e-14
8.765107176528471517e-15
-8.682622155418886199e-15
-2.814000431502102682e-15
2.731515410392512631e-15
1.160031761419411505e-14
-1.579302538738319161e-13
6.871215588712542225e-14
7.761778037251282683e-14
-8.780137868131166734e-14
9.452657292484827036e-14
-3.798483831020318618e-14
3.125964406666670307e-14
1.771007312209962636e-13
-2.680891367057299360e-13
-2.096027642782580678e-13
3.005911697629888877e-13
9.254341818233347821e-14
-7.739697829264287649e-14
6.962275176581765248e-17
-1.521606264145628703e-14
5.722848915257168195e-14
-6.441604906269635787e-14
-4.224148664670079499e-14
4.942904655682556557e-14
2.493340471042079573e-14
5.016049355927599969e-14
-5.458660773541815638e-14
-2.050729053427858225e-14
-7.094276936424929449e-16
-7.437310119705290372e-15
2.293415749736612830e-15
5.853322063611172360e-15
5.271666701527795959e-14
-7.021074500253418386e-14
-9.451666184701666124e-15
2.694574417195788882e-14
-1.158296414479741857e-15
-3.449720530750912237e-14
4.466445626021197472e-14
-9.008954538223096883e-15
1.363231041549147530e-13
1.102317867788299436e-14
-1.195338569332939750e-13
-2.781242589950322485e-14
-3.472322144485999214e-14
3.596875821778055865e-14
-8.760470512027901898e-15
7.514933739107381143e-15
4.857954469021788779e-15
-1.100711074072730901e-14
-1.947592313634007014e-15
8.096748585339535923e-15
-3.580239950112804253e-14
1.543889423040501540e-13
-6.788682162246956640e-14
-5.069972118045251979e-14
1.003009594014551897e-14
-4.693029543333709680e-14
2.512138142355432495e-14
1.177881806963729548e-14
3.892138046859491143e-14
-2.218148704898901676e-14
-1.816315022771637476e-14
1.423256808110439265e-15
1.814341178961211866e-14
5.276552070712834971e-14
-9.130122871814475630e-14
2.039229622140442362e-14
4.446400945066521937e-15
-2.851160951993297871e-15
-4.416497926167734486e-15
2.821257933094511603e-15
-5.915008034968535696e-14
1.602863075118016778e-13
-8.774003110153542405e-14
-1.339619606058088261e-14
-4.085401632415258298e-14
9.765219741189544929e-14
-4.377619537937159114e-14
-1.302198570837126255e-14
1.264696065254900849e-13
-1.200671936234057305e-13
-1.686120442863439926e-14
1.045879152654968827e-14
2.737668079145877936e-14
-9.688877142751022221e-14
2.793938380984926221e-14
4.157270682620212068e-14
-7.999698904161541837e-17
-1.683889518364928083e-14
5.272337999636181653e-15
1.164655417305469655e-14
-5.771181236410515453e-15
1.534759266250347731e-13
-6.915591391183382168e-14
-7.854883147679032630e-14
6.711020091351166245e-14
-1.370908033771767015e-13
3.046297877542783839e-14
3.951762368823749730e-14
-4.474397226560451751e-14
-5.094349082821192967e-14
1.352532895379189839e-14
8.216213414002478703e-14
0.000000000000000000e+00
0.000000000000000000e+00
0.000000000000000000e+00
0.000000000000000000e+00
-9.768578892101475821e-15
-3.873308013112044936e-14
3.173440843903829254e-15
4.532821817931808646e-14
-5.655552281381947271e-14
7.175172783354488540e-14
-5.497252597485235545e-14
3.977632095512657674e-14
1.720653769111850079e-15
-2.159144239715681437e-14
-1.956892073285631304e-14
3.943970936090124103e-14
4.096828740890730007e-14
-1.286900721194526172e-13
-2.301116358323745037e-14
1.107329482937825024e-13
-3.124630105417063299e-14
-3.254884061110692614e-14
-7.737784706063482499e-14
1.411729887259126934e-13
2.765922194328544122e-13
-2.439061922504353895e-13
3.701099315794229986e-14
-6.969702034036202938e-14
-5.362861096980714892e-14
1.711117735919504115e-13
-7.915750019975116417e-14
-3.832566242239224358e-14
-6.163436277595680842e-16
-6.799857883427571055e-15
8.250659570731804887e-15
-8.344580595446636766e-16
-3.238111185370838417e-12
2.012748685154045031e-12
2.841139559097003091e-12
-1.615777058880193145e-12
-4.910158452382404959e-14
1.241705093115817237e-13
-7.872537534696683984e-14
3.656450559208713724e-15
-1.958908138566757660e-13
-2.606701560345268060e-14
-3.096278191246399190e-14
2.529206113725918484e-13
-1.526137874726189367e-13
4.160192307199139352e-13
-1.661481733675513725e-13
-9.725726987974310863e-14
9.482048516088793034e-14
-2.804051653072806473e-14
-6.693809477546367958e-14
1.581261453038465869e-16
6.685863366966051848e-14
1.869622540008327631e-13
-6.520031319085745200e-14
-1.886205744796376724e-13
1.889255789250718993e-13
-2.868994364351177977e-13
1.218489104687065159e-15
9.675536840535878591e-14
2.836594224066517034e-13
3.182553735080003390e-13
-1.758128054767494171e-13
-4.261019904379037613e-13
7.619741914105068750e-14
-9.930354035683415952e-14
-5.172662422358444315e-15
2.827878363814187138e-14
-3.219276436922283463e-13
-7.231929080537450078e-13
-7.681134896966124877e-13
1.813234041442586397e-12
1.601187619444221584e-15
-2.542190735119332827e-14
2.044418325125255831e-14
3.376536480496560014e-15
1.412761616702380891e-12
4.439317823425824774e-13
-3.417581241361100826e-14
-1.822517586631331932e-12
6.745159332993675956e-14
-8.036112585271736892e-14
-9.248387267384727392e-15
2.215791979016541563e-14
1.337688252972857247e-16
-9.477081871941236234e-15
9.152534264888186526e-15
1.907787817557566368e-16
-7.714417916772398180e-14
-2.809438141810241019e-15
-1.220823024830641102e-13
2.020359197925990197e-13
-2.997295765347687337e-13
-3.468707901245206583e-13
1.665979071577395375e-13
4.800024595015553828e-13
-3.897090241144036998e-13
-8.293501593026681307e-13
2.952346820604314889e-13
9.238245013566371609e-13
2.883881977655088549e-16
-1.192095056284527344e-14
8.603307215770885403e-15
3.029255149308877707e-15
-2.216503942085422712e-13
1.797578654499897132e-14
-1.707604566323582880e-13
3.744350642959014459e-13
7.200571737789901588e-14
-1.419233757294686855e-13
-3.591535675645289926e-14
1.058330151080228971e-13
1.378406890640970233e-13
-1.635646615028755772e-13
-1.097666707746337440e-13
1.354906432134116921e-13
-8.558164881322920331e-14
-1.836525297240623789e-13
-4.499175371103589505e-14
3.142259322483282283e-13
-3.806486392559859072e-15
-5.639002757142685355e-14
-2.367867982112495752e-14
8.387519378511166304e-14
-6.111574495586283958e-14
-1.281138227742995451e-13
-4.760069382527447401e-15
1.939896371126891947e-13
4.164591181365356863e-14
-9.925064548380162529e-14
-2.024523304515529956e-15
5.962925697466338624e-14
-5.884420742041438055e-14
1.015427161948899599e-13
-9.560207416155386652e-15
-3.313830135832023849e-14
-3.986297871639943075e-14
3.769698279815975173e-14
-1.574967524030021920e-13
1.596627483212413851e-13
5.740803398513852221e-14
-3.792542702158166650e-15
-3.334024043256309340e-14
-2.027525085041730240e-14
-3.505116984284728654e-14
7.957732112665413926e-14
-3.048306691041351922e-14
-1.404308437339328775e-14
-1.025172164191151545e-14
-1.117376479070784769e-13
-3.446292512797861747e-14
1.564522946769683022e-13
1.819054961949255871e-14
-2.769936889142394727e-14
1.537737051573933380e-14
-5.868551243807949968e-15
-7.932144627613917099e-14
1.359128320182724354e-13
-3.504027589782136718e-14
-2.155110984431184673e-14
-4.364284440905739463e-14
1.558275300687318036e-13
-6.539794533015418135e-14
-4.678674032952007616e-14
-1.039129045155099394e-13
3.463223732563926716e-13
-1.369291739417437333e-13
-1.054802947991385067e-13
-2.368473379631936512e-13
2.520984907079960869e-13
-2.076219009427180532e-13
1.923707481979148350e-13
-3.560759688387478653e-13
-1.225554200114104642e-13
-2.328609771389444052e-13
7.114923659891097019e-13
1.251201249186111100e-13
-5.469142788780270663e-13
-5.534192830706748817e-13
9.752134370300907371e-13
2.746284926626208700e-14
8.367890166955843381e-14
-1.430564201301977302e-13
3.191466919437665091e-14
1.195540152071968243e-13
-5.438314715977626806e-13
-2.115233511571062059e-13
6.358008075476708252e-13
-1.282794652850410313e-14
3.894843432554635966e-14
-1.488010297303593199e-14
-1.124038482400630718e-14
-4.620405652209798176e-14
3.157078600795317764e-14
-2.757070230496349319e-14
4.220397281910839197e-14
7.783433394892772862e-14
-1.853092147431783717e-14
-3.998381892761133150e-14
-1.931959354699879977e-14
0.000000000000000000e+00
0.000000000000000000e+00
0.000000000000000000e+00
0.000000000000000000e+00
1.329699111028251135e-14
-2.885136214001593096e-14
-2.844905235048159943e-15
1.839927626478162373e-14
-2.693165065245734549e-14
2.417306261473687559e-13
-2.411463940503135413e-13
2.634741855540139880e-14
-2.116044072099499758e-14
-2.047575574249721376e-14
3.465951612915960291e-16
4.128960130220059929e-14
-2.957189743544269339e-14
-2.542515637435098266e-14
-4.498997581545930302e-15
5.949605139133974283e-14
1.264026376303145375e-14
-8.232387246112816880e-14
2.681268729220211975e-14
4.287092140589432709e-14
-7.676744082237443419e-14
1.604715316188682768e-13
-4.803507583494200641e-14
-3.566901496155182356e-14
-7.264911377750417366e-14
-1.007436967880249892e-13
-3.120673658774329234e-14
2.045995471532713256e-13
-4.337142280535711507e-14
-1.270435044527014313e-13
1.708066954068938950e-14
1.533342577173692294e-13
2.993451013776827200e-14
-4.143143701061045680e-14
3.134806437771279407e-15
8.362120435070910121e-15
-1.703416831370514396e-14
-9.012908639651437435e-14
8.288452967839762266e-15
9.887480174238003372e-14
9.293138156269807028e-15
-4.160378203792942450e-14
-1.154912577165420498e-14
4.385976965331374357e-14
-6.086144601202038212e-14
5.136530067398144581e-14
-5.599762072445651549e-14
6.549376606249557802e-14
2.020032681896323916e-15
-7.848894031767535639e-15
-1.182113250454762929e-15
7.010974600325973469e-15
-5.136188758843684777e-14
3.307037301729238053e-14
3.219898194032982008e-15
1.507161637711141068e-14
-6.223880235874791752e-16
-1.038882938202972466e-14
2.244180493962688854e-16
1.078679935622094546e-14
-1.810921709688171506e-14
-2.523187809847565848e-14
8.153690371358842355e-14
-3.819580851823101530e-14
3.376519505215122664e-14
-2.519337374615342381e-14
1.097421178213519736e-14
-1.954603308813302701e-14
-5.265768189496012291e-14
1.728007170072949027e-13
-9.733918883872660747e-14
-2.280384627360821019e-14
6.401940659371960945e-15
-6.116244784481466670e-14
5.142740893165006291e-14
3.333098253792442082e-15
-1.286798378948470522e-15
-2.969697143581600323e-15
-1.066471500714279509e-15
5.322967023244351734e-15
-1.214837781902054320e-14
-2.349087965930148780e-14
1.005529480800621724e-14
2.558396267031573488e-14
7.905181168963950503e-14
-6.533468589444070451e-14
-3.313262282453482476e-14
1.941549702933600847e-14
-4.350117742911094138e-15
-5.178747568672551208e-14
2.286595664453970234e-14
3.327163678509704981e-14
-1.184977516807236728e-12
2.019305466801622329e-12
-5.456489335912551475e-13
-2.886790164031324727e-13
-4.492934860262088123e-15
-1.292160379490987824e-14
1.485799815840242096e-14
2.556540496769553687e-15
1.263515179399648678e-14
-7.678740767947326172e-14
4.228056181022561634e-14
2.187169407525118069e-14
7.553043268019409651e-15
-7.364418144625741553e-14
5.383876262935021640e-14
1.225237554888761908e-14
2.258047549653613038e-14
-2.382638082177125413e-14
-4.181444568628432321e-15
5.427349893863556868e-15
-1.687971142141624953e-14
-1.963658602513534386e-14
9.753041701425638208e-15
2.676325574512593467e-14
1.628044360374320818e-14
-1.958537201845499877e-14
1.297246353532965228e-15
2.007682061178807808e-15
1.245259310947804082e-14
-2.124544497040569445e-14
-1.219558582740023848e-15
1.001241044366768852e-14
-1.191625863813079047e-14
-2.327531615238748006e-14
1.342721516938827049e-14
2.176435962112996849e-14
5.171501929038044837e-16
-6.655817112138710496e-14
4.021799513770444241e-14
2.582302579077877948e-14
-1.129809300177620947e-14
-3.498912113234654236e-14
3.299176674920634189e-14
1.329544738491635313e-14
4.547823199990799541e-14
-5.264377679567129170e-14
1.286145056815398094e-14
-5.695905772390787994e-15
1.173831114479159973e-14
-4.131922803015350233e-14
1.419268933403750924e-14
1.538822755132439020e-14
1.776901558286615726e-12
-1.041843376248308906e-12
-2.347768587991425350e-13
-5.002813232391866505e-13
3.943504231157804832e-14
-4.370062598363626719e-14
6.335929204503900893e-15
-2.070345532445614571e-15
1.875701408279270163e-14
-3.946292642493521789e-13
-2.291847008063084141e-13
6.050569509728750732e-13
2.916512181110442965e-13
-4.726001784172022860e-13
-5.707902568894305870e-13
7.517392171955876173e-13
3.082018955511121328e-14
-7.790796768881777925e-14
-2.707223648201318539e-14
7.416001461571978923e-14
-6.079552387641390930e-14
-2.496418926845517055e-13
-1.357317849899136370e-14
3.240105950599581240e-13
-5.718119503464406523e-16
-1.188437996381117879e-14
1.683380135117909587e-15
1.077281177903971616e-14
-2.531340695093822484e-15
-2.174998451740699216e-15
-2.544286846779361313e-15
7.250625993613883801e-15
2.053791324133171424e-14
-6.350067282224585185e-14
4.177154470011752872e-15
3.878560511090249676e-14
-2.794906224361551776e-15
-2.868561346649101859e-15
2.033267007873669359e-15
3.630200563136983880e-15
0.000000000000000000e+00
0.000000000000000000e+00
0.000000000000000000e+00
0.000000000000000000e+00
1.245135713580483630e-14
-2.507314096826097352e-14
9.709261737861342080e-15
2.912522094594806586e-15
-2.501084363188509494e-13
-1.906530604740021881e-13
3.532194766689310779e-13
8.754202012392205955e-14
-3.794195661111606775e-14
-4.807329281162048056e-14
4.904471385353524568e-14
3.697053556920146040e-14
1.322118738355211469e-14
-4.815408052007854769e-15
-5.073315912463572490e-15
-3.332463419080686246e-15
2.014622417148976959e-15
-7.134289655302567870e-15
1.020382774291066679e-14
-5.084160504757071934e-15
3.419386735891182801e-14
-4.549949781549072027e-14
-1.183111095982756181e-14
2.313674141640640043e-14
-2.381709568327063507e-14
8.983709243246774006e-14
-5.330835053478840547e-14
-1.271164621440864272e-14
1.048790019988566882e-13
8.498841967818085192e-15
-6.188949733316419293e-14
-5.148834663351061362e-14
-1.096719072548528926e-13
2.569437385523087421e-13
-1.215414663932472180e-13
-2.573036490420894387e-14
9.348750165933982396e-15
-4.631462700860091921e-14
2.972492634148416752e-14
7.240950501182714070e-15
-6.934285468628086223e-16
-7.524111414874617505e-16
-1.018116760210279411e-15
2.463956448560549882e-15
-7.229101550634310416e-16
-5.950017655354736575e-15
7.231641282674606740e-15
-5.587134722564403067e-16
-3.830820331382781398e-16
6.953588085180386104e-14
-3.371409187505025516e-14
-3.543870694361537566e-14
-1.688444114975495148e-15
-3.166767353375165193e-14
1.422659434848254944e-14
1.912952330024455662e-14
1.248632080102870340e-14
-2.274973886012571659e-14
9.119125067046736336e-15
1.144292992050279427e-15
7.367288371634130244e-15
5.951792472129916214e-14
-3.059133889672180413e-14
-3.629387419621149141e-14
2.564112728938988966e-13
-1.240580607500642709e-13
-2.036966210655234511e-14
-1.119835500372823595e-13
-8.526493093810297241e-15
-6.908718785094165732e-15
-3.362956396796486725e-15
1.879816827570097415e-14
5.475242384754322451e-15
-5.413837713660525273e-15
2.502565736373415450e-15
-2.563970407467211839e-15
-2.727237456957779003e-15
-3.981202794225784667e-15
2.706537366273519767e-15
4.001902884910043903e-15
1.164906272051731146e-13
-6.547594716353383793e-14
-3.096590860959563243e-14
-2.004877143204364112e-14
8.506201279060655652e-14
-2.930644751924800653e-13
-3.631747903241997337e-13
5.711772527260718793e-13
-9.358430745647593234e-14
5.973728780851477099e-14
-1.198258743555149253e-13
1.536728940034754177e-13
1.065170581468043131e-14
-4.924502602750683286e-14
-2.136808063388763493e-15
4.073012827621521198e-14
-1.549064860207617410e-13
-9.708497118487006998e-15
-3.094709282862494533e-13
4.740859114254946214e-13
-1.849453165159191351e-14
1.368941330870420240e-14
-3.554072594927493853e-14
4.034584429216271116e-14
-5.897517374958423669e-14
-4.825480985960818543e-13
2.356816127610650495e-14
5.179551110695599111e-13
1.311935708452668786e-13
-1.975449165799099357e-13
-8.524871462548954805e-14
1.516000603601339809e-13
-4.299859705117369465e-13
-1.130143096779657579e-13
4.525567143654909105e-13
9.044356582421276581e-14
-1.866910823610035810e-13
-6.212245557795579471e-13
-6.790020862840151697e-14
8.758158467689587411e-13
-1.350443340366141399e-13
-9.235106759356234211e-14
6.205012110033675620e-13
-3.931058093731944121e-13
-2.901370655594203759e-13
4.453485227297599174e-13
-2.566809256588414331e-13
1.014694684885028256e-13
-2.552790978503665792e-15
-2.644760034735652316e-15
-2.333907205832567551e-15
7.531458219071886053e-15
-8.037192935587560379e-15
-6.703095451128694087e-14
-9.502696097389641402e-15
8.457084354426403537e-14
1.188546979352835264e-14
-1.088541137472082534e-14
-8.685426430694328803e-15
7.685368011886818859e-15
1.300786536401940619e-14
-3.005323466252250915e-14
8.279633501268684132e-15
8.765735797234428292e-15
4.467214859042950026e-14
-1.611802038498045081e-13
6.849673007981380854e-15
1.096583822513934716e-13
3.730020475435320473e-14
-5.200958317805279622e-15
-8.189701005849315767e-14
4.979776362194525701e-14
-5.930799897229491698e-14
-6.027455903957798266e-14
8.376360220133402943e-15
1.112061977917396513e-13
-1.620068676550621422e-13
-2.052799350572862611e-14
1.662989096258364721e-13
1.623595153495502822e-14
-3.849902183242809595e-14
-5.316085645849798166e-14
5.076437471481825445e-14
4.089550357610769694e-14
-2.859022766891105597e-14
6.688647469045567912e-14
-7.069074558236464641e-14
3.239449856081987811e-14
-3.202266687455118461e-14
1.001681688891489869e-13
-1.819440262695319608e-13
1.137985242549342657e-13
-9.864384645187656517e-16
-6.908749473258302795e-16
-7.332251484567944733e-16
2.410538560301390799e-15
3.917944565274021293e-14
-8.634726737846585080e-14
1.443041606381763420e-15
4.572478011934398075e-14
1.269193846219405259e-13
-2.153197128078638568e-13
2.435402596312586389e-14
6.404630222279696217e-14
1.259307273224417323e-15
-1.480963079448233987e-14
-3.532398659440223961e-14
4.887431011566010812e-14
-9.671662790912474297e-14
-2.346500806415495189e-14
1.191815936115563202e-14
1.082634766121235643e-13
-1.673236759739659000e-14
-2.223011409066174730e-14
-3.497412450967565629e-15
4.245989413902588913e-14
3.290615106957884833e-15
-3.065055025145100650e-14
1.549882892660786270e-18
2.735838526160045371e-14
-2.105091929978427517e-15
-2.919574951607897599e-14
3.071584871346603885e-14
5.849927325913833897e-16
-8.518763327346063453e-15
-1.737020677222635709e-13
-4.062126241034362118e-14
2.228420934599529195e-13
-3.394143770989424214e-14
-2.824885834995193152e-14
3.554385499355936663e-15
5.863591056049026224e-14
1.357272407261243540e-14
-2.953708365743110434e-13
6.417916569842155829e-15
2.753801959318558716e-13
3.248253308625143310e-15
-2.087417241348172132e-14
4.937186093678740004e-15
1.268873301117785300e-14
-2.075816787419320416e-14
-2.282714779558426093e-14
