0.031240
-0.563524
0.147461
0.384823
-0.044415
0.004308
-0.010354
0.050461
-0.033633
0.057017
-0.052023
0.028640
-0.004306
-0.001304
0.003173
0.002437
0.034053
-0.073292
0.015744
0.023495
0.034452
0.088462
0.006351
-0.129264
-0.012233
0.012399
-0.013503
0.013336
0.007127
-0.072041
-0.001166
0.066081
-0.011177
-0.002448
-0.007055
0.020680
0.053838
0.087708
-0.021746
-0.119800
-0.012451
0.014936
-0.014870
0.012385
-0.009786
-0.009282
-0.002961
0.022029
0.024666
-0.019426
-0.028922
0.023682
-0.000899
-0.011430
-0.007749
0.020079
-0.005278
-0.022192
-0.004195
0.031665
-0.000182
-0.010944
0.005212
0.005914
-0.027327
0.008472
0.005913
0.012942
-0.003985
-0.013843
0.011836
0.005992
-0.016876
0.028065
-0.017263
0.006074
-0.005840
0.000144
-0.006173
0.011869
-0.073561
-0.009318
0.039375
0.043504
0.015303
-0.074636
0.002420
0.056913
0.000000
0.000000
0.000000
0.000000
-0.037297
0.079740
-0.028247
-0.014196
-0.008353
-0.008401
-0.005695
0.022449
-0.028870
0.038899
-0.002159
-0.007870
-0.004580
-0.000469
0.004867
0.000182
0.017871
-0.039515
0.001928
0.019717
0.036401
0.015966
0.003122
-0.055488
-0.009875
0.001011
-0.011108
0.019972
0.005937
-0.016250
-0.002722
0.013036
-0.020358
-0.003705
-0.005234
0.029298
-0.048330
0.117814
-0.018513
-0.050971
-0.025816
0.066655
-0.047220
0.006380
-0.023627
-0.010559
0.007195
0.026991
0.037257
-0.053314
0.017851
-0.001794
0.005676
-0.023852
0.005803
0.012372
-0.016687
-0.048737
0.042874
0.022549
-0.032228
0.032342
-0.026664
0.026550
-0.016590
0.014279
-0.008314
0.010624
-0.010818
0.064945
-0.018677
-0.035450
-0.007613
0.000854
-0.004456
0.011215
-0.024059
0.035302
-0.011041
-0.000201
-0.014965
-0.019937
-0.004267
0.039169
-0.023926
-0.012622
0.013070
0.023478
0.028518
-0.068581
0.045749
-0.005686
0.021258
-0.094122
0.020054
0.052810
0.006718
0.010312
0.001963
-0.018993
-0.026322
-0.009323
-0.031035
0.066679
-0.006897
-0.026706
-0.001942
0.035545
-0.003919
-0.000120
-0.004026
0.008065
0.000000
0.000000
0.000000
0.000000
-0.029088
0.004361
0.007470
0.017258
-0.019206
-0.016628
-0.001386
0.037221
0.007188
-0.045506
0.002624
0.035693
0.001510
0.020331
-0.008866
-0.012974
-0.020080
0.014143
0.011036
-0.005099
0.017937
-0.016200
-0.016707
0.014970
-0.036069
-0.019692
0.016548
0.039212
-0.009501
0.022264
-0.031180
0.018417
0.035163
-0.032717
-0.005174
0.002728
0.002779
-0.005045
-0.013709
0.015975
-0.001464
-0.000466
-0.003232
0.005162
0.051848
0.051450
0.002550
-0.105848
0.013911
0.019983
0.013337
-0.047231
-0.031677
0.078998
-0.031975
-0.015346
0.000000
0.000000
0.000000
0.000000
-0.003393
-0.095395
0.062153
0.036635
-0.005278
-0.022192
-0.004195
0.031665
0.024666
-0.019426
-0.028922
0.023682
0.053898
0.030776
-0.027707
-0.056967
-0.007906
0.000649
-0.006101
0.013359
0.019260
-0.019189
0.001570
-0.001641
-0.021594
0.025636
-0.003087
-0.000955
0.110892
-0.137990
0.115138
-0.088040
0.062691
0.030392
0.021207
-0.114290
0.048446
0.058150
-0.025041
-0.081554
-0.000355
-0.010604
0.022084
-0.011125
0.038105
-0.016746
-0.019701
-0.001659
-0.000522
-0.004117
-0.010371
0.015009
0.000212
-0.022138
0.009878
0.012048
-0.036702
0.024811
0.001876
0.010016
0.004159
-0.009876
-0.000649
0.006366
-0.020080
0.014143
0.011036
-0.005099
-0.000182
-0.010944
0.005212
0.005914
0.004665
-0.016082
0.013984
-0.002568
-0.014177
0.021701
-0.016736
0.009212
0.000000
0.000000
0.000000
0.000000
-0.003919
-0.000120
-0.004026
0.008065
0.011076
-0.042644
0.029487
0.002081
-0.003985
-0.013843
0.011836
0.005992
-0.012071
0.002653
-0.013697
0.023115
-0.062159
0.013541
-0.034598
0.083216
-0.017547
-0.016491
0.002210
0.031827
0.027154
-0.138330
0.053724
0.057452
-0.005424
-0.025091
0.004253
0.026262
0.000000
0.000000
0.000000
0.000000
-0.009799
-0.024697
-0.002177
0.036674
-0.004298
-0.000586
-0.004790
0.009673
0.013778
-0.004781
-0.017361
0.008363
0.000000
0.000000
0.000000
0.000000
-0.010791
-0.012398
-0.013427
0.036615
0.003346
-0.028697
0.015666
0.009686
0.016460
0.026246
-0.014634
-0.028071
0.013682
-0.035791
0.000443
0.021666
-0.029797
0.030094
0.002467
-0.002764
-0.000465
-0.041213
0.030514
0.011165
0.026403
0.020766
-0.067572
0.020402
0.004951
0.013405
-0.001424
-0.016933
0.001647
0.020488
-0.008761
-0.013374
-0.001306
-0.000575
-0.001494
0.003375
0.022684
-0.034950
-0.003593
0.015859
-0.009579
-0.020693
0.020469
0.009802
-0.036069
-0.019692
0.016548
0.039212
0.081385
-0.124195
0.035388
0.007421
0.012971
-0.040557
0.002268
0.025318
-0.009362
-0.003183
-0.010836
0.023381
-0.016876
0.028065
-0.017263
0.006074
0.115527
0.003024
-0.028366
-0.090184
0.019025
-0.015867
-0.016242
0.013084
-0.005259
-0.003354
-0.004204
0.012817
0.000000
0.000000
0.000000
0.000000
0.022738
-0.023603
-0.003467
0.004331
0.012920
0.066051
-0.054678
-0.024293
-0.005531
-0.027623
-0.006747
0.039901
-0.006597
-0.085030
0.065452
0.026176
0.024999
0.030021
0.001082
-0.056102
0.000000
0.000000
0.000000
0.000000
0.014304
0.015128
-0.060976
0.031543
-0.031579
0.083623
-0.088669
0.036625
0.033294
-0.034234
0.008098
-0.007159
-0.036109
-0.030625
0.018637
0.048096
0.004858
-0.008862
-0.016756
0.020760
0.158404
0.041407
-0.080013
-0.119798
0.029285
-0.019127
0.008092
-0.018249
0.000000
0.000000
0.000000
0.000000
0.037430
-0.197233
0.089388
0.070415
-0.009875
0.001011
-0.011108
0.019972
0.055693
0.003725
0.004717
-0.064135
-0.004580
-0.000469
0.004867
0.000182
0.005439
-0.048438
0.042618
0.000381
0.020853
-0.082762
0.043042
0.018867
0.039225
-0.149329
0.075702
0.034401
0.054411
-0.047108
-0.000305
-0.006997
-0.054615
-0.154581
0.103738
0.105457
-0.003998
0.001013
-0.003900
0.006885
-0.018361
-0.017499
0.004165
0.031695
-0.004000
-0.014949
0.005386
0.013563
-0.007613
0.000854
-0.004456
0.011215
-0.011177
-0.002448
-0.007055
0.020680
-0.031282
-0.014103
-0.023565
0.068951
0.071337
-0.074667
0.028062
-0.024732
-0.039159
-0.022753
0.008852
0.053059
0.042552
-0.001111
0.015504
-0.056944
0.054008
-0.071242
-0.005134
0.022369
-0.006990
-0.024323
-0.013386
0.044698
-0.045899
0.083442
0.007885
-0.045428
-0.023534
0.097402
0.038501
-0.112368
0.000835
0.071788
0.012104
-0.084727
0.043798
-0.030143
0.000992
-0.014647
0.029402
0.067035
-0.048198
-0.048239
-0.006178
0.071571
0.000235
-0.065628
-0.004668
0.039940
0.005180
-0.040452
0.037773
0.009195
-0.050024
0.003057
-0.051655
0.111352
-0.031840
-0.027857
-0.007694
0.005204
0.020735
-0.018245
0.036239
0.029600
0.018562
-0.084402
0.015960
-0.067327
0.024179
0.027188
0.005667
0.040247
-0.028373
-0.017541
0.002112
-0.020494
0.018876
-0.000494
-0.115649
0.037069
0.070819
0.007761
-0.036486
0.113307
-0.034938
-0.041883
-0.096623
0.058823
0.009145
0.028655
0.004622
-0.073137
0.043120
0.025394
0.053752
0.076798
-0.091490
-0.039060
-0.008353
-0.008401
-0.005695
0.022449
-0.008819
0.072043
-0.042211
-0.021013
-0.010546
0.083836
-0.003416
-0.069874
-0.024278
0.019712
0.056128
-0.051563
0.008434
-0.038585
-0.000941
0.031092
-0.024238
-0.008230
0.011110
0.021357
0.006164
-0.015138
-0.009303
0.018277
0.000000
0.000000
0.000000
0.000000
-0.010101
0.113357
-0.052011
-0.051245
-0.105151
0.133384
-0.033435
0.005203
0.012304
-0.048770
0.032286
0.004180
-0.017972
-0.005428
0.083224
-0.059824
-0.017073
0.006249
0.010767
0.000056
-0.009501
0.022264
-0.031180
0.018417
0.000100
-0.011843
-0.005845
0.017588
0.005937
-0.016250
-0.002722
0.013036
0.006130
0.002897
-0.003804
-0.005223
-0.005468
-0.090415
0.092544
0.003339
-0.053662
0.061806
-0.022157
0.014013
-0.034902
-0.077273
0.039863
0.072313
0.000000
0.000000
0.000000
0.000000
-0.009786
-0.009282
-0.002961
0.022029
-0.016554
-0.005747
0.001715
0.020586
-0.024059
0.035302
-0.011041
-0.000201
0.018109
-0.032055
-0.001830
0.015776
0.004629
0.024714
-0.064088
0.034745
-0.001623
-0.066786
0.046984
0.021425
0.004454
-0.029559
0.005604
0.019501
-0.023926
-0.012622
0.013070
0.023478
0.053720
-0.021115
-0.007946
-0.024658
0.000000
0.000000
0.000000
0.000000
0.045451
-0.075547
0.031485
-0.001389
-0.004486
-0.001744
-0.003692
0.009921
0.006429
-0.032799
0.021222
0.005148
-0.011227
-0.009780
-0.011171
0.032177
-0.029538
-0.022835
0.039743
0.012630
0.073867
0.056021
-0.223131
0.093243
0.016108
-0.010538
-0.014571
0.009001
0.117251
-0.080203
-0.085312
0.048263
0.080198
-0.074988
-0.038306
0.033095
0.018256
-0.038746
0.002802
0.017688
-0.026322
-0.009323
-0.031035
0.066679
0.000000
0.000000
0.000000
0.000000
0.015795
-0.042614
0.014171
0.012649
-0.003190
-0.003289
-0.006469
0.012948
-0.001464
-0.000466
-0.003232
0.005162
-0.002254
0.083518
-0.007138
-0.074126
-0.038637
0.037748
-0.019433
0.020323
0.009840
-0.050533
0.007745
0.032948
-0.018827
-0.027199
0.041903
0.004123
-0.018070
-0.042896
0.067523
-0.006557
-0.000475
0.069756
-0.021277
-0.048004
-0.011149
-0.054420
-0.007669
0.073238
0.004980
-0.048076
-0.012527
0.055623
-0.007940
-0.003294
-0.010158
0.021391
0.009632
-0.034102
0.008551
0.015920
0.000000
0.000000
0.000000
0.000000
-0.047378
0.053534
-0.027027
0.020871
0.000000
0.000000
0.000000
0.000000
0.027596
-0.034237
0.005064
0.001576
-0.022973
-0.009682
0.008751
0.023904
-0.005538
-0.004686
-0.004941
0.015165
0.002237
-0.051762
-0.001582
0.051106
-0.020251
-0.033890
0.008774
0.045367
0.012397
-0.012612
-0.030492
0.030707
0.008395
-0.040546
0.013725
0.018426
-0.045192
0.114923
-0.064208
-0.005524
-0.027466
0.065750
-0.041515
0.003231
0.015754
-0.028692
0.002874
0.010064
-0.042237
0.037126
-0.023373
0.028483
-0.021304
0.017041
0.004055
0.000208
-0.027327
0.008472
0.005913
0.012942
0.000000
0.000000
0.000000
0.000000
-0.000826
-0.008063
-0.017187
0.026076
-0.015776
0.029040
0.005005
-0.018269
-0.007633
-0.018364
-0.005184
0.031181
-0.027220
0.051458
-0.016113
-0.008125
-0.004516
0.011152
-0.014861
0.008226
-0.029869
0.037800
0.004777
-0.012707
-0.007892
-0.002621
-0.001423
0.011936
-0.032488
0.138841
-0.083398
-0.022955
0.136111
-0.064244
-0.022359
-0.049507
-0.103492
0.003014
0.065955
0.034523
0.026872
-0.142803
0.076431
0.039500
0.000000
0.000000
0.000000
0.000000
-0.079005
0.221037
-0.069190
-0.072842
0.000000
0.000000
0.000000
0.000000
0.030877
0.027811
0.000040
-0.058729
0.019814
0.063257
-0.011647
-0.071423
0.002779
-0.005045
-0.013709
0.015975
0.058029
0.043015
-0.039461
-0.061584
0.038695
0.047993
-0.044414
-0.042274
0.049170
-0.018752
-0.056731
0.026313
-0.101052
-0.055758
0.029877
0.126933
-0.016544
-0.001845
-0.006673
0.025063
-0.060273
-0.012071
0.022773
0.049571
0.178029
-0.067298
0.033716
-0.144448
-0.003194
0.020491
-0.041668
0.024371
0.013149
0.002454
-0.003876
-0.011727
-0.030129
0.004330
0.011180
0.014619
-0.018291
0.003330
0.000011
0.014950
-0.035480
-0.015011
-0.025017
0.075507
-0.016012
-0.074351
0.066630
0.023733
-0.046954
0.013755
0.027744
0.005455
0.108275
-0.041396
-0.062975
-0.003903
-0.189563
-0.002803
0.161096
0.031271
0.126486
-0.021658
0.092555
-0.197383
0.041507
-0.084926
0.021784
0.021636
0.064961
-0.061672
-0.009697
0.006409
-0.137011
0.048699
-0.025282
0.113594
-0.086079
-0.043851
0.086263
0.043667
-0.024142
0.007720
-0.029951
0.046372
-0.042736
-0.023479
0.011936
0.054279
-0.005418
-0.036559
-0.000215
0.042192
0.063018
-0.051831
0.010309
-0.021496
0.020237
-0.042921
0.014020
0.008664
-0.042573
-0.027545
0.013993
0.056124
-0.048226
-0.005625
-0.010666
0.064517
-0.000344
0.025634
-0.001694
-0.023595
-0.033785
-0.008913
-0.017745
0.060442
-0.056784
-0.025468
0.004692
0.077560
-0.042053
0.016501
-0.017270
0.042822
-0.069337
0.037799
-0.021824
0.053362
-0.079500
0.018778
0.010358
0.050364
0.088029
0.009954
-0.029346
-0.068637
-0.063009
-0.037479
0.025893
0.074594
-0.050205
-0.029721
0.024454
0.055472
0.025038
-0.007653
-0.009200
-0.008185
-0.059409
-0.002734
0.005255
0.056889
-0.013207
-0.031774
0.004820
0.040162
-0.042342
-0.012440
0.003907
0.050875
0.029477
-0.007247
-0.019089
-0.003141
-0.099214
0.031004
-0.016384
0.084594
-0.062886
0.010770
-0.006425
0.058542
0.125235
-0.079730
0.021656
-0.067161
0.039728
-0.021901
-0.016062
-0.001764
-0.065150
0.043645
-0.031802
0.053307
-0.073213
0.022175
-0.008061
0.059099
0.105626
0.067599
-0.072581
-0.100643
-0.048481
-0.017001
0.005142
0.060340
-0.035178
-0.015904
0.013091
0.037991
0.021532
-0.027110
0.007955
-0.002377
-0.065619
0.010629
0.019940
0.035050
-0.068656
-0.012902
0.030851
0.050707
0.006786
-0.042332
0.046570
-0.011024
0.374849
-0.337426
-0.299590
0.262167
-0.335123
-0.093706
0.453452
-0.024624
0.078157
-0.189034
0.227885
-0.117008
0.029283
0.031802
-0.023748
-0.037336
0.060010
-0.027158
-0.021407
-0.011446
-0.000553
0.017798
0.024883
-0.042128
-0.039938
0.025068
0.018472
-0.003602
0.009465
-0.023983
0.012734
0.001785
0.021544
0.021930
-0.024127
-0.019347
-0.006289
0.012173
-0.005015
-0.000869
0.079723
-0.060919
0.006539
-0.025344
-0.008392
-0.007441
0.009310
0.006523
-0.025199
0.026454
-0.010372
0.009116
0.001798
0.011160
-0.027662
0.014704
-0.005763
-0.015338
0.012654
0.008448
-0.001127
-0.023331
0.026709
-0.002251
-0.011930
0.008544
0.016950
-0.013564
-0.001014
-0.016273
-0.001349
0.018637
-0.013834
0.019088
-0.006356
0.001103
-0.008202
0.011797
-0.002446
-0.001150
0.032066
-0.017278
-0.002094
-0.012694
0.019956
0.005071
-0.015419
-0.009608
0.014597
-0.038609
0.016955
0.007057
-0.001800
0.006745
-0.008585
0.003640
0.013300
-0.025244
0.008803
0.003141
0.003446
-0.018541
0.021007
-0.005912
0.009233
0.025679
-0.045084
0.010173
0.003724
-0.026864
0.011537
0.011602
0.021644
-0.056571
0.029135
0.005792
0.013959
-0.018438
-0.007313
0.011792
0.124686
-0.072008
0.025266
-0.077944
-0.011900
-0.008847
0.009470
0.011277
-0.012966
0.034080
0.001084
-0.022199
0.003334
0.017689
-0.011209
-0.009814
-0.005721
-0.003418
-0.002321
0.011460
0.011895
-0.008560
-0.016258
0.012924
0.023593
-0.054490
0.027478
0.003418
-0.010318
-0.005283
0.005341
0.010260
-0.010856
0.012329
0.011075
-0.012548
-0.009576
0.011586
0.011281
-0.013291
0.034355
-0.042208
0.007408
0.000446
0.024477
-0.051458
0.017034
0.009946
0.007425
-0.006879
0.005301
-0.005847
0.045783
-0.029209
0.008164
-0.024738
0.004571
-0.011233
0.009299
-0.002637
-0.007100
-0.005108
0.005410
0.006798
-0.027241
0.026382
0.019850
-0.018992
0.018337
0.011209
-0.009933
-0.019613
0.007609
0.022036
-0.016644
-0.013000
0.018032
-0.036370
0.008720
0.009618
-0.006265
-0.031251
0.018136
0.019380
0.022319
-0.051961
0.019082
0.010559
-0.018885
0.046674
-0.045906
0.018117
0.020045
-0.035779
0.006515
0.009220
0.038615
-0.028966
0.001049
-0.010698
0.015380
-0.023347
0.028090
-0.020122
-0.008247
0.010783
-0.001921
-0.000615
0.016773
-0.038343
0.014870
0.006700
-0.013765
0.021468
0.007117
-0.014820
0.011897
-0.053571
0.040880
0.000794
0.023896
-0.048227
0.006577
0.017754
0.022302
-0.006707
-0.034045
0.018451
0.023814
-0.040209
0.009139
0.007256
0.002124
-0.015621
0.000575
0.012922
-0.007133
0.009389
0.004212
-0.006468
-0.000393
-0.015762
-0.000371
0.016526
0.005762
0.012986
-0.023590
0.004843
-0.004601
-0.026633
0.023638
0.007596
0.003520
0.024773
-0.031330
0.003037
-0.001794
0.000305
-0.001782
0.003271
-0.022027
0.020869
0.005318
-0.004160
0.006953
0.002063
-0.001304
-0.007712
0.010140
-0.031808
0.009707
0.011961
-0.009342
-0.023498
0.017483
0.015357
0.006151
-0.011427
-0.016768
0.022044
-0.000329
-0.012842
0.005356
0.007815
0.012345
-0.025254
0.002417
0.010492
-0.004916
0.036946
-0.008306
-0.023723
-0.011640
0.011150
0.001107
-0.000617
0.001024
-0.001557
-0.007790
0.008323
-0.015681
0.023598
0.011472
-0.019389
0.022935
0.000018
-0.022341
-0.000612
-0.035144
0.025473
0.004346
0.005325
0.002449
-0.032544
0.020688
0.009407
-0.017848
0.026610
-0.013809
0.005048
0.015038
-0.021834
0.004205
0.002592
0.025361
-0.017296
-0.014241
0.006176
0.006454
-0.052182
0.019314
0.026413
-0.002906
0.014868
-0.019773
0.007812
0.014188
-0.052229
0.012087
0.025954
-0.016736
0.014292
-0.003426
0.005870
0.006878
-0.053163
0.019780
0.026506
-0.026908
-0.050202
0.041654
0.035456
0.017396
-0.017313
0.005776
-0.005858
-0.030353
0.029835
0.020069
-0.019551
0.004922
-0.011108
0.002238
0.003947
-0.000584
0.023346
-0.015844
-0.006919
-0.011863
0.022637
0.000647
-0.011422
0.005978
-0.022773
0.015136
0.001659
0.006295
-0.008502
0.004077
-0.001870
-0.003940
-0.012542
0.002045
0.014437
0.005927
-0.039090
0.020667
0.012495
-0.003804
-0.001999
0.009403
-0.003600
0.000000
0.000000
0.000000
0.000000
-0.016491
0.030991
-0.010101
-0.004399
0.028237
-0.044265
0.010085
0.005943
0.000000
0.000000
0.000000
0.000000
0.035503
0.004491
-0.030678
-0.009315
-0.019286
0.024957
-0.002706
-0.002964
0.016426
-0.026996
0.004691
0.005879
0.006231
0.033384
-0.021541
-0.018074
-0.006087
-0.007760
0.008484
0.005363
-0.003977
-0.011274
-0.000654
0.015905
-0.002837
-0.014115
-0.001352
0.018304
-0.001432
-0.047844
0.029199
0.020078
0.008893
-0.001018
-0.004769
-0.003106
0.013418
-0.006257
-0.009246
0.002085
-0.002259
0.013320
-0.002979
-0.008083
-0.003607
-0.002277
-0.008103
0.013987
0.015410
-0.000673
-0.005338
-0.009399
0.006581
-0.011105
0.004747
-0.000223
0.010536
-0.011079
-0.012118
0.012661
0.005298
-0.015614
0.002355
0.007961
0.001471
0.025412
-0.022970
-0.003914
0.000000
0.000000
0.000000
0.000000
0.001771
-0.013651
0.007327
0.004553
0.000000
0.000000
0.000000
0.000000
0.011685
-0.019619
0.001367
0.006567
-0.004994
0.001074
-0.002278
0.006198
0.007696
-0.015755
0.001653
0.006406
0.000000
0.000000
0.000000
0.000000
0.009687
-0.013388
0.005439
-0.001739
0.004203
0.010401
-0.008690
-0.005914
0.017855
-0.024028
-0.000246
0.006419
0.000000
0.000000
0.000000
0.000000
-0.006079
-0.026231
0.019710
0.012601
-0.003453
-0.011673
0.008241
0.006885
0.034336
-0.044348
-0.003965
0.013977
0.000000
0.000000
0.000000
0.000000
0.000000
0.000000
0.000000
0.000000
0.007236
-0.008556
0.010300
-0.008980
0.013478
0.012237
-0.000513
-0.025202
0.000000
0.000000
0.000000
0.000000
-0.006575
0.000664
-0.005893
0.011803
-0.000790
-0.020302
0.005204
0.015887
0.001571
-0.014559
0.013079
-0.000090
-0.005525
0.026282
-0.001344
-0.019413
0.023982
0.007506
0.009266
-0.040753
-0.009636
0.006156
-0.002369
0.005848
0.013518
-0.052561
0.021799
0.017244
-0.016334
0.050844
-0.013032
-0.021478
0.005669
-0.034905
0.025227
0.004009
0.016561
-0.012325
-0.015303
0.011067
0.013456
-0.022132
-0.005654
0.014330
-0.002836
0.000409
-0.004063
0.006489
-0.012826
-0.006596
0.010255
0.009167
-0.008572
0.005374
-0.004544
0.007741
0.019187
-0.049711
0.030269
0.000255
-0.007214
0.001243
-0.005903
0.011875
0.000000
0.000000
0.000000
0.000000
0.006999
-0.033513
0.017169
0.009344
0.011605
-0.023729
0.006853
0.005272
0.011399
-0.006806
-0.003399
-0.001194
0.007191
-0.035252
0.015726
0.012335
0.004914
-0.044424
0.011730
0.027780
-0.001180
0.003145
0.011810
-0.013775
-0.008656
0.009816
-0.000303
-0.000857
0.011139
-0.024767
0.000485
0.013143
0.000000
0.000000
0.000000
0.000000
0.023106
-0.045679
0.015478
0.007094
0.010430
-0.034428
0.002251
0.021748
0.010202
-0.017841
0.025240
-0.017600
-0.009955
-0.000176
0.002596
0.007535
0.016073
-0.023425
0.010358
-0.003005
0.012690
-0.015080
-0.000917
0.003308
0.003270
-0.014040
0.006915
0.003854
0.000000
0.000000
0.000000
0.000000
-0.004959
0.001801
-0.000280
0.003438
-0.005680
0.006233
-0.001820
0.001267
0.009840
-0.020047
-0.008137
0.018345
0.019136
-0.021258
-0.000802
0.002924
0.000000
0.000000
0.000000
0.000000
-0.020259
0.006850
0.002885
0.010524
-0.002020
0.000390
0.005444
-0.003813
-0.021716
0.026738
-0.004519
-0.000503
0.011529
-0.024835
-0.008941
0.022247
-0.026959
0.004762
-0.000639
0.022837
0.027510
-0.012389
-0.025657
0.010536
-0.074032
0.062696
-0.013776
0.025112
-0.002875
0.017250
-0.003058
-0.011317
-0.044200
0.035423
0.018059
-0.009282
0.008037
-0.020294
0.001930
0.010326
-0.006789
0.028925
-0.017240
-0.004897
-0.038339
0.036841
0.011129
-0.009631
0.012666
-0.047408
0.022412
0.012330
0.009948
0.004829
-0.000386
-0.014391
0.013435
-0.018507
0.001685
0.003386
0.000000
0.000000
0.000000
0.000000
-0.012075
0.017882
0.010359
-0.016166
-0.016543
0.028133
-0.008015
-0.003575
0.004907
-0.011383
0.002789
0.003687
-0.010102
0.021941
0.008711
-0.020550
0.007389
0.015450
-0.023975
0.001136
-0.000675
-0.018767
0.010890
0.008552
0.006204
0.000536
-0.020167
0.013427
0.019716
-0.027623
-0.009763
0.017669
0.004665
-0.009789
0.009520
-0.004396
0.009083
-0.017590
0.006690
0.001817
-0.004077
0.022959
-0.024652
0.005770
0.006325
-0.017534
0.004140
0.007069
0.000000
0.000000
0.000000
0.000000
0.022604
-0.045312
0.008806
0.013901
0.024937
-0.032459
0.001251
0.006271
-0.003903
0.016739
0.000494
-0.013330
0.004909
0.016265
-0.021206
0.000033
-0.013032
0.032286
-0.006934
-0.012320
-0.035629
0.031344
-0.006147
0.010432
0.016953
-0.031937
0.018351
-0.003367
0.018160
0.018877
-0.028316
-0.008722
-0.003463
-0.004840
-0.002084
0.010388
0.001160
-0.013244
-0.012669
0.024752
-0.011730
-0.015983
0.013612
0.014100
0.010588
-0.019291
0.001758
0.006945
0.002239
-0.001987
0.009038
-0.009289
0.012888
-0.042715
0.002556
0.027272
0.007830
-0.006007
0.007790
-0.009613
0.001475
0.008411
-0.005088
-0.004798
-0.003441
-0.011051
0.013252
0.001240
0.009609
-0.010317
-0.013103
0.013811
0.000000
0.000000
0.000000
0.000000
-0.006422
-0.004792
0.005078
0.006135
-0.001684
-0.001700
-0.008179
0.011563
-0.006984
-0.010863
0.006341
0.011506
0.000000
0.000000
0.000000
0.000000
0.001608
-0.003837
-0.010269
0.012498
0.000000
0.000000
0.000000
0.000000
-0.007790
-0.011884
0.007783
0.011891
0.000000
0.000000
0.000000
0.000000
0.000000
0.000000
0.000000
0.000000
0.000000
0.000000
0.000000
0.000000
-0.004161
-0.006689
0.015182
-0.004332
0.000000
0.000000
0.000000
0.000000
0.013189
-0.001464
-0.009263
-0.002462
0.021796
-0.006405
-0.004236
-0.011155
0.000000
0.000000
0.000000
0.000000
0.000000
0.000000
0.000000
0.000000
0.000000
0.000000
0.000000
0.000000
-0.002107
-0.003708
-0.003212
0.009027
-0.001709
-0.001863
-0.001711
0.005283
-0.011283
-0.017046
0.012855
0.015473
-0.004524
-0.005215
0.010760
-0.001021
0.008806
-0.009286
-0.008437
0.008917
0.000000
0.000000
0.000000
0.000000
0.000000
0.000000
0.000000
0.000000
0.000000
0.000000
0.000000
0.000000
-0.009565
0.000836
-0.000973
0.009702
0.009674
-0.031392
0.021306
0.000412
-0.010799
0.027562
-0.019450
0.002688
0.007675
-0.022675
0.007366
0.007635
-0.013353
-0.007081
0.014046
0.006389
0.009929
-0.012512
0.013026
-0.010442
-0.002033
-0.017576
0.013478
0.006132
0.014394
-0.037312
0.017892
0.005026
-0.003160
-0.005449
-0.008362
0.016970
0.018152
-0.030681
0.008017
0.004513
-0.010556
0.106073
-0.045840
-0.049677
-0.015623
-0.024733
0.001427
0.038929
-0.007673
-0.012018
-0.017377
0.037069
0.012174
-0.037441
0.022147
0.003121
-0.007160
0.003655
-0.002019
0.005524
-0.020364
-0.010417
0.009969
0.020812
-0.006896
0.000216
0.003472
0.003208
0.002627
-0.022433
0.010819
0.008987
-0.012565
0.000302
-0.001793
0.014056
-0.021129
-0.014166
0.007417
0.027878
-0.003715
-0.005692
-0.007357
0.016764
-0.012626
0.022815
-0.016827
0.006639
0.004206
-0.026371
0.004619
0.017546
0.005701
-0.029776
0.011327
0.012748
-0.020999
0.041953
-0.020079
-0.000875
-0.027295
0.025209
-0.029918
0.032004
0.017800
-0.020841
0.002303
0.000738
-0.027285
-0.013132
0.014235
0.026182
-0.002119
0.031430
-0.014446
-0.014866
0.020846
-0.007030
-0.012064
-0.001752
0.000000
0.000000
0.000000
0.000000
0.000000
0.000000
0.000000
0.000000
-0.006748
0.020386
-0.017468
0.003830
-0.014665
-0.009816
0.008022
0.016459
0.000000
0.000000
0.000000
0.000000
-0.010716
0.031006
-0.002853
-0.017437
0.019452
-0.061163
0.011381
0.030330
0.007137
-0.019521
0.009841
0.002544
0.000000
0.000000
0.000000
0.000000
0.000000
0.000000
0.000000
0.000000
0.007913
-0.007868
-0.009674
0.009629
0.020147
-0.032924
0.003824
0.008953
-0.007656
-0.003428
0.013751
-0.002668
0.024982
-0.028088
-0.010284
0.013390
0.006845
-0.030786
0.005843
0.018098
0.000758
0.053538
-0.040674
-0.013622
0.005332
-0.002398
-0.004324
0.001391
0.004951
-0.043793
0.012864
0.025978
-0.010997
0.019980
-0.005192
-0.003791
0.004898
-0.013894
0.004857
0.004138
-0.010669
-0.026282
0.021141
0.015810
0.000000
0.000000
0.000000
0.000000
-0.014707
0.027355
0.011465
-0.024114
0.000000
0.000000
0.000000
0.000000
0.000000
0.000000
0.000000
0.000000
-0.011364
-0.011597
0.010191
0.012770
-0.019474
0.036148
-0.019721
0.003047
0.012512
-0.029071
0.009014
0.007545
0.006781
0.012427
0.006821
-0.026030
0.007281
-0.032401
0.021824
0.003295
0.024053
-0.044982
0.005564
0.015365
-0.002405
-0.001239
-0.002070
0.005713
0.015361
-0.026512
0.007078
0.004072
0.009620
-0.047926
0.005615
0.032691
0.012717
-0.024968
0.013850
-0.001599
0.011258
-0.011807
-0.013264
0.013812
-0.013594
0.029093
-0.019946
0.004446
0.010474
0.044205
-0.037002
-0.017677
0.009721
-0.011308
0.000899
0.000688
0.000000
0.000000
0.000000
0.000000
0.000000
0.000000
0.000000
0.000000
0.016470
-0.032257
-0.006929
0.022715
0.012915
-0.018806
-0.014011
0.019902
-0.009978
-0.007287
0.011003
0.006261
-0.004588
-0.025999
0.028342
0.002246
-0.000012
-0.008814
-0.002114
0.010940
0.011279
-0.008139
-0.002298
-0.000842
0.000299
-0.015882
0.015802
-0.000219
0.010356
-0.018278
0.010133
-0.002211
0.009259
-0.009076
-0.004687
0.004505
0.006936
-0.017869
0.009054
0.001879
-0.004395
-0.014328
0.004508
0.014215
0.005274
-0.007089
-0.012701
0.014515
-0.005560
-0.010754
0.011797
0.004516
0.005992
-0.038207
0.017672
0.014544
0.018886
-0.050926
0.023648
0.008392
0.016107
-0.019631
0.005728
-0.002204
0.002129
0.012834
0.011164
-0.026127
0.008181
-0.018188
-0.002801
0.012809
0.002754
-0.049488
0.034675
0.012059
0.014005
-0.023245
0.003967
0.005273
0.006624
-0.010476
-0.001773
0.005624
-0.011683
-0.007698
0.013809
0.005572
-0.003890
-0.025724
0.019286
0.010329
-0.007267
0.020676
-0.000064
-0.013344
-0.001070
-0.017736
0.011410
0.007396
0.011079
-0.023893
0.003520
0.009294
-0.009767
0.000158
-0.008116
0.017726
-0.007898
0.000927
-0.005318
0.012289
-0.032946
0.038804
0.004040
-0.009898
0.007245
0.016726
-0.021331
-0.002641
0.006750
-0.021598
0.021162
-0.006313
0.010781
-0.000412
0.007669
-0.018038
0.022979
-0.021418
-0.001823
0.000262
-0.009580
0.013298
0.003670
-0.007388
0.021191
-0.054789
0.018658
0.014940
-0.011369
-0.009266
0.004115
0.016519
0.006206
-0.001139
-0.000614
-0.004454
0.006976
-0.014793
0.012183
-0.004366
0.000000
0.000000
0.000000
0.000000
0.004585
-0.015812
0.003621
0.007606
0.003067
0.016045
-0.008776
-0.010336
-0.008478
-0.010240
0.008802
0.009917
0.007295
-0.004949
-0.004548
0.002203
0.000000
0.000000
0.000000
0.000000
0.007591
0.020790
-0.033404
0.005022
-0.017550
-0.011608
0.019511
0.009647
0.023150
-0.058154
0.020408
0.014596
0.000000
0.000000
0.000000
0.000000
0.011074
-0.004249
-0.008642
0.001817
-0.014732
0.012242
-0.011498
0.013988
0.007880
-0.013505
0.005615
0.000010
-0.010345
0.010997
0.001505
-0.002157
0.002404
0.056375
-0.041547
-0.017232
-0.016567
0.034764
-0.013118
-0.005079
-0.003010
-0.006471
-0.001388
0.010869
0.000000
0.000000
0.000000
0.000000
0.000000
0.000000
0.000000
0.000000
-0.013341
-0.017456
0.021068
0.009729
0.012047
-0.023823
0.011957
-0.000181
-0.002214
-0.019323
0.015607
0.005929
-0.015729
0.016203
0.010889
-0.011363
0.002169
0.028475
-0.013391
-0.017253
0.002324
-0.014909
0.003386
0.009199
-0.002844
-0.017793
0.015824
0.004813
0.000000
0.000000
0.000000
0.000000
0.004150
-0.016161
0.015210
-0.003200
0.012352
-0.017056
0.011917
-0.007212
0.023471
-0.038745
0.001957
0.013317
0.009038
-0.012515
0.001404
0.002073
0.011232
-0.030805
0.014180
0.005392
0.013358
-0.010883
0.001585
-0.004060
0.004309
0.020791
0.001064
-0.026163
0.004945
-0.009684
-0.000028
0.004767
0.001918
0.012395
-0.006284
-0.008028
0.029950
-0.011722
-0.005092
-0.013136
0.007034
-0.002442
0.001924
-0.006517
0.003551
-0.026487
0.016749
0.006187
0.003223
0.024603
-0.020303
-0.007523
0.000000
0.000000
0.000000
0.000000
-0.025081
0.017533
-0.004776
0.012324
0.015481
-0.033096
0.009869
0.007746
-0.011243
0.020686
-0.015575
0.006131
-0.005090
0.025354
-0.022201
0.001938
0.021383
-0.046003
0.016940
0.007681
0.002211
0.062981
-0.033815
-0.031377
-0.010980
0.028522
-0.014981
-0.002560
0.017908
-0.057695
0.025845
0.013942
0.002760
0.001259
0.005068
-0.009088
0.008926
-0.018696
0.009562
0.000207
-0.001329
-0.015053
-0.000647
0.017029
-0.009904
0.022219
0.000098
-0.012413
0.020294
-0.026386
-0.000999
0.007092
0.007500
-0.046180
0.026246
0.012435
-0.012161
0.013616
0.006135
-0.007589
-0.000810
0.014143
-0.001865
-0.011469
-0.020327
0.045360
-0.003071
-0.021962
0.016663
-0.021009
-0.015127
0.019474
0.000000
0.000000
0.000000
0.000000
0.003673
0.018706
0.020228
-0.042607
-0.004352
-0.022326
0.012703
0.013975
0.017858
-0.011592
-0.013419
0.007153
0.012964
-0.013242
-0.006881
0.007159
0.000702
-0.015811
0.014129
0.000980
-0.023134
-0.007343
0.022496
0.007982
-0.027666
0.035971
-0.000767
-0.007538
0.009852
-0.004862
-0.002501
-0.002489
0.006705
-0.031615
0.017972
0.006938
-0.002837
-0.007538
0.016286
-0.005912
0.000000
0.000000
0.000000
0.000000
0.003209
-0.017522
0.010991
0.003322
-0.001318
0.008170
-0.008878
0.002026
0.000000
0.000000
0.000000
0.000000
0.000000
0.000000
0.000000
0.000000
0.000000
0.000000
0.000000
0.000000
0.000000
0.000000
0.000000
0.000000
0.000000
0.000000
0.000000
0.000000
0.000000
0.000000
0.000000
0.000000
0.000000
0.000000
0.000000
0.000000
0.000000
0.000000
0.000000
0.000000
-0.002140
-0.013905
0.014136
0.001909
-0.011612
-0.004973
0.007535
0.009051
0.011120
-0.002165
-0.017439
0.008485
-0.011161
0.010174
0.005139
-0.004152
0.012830
-0.011542
-0.006239
0.004951
0.010488
-0.001878
-0.004220
-0.004390
-0.027635
0.010690
0.016478
0.000468
0.008798
0.025755
-0.017736
-0.016817
0.009105
-0.016655
-0.004388
0.011938
-0.028564
0.049449
0.032612
-0.053497
0.002987
0.016747
-0.016637
-0.003097
0.002900
0.019385
-0.013775
-0.008510
-0.042980
0.048147
-0.028896
0.023729
-0.043878
0.057770
-0.008643
-0.005249
-0.055955
0.059115
-0.013222
0.010062
0.000000
0.000000
0.000000
0.000000
-0.057514
0.010316
0.034613
0.012585
0.005764
-0.044613
0.015711
0.023138
-0.002095
0.013925
-0.000166
-0.011664
-0.028748
0.004147
0.013919
0.010683
0.013354
-0.015415
0.010842
-0.008780
-0.024476
0.025961
-0.011112
0.009627
0.028484
-0.064428
0.011563
0.024382
0.009730
-0.021680
0.003722
0.008228
-0.026967
0.031993
-0.005872
0.000846
0.014706
0.010121
-0.025199
0.000373
0.009091
-0.027462
0.008168
0.010203
0.013891
0.002777
-0.023881
0.007214
0.020138
-0.030899
0.027611
-0.016850
0.009318
-0.024453
-0.014177
0.029312
0.014316
0.005049
-0.015028
-0.004338
-0.007736
-0.011572
-0.003700
0.023009
0.000540
-0.015987
0.011625
0.003822
0.013965
-0.002785
-0.000136
-0.011044
0.007339
-0.010564
-0.000598
0.003823
0.017525
-0.064071
0.033135
0.013411
0.006069
0.000805
0.005172
-0.012046
-0.001386
-0.001291
-0.027394
0.030071
0.032153
-0.042381
0.010697
-0.000469
0.027854
-0.029809
-0.013059
0.015014
-0.000301
0.020669
-0.013543
-0.006824
0.002921
-0.015748
0.000803
0.012023
0.027280
-0.034726
0.009332
-0.001887
0.004598
-0.026507
0.022807
-0.000898
-0.000799
0.020562
-0.004930
-0.014833
-0.006178
0.005851
-0.005831
0.006158
0.002080
-0.016653
0.011251
0.003322
-0.015681
0.023996
-0.008349
0.000034
0.009174
-0.028444
0.016622
0.002648
0.003524
0.003782
0.003823
-0.011129
0.013015
-0.011867
-0.001201
0.000052
0.007058
-0.008130
-0.008644
0.009716
-0.013354
0.001512
0.009887
0.001955
-0.021571
0.025220
-0.020808
0.017159
0.025994
-0.044921
0.007328
0.011599
0.011700
-0.053123
0.015930
0.025493
0.000214
-0.019300
0.005910
0.013175
0.001273
0.031801
-0.014715
-0.018359
0.018027
-0.055334
0.021216
0.016092
0.008239
-0.004200
-0.004908
0.000869
0.000000
0.000000
0.000000
0.000000
-0.001880
-0.031971
0.009472
0.024380
-0.007129
0.020463
-0.015171
0.001838
0.009031
-0.012832
-0.012010
0.015811
-0.003358
-0.000950
0.004538
-0.000230
-0.000409
0.012177
-0.003517
-0.008250
0.015322
-0.037255
0.019786
0.002147
0.003001
0.014882
-0.021498
0.003615
0.003691
-0.012649
0.011960
-0.003002
-0.023341
0.039170
0.003991
-0.019820
-0.020723
0.036269
-0.018105
0.002558
-0.000540
-0.004444
0.011577
-0.006593
-0.011307
0.042017
-0.005563
-0.025147
-0.004731
0.001754
-0.002594
0.005570
-0.016505
0.032136
-0.020816
0.005185
0.016758
-0.046175
0.004649
0.024768
0.015593
0.024104
-0.007995
-0.031701
0.025665
-0.041041
0.006848
0.008528
-0.008473
-0.014942
0.008671
0.014744
0.002626
-0.016765
0.013768
0.000371
-0.004469
0.060099
-0.027140
-0.028491
0.023229
-0.035873
0.010699
0.001945
0.005812
-0.015036
0.008262
0.000962
0.003975
-0.011838
0.005102
0.002761
-0.034643
-0.030172
0.040762
0.024053
-0.007299
-0.024138
0.027718
0.003719
0.003591
-0.013477
0.009964
-0.000078
-0.013942
0.031908
-0.017711
-0.000256
0.029690
-0.047995
0.015364
0.002941
-0.008357
0.008771
0.019857
-0.020270
0.009451
-0.054915
0.030694
0.014770
-0.006331
0.010364
-0.000829
-0.003204
0.010777
0.001396
-0.009233
-0.002940
0.024083
-0.045705
0.010574
0.011048
-0.029399
0.017679
0.008718
0.003003
-0.010964
0.022040
-0.016608
0.005532
0.004964
0.010262
-0.008430
-0.006796
0.003943
0.011986
-0.004673
-0.011255
-0.001934
-0.022560
-0.007200
0.031694
0.014071
-0.022529
-0.000402
0.008859
-0.001995
0.026438
-0.026456
0.002013
0.007354
0.028810
-0.018535
-0.017629
-0.002563
0.023841
-0.010509
-0.010769
-0.011625
0.034978
-0.027627
0.004274
-0.023356
0.023729
-0.030531
0.030159
0.006831
0.019126
-0.006158
-0.019799
-0.002736
0.033078
-0.010778
-0.019564
0.022212
-0.029045
-0.013451
0.020284
-0.000955
0.006886
0.008625
-0.014555
-0.019795
0.002502
0.012853
0.004439
0.019587
-0.010663
0.005227
-0.014151
0.000000
0.000000
0.000000
0.000000
0.013044
-0.026833
0.006651
0.007138
0.016026
-0.018011
-0.014493
0.016479
-0.019292
-0.017882
0.019084
0.018090
0.001443
-0.011285
0.004106
0.005736
0.015560
-0.039601
0.014572
0.009469
-0.024300
0.029439
0.005885
-0.011024
-0.000625
-0.030350
0.019421
0.011555
-0.002576
-0.042579
0.019255
0.025900
0.014197
-0.029993
0.005699
0.010097
0.009399
-0.046834
0.008565
0.028870
0.011190
-0.029095
-0.003600
0.021505
-0.013945
0.007543
-0.006213
0.012615
0.007916
-0.009714
-0.006494
0.008292
-0.005543
0.015539
-0.012721
0.002724
-0.003237
-0.012142
0.011366
0.004013
-0.002185
-0.001135
0.014651
-0.011331
0.014168
-0.018336
0.020351
-0.016183
0.007669
0.028538
-0.035158
-0.001048
0.010208
-0.030293
0.023523
-0.003438
-0.003686
-0.003574
-0.005217
0.012478
-0.004328
-0.015791
0.012168
0.007951
0.019912
-0.031357
-0.000702
0.012148
0.004482
-0.026267
0.012634
0.009150
-0.033805
0.044722
-0.036633
0.025715
-0.004833
-0.008860
0.008146
0.005546
0.005879
-0.033087
0.015877
0.011332
0.007680
-0.020725
0.007044
0.006001
0.011767
-0.018954
-0.004513
0.011700
-0.018603
-0.011349
0.013011
0.016941
0.005438
-0.014100
0.005263
0.003399
0.006938
-0.010834
0.002390
0.001505
-0.007108
-0.008995
0.007331
0.008771
0.009836
-0.035055
0.017101
0.008119
0.009613
-0.030937
0.012517
0.008807
0.017113
-0.025267
0.010032
-0.001879
0.001678
-0.015735
0.006717
0.007339
0.049537
-0.023069
0.023941
-0.050409
0.015283
-0.026511
0.013162
-0.001934
-0.030294
0.024903
0.013123
-0.007732
0.000749
0.047866
-0.040702
-0.007913
0.015490
-0.029001
0.006821
0.006689
0.009850
-0.069334
0.027299
0.032186
-0.001764
-0.007863
0.008303
0.001325
-0.004782
-0.000753
-0.003822
0.009357
0.009286
-0.025419
0.014331
0.001802
-0.008163
-0.005876
0.007822
0.006218
0.000000
0.000000
0.000000
0.000000
0.015873
-0.028160
0.011767
0.000520
0.003644
-0.045305
0.022448
0.019213
-0.006955
-0.030386
0.015232
0.022108
0.010871
-0.001266
-0.004729
-0.004876
-0.000445
-0.007041
0.014394
-0.006908
0.022088
-0.037253
-0.003938
0.019103
0.005856
0.017919
-0.030264
0.006488
-0.027006
0.052658
-0.004853
-0.020799
-0.016834
0.047811
-0.029236
-0.001741
0.008029
-0.025441
0.017971
-0.000559
-0.001928
-0.004020
-0.002700
0.008648
-0.005909
-0.014023
0.014930
0.005002
0.012679
0.002879
-0.014826
-0.000731
0.008767
-0.029162
0.013944
0.006451
0.000322
-0.024326
0.009301
0.014703
0.003765
0.021412
-0.011891
-0.013286
0.025069
0.001587
0.004352
-0.031008
-0.013999
-0.003418
0.002692
0.014726
0.004559
-0.006772
0.006559
-0.004346
-0.010842
-0.007175
-0.001191
0.019208
0.016011
-0.013793
-0.006269
0.004051
0.005045
0.003800
-0.014395
0.005550
-0.015838
0.023926
-0.017537
0.009448
0.010277
-0.028426
0.009003
0.009146
0.000803
0.005443
-0.009633
0.003387
-0.006461
0.017293
-0.010945
0.000114
0.007492
-0.004006
-0.000294
-0.003192
0.004173
-0.004564
0.009228
-0.008837
-0.018891
0.030268
-0.004171
-0.007206
0.017597
-0.096031
0.025535
0.052899
-0.012292
0.026666
0.007770
-0.022144
-0.020312
0.047185
-0.006488
-0.020385
-0.006255
-0.000920
-0.004146
0.011322
0.012274
-0.032083
0.003110
0.016698
0.020247
-0.009896
-0.013234
0.002883
0.010813
-0.027734
0.009472
0.007449
0.017707
-0.044708
0.017842
0.009159
-0.008498
0.026494
-0.007862
-0.010134
-0.010290
-0.008505
0.010662
0.008132
0.011297
-0.029664
0.025290
-0.006923
-0.013846
-0.031921
0.032413
0.013354
-0.010725
0.023456
-0.005926
-0.006805
-0.006401
0.025100
-0.020746
0.002047
-0.007612
-0.001206
-0.004218
0.013035
0.020938
-0.044292
0.015612
0.007742
0.027235
-0.065381
0.024884
0.013263
0.000380
0.017906
-0.009128
-0.009158
-0.012080
0.012932
-0.011727
0.010874
-0.012668
-0.015058
0.009583
0.018144
0.005257
-0.027273
0.008568
0.013448
0.004456
-0.016477
0.007591
0.004430
0.004549
0.009348
-0.024023
0.010125
-0.004160
0.014097
-0.015339
0.005402
0.021226
-0.072423
0.034685
0.016512
0.011614
-0.023501
0.003649
0.008239
-0.022494
-0.016888
0.025618
0.013765
0.012871
-0.012817
-0.003697
0.003643
0.031015
-0.047904
0.011783
0.005106
0.016098
-0.022113
-0.003337
0.009352
-0.005885
0.000454
-0.002529
0.007960
0.001869
-0.010140
0.014451
-0.006181
0.017328
-0.026403
0.008020
0.001056
0.006647
-0.047196
0.023089
0.017460
-0.016233
0.022597
0.000389
-0.006753
-0.009418
-0.024259
0.018941
0.014736
-0.018272
-0.001270
0.016748
0.002794
-0.021781
0.007881
0.008410
0.005490
-0.009858
-0.000120
-0.005931
0.015910
0.013614
-0.028182
0.000837
0.013731
-0.017643
0.016926
0.010038
-0.009321
-0.027862
0.030564
-0.005102
0.002399
-0.007330
-0.010613
0.012822
0.005121
0.014165
-0.026833
0.013014
-0.000346
0.008337
-0.020063
0.005895
0.005831
0.018120
-0.040569
0.022157
0.000293
0.004947
-0.020568
0.012557
0.003064
-0.002188
0.000623
-0.002316
0.003881
0.010696
-0.012172
-0.006363
0.007839
0.005733
0.021563
0.000989
-0.028284
0.035342
-0.089848
0.026855
0.027650
-0.013435
0.008378
0.001019
0.004038
0.009032
-0.004896
-0.000093
-0.004043
0.000000
0.000000
0.000000
0.000000
0.006086
-0.007213
-0.001771
0.002898
-0.025217
-0.019045
0.017690
0.026573
0.006009
-0.027208
0.006253
0.014947
0.013924
-0.031268
0.011248
0.006097
-0.002572
-0.025771
0.013186
0.015157
-0.005413
-0.003653
-0.003344
0.012410
0.001238
-0.013889
-0.004595
0.017246
0.013559
-0.022311
0.016152
-0.007400
0.004426
-0.002134
-0.006224
0.003931
-0.008753
0.008170
0.004193
-0.003610
-0.013787
0.023320
-0.007568
-0.001965
-0.011192
-0.002309
-0.006553
0.020054
-0.003570
0.004676
-0.001025
-0.000081
0.006016
0.018357
-0.004499
-0.019874
0.010326
0.019993
-0.007296
-0.023022
0.018724
-0.016954
0.007813
-0.009583
-0.025883
0.035753
0.001840
-0.011710
0.012765
-0.022800
-0.005450
0.015485
0.022431
-0.063081
0.011587
0.029064
0.012442
0.005845
-0.022034
0.003746
0.007011
-0.012746
0.004219
0.001517
0.010769
-0.013068
-0.007976
0.010275
-0.019955
-0.008528
0.011554
0.016929
0.021140
-0.025815
0.002480
0.002194
0.002126
0.039276
-0.027890
-0.013512
0.008610
0.017604
-0.020361
-0.005853
-0.011831
-0.036251
0.013509
0.034573
0.011803
-0.002620
-0.004886
-0.004297
0.043813
-0.079743
0.005134
0.030797
0.043987
-0.012291
-0.003646
-0.028050
0.015492
-0.021433
0.003808
0.002133
0.003621
0.011735
-0.003334
-0.012022
0.009832
-0.015744
0.006369
-0.000458
0.005088
-0.017579
0.002325
0.010166
-0.005426
0.029230
-0.019052
-0.004752
0.009905
-0.029695
0.015866
0.003924
0.010197
0.000014
-0.006599
-0.003612
-0.004901
0.039426
-0.018983
-0.015542
-0.025374
0.004954
0.003858
0.016562
-0.022290
0.028607
0.011528
-0.017845
-0.003289
0.043226
-0.021485
-0.018451
-0.008919
0.011374
-0.034097
0.031642
-0.004148
-0.031236
-0.010269
0.045652
-0.005627
0.030403
-0.004468
-0.020308
-0.012683
-0.027167
0.012276
0.027574
-0.048521
0.030114
0.011742
0.006665
-0.015478
0.029158
-0.015856
0.002176
0.020057
-0.048206
0.012910
0.015239
-0.006543
0.006192
-0.000978
0.001329
-0.008089
-0.045983
0.019736
0.034335
0.002413
-0.054553
0.029698
0.022443
0.010802
-0.040762
0.019090
0.010870
-0.003255
-0.012532
0.006158
0.009629
0.001935
0.005018
-0.018232
0.011279
0.002845
0.000960
0.009469
-0.013274
-0.015558
0.013526
-0.008860
0.010892
0.008356
-0.010464
0.002887
-0.000779
-0.019698
0.035058
-0.002531
-0.012829
0.010653
-0.053115
0.023259
0.019204
0.019770
-0.034828
0.014535
0.000524
-0.002510
-0.015553
0.010424
0.007639
0.004950
0.038320
-0.047740
0.004470
0.015690
-0.029563
0.002528
0.011345
-0.004284
0.010536
-0.004317
-0.001935
0.007613
-0.017064
0.010313
-0.000862
0.025961
-0.007955
-0.011276
-0.006730
0.000000
0.000000
0.000000
0.000000
0.005083
-0.009084
0.006144
-0.002143
0.000000
0.000000
0.000000
0.000000
-0.021189
-0.010486
0.006672
0.025003
0.000089
-0.010759
-0.001675
0.012345
0.000000
0.000000
0.000000
0.000000
-0.006548
0.037279
-0.012739
-0.017991
0.000000
0.000000
0.000000
0.000000
0.024325
0.000429
-0.002530
-0.022224
-0.061045
0.015291
-0.001349
0.047103
-0.040264
0.087149
-0.010259
-0.036625
-0.079196
0.040005
0.027119
0.012071
0.002382
-0.030437
0.018771
0.009284
0.001683
-0.023419
0.014162
0.007574
0.000000
0.000000
0.000000
0.000000
0.000000
0.000000
0.000000
0.000000
0.008408
-0.012977
-0.001100
0.005669
0.008102
-0.046797
0.025783
0.012912
-0.035256
0.028278
0.008408
-0.001430
0.008608
-0.060521
0.027912
0.024001
0.014909
-0.029177
0.013022
0.001246
-0.015975
0.022371
-0.005335
-0.001062
-0.005386
-0.000708
-0.005537
0.011632
0.010693
-0.010037
-0.000386
-0.000270
-0.002424
-0.006628
0.006203
0.002849
0.011536
-0.034856
0.013570
0.009750
-0.008990
-0.013948
0.002126
0.020812
-0.009006
-0.009244
0.005191
0.013058
0.003767
-0.011396
0.001544
0.006085
0.003611
-0.000451
-0.003611
0.000451
-0.017351
0.016255
-0.002583
0.003679
-0.033968
0.044511
-0.000696
-0.009848
-0.026197
0.050207
0.002205
-0.026215
-0.055663
0.053361
-0.007398
0.009700
-0.018277
0.010270
0.006487
0.001519
-0.017241
0.028551
-0.015939
0.004630
-0.030871
0.030688
-0.005150
0.005333
0.009880
-0.024489
0.002912
0.011696
0.007515
-0.013449
-0.007105
0.013040
-0.002770
-0.003921
-0.001223
0.007915
0.002663
-0.000020
-0.003023
0.000381
-0.015303
-0.009232
0.001634
0.022901
0.002777
-0.029474
0.011262
0.015434
0.018931
-0.023459
0.016556
-0.012029
-0.014899
0.082536
-0.026102
-0.041534
0.008619
-0.016238
0.009217
-0.001598
0.016074
0.024862
-0.014954
-0.025982
-0.008770
0.002959
-0.005045
0.010856
0.017527
-0.052904
0.025846
0.009531
0.001074
0.002652
-0.008100
0.004373
0.012987
-0.043925
0.017684
0.013254
-0.001190
-0.021835
-0.015033
0.038059
-0.018142
0.027287
-0.010443
0.001298
0.019218
-0.023276
-0.001520
0.005578
-0.004648
-0.004219
-0.001534
0.010402
0.007456
-0.026667
0.006737
0.012475
-0.005660
-0.012092
-0.006270
0.024023
-0.003608
-0.005575
-0.023747
0.032930
0.028115
-0.042904
-0.007868
0.022656
0.018888
-0.021482
0.006619
-0.004026
0.037452
-0.035815
0.000650
-0.002287
-0.008982
0.017529
0.006021
-0.014568
0.025452
-0.046144
0.015284
0.005408
-0.008019
-0.000400
0.007255
0.001165
-0.021692
0.008495
-0.006805
0.020003
0.003567
-0.001663
-0.002865
0.000961
-0.018573
0.019556
-0.001533
0.000550
0.004498
0.017174
-0.012644
-0.009028
-0.004882
0.001623
-0.000912
0.004172
0.009729
-0.008461
0.000294
-0.001562
0.011039
-0.025005
-0.001898
0.015864
0.008347
-0.007516
0.000179
-0.001010
0.000347
0.007001
-0.009829
0.002481
-0.016945
0.029967
-0.002939
-0.010083
-0.030239
0.014482
0.014687
0.001070
0.042773
-0.046210
0.011157
-0.007720
-0.021846
0.012006
-0.003788
0.013629
-0.014965
0.059676
-0.022075
-0.022635
-0.006476
0.044869
-0.021385
-0.017008
0.008827
-0.049803
0.038248
0.002727
0.000667
-0.008424
0.000318
0.007439
0.000000
0.000000
0.000000
0.000000
-0.004370
-0.046937
0.033023
0.018284
0.006147
-0.009693
0.012784
-0.009237
0.028520
-0.046413
0.016019
0.001874
0.011844
0.021612
-0.007471
-0.025984
0.118083
-0.075023
0.143905
-0.186965
0.063274
-0.009098
-0.083089
0.028913
0.017777
-0.027567
0.021265
-0.011475
0.014307
-0.034848
0.030242
-0.009701
0.019777
-0.020123
0.047831
-0.047485
0.019925
-0.001213
-0.013066
-0.005646
-0.047156
0.041616
0.010983
-0.005444
-0.022015
0.032370
-0.013276
0.002922
0.075762
-0.020575
0.087501
-0.142688
0.060680
-0.049675
0.011382
-0.022386
0.016689
-0.012314
0.011269
-0.015644
-0.052209
0.042910
-0.049714
0.059013
0.025344
-0.075000
0.026497
0.023159
0.012007
0.016954
0.029720
-0.058681
0.000000
0.000000
0.000000
0.000000
0.001040
-0.016149
0.008803
0.006307
0.002455
0.027756
-0.032561
0.002350
0.018402
0.013263
0.085132
-0.116798
0.030250
-0.019402
-0.015302
0.004454
0.009260
-0.013088
-0.003544
0.007372
0.008893
-0.005724
-0.027842
0.024673
-0.004135
-0.026424
-0.010434
0.040993
-0.008119
0.016805
-0.003116
-0.005570
-0.059187
0.076155
-0.017984
0.001015
-0.005747
0.003859
0.011528
-0.009640
